-0.0597792 0.0240634 -0.0555285 -0.165829 -0.0143213 0.0374652 0.146836 0.2934 0.00392641 -0.221915 0.239574 -0.091981 0.080806 -0.117692 0.0337652 0.0989639 0.157712 -0.00379403 -0.191396 0.194817 0.0322188 -0.312567 0.0979592 -0.137241 0.0602823 0.0421688 -0.121585 -0.0114346 -0.265619 0.0659944 -0.0539471 0.0774833 0.147006 -0.01378 -0.042243 0.115374 -0.249251 0.110439 0.220676 0.0102767 -0.130019 -0.069691 -0.129388 0.0648687 0.006139 0.205018 0.224165 -0.156051 0.0132793 -0.0424771 0.0487678 0.103382 -0.06799 -0.337615 0.0227481 -0.140125 -0.256846 -0.19599 -0.208327 -0.0862741 -0.0685998 -0.246043 0.0308676 0.145321 -0.305359 -0.173688 0.0794638 -0.0617786 -0.125584 0.0343453 0.0223945 -0.0482265 0.0419527 0.0802571 0.121572 0.146372 0.169565 -0.0638399 -0.0807942 0.0615673 0.0573775 -0.111377 0.0277567 0.134214 0.17413 0.0549848 -0.13814 -0.155471 -0.148149 0.00708692 0.167975 0.13673 -0.072244 -0.0648526 -0.0943444 0.0777012 0.322588 0.117429 -0.161858 -0.238419 -0.0451 0.0891921 0.121014 0.0713211 -0.0570948 -0.0866693 -0.120408 -0.105727 -0.15477 -0.081769 -0.0515685 -0.0858637 0.314531 0.115598 0.0207714 -0.182417 0.153486 0.0849697 0.289635 0.11565 0.0229396 -0.0975678 0.148555 -0.0203847 0.101756 -0.0608416 0.0230672 -0.0357017 -0.0783438 -0.0425773 -0.144056 -0.0384826 0.23118 -0.00941723 -0.170715 0.136323 0.205934 -0.0577841 -0.210467 -0.0904104 0.0610212 0.0295934 0.0503355 0.141472 0.116911 -0.148036 -0.0337874 -0.0621512 -0.0402569 0.0560164 -0.22261 0.0315555 0.0331567 0.181838 0.153353 -0.0959263 0.0686816 0.112906 0.0391047 0.136965 -0.058845 0.188556 -0.0207511 0.0449922 -0.286751 0.0921947 0.0232166 -0.0808263 0.0728482 -0.0199006 0.121303 0.0750986 0.0486562 -0.0844497 -0.133529 0.0295764 0.0799261 -0.109407 0.039968 0.185401 0.105808 0.0823988 -0.175606 -0.00467339 0.0453061 0.0950928 0.0730345 -0.364572 0.0446684 -0.0609995 -0.0257668 0.15618 0.081492 -0.287929 -0.101549 -0.0484378 0.106262 0.0543627 -0.0501597 0.00353211 0.0975342 -0.0911773 0.0792316 -0.014675 -0.11007 0.163706 -0.0619796 -0.381824 0.123594 -0.210364 -0.0897972 0.11513 0.0156347 0.0425054 -0.126222 0.0349958 0.150697 -0.0980235 -0.239176 -0.171535 -0.171813 -0.059932 0.037111 0.035949 -0.011878 -0.0371475 -0.146661 -0.0869625 -0.0122421 -0.120456 -0.00924325 0.198024 0.200663 -0.0745469 0.341622 0.102171 0.0625601 -0.0178095 0.00660043 -0.199274 0.0519543 0.0723976 0.139452 -0.160011 -0.11178 0.282434 0.0348691 -0.08875 -0.0704796 0.119291 -0.0500367 -0.27947 -0.0566452 0.0453889 -0.0518985 0.054513 0.0205766 -0.0390806 0.0414001 -0.122694 0.192844 0.228518 0.00348531 0.279356 0.1341 -0.0576111 -0.0779764 -0.00369191 -0.0641174 0.0726766 -0.0966289 -0.00937373 0.0519137 -0.0691662 -0.176587 -0.0591363 -0.0903102 -0.0834441 -0.0130656 0.126107 -0.171509 -0.125558 -0.124879 0.219932 0.263317 -0.0343056 -0.0722265 0.0387738 0.152765 -0.093805 -0.128237 0.175517 0.0572849 0.217645 -0.314726 0.0300534 -0.143362 0.13899 0.202397 0.0495758 0.279634 0.222764 -0.109422 0.10569 0.00217855 -0.0921228 0.0475098 0.0509171 0.122179 -0.0261299 -0.0151024 -0.0816787 0.142185 -0.126709 0.0814489 -0.0128085 -0.241824 -0.146303 0.022228 -0.139099 0.121464 0.0780421 -0.0291419 0.147632 0.321302 -0.0942588 0.186739 0.019224 -0.195837 -0.100276 -0.175161 0.0461415 0.144262 -0.15764 0.0167041 0.0229126 -0.126066 -0.113015 0.244392 -0.268505 -0.159907 -0.136525 0.165961 0.0547187 -0.0234067 0.275968 0.149667 -0.18079 -0.0645089 0.0790553 0.167271 -0.205394 0.151611 0.26216 0.110613 0.142325 -0.0375361 -0.0502731 0.115374 -0.0905816 0.0153837 0.057743 -0.137219 -0.05987 0.0144083 -0.107188 0.0365513 0.136815 -0.00459302 -0.205513 0.00828729 -0.0808414 0.0737276 -0.0132722 0.135225 -0.0341751 -0.26727 0.250176 -0.0978533 -0.143383 0.0775854 -0.0248888 0.139451 0.122252 -0.150226 0.0454111 0.20787 0.06779 -0.367311 0.330125 0.0443634 0.0237788 -0.125308 0.348568 -0.125384 -0.0109755 -0.0798391 -0.146825 0.0416275 -0.10172 0.0218262 0.0855526 -0.0448088 0.081482 0.0755563 0.168905 0.136096 -0.263317 -0.0968893 -0.0128605 0.305853 -0.0300648 -0.0416554 -0.0554845 -0.0725584 0.204587 0.0378117 -0.0498439 -0.106788 0.0380296 0.036418 0.0033066 0.00534001 0.0104436 -0.096279 0.00487149 -0.070655 -0.0411604 0.168118 -0.035114 -0.151595 0.0808689 -0.166165 -0.0394102 0.0661844 0.00101269 0.0838904 -0.124451 0.0765207 0.0439625 -0.398157 0.0397993 -0.23593 -0.0648606 0.316683 0.176126 0.0151922 0.0592866 -0.00197195 0.0834308 -0.321649 -0.155259 0.143797 0.249114 -0.0487716 -0.101959 -0.0680382 0.129425 0.0489423 0.242134 -0.111929 -0.0148485 -0.0956928 -0.268301 0.1981 -0.124244 0.160058 0.0111462 0.0425045 -0.0213458 0.0284867 -0.175986 0.10804 -0.12069 0.00965456 -0.133582 0.00160744 -0.158275 0.00387677 0.00551966 -0.0916032 -0.0490884 -0.0904114 -0.0535537 0.0952384 0.0645784 0.192291 -0.0748887 0.088951 -0.0393548 -0.119753 0.083428 0.107612 0.128001 -0.0331132 -0.00521567 0.03198 0.0876154 0.169147 0.22432 0.17592 -0.233159 -0.0462456 -0.325555 0.187953 -0.143541 0.0426227 0.05268 0.0215813 0.123263 -0.177908 -0.185156 -0.0223131 0.00629407 -0.0598289 -0.237054 0.0626495 -0.0145601 -0.0345188 -0.152751 -0.0871539 -0.104582 -0.190812 0.0626944 -0.063587 0.0778639 -0.209275 0.323946 -0.039969 -0.163764 0.0547404 -0.0368572 -0.0707079 0.0182251 0.159706 0.0404886 0.21907 -0.121037 -0.007919 -0.158666 -0.114826 0.275292 0.0478719 0.0869109 -0.226757 -0.170092 -0.0534554 0.00994201 0.265594 0.351189 0.0178256 -0.247079 0.00429612 0.0502561 0.112191 -0.0521884 -0.165015 0.153622 0.127546 0.203695 -0.185879 -0.122609 -0.0681904 -0.108152 -0.0288308 0.0149724 -0.272643 -0.141515 -0.0619625 -0.0281023 -0.00145804 -0.106152 0.122991 0.0431545 0.229909 0.339378 0.243581 -0.111303 -0.0483934 -0.25592 -0.110278 0.0453454 -0.126696 0.0230871 0.0725376 -0.0472554 0.047141 -0.00988622 -0.0783627 0.150144 0.113706 -0.115519 0.00519865 0.0721944 0.111171 -0.114592 -0.0773783 0.14153 0.0509639 0.260315 -0.0149969 -0.0189342 0.0819803 -0.121599 -0.0886593 0.0138339 0.17142 -0.224049 0.0659944 0.143289 -0.303351 0.322275 0.0252718 -0.0473835 -0.393113 0.0663872 -0.0167264 -0.132465 0.0077332 0.119559 0.0975621 -0.0574357 0.161439 0.0424255 -0.143683 0.0810485 0.132408 -0.0760082 -0.0244908 -0.171434 -0.0983701 0.146754 -0.301359 0.0769892 0.0589382 0.117498 -0.0190122 -0.157093 -0.238179 0.00450698 0.211332 -0.0609579 0.0337685 0.15966 -0.242491 -0.0595381 0.325274 -0.113799 0.356046 0.172745 0.344962 -0.00727744 -0.139726 -0.156489 0.0113797 0.173648 -0.0246312 0.227837 -0.0434609 -0.0525056 -0.0074571 0.0264575 0.0616968 0.278883 -0.0851215 0.0520702 -0.140855 -0.26698 -0.118811 0.1877 0.0534795 -0.0730014 -0.256564 0.0415135 -0.0411008 0.110925 -0.308761 0.140604 -0.0801006 -0.133378 -0.055729 -0.064125 0.110973 0.0374311 -0.0507209 -0.155053 -0.0637931 -0.136961 0.0321143 -0.306139 -0.168579 0.0954252 -0.127726 -0.0687927 0.0243168 0.104566 0.0309664 -0.0627308 0.0400824 0.0396499 -0.264953 -0.0923143 0.00369806 0.14154 0.0390201 0.183434 0.0746031 0.122859 0.282364 -0.198135 0.0360478 0.133584 0.125197 0.0632026 0.0129801 -0.135616 -0.130401 -0.190032 0.031754 -0.234733 -0.0885075 0.247218 0.265417 -0.165772 -0.0292209 -0.0207624 0.198897 0.138785 0.100694 -0.0629908 0.127789 -0.131267 0.0475254 0.0495673 -0.0420998 -0.217063 0.0450003 -0.11748 0.011306 -0.0494032 -0.167443 0.116467 -0.0278158 0.0360213 -0.0907768 -0.122146 0.0401609 -0.143776 -0.0248803 -0.178618 0.0560368 0.0831826 -0.221683 -0.0789607 0.0445497 0.0254193 0.0485012 0.193161 -0.123509 0.158903 -0.0159912 0.108864 0.0228706 0.0122042 -0.0281798 0.127346 0.0207275 0.284264 0.0271402 -0.0526446 0.00587235 0.143478 -0.147664 -0.115334 0.253201 -0.144546 -0.0250553 -0.0472582 -0.024069 0.105056 -0.134012 -0.141119 0.0129342 0.0842137 0.00112946 -0.10993 0.0777306 0.152443 -0.19115 0.0986235 -0.00717485 0.143873 -0.0824862 -0.23903 0.0627937 0.254132 -0.0237684 -0.10433 0.099535 0.311725 0.0111306 -0.0827439 -0.115094 0.169917 -0.222619 -0.117163 -0.186161 -0.0492198 -0.193484 -0.0174582 -0.321994 -0.0797134 0.150691 -0.165275 0.0165481 0.0593136 -0.202189 -0.285488 -0.163641 0.0579274 -0.0731583 -0.217563 0.0123262 0.0163935 -0.0246548 -0.0489645 -0.0605882 -0.153515 -0.0444533 0.162002 0.00435947 -0.157699 -0.0743478 0.17833 0.201374 0.044788 -0.146021 0.00252604 0.257613 0.050649 0.0432155 -0.0612321 0.2964 0.2432 0.104241 -0.068632 -0.0912141 -0.0534578 0.251303 0.0361428 -0.0775155 -0.179642 -0.138867 -0.299912 -0.166684 0.133009 -0.130933 -0.00394012 0.0102332 -0.123756 -0.0828394 -0.103312 -0.334452 0.301408 0.0785499 0.112631 -0.239395 -0.286107 0.0126728 0.0550241 -0.22398 -0.0492586 -0.0920008 -0.209174 -0.0719537 -0.0165301 -0.201655 -0.0923999 -0.0205828 0.0575548 0.023462 -0.0418672 0.30143 0.171484 0.19074 0.158291 -0.020318 0.0263265 -0.359696 -0.0240775 -0.07438 0.164503 0.355104 -0.0455236 0.157994 -0.409794 -0.229528 0.186675 0.097338 -0.102024 -0.102759 0.0989875 0.0326258 0.147252 -0.0267506 0.0807587 0.169753 -0.120945 -0.258955 0.0940413 -0.0913541 0.124201 -0.170376 0.126221 0.0931336 0.14861 0.30194 0.0148612 -0.119284 0.129511 -0.0760073 0.140861 -0.0538218 -0.0404559 0.065288 0.231293 -0.329135 -0.240152 -0.0356487 -0.0134883 0.145001 -0.0413164 -0.103166 0.314237 0.174674 0.151852 0.0691383 -0.0294161 0.185416 -0.00366874 -0.215093 -0.188031 -0.0776176 0.00494004 0.0997369 -0.0204566 0.109114 0.186945 -0.109137 0.221058 0.0672548 0.0291972 -0.0634083 0.0984481 0.220457 -0.0206107 -0.0506741 0.255253 -0.122209 0.112254 0.195293 0.0331539 0.0904553 -0.469659 -0.011635 -0.305566 -0.0224569 -0.0247479 0.178574 -0.0956431 0.149112 0.208964 0.119407 -0.336857 0.088846 -0.219609 -0.160202 0.131719 0.123381 0.0225826 0.0651046 0.550686 -0.15437 0.176832 0.0124184 0.0390022 0.0585089 -0.153264 -0.112367 -0.102887 -0.110701 -0.0871175 0.102424 0.189995 0.0120709 0.192926 0.0781509 -0.119356 0.0818607 -0.0638111 -0.0630707 -0.152892 0.0568693 0.106722 0.0131763 -0.0890474 -0.00946593 -0.0285893 0.0498008 -0.0594677 -0.16713 -0.160331 -0.034107 0.0100966 -0.158527 0.0393028 0.0166119 -0.0652464 -0.055086 -0.0362047 0.169383 -0.101323 -0.0403817 -0.0503389 0.106664 -0.0521113 0.047757 -0.190729 0.118133 0.0770001 -0.0549626 -0.160509 -0.07082 -0.0538104 0.0370912 0.110801 0.0487002 -0.361582 0.0657022 -0.0469689 -0.144721 -0.276773 0.0257394 0.0936863 0.115285 -0.0714762 -0.166141 -0.0293802 0.150358 0.0902024 0.242652 -0.0117787 0.0469056 0.0343217 -0.236785 0.020075 0.171752 -0.0424402 -0.148131 -0.184583 -0.120935 -0.0846799 0.143049 0.124885 -0.11909 -0.286283 -0.120063 0.00643921 0.0456461 -0.00028272 0.280574 0.145998 0.189877 0.158397 -0.150557 0.0335454 0.168636 -0.0952673 0.0417972 0.200777 0.191418 -0.258598 -0.166551 -0.034576 0.389207 0.0676481 0.0230346 0.0993407 -0.042583 -0.0686594 -0.179606 0.0260883 0.283305 -0.0531954 0.134458 0.000538492 0.10302 -0.0547309 -0.110863 -0.111115 0.254435 -0.0259185 0.103903 -0.21717 0.224896 0.103189 -0.179874 -0.0823297 -0.0230786 0.0509194 -0.00767552 0.141978 0.0960076 0.221515 -0.0898752 -0.0912539 0.199277 -0.0549167 -0.0217392 0.100629 0.0585018 0.0777826 -0.348377 -0.183262 -0.101352 0.0121428 0.0306066 0.160046 0.126712 -0.161207 -0.0703344 -0.0410545 -0.190351 0.071194 -0.000729494 0.025311 -0.0852425 0.256344 0.185266 -0.15567 -0.0157794 -0.201571 -0.12757 0.00674463 -0.183354 0.00462801 0.215212 0.0303121 0.0594474 0.00294823 -0.00836388 -0.110194 -0.146716 0.0266684 0.144468 -0.0855148 0.0951576 0.0122416 0.0155345 -0.0550018 -0.0266074 -0.184282 -0.00741313 -0.0127167 -0.033648 0.215071 -0.0825425 -0.199292 0.165502 -0.0067867 0.00310614 0.128653 -0.105852 0.00134883 0.27978 0.0342914 0.0335246 -0.197466 0.0853683 0.238682 0.0980023 0.23557 -0.0234492 -0.00362856 -0.0118071 0.000168308 -0.064638 0.270628 0.121229 0.280294 -0.0335099 -0.187657 0.195638 0.0243352 0.0793399 -0.105851 -0.0606879 0.210449 0.161483 0.375451 -0.145754 0.0937704 -0.153408 0.0161694 0.0701628 0.162198 0.163542 0.0182123 0.19682 0.0357078 -0.0960681 0.0313711 -0.182741 0.182983 0.172338 0.105267 -0.0594715 -0.0285481 0.00393019 0.173004 -0.0605021 -0.083498 0.0618075 0.0047098 -0.19287 -0.104529 -0.10613 0.314979 -0.0561937 -0.260334 0.217727 -0.143406 -0.00343283 0.179182 0.246485 0.135007 0.0706564 -0.00988812 0.206053 -0.153556 -0.255997 0.0322935 0.105058 0.230989 -0.214815 -0.103209 -0.260668 -0.126026 0.0966884 0.00835916 0.0846619 0.120053 0.108527 -0.272332 -0.113658 0.112182 -0.199358 -0.036868 0.00540052 -0.251057 -0.318585 0.0308085 0.242935 -0.176176 -0.16825 0.0384533 0.120426 0.326117 -0.102548 0.106947 -0.089775 -0.371138 -0.0400947 0.148446 0.226419 -0.161734 -0.0869166 0.303141 0.23703 0.22114 -0.129879 -0.206141 0.0826342 -0.139137 0.0614401 -0.232721 -0.00933922 -0.167742 0.146736 -0.0497876 -0.0016221 0.24169 0.391098 0.0918221 0.0708479 -0.044363 0.219361 0.0860363 0.0480809 0.121532 -0.00495139 -0.477662 -0.187254 0.0407032 -0.0523656 0.154835 -0.0798609 -0.0305243 0.055242 -0.122008 -0.244764 -0.12884 0.0605659 -0.0746864 -0.0098971 -0.0379743 -0.00339832 -0.108694 -0.156221 -0.0162096 -0.200309 -0.0711164 0.0772029 0.0642352 0.280703 0.0802131 0.118822 0.0230483 -0.10733 0.119792 0.0444022 0.0482624 0.0629294 -0.210083 -0.0172322 -0.0826687 0.117364 -0.0763505 0.144044 -0.126245 -0.0887496 0.0695217 -0.04438 -0.15637 -0.122464 0.0505204 0.0665716 -0.138079 0.114847 0.204202 -0.0848094 -0.00701647 -0.0624367 0.109541 0.0929904 0.146964 0.145294 -0.2163 0.020648 0.184569 -0.063518 0.0708394 0.0415263 -0.129378 0.148239 -0.209038 -0.0563162 0.147987 -0.0447421 0.112356 -0.115835 0.119201 0.275977 0.112313 -0.0801696 0.00900166 0.043312 -0.12267 0.0699052 0.0598729 0.102548 -0.221811 0.198128 0.0890753 0.180156 -0.0953065 0.0792212 -0.0337728 -0.0162895 -0.105586 0.0467443 -0.0402318 -0.0187848 0.0306383 -0.234392 -0.107806 -0.0975271 0.262327 0.108807 0.247288 -0.161616 0.257138 -0.000920495 0.0789919 0.115273 0.0482922 0.116319 -0.0868433 -0.0626547 -0.219747 -0.231961 0.0124369 0.0117386 0.0123664 0.236632 -0.0436585 -0.1495 0.211308 -0.0793167 0.0176795 0.468444 -0.52812 -0.301344 -0.0318282 -0.118507 0.0678732 0.034533 0.240554 0.00258467 -0.209727 0.00609787 -0.0265672 -0.155562 0.0589963 0.000597116 -0.179986 0.113235 0.0637543 -0.158548 -0.165717 0.170194 -0.139674 0.144253 0.182359 -0.0961773 0.166578 -0.103287 0.0183792 0.0693109 -0.248326 0.00279694 0.0649372 0.0442074 -0.0369943 -0.165092 0.14216 0.0524522 0.053227 0.140328 0.154128 -0.0545499 -0.0423234 -0.165247 0.0162848 -0.0568334 0.0414596 -0.0151818 -0.187013 -0.0422345 0.0981753 0.0964052 0.263207 0.194064 0.107016 0.0307546 0.323855 -0.185785 -0.171693 -0.0303825 -0.227685 0.113791 -0.0406744 -0.172386 0.053037 0.111329 -0.0521089 -0.0664643 0.0294001 -0.13318 -0.010394 0.083602 0.217752 0.0279746 0.0992797 -0.0679587 -0.00957939 -0.168545 -0.226339 0.137045 0.0243905 0.157834 0.0196131 -0.167635 -0.0769987 -0.127148 -0.0464342 0.187191 0.159742 0.030252 -0.0266944 0.29379 -0.0454149 0.0909541 -0.247097 -0.0863928 0.0465065 -0.171685 -0.169692 -0.143676 -0.0725593 0.0596346 0.116234 0.164992 0.0963594 -0.2447 0.0725111 -0.0280177 0.102869 0.292402 -0.0187947 0.205697 0.173936 -0.0440471 0.0934017 0.138075 0.0770058 0.00852794 0.137176 -0.0092059 -0.0141592 0.14651 -0.053201 -0.184162 -0.0531055 -0.23034 -0.272119 -0.160765 -0.387189 0.00250808 -0.0456957 -0.1136 0.0117097 0.0748239 -0.00038153 0.239061 -0.106064 -0.088543 -0.0436864 0.0382065 0.0996513 -0.173832 -0.125019 0.0485347 0.00642172 0.168208 -0.0554836 -0.0164044 -0.184375 -0.0509525 0.0952204 0.14932 0.033065 -0.149111 0.0801483 -0.0432798 0.186272 -0.137511 -0.114211 0.000776299 -0.224139 0.201951 0.0399463 -0.156844 0.0792004 -0.0186487 0.405969 -0.284232 -0.0400215 0.149175 -0.166771 0.0412634 -0.151959 -0.0573827 0.107104 -0.0614486 -0.169788 -0.16027 0.167063 -0.141908 -0.0626523 0.0215586 -0.135438 0.112547 0.0893093 0.205394 -0.0821406 0.0436439 -0.0867757 -0.0876683 0.0632059 -0.126534 0.0408167 -0.106739 0.171413 -0.019762 -0.177292 -0.117585 0.0915106 0.0209738 -0.284842 -0.130942 0.0894989 0.065236 -0.111154 0.15336 0.00196769 -0.114357 0.116514 -0.17394 -0.101316 -0.195807 0.0465377 -0.0368539 -0.139444 0.0230493 -0.0612146 0.139043 -0.181276 0.00063683 -0.166842 0.0437394 -0.0348862 0.294459 0.00802916 -0.129484 0.0514778 -0.0401529 0.0304558 0.103085 -0.130112 -0.162964 0.124765 0.203642 0.161132 0.025285 0.128328 -0.027664 0.0263076 0.0954025 -0.231136 0.0421669 -0.0181073 -0.100586 0.0684613 0.0233372 -0.189843 -0.287643 -0.0837977 -0.0908265 0.169004 0.102258 -0.141559 0.0395633 0.0410001 -0.0436037 -0.0695889 0.231954 -0.0874126 0.087691 0.245622 -0.0335718 -0.0800741 -0.16857 0.0279198 -0.0639714 -0.0525462 0.195039 0.0905059 0.235141 0.0928008 -0.00900071 -0.0568844 0.232798 0.144839 -0.0824361 -0.0684996 0.00208589 0.197202 0.0361962 0.0509894 -0.00381105 0.0358662 -0.00701647 0.017817 0.000872745 -0.156685 -0.0833249 0.0147544 0.0371536 0.0814674 0.107449 -0.20501 0.173519 -0.0284276 -0.162822 -0.139696 0.0799276 0.168656 0.0802079 0.192477 -0.27462 0.289706 0.193401 0.116541 0.208363 -0.0134599 -0.103487 0.10805 0.0452967 -0.0964279 -0.287187 -0.162507 -0.122992 -0.102772 -0.00267402 -0.185112 -0.150663 0.00131054 0.109875 0.03469 -0.120558 0.194288 0.0117579 0.270088 -0.0130075 -0.0908756 0.0218394 0.0739427 0.0436117 -0.0940943 0.016671 -0.0301811 -0.038093 0.101658 0.0245319 0.033283 -0.0927847 -0.0252075 -0.0438183 0.257461 -0.0536289 0.168591 0.174882 0.0350545 0.0268693 0.234146 0.0722662 -0.0629714 0.0484704 -0.0735711 0.0341014 0.0577737 0.0491938 -0.0442244 0.152747 -0.174454 0.0338262 -0.0467864 0.00895249 -0.146549 -0.0379133 0.0743909 0.0470431 0.0916018 0.0466607 0.0987535 -0.0628282 0.00242771 0.0571005 -0.0458933 0.099222 0.123266 0.153775 -0.0478147 0.2417 0.0301683 -0.06199 -0.0667031 0.0961391 -0.0568773 -0.220081 0.343701 -0.0397231 -0.0642404 -0.226692 0.0783745 0.118283 -0.0340976 -0.023758 0.0548056 -0.0156688 0.0864192 -0.0358464 -0.128283 -0.103623 0.042816 0.209761 -0.229558 0.236382 -0.146362 -0.122114 0.0884635 0.0103131 -0.271859 0.00807076 -0.0212622 -0.278741 -0.079425 -0.00748688 -0.0942149 -0.200846 -0.137916 0.323604 -0.244496 -0.0184525 -0.244784 0.0258524 -0.0980524 0.1725 0.154428 -0.135462 0.133451 0.0950564 0.0757827 0.108323 -0.175009 0.255224 -0.0765586 -0.162912 -0.120066 0.0339765 -0.104579 -0.00175164 0.0302615 0.237781 0.125869 -0.011592 0.0470592 -0.151139 0.0370047 0.159876 0.199362 -0.210398 0.0637874 0.0187049 0.228693 -0.238023 0.12444 0.259292 0.235274 0.0856827 -0.17127 0.0950313 0.0794846 -0.262794 -0.0222999 -0.205168 -0.0194273 -0.0143828 -0.0903854 -0.115735 -0.0880863 0.0773145 0.0130874 0.178584 0.134728 -0.16539 0.00423655 0.045674 -0.0607012 0.110488 0.122358 0.268441 0.0748012 -0.00544638 0.147833 0.00226743 -0.379457 0.185255 0.0280876 -0.0962932 -0.146662 -0.150123 -0.18123 -0.0435072 -0.0320216 0.21354 0.157725 -0.0768796 -0.0477849 -0.21308 0.152929 -0.179872 0.0734694 -0.13061 0.159925 -0.139597 0.0997459 -0.0432893 -0.242376 0.165272 0.0706801 -0.154286 0.144949 0.178656 -0.227474 0.328719 0.0976543 -0.0394631 0.118889 0.163118 -0.181718 0.107332 0.0985682 -0.0430676 -0.131094 -0.110175 -0.164654 0.10213 -0.00253314 -0.0396744 0.249463 -0.240716 0.02901 -0.17404 -0.0333738 0.0627653 0.164015 0.216514 -0.0533509 0.251683 -0.212354 0.0492519 -0.0346833 0.163884 0.277259 0.0342427 0.0206258 -0.216125 -0.171774 0.032362 0.142305 -0.0235003 -0.191537 -0.0822172 0.169899 0.0183986 -0.230819 0.0566031 0.146986 0.14106 0.00878655 -0.267744 -0.242552 0.113275 0.0245952 0.15496 0.190809 0.186558 -0.158067 -0.0941577 -0.173719 0.082569 0.168578 -0.254815 -0.0294256 -0.0459704 -0.00125428 0.0801999 0.00498401 0.0596199 -0.156993 -0.0583604 0.301948 -0.178339 -0.110427 -0.0417934 0.172584 0.177469 0.031581 -0.25019 -0.0436297 0.30435 0.18877 0.0432496 -0.0838733 0.110132 0.251833 0.0195138 -0.148647 -0.0303366 -0.0853806 -0.0607551 -0.19249 -0.083332 0.141723 0.0370165 -3.35671e-05 -0.146691 -0.01299 0.0972907 0.0587812 0.0326636 0.127098 0.0888299 0.0846719 0.131617 0.0384358 -0.0114294 -0.0391596 -0.0319847 0.000259554 -0.105009 -0.2112 0.0646309 -0.0435564 -0.0544988 0.0923119 -0.150326 0.0997832 -0.0736514 0.0758395 -0.180164 -0.0679346 -0.0754471 0.119259 -0.0855054 0.0511185 0.0352667 -0.076378 0.0526153 0.33031 -0.0979172 -0.0145766 -0.0648985 -0.262526 0.0392102 -0.277407 0.01359 -0.0154229 -0.263072 -0.000244898 -0.0638442 0.200435 0.0916827 0.174986 -0.0312165 -0.101136 0.17231 -0.25376 -0.274206 -0.0541357 0.170227 -0.153987 0.168976 0.095394 -0.0498576 0.0220229 0.0766905 0.11669 -0.0152811 0.0208769 -0.495413 0.0706025 0.142362 0.261397 0.11479 0.110254 0.0716015 -0.213969 -0.0104942 -0.142538 0.313225 0.193556 0.132209 -0.028671 -0.0590365 -0.0578872 -0.0853427 -0.0476473 -0.191427 0.04728 -0.118493 0.145955 -0.170331 0.0293849 -0.0967726 0.0367673 -0.02592 -0.0963674 -0.0843953 0.136864 -0.399883 0.0819747 -0.0655495 0.114034 -0.12501 -0.0817487 0.0810282 0.0702205 0.179561 -0.0191881 0.07616 0.265537 -0.0635459 -0.106238 0.109734 0.00982902 -0.0805341 0.209382 -0.0152333 -0.0649344 -0.154873 -0.139637 0.0713107 0.0761747 0.0110975 -0.0721731 -0.171981 0.10882 -0.305918 0.0752144 -0.0364161 0.158861 0.140335 -0.165098 0.158876 0.062336 0.246511 0.053297 -0.202792 0.134229 0.0251971 0.00999402 0.0981101 0.0143393 0.0776388 0.0375356 -0.194868 -0.234712 -0.101461 -0.0789621 0.100394 -0.298424 0.0075526 -0.104372 0.0374387 -0.165584 -0.282908 0.134259 0.12985 -0.100122 -0.168613 -0.0721253 0.00883997 0.160161 -0.030782 0.109957 0.083602 0.132129 0.0797626 0.121398 0.0575941 -0.173524 -0.0782015 0.288524 0.0183423 0.22155 -0.0615909 -0.206474 0.0650625 0.100093 0.117422 -0.0347732 0.229508 -0.0426922 -0.129792 -0.0830545 0.289027 0.356217 -0.0744211 0.188584 -0.259687 0.26985 0.0479201 -0.184743 -0.286886 0.0776899 -0.0593902 -0.112825 -0.231273 -0.0530526 -0.0107717 0.158263 0.183911 -0.13755 0.0399283 -0.197701 -0.164684 0.166893 -0.0276659 0.162163 -0.0868509 -0.0199876 -0.0228384 0.0573369 0.212745 -0.139826 -0.107284 -0.108746 -0.109169 0.0377691 0.0334953 0.219115 0.0585746 -0.125999 0.275855 -0.174747 0.161792 0.150141 -0.0098068 0.0266343 0.147786 -0.0935539 -0.106408 -0.0179007 0.101239 0.00453251 0.051691 -0.00617777 -0.176457 0.0802845 -0.0744079 -0.144478 -0.185815 0.0247035 -0.239218 0.0174596 -0.18173 0.249349 -0.0991932 -0.07155 -0.0113272 -0.0266854 0.120184 0.264809 0.0424837 0.0700513 -0.0342682 0.0594592 -0.187209 0.147258 0.086797 0.106325 0.0564987 0.255043 -0.227784 0.0756106 0.0174034 0.017809 -0.132901 -0.173913 -0.186626 -0.0186732 0.0111802 -0.0277283 -0.0364198 0.00924183 0.0885727 0.0453085 -0.127844 0.198646 0.00359499 0.00707935 0.0330409 0.0519822 -0.0432009 -0.151219 -0.0833481 0.133087 0.230172 0.106811 -0.103624 0.0108072 -0.0443388 0.150487 0.0123253 -0.164521 0.0425938 0.092381 0.0390721 -0.0465699 0.0281122 0.209761 -0.232449 0.108001 -0.121517 0.118642 0.0751029 0.0550884 -0.143451 -0.113182 0.0554363 0.0709902 0.192024 0.0210007 -0.145222 -0.219605 0.082767 0.0944333 -0.177063 -0.130127 0.0285042 -0.0844241 -0.349198 -0.0230143 -0.18872 -0.040298 0.0885108 -0.0992797 0.257658 -0.220315 -0.077922 0.309821 0.173295 0.135047 -0.0116142 0.0183513 -0.195414 -0.0842757 0.00204145 -0.14981 -0.187169 0.0946006 0.227433 0.204793 0.0782743 0.12192 0.194485 0.0038049 0.111696 0.000341817 -0.252548 0.0026745 0.136651 0.135728 0.0711604 0.108677 -0.367708 0.140251 -0.122459 -0.0937459 0.367739 -0.119858 0.0117357 0.0155288 0.15912 -0.0646427 -0.171166 -0.0418237 -0.109588 0.151183 -0.0566192 -0.0870164 -0.0143124 0.112884 -0.113034 0.293202 0.0843187 -0.020258 0.0479111 -0.0987105 -0.172658 0.134191 -0.215079 0.1009 -0.0481716 0.100712 0.129036 -0.0566017 0.137432 0.300156 0.293517 0.168586 0.00579198 -0.0369976 0.0616883 -0.0367286 -0.171465 -0.087388 0.0923767 0.0536956 -0.0761297 -0.00962998 -0.0873743 0.0333704 0.147301 -0.0746235 -0.0304198 0.066582 -0.149935 -0.0540591 -0.11335 0.332033 0.363323 0.0231968 -0.0121466 0.00617351 -0.136298 -0.00102498 -0.0488009 0.273953 -0.315296 0.127647 0.1893 0.229485 0.00660705 0.0406342 -0.0197176 0.0449913 -0.0296473 0.0323842 0.13773 -0.120998 -0.0570773 -0.101407 -0.222753 0.153084 -0.221508 0.158921 0.0283964 -0.00409235 0.0266268 0.0389596 -0.0571534 -0.11811 0.00244473 0.121225 0.162728 0.0410682 -0.015795 -0.00132236 0.147342 -0.361491 -0.0149851 0.171065 -0.417299 0.154039 0.0329454 -0.0777164 -0.127151 -0.101525 -0.0556878 0.121289 0.274626 0.095211 0.423494 0.0739365 -0.0154952 -0.111852 0.114047 0.0198921 0.0713651 -0.0446102 0.16578 -0.00828162 -0.0474384 -0.264838 -0.0270026 0.166524 -0.104855 0.120692 -0.0109939 -0.019234 -0.0416242 0.206666 0.208982 -0.0564514 0.109425 0.100713 0.258784 0.335645 0.0100177 0.145122 -0.220717 0.100673 0.0887931 0.172092 0.197805 -0.217269 0.186631 0.0846109 0.111732 -0.0908151 -0.211803 0.0151577 -0.0678141 -0.224434 0.0704035 -0.22344 0.136826 -0.141779 -0.142152 0.18312 0.0238544 0.197418 -0.019294 0.0145714 0.0214101 -0.0639978 -0.166558 0.0238331 -0.0429144 -0.161948 0.0237873 0.0271719 -0.0868377 -0.0256283 0.0325941 0.0185215 0.262769 -0.00519297 -0.252457 0.0485035 0.00613238 0.0935974 -0.255552 -0.00263053 -0.139268 -0.119802 -0.129677 -0.0534951 0.229482 -0.176513 -0.0421986 0.258514 0.2116 0.144733 0.0255408 -0.0849919 -0.195265 -0.18627 0.105078 -0.124518 -0.23614 0.032354 -0.326823 0.178963 -0.090939 -0.240575 -0.166878 0.0218985 -0.00343992 0.0316453 0.159256 0.0999468 -0.0855564 0.0458669 -0.10583 -0.0962232 -0.053514 0.0804958 -0.0915337 -0.0252671 0.217678 0.112901 -0.0616288 0.313198 0.0776147 0.0607239 0.120997 0.234049 0.0392962 -0.153493 0.073728 -0.167032 0.132387 -0.0449601 -0.085269 -0.0876111 0.0497408 -0.0178468 0.0475703 0.159294 -0.0132628 -0.0900213 0.146455 0.121675 -0.00590876 0.0953765 0.132028 -0.0961036 -0.0366714 -0.305473 -0.365816 0.0449639 0.0667735 -0.0783031 0.0805048 0.161267 0.062388 0.232308 0.282014 0.00349382 0.156248 0.0208584 -0.0511941 0.158407 -0.0392844 -0.15762 0.0264093 -0.00217666 -0.0529041 -0.156636 -0.0162498 0.0783447 0.0442296 0.0763954 0.0675375 -0.184829 0.108951 -0.0068718 0.0191881 0.180293 0.0624495 -0.0226119 -0.0097113 -0.106115 -0.0269586 0.0432623 0.0025667 0.0265161 -0.105673 -0.0769746 -0.234904 0.154294 0.0463557 -0.114968 -0.0252288 0.0344621 -0.158621 0.163608 0.0465831 0.00573761 -0.0195885 0.241123 -0.089983 0.0603924 -0.0602393 -0.128138 -0.178391 -0.128709 0.00339973 0.0918415 -0.0746452 -0.0672056 -0.0132704 0.00618817 -0.164086 0.0819444 -0.0340843 0.150479 -0.0324594 -0.0737961 -0.0860424 -0.0791456 -0.277904 -0.00505918 -0.189834 -0.251274 0.139373 -0.210706 -0.163658 -0.113706 -0.158183 0.0539187 0.0641458 0.0775859 0.00942716 0.221709 0.0782024 0.0625738 -0.0980675 -0.0879435 0.211444 0.0416785 0.0236899 -0.0976723 -0.0424151 0.118609 0.0217718 0.0887458 0.029732 0.0460777 -0.072052 0.452291 -0.138431 -0.027066 0.191081 -0.155959 0.216407 0.0622088 -0.0748012 -0.0170597 0.155824 0.049729 0.176254 0.0368018 0.213632 -0.195349 0.0321327 -0.0652554 0.064958 -0.219132 -0.00487149 -0.181384 0.152658 0.263072 -0.0186279 -0.0589911 -0.0888011 0.0940858 -0.0615952 0.0372633 -0.161774 0.128555 -0.0349311 0.0710899 0.0360123 0.0399841 -0.109163 0.0250368 0.056311 -0.166477 0.129515 0.0603863 0.108366 -0.346941 0.0126775 -0.144194 0.0398735 0.241717 0.122086 0.191392 -0.0724246 -0.0881917 0.160636 -0.0156654 0.043823 -0.0845896 -0.20401 -0.178199 -0.0863601 0.202703 -0.035436 -0.0454721 -0.209206 -0.192448 0.049667 -0.100493 0.135565 0.0210816 0.211151 -0.249082 -0.303639 0.290843 0.0934338 -0.0996598 0.0367082 0.248508 -0.368411 0.164919 -0.128343 0.055894 0.0234696 -0.109627 0.302144 0.236826 0.231719 -0.0443942 -0.00562651 -0.0379129 -0.150524 0.184948 0.0686424 0.0399865 -0.126249 0.187643 0.129207 0.0946612 -0.121412 0.050874 0.316402 -0.0864675 0.181495 0.108876 -0.0234889 -0.0135271 0.0169462 0.0308288 0.109632 0.164848 0.248782 -0.214224 0.275518 0.151408 -0.0414932 0.0173348 0.0646923 -0.112721 -0.0777551 0.0486964 -0.037373 0.069926 0.118879 0.215598 0.0732042 0.152451 0.101533 0.137559 0.144123 0.222634 0.21051 0.0125456 -0.177076 -0.0325067 0.0128718 -0.100854 -0.297819 0.127615 0.219394 0.00920164 0.123548 0.103019 -0.0187465 0.157354 -0.192894 -0.112972 0.117631 0.047871 -0.0400139 -0.135507 0.425381 0.0665537 -0.0693596 -0.01748 0.0249716 0.0135304 0.0970742 -0.191113 -0.125955 -0.27972 0.13913 0.119778 0.0514106 -0.00160649 -0.0532895 -0.148612 0.107733 0.32498 0.0207397 -0.20087 -0.12333 0.0592729 -0.236894 0.0997671 0.296013 0.0670028 -0.137782 0.0656119 0.0485484 -0.08354 0.251107 -0.076281 0.030452 0.109505 -0.167183 -0.196818 -0.0904818 0.216998 -0.17759 -0.0179305 0.300219 -0.0923455 0.0991119 -0.164082 0.147109 0.238328 0.17788 0.270724 0.197549 0.0799138 0.101246 0.0991029 0.0124539 -0.26665 0.117694 -0.124466 -0.0966506 0.167927 0.071619 -0.0745388 0.148484 -0.0219519 0.0145705 -0.202425 0.10472 0.0761274 0.0238501 -0.0813029 0.000170672 -0.067216 0.13696 -0.0522498 0.21568 0.0899263 0.0135285 -0.0752196 -0.147378 0.0517274 0.235816 0.110284 -0.066357 0.202971 -0.0567488 -0.0945822 -0.00780506 0.162717 -0.152499 -0.122944 0.0964591 0.0879643 -0.219221 0.177508 -0.23107 -0.0182435 -0.0318793 -0.337129 0.123586 -0.0606624 0.0268934 0.0847726 -0.0308132 0.175436 0.0633445 0.0353523 -0.0917233 0.0815038 -0.0517373 0.0285803 -0.077871 0.225113 -0.0618788 -0.0423324 -0.134911 -0.078652 -0.0466706 -0.0187886 -0.209245 -0.003013 -0.151464 -0.172711 0.11409 0.0791636 -0.0542213 0.146061 -0.0909234 -0.243001 0.0134283 0.00606383 -0.0932414 0.269721 -0.0634759 0.231003 -0.365899 0.191207 0.0321512 -0.0816924 -0.137755 0.0914245 -0.194631 -0.12455 -0.038301 -0.131888 -0.12425 0.195136 -0.178626 -0.0532663 0.0251068 0.0106843 -0.0149657 0.0584101 0.00531731 -0.0303064 -0.0910728 -0.0747166 0.0825619 -0.0667319 0.053887 -0.142265 -0.120706 0.0704815 0.19587 -0.108926 -0.296268 -0.263943 0.00617351 -0.0341453 0.0574976 0.188375 0.105022 -0.245331 0.0208367 0.0146041 0.307088 0.0762385 0.0737592 0.0733399 -0.320081 -0.210217 -0.253716 -0.0107103 0.17787 0.0195313 -0.0014623 -0.0366208 0.121103 0.00179277 0.000396187 -0.168631 -0.194464 -0.0549825 0.196438 0.41053 -0.00700985 0.0694158 -0.0507417 -0.168869 0.148196 -0.0504599 -0.0415116 0.172862 -0.0923431 -0.217396 -0.11931 -0.0158025 0.0695071 -0.0452745 -0.178655 0.0175339 -0.00125333 0.0899008 -0.0166436 -0.145554 -0.063335 0.182392 -0.212454 -0.0496581 -0.026493 0.157086 -0.0453322 -0.00508849 -0.206682 -0.118936 -0.090843 -0.00186274 0.210356 -0.15406 0.323285 -0.0149686 -0.0583931 0.101643 -0.0414171 -0.281783 -0.189639 -0.10464 -0.0514688 0.0841376 0.0470431 0.0404739 -0.177269 0.0642115 0.130045 0.273964 0.391769 0.0192453 -0.00641463 -0.153399 -0.0435748 -0.0561379 0.00255299 0.0181641 0.142787 0.194667 -0.0972037 0.0523122 0.188961 -0.168086 0.0471438 -0.0918618 0.124676 0.0860736 -0.0540284 0.10845 -0.071498 0.231854 -0.100888 0.00923427 -0.0521638 -9.73919e-05 0.0306458 -0.0171906 -0.0818782 -0.0932565 -0.0468852 -0.0491101 -0.117794 0.176578 -0.113939 0.128025 -0.0668246 -0.00515279 -0.0864457 -0.0427678 0.00845324 0.201557 -0.15603 -0.117787 0.089228 -0.225004 0.0411112 -0.0771817 0.131192 0.24196 0.0699023 -0.112106 0.314079 -0.157714 0.0320769 0.0323677 -0.277571 -0.00620472 0.171733 -0.0359698 -0.105343 -0.00295249 0.257815 -0.155554 -0.320619 0.304993 0.10008 0.0499266 -0.116137 -0.121417 -0.172431 0.246158 -0.521107 0.155509 -0.170131 0.0834299 0.211919 0.15996 -0.00551115 0.428909 -0.020153 0.261389 -0.313759 0.109552 0.123237 -0.086433 0.0930844 -0.218456 0.0319124 0.0217737 0.0929024 0.131485 -0.0732255 -0.139461 0.215302 -0.10102 -0.0467992 0.318165 0.21838 0.0198963 0.0597462 0.0101562 -0.323467 0.0918623 -0.239835 0.073608 -0.138545 0.103489 0.0148253 -0.21465 -0.0719433 0.00446443 -0.130027 0.00897849 0.103974 -0.0611111 0.0261984 -0.170908 -0.064984 -0.0722544 0.0203686 0.00312694 0.311023 -0.28427 -0.00333449 -0.0342333 0.0214848 0.260076 0.167635 -0.13397 0.0547551 -0.0317602 -0.11468 -0.0707084 -0.1268 -0.00240596 0.12586 0.0112809 -0.166471 -0.126079 0.0250335 0.0829216 -0.0554954 0.374805 -0.0505388 0.151721 0.11482 -0.161299 -0.0229958 -0.150449 0.0850425 -0.0402493 0.087526 -0.113211 0.138961 0.0345609 0.195855 -0.258921 -0.0461359 0.0892829 0.00721835 0.0761855 0.0867119 -0.169122 0.0615058 0.279776 0.0844076 0.261308 -0.0203885 0.121982 -0.0653103 0.162405 0.176982 -0.222659 -0.11968 0.027369 -0.0688556 0.0947576 -0.145581 0.0849508 0.262258 -0.412892 -0.109963 -0.328227 -0.184512 0.157792 -0.11366 -0.0557867 0.116026 0.030521 -0.0169169 0.1568 0.136838 0.0413968 -0.291912 -0.0410653 0.217643 -0.151658 0.0877364 0.107758 0.238813 0.247572 0.320143 0.110372 3.87677e-05 0.0061007 -0.0642494 -0.0288138 0.0637392 0.105153 0.105344 0.0303882 0.320556 -0.228841 0.0654573 0.0289613 -0.0972293 -0.252029 -0.188496 -0.200499 0.21875 0.0182397 -0.0430978 -0.0817605 0.11163 -0.0317006 0.101426 0.0103538 0.327301 0.179101 -0.165702 -0.198688 0.271614 0.200919 -0.170999 0.0702049 0.0879775 0.104017 -0.104825 0.0815279 -0.103321 -0.0394324 -0.0839187 -0.190091 0.104203 -0.0624419 -0.0254694 -0.057014 0.248694 0.0778407 0.089064 0.199827 -0.206036 0.0940759 0.315977 0.10341 0.134454 0.122741 -0.192543 0.130645 0.0691998 0.150995 0.112413 -0.176245 0.0633586 0.237973 -0.0317498 0.00247357 -0.206647 0.0112965 -0.149354 0.00775259 0.0878901 -0.122545 0.0705127 -0.170291 -0.0600393 -0.0745493 -0.075057 0.0563053 -0.206812 -0.225251 0.0808859 0.0775103 -0.00614987 0.101636 -0.00591679 0.253573 -0.148172 0.115486 0.238174 -0.0540861 0.00420014 -0.160487 -0.115765 -0.0337501 0.164822 0.208079 0.0470389 -0.0660596 0.112098 0.155924 0.128018 -0.019277 0.264411 0.116562 0.178871 0.0531192 0.127324 -0.0983649 -0.255897 0.00792231 0.0571289 -0.0706597 -0.134821 0.0102559 0.111384 0.190837 -0.0989544 0.158793 0.143524 0.00539674 0.101553 0.0147714 0.0295584 -0.0855229 -0.0898289 -0.0714951 -0.0042791 -0.14789 -0.0573236 -0.339501 -0.0935567 -0.0176937 -0.242779 -0.201172 -0.081274 -0.178652 0.257571 0.211235 -0.0832275 -0.103372 -0.140786 -0.0748887 0.00369002 0.19136 0.0333827 0.217684 0.168484 -0.0408554 -0.00596785 -0.0833495 0.161197 0.12489 0.0582966 -0.105948 -0.0561323 -0.0117357 -0.296685 -0.0933572 -0.271722 0.00542133 0.0538946 0.124955 -0.0920916 0.205027 0.100105 0.181088 0.309308 -0.0482052 -0.406145 0.0294237 -0.114132 -0.0302936 -0.240682 -0.103924 0.0502183 0.056527 -0.0755028 0.225525 0.291656 0.129916 -0.0287543 0.15844 -0.192435 -0.312252 -0.00651864 0.00908912 0.14768 0.0282961 0.019112 0.0965334 0.192228 -0.124589 -0.342177 0.160388 -0.20779 0.316147 -0.203196 -0.153131 0.233568 0.181126 0.00321724 0.150793 -0.300069 0.0620609 0.147513 0.0297022 -0.0565691 0.15718 -0.0222002 0.124466 -0.0683025 0.0443147 0.00430794 -0.086919 -0.175271 0.0719561 0.354514 0.0779428 0.00999733 0.0700054 0.172176 -0.0396971 0.0199346 -0.0252732 0.0767954 -0.0491059 0.0846411 0.189779 0.261756 -0.266064 -0.143195 -0.219128 -0.0676571 0.178255 0.143225 0.105948 -0.168589 -0.0218021 0.101243 0.0940026 -0.0541201 0.0853092 -0.31 -0.16655 -0.267468 0.156922 -0.125806 0.066747 0.0603135 0.0569502 0.0307172 -0.187174 0.245179 -0.343733 0.109105 0.280276 0.0532327 -0.21918 -0.204206 -0.0693497 0.0547484 0.0125281 -0.138017 0.0364823 -0.0742727 0.0806301 -0.166391 0.0948049 0.079495 -0.0287552 0.13806 -0.21379 0.202481 0.174096 0.0619668 -0.131994 -0.0291273 -0.150154 0.177679 0.0124851 -0.181494 0.0453548 0.204952 -0.168455 -0.0619606 0.0257152 0.170458 -0.0558736 0.0608227 0.0384509 -0.050094 -0.0767774 -0.0001754 -0.173249 0.12871 -0.231167 -0.0399274 -0.122692 -0.134506 -0.129698 0.186716 0.189746 -0.0860736 -0.1187 0.178807 0.127373 -0.00616973 0.152501 0.156504 -0.137102 -0.0930901 -0.0105869 -0.0142069 0.134926 0.00815823 0.112581 0.147991 0.212411 0.0451908 -0.0994825 0.221025 -0.195418 0.0815884 -0.23059 0.0717514 0.100964 -0.171563 -0.0225618 -0.0326499 0.176332 0.0478908 0.0726964 0.120768 -0.159414 -0.0118714 0.0357679 0.0835192 -0.035462 0.138958 -0.138583 -0.0341217 0.110864 -0.0867384 -0.155987 0.0910742 0.125729 -0.0786756 -0.298988 0.134693 -0.0647751 0.286939 0.134828 0.0332182 -0.427837 -0.0424747 0.0314907 -0.128917 0.10912 0.0268996 0.0222054 0.0300005 0.155374 0.0193209 0.0534847 0.108294 0.000269955 0.317443 0.0489394 0.205964 -0.195886 -0.199445 -0.0385246 -0.147777 -0.0211946 0.0386272 -0.038006 0.193782 0.0088343 0.157206 0.0713036 -0.00414388 0.127856 -0.0853456 0.0415537 0.161652 0.0350322 -0.0222607 -0.21213 -0.151853 -0.129629 0.0597268 -0.232868 0.0366586 0.0230701 0.0719613 -0.034368 -0.142029 0.196294 0.251439 0.160267 -0.051014 -0.0952838 0.0100195 0.0991705 0.000556458 -0.198787 0.205441 -0.136605 -0.209837 -0.00131006 0.0602662 -0.0121636 0.124534 -0.0437228 0.0523959 0.126539 0.188972 -0.0718502 -0.223914 0.0257644 0.00747554 -0.0655651 0.110387 0.183976 -0.0356847 -0.0552713 -0.117726 0.157097 0.0133172 0.0611749 0.12649 -0.1532 0.095706 0.211499 0.294156 0.249804 0.108108 -0.165326 -0.000276574 0.140185 -0.0639997 -0.094724 0.0400999 -0.293429 0.0917489 -0.0881203 0.0617162 0.0136278 -0.237968 0.126602 -0.0790733 0.204672 0.102862 -0.0505265 -0.196682 0.125111 0.0782185 -0.067207 -0.0140462 -0.00268915 -0.315251 0.0122804 0.027004 0.199702 0.298831 -0.0716847 -0.043703 0.0324022 0.177597 -0.0183612 0.234379 -0.164915 0.0253214 -0.325505 -0.128495 -0.123618 0.258784 0.102657 0.0258651 -0.0175201 0.035263 -0.261061 -0.0711415 0.251639 0.141953 -0.175341 -0.116651 0.078634 -0.161741 0.168853 0.117227 0.0168341 0.0675403 -0.000333307 -0.189749 -0.0378174 0.0164214 -0.00868206 -0.104273 0.0336475 0.125185 -0.0697014 -0.162426 -0.0655197 -0.162753 0.212077 -0.0746239 0.192211 0.0582616 0.111655 0.0449643 0.170504 -0.0788633 0.272659 -0.237545 -0.0741219 -0.156416 -0.156182 -0.174165 -0.184237 -0.177572 -0.0402002 0.00731621 -0.00398787 -0.0692726 0.265216 -0.141148 -0.116342 -0.257437 0.101012 -0.116467 -0.0309673 0.104921 0.149115 0.0993426 -0.106393 0.197316 0.248231 0.0882333 -0.0466975 0.0939865 -0.0658071 -0.113045 0.121256 0.0633463 0.101237 0.0334555 -0.0310671 0.0396201 0.289487 0.0449062 0.0247971 -0.167192 -0.102343 -0.0381365 -0.0239953 0.129105 -0.22448 -0.0499881 0.060453 -0.225254 0.393113 -0.103239 0.0302165 -0.0323544 -0.222621 -0.177536 -0.0483286 -0.0554377 0.0998423 0.276763 0.285355 0.243838 -0.0534691 -0.193296 -0.0964511 -0.115513 -0.0761936 0.139382 0.0951788 -0.0660705 0.18694 -0.0638858 0.00412592 -0.11328 0.0329965 -0.102641 0.0258368 -0.186133 0.0418208 -0.159396 0.111409 0.171439 0.15801 -0.0421929 -0.132071 0.142819 -0.183685 0.162522 0.209593 0.221491 0.0361783 0.116626 0.049538 0.306369 -0.217357 -0.0236776 -0.134887 -0.0140991 -0.0186156 -0.138737 -0.229454 -0.0605853 0.0260902 0.215259 0.24833 -0.0904846 -0.0427409 -0.233823 0.0854439 -0.0398186 -0.0506268 0.0278995 -0.0111698 0.218134 -0.119287 -0.0214002 -0.115375 0.0889108 -0.0210437 0.348288 -0.050258 -0.06561 0.129247 0.107639 0.0961731 0.0871814 0.0947245 0.105798 0.0461765 0.230902 0.0662204 -0.00855867 0.149096 -0.0551517 -0.0786293 0.0464186 -0.124122 0.129601 0.1872 0.155414 0.176653 -0.112319 0.0426846 -0.0809795 0.00791758 0.088308 -0.0399633 -0.0292223 -0.00407108 -0.0888526 -0.163509 0.0714691 0.122178 -0.115608 -0.0800883 0.16202 -0.134861 0.115295 0.0246945 0.0575217 0.217244 0.129703 -0.0100834 0.0538312 -0.074762 -0.112812 0.109231 -0.114158 0.124526 -0.0672874 0.227639 0.168144 0.18085 0.0998641 -0.0929469 0.413841 0.115145 0.0187598 0.0226729 0.12408 -0.0027473 -0.132562 0.098407 0.125437 -0.113849 -0.145223 -0.120324 0.072487 -0.162759 0.0571501 -0.0722568 -0.054035 0.169127 -0.258527 0.034968 -0.0114644 -0.0144698 0.0799625 0.121475 -0.0119385 0.147057 0.152449 -0.0329506 -0.024374 0.0285136 0.265239 0.168427 -0.00427863 -0.0577695 -0.0526068 -0.0250562 -0.0491281 -0.218159 -0.0956417 0.171039 0.146294 0.0835107 0.00687842 0.104333 0.00740888 0.216298 0.0735942 -0.135753 0.0814007 -0.242154 -0.0455832 -0.0793749 -0.0800302 -0.0570788 0.0436443 0.0423948 0.100986 -0.0532157 0.0700442 -0.0945912 0.0537849 -0.0415315 0.146309 -0.174744 -0.087135 0.0481546 -0.241239 -0.112863 -0.00655504 0.0745478 -0.0215321 0.33105 0.168041 -0.0271284 -0.109954 0.114402 0.157662 0.179394 -0.22159 0.152946 -0.0955136 0.235048 0.047862 -0.0965021 -0.0866547 -0.16582 0.011722 -0.0271208 -0.011184 -0.34095 0.338344 -0.0760711 0.0933279 -0.036417 -0.255947 -0.0067399 -0.0938584 -0.0122898 -0.23024 -0.311921 0.0513317 0.26358 -0.0444003 0.0104413 0.0734302 0.0784435 0.00827737 -0.0953472 -0.274265 -0.0588115 0.134535 0.0962653 0.0527424 0.105151 -0.00924845 -0.103231 -0.0986996 0.0293419 0.0337241 0.119155 -0.035566 0.0153425 0.0150097 0.0231282 0.100544 -0.0188217 0.175188 -0.211756 -0.128101 -0.236655 -0.279505 0.121763 0.097668 -0.00779844 0.164346 0.145104 -0.0434444 0.0352526 -0.171773 0.0943444 -0.0370964 0.0875411 0.209163 -0.118647 0.266401 0.0510598 0.00258987 0.287929 0.114994 0.00625294 -0.0903764 0.232364 -0.233771 -0.138033 0.168144 -0.404974 -0.113532 0.00160129 -0.0817723 -0.184415 0.0572135 0.0407675 -0.00148452 0.0303801 -0.170716 0.0535027 -0.297391 0.00678481 0.103637 0.0123012 -0.03548 -0.0663603 -0.200697 0.0851546 -0.0579444 0.160792 0.0780814 0.0164053 -0.0693345 0.140768 0.0621422 -0.156967 -0.085625 0.327606 0.0116525 -0.132503 0.0357991 -0.0904596 -0.0500462 0.0393634 -0.0258226 0.0730652 -0.0936206 -0.300355 0.0789503 0.0270333 -0.0858529 0.0673333 0.0738633 0.108391 0.0623247 -0.364064 0.0150376 -0.0101136 -0.133286 0.0645652 -0.087699 -0.102716 -0.0871695 -0.092763 -0.0434945 -0.332858 -0.0322188 -0.160154 -0.344505 0.211895 -0.101132 -0.250302 0.163435 -0.263571 0.0180998 -0.0105571 -0.168204 -0.0144665 -0.0439195 0.0573378 -0.0869686 0.00638295 0.124654 0.158718 -0.149023 -0.0918826 0.112688 0.265082 -0.0975408 -0.0535353 -0.0617748 0.0319053 -0.00304893 0.336565 -0.248999 -0.100169 0.11177 0.0364378 -0.0463604 -0.129813 -0.168241 -0.0644167 -0.175103 0.00624065 -0.0660842 0.0849456 0.156476 0.0786312 -0.0269993 0.0475655 0.0312652 0.0167292 0.00993114 -0.0242567 -0.162931 -0.330065 -0.0249111 0.0721939 0.111158 0.0154116 -0.00528848 0.0997676 -0.0630769 -0.151243 0.0653939 -0.0213596 0.289575 0.101942 -0.263769 0.233043 -0.0816546 0.0179419 -0.216174 -0.0566098 -0.00231519 0.251413 -0.118304 -0.0788175 0.0318377 -0.00201119 -0.0726856 -0.0619044 -0.0562831 -0.314056 0.042252 0.0842033 0.014162 0.137653 -0.0955542 0.0466952 -0.210252 0.181624 -0.178841 -0.104304 -0.235279 0.0615682 0.114616 0.0357863 -0.198173 -0.0686164 0.0988523 0.054877 0.0227372 -0.0272697 -0.0524767 0.106323 0.240344 0.0712379 -0.108204 -0.0522144 -0.311191 0.029835 0.187571 0.0112161 0.206702 -0.0385918 -0.153403 -0.222769 0.0032371 -0.137073 0.142366 0.115646 0.141904 0.216907 -0.0634976 0.335328 0.233121 -0.129874 -0.358186 0.21624 -0.204689 0.105063 0.0587538 -0.0648763 -0.0620259 -0.165631 -0.0735938 -0.114679 -0.136693 -0.080067 -0.0133209 0.0378344 -0.010021 -0.202321 0.176393 -0.0640021 -0.170167 0.0981427 0.0530261 -0.139643 0.0130155 0.0811714 0.21871 -0.153766 0.255421 -0.142741 -0.0979517 -0.154734 0.196872 0.00833126 -0.0280961 -0.148039 -0.00412639 -0.220354 -0.162962 -0.249468 0.0279406 0.275213 -0.176086 0.0705113 -0.199308 -0.0762304 -0.0433503 -0.344998 0.0295693 -0.0443327 -0.0944754 0.242215 -0.0939425 -0.0664965 -0.231113 -0.0477982 -0.123946 -0.235453 0.0428075 0.0334735 0.245766 -0.103792 -0.00339595 0.0810244 0.126339 0.17732 0.117275 0.111112 0.142352 -0.0422955 0.0685086 -0.0904813 -0.25433 0.108768 -0.314842 0.186551 -0.0970794 0.00211756 0.0576688 0.00857663 0.169174 0.0506561 -0.0278744 0.128928 0.0797942 -0.0129432 0.0691189 -0.155125 -0.0560032 -0.21625 0.0818276 -0.0768635 -0.0342876 -0.0219066 0.28093 0.0588413 -0.211063 -0.0885255 0.17076 0.218306 -0.0100881 0.0239026 0.131911 -0.0463912 -0.118586 -0.0913829 -0.0787276 -0.000711528 -0.0564623 -0.041923 -0.233977 0.0101633 0.115 0.172431 -0.0550723 0.112559 -0.0566793 -0.0312779 0.13735 -0.042834 0.0891836 -0.0204584 0.214198 -0.0110526 -0.0411509 0.0216995 -0.0757042 -0.0653774 -0.0311039 0.0549484 0.150396 0.120099 0.0558051 -0.190122 -0.280478 0.0752206 -0.181686 0.275109 0.190896 -0.116355 0.111968 -0.0308042 0.0288625 -0.0933015 0.0772474 -0.00441809 -0.102097 0.108927 0.00336759 0.306372 -0.0936645 -0.0876749 0.137921 0.0211894 -0.0681209 0.110514 0.251309 0.087969 0.212553 0.195049 -0.0931369 0.00986353 -0.0151988 -0.208259 -0.0557214 -0.2352 -0.204808 0.122767 0.283276 0.169554 -0.00339406 0.128509 -0.0244955 -0.0389899 -0.119056 0.0861469 0.289981 -0.0176587 0.000387204 0.0829826 -0.0801077 0.0314538 -0.163927 -0.0351717 -0.0147544 -0.269366 0.290069 0.0383114 0.0672704 -0.314442 0.0272773 0.0480213 0.110084 0.180093 0.0304577 0.0491489 0.0538549 -0.218671 -0.0324991 0.131248 0.0643633 -0.269016 -0.105912 -0.248129 0.117411 -0.102489 -0.110443 -0.0422459 -0.141423 0.0602298 0.43214 0.0289018 0.105719 -0.0148698 0.119168 0.0665518 0.226589 -0.169191 -0.0682916 0.0451818 0.0957684 0.108898 -0.0953836 -0.18821 -0.0939837 -0.130577 -0.0391298 0.0933104 -0.006191 0.071897 -0.0445351 -1.2765e-05 0.0259705 -0.220126 0.172224 -0.10222 0.0626778 -0.192379 0.106282 0.0136387 -0.172185 0.176629 0.111295 0.170938 0.191066 0.0848449 0.0428019 -0.126058 -0.0817572 0.0616089 -0.0874683 -0.0218995 0.085859 0.224327 0.163036 0.11057 -0.00123442 -0.0038744 0.064125 -0.0106242 0.0185962 -0.0969357 0.180156 -0.152221 -0.263101 -0.210436 -0.0350947 0.158661 0.177356 0.0385001 0.137603 0.105628 0.0420676 0.0816612 -0.193167 -0.127868 -0.200947 -0.0828162 0.0503147 -0.0325866 -0.106803 0.161163 0.146635 -0.304607 -0.0798042 -0.145407 -0.0328201 0.151348 -0.220122 0.0830602 0.0942092 -0.178786 -0.148967 0.00504169 0.158298 -0.121391 0.245893 -0.0625275 0.0112634 -0.0230006 0.15878 -0.10161 0.17644 -0.39623 0.0897774 0.043632 0.107778 -0.0924065 0.00522938 0.0584039 -0.0769145 -0.0757544 0.0877893 -0.224445 0.345332 0.0664591 -0.0826238 0.124909 -0.0183901 -0.0589481 0.090192 -0.147043 -0.104877 0.0161354 -0.220059 0.0102351 0.0157756 0.0297934 -0.0772483 0.22604 0.0777556 -0.166475 -0.0221231 -0.0970161 0.0441923 0.229927 -0.0787087 -0.186108 0.0491971 0.0649013 -0.244929 0.0219094 0.0223458 -0.0382202 -0.0681223 -0.210998 -0.0756546 -0.130928 -0.0655117 0.140234 -0.194094 -0.115476 0.0540109 0.035428 -0.0544856 -0.216095 -0.151411 0.0797044 0.0277586 -0.0719012 0.213387 0.0143681 -0.0243399 0.137253 -0.0427267 0.46573 0.103125 0.103659 -0.0593608 -0.0225987 -0.040637 -0.121162 -0.211848 0.0787636 0.0515397 -0.184356 -0.0424109 -0.17011 0.251492 -0.134774 -0.157108 0.0682216 -0.016933 0.0903995 -0.012947 0.126251 -0.220437 0.0769467 -0.231904 0.216053 -0.0825165 0.110991 0.161835 -0.240301 0.148709 -0.0244884 0.0894389 0.132921 -0.370894 0.0726435 0.024912 0.171068 -0.02381 -0.0543811 0.125948 0.231491 -0.322757 0.208411 0.0588342 -0.324327 -0.130283 0.188419 0.058689 -0.0885482 -0.103959 -0.0592686 0.0651968 -0.18338 -0.251123 0.202135 0.347189 0.0171098 -0.150535 -0.0667376 -0.0759057 -0.0488836 -0.0119281 -0.0322292 -0.042878 -0.115955 0.0685833 0.0451695 -0.18556 0.0477244 -0.0913328 -0.125102 -0.00227169 -0.189255 0.11662 -0.00556316 0.107307 0.0329653 -0.0100238 -0.0129919 -0.115859 -0.243332 -0.0453298 -0.3468 0.0287221 -0.0367844 0.168446 0.15729 -0.0130051 -0.00393586 0.0529528 -0.133914 0.0610118 0.149935 -0.202603 0.0310548 0.146144 -0.293485 -0.0295584 -0.0954436 0.18031 -0.0405623 -0.0641401 0.00814641 -0.24848 -0.126729 0.218617 0.0324254 -0.269972 -0.0649954 0.091763 -0.152571 -0.0677758 -0.0376339 0.0579463 -0.0891609 -0.0158886 -0.228089 -0.10369 -0.210007 -0.146127 -0.0436216 -0.242919 -0.082733 -0.0101812 0.0968629 0.417287 0.0204471 -0.000293594 0.155195 0.0291358 -0.0906567 -0.389768 0.0270745 -0.123055 0.057534 0.160463 -0.0134311 -0.100939 -0.133621 0.102045 -0.0245981 -0.0102635 -0.0647027 -0.214814 -0.172479 -0.0122695 -0.131104 -0.0745067 0.11559 -0.0416946 0.0591141 0.134168 -0.11169 -0.103834 -0.0969924 -0.0294559 0.238181 0.251597 -0.169319 -0.148156 -0.0913224 0.0335908 -0.100645 0.0211459 0.118725 -0.0746741 -0.130593 0.140578 0.109458 0.0409396 0.203571 -0.224318 -0.0600227 0.11132 0.294206 0.156857 0.0841291 0.00457411 -0.00325506 -0.206906 -0.522697 0.0688296 0.132926 -0.253998 -0.0367957 -0.0422766 -0.132648 0.150346 0.103728 0.0679389 0.13994 -0.0829888 0.169551 0.00144149 0.262235 0.059609 0.0540965 -0.049651 -0.12858 -0.212239 0.0468616 0.142832 -0.105457 0.11753 -0.0533348 -0.0878456 -0.188787 -0.26714 0.114835 -0.0475627 -0.195479 0.109539 -0.0763151 -0.018348 0.0843504 -0.227422 0.118747 -0.0437644 -0.029098 -0.121214 -0.0642333 0.102867 0.134976 -0.359078 -0.179588 0.0219732 -0.137334 -0.125294 0.15179 0.346275 -0.0318424 0.0210419 0.196058 0.0468862 0.102798 0.14722 -0.0961674 -0.141639 0.0286588 -0.02117 0.31855 -0.051074 -0.169293 -0.146888 0.159484 0.063457 -0.0481806 0.0416904 -0.0678174 0.398163 0.0315885 0.137342 0.240491 -0.0498623 -0.16403 0.0215993 -0.0862051 -0.006877 0.156038 -0.0903206 -0.102252 0.0486893 -0.176723 0.179033 0.00855441 -0.189738 -0.14725 -0.289993 0.0366761 -0.0528881 -0.0206745 -0.130985 -0.145974 0.132386 -0.286552 -0.143557 0.0880281 -0.222182 0.00913829 -0.0376424 0.127156 -0.0146112 -0.0952342 0.163748 -0.10337 0.184257 0.106985 -0.130531 -0.145026 0.0185669 -0.0344129 -0.0435644 -0.155811 -0.0967106 -0.112783 -0.219075 -0.0386958 -0.144936 -0.119907 0.104452 0.205323 0.204593 0.18174 0.155128 -0.0224361 -0.0696291 -0.190963 -0.0433063 0.104354 -0.0691114 0.0580224 -0.0239182 0.0716029 0.0148915 -0.0565261 0.0592322 -0.0592984 -0.0676793 0.0771344 -0.266935 -0.164485 0.114913 -0.102107 -0.0661159 0.0514555 0.0313243 0.11758 0.0075039 0.268761 -0.0909735 -0.156993 0.135829 0.0203648 -0.0742798 0.0292606 -0.172829 0.0767893 -0.00719424 0.127184 0.0709599 0.062371 -0.00772564 -0.078947 -0.0615952 0.226876 0.342497 -0.176223 0.0143464 0.265838 0.0282564 -0.13853 -0.0155572 0.195645 0.0859663 0.0530474 0.160605 -0.11907 0.0706422 0.172326 -0.0418147 -0.0631076 0.0284191 0.125545 0.063995 0.0490704 0.32019 -0.0962379 -0.06495 0.00878513 0.0146778 0.0256377 -0.146309 -0.325617 0.0130652 0.0470157 -0.0446967 0.130411 -0.0856344 0.191431 0.201044 0.233365 0.192249 0.0344347 -0.157247 0.198327 -0.0232984 -0.128634 -0.0205506 0.099248 -0.302166 -0.0890578 -0.0487309 -0.131696 -0.0365272 0.00418123 -0.159174 0.0489323 0.0842714 0.0164696 0.117886 -0.144742 0.00841731 0.177153 -0.200929 -0.0930471 -0.0789049 0.0933587 0.22294 -0.233508 0.0283075 -0.0240766 -0.0179144 0.226167 -0.0827481 -0.0836426 -0.185054 0.148762 0.0794217 -0.0373607 -0.229229 0.061537 -0.0651826 0.107591 -0.127201 0.289928 -0.00447104 0.0213685 0.018886 -0.136764 -0.12571 0.0718119 -0.0425952 0.046742 -0.0338229 -0.178942 0.0319592 -0.110471 -0.202418 -0.0211142 -0.0536719 -0.271407 0.217134 -0.294928 0.142478 0.0561323 -0.162772 0.00419636 -0.0336243 0.0800609 -0.0888332 0.258589 -0.0613664 -0.0336858 0.286315 0.195114 0.110479 -0.221607 0.018616 -0.15882 0.0101623 0.229571 -0.0330471 0.0611668 -0.118834 -0.106856 0.0906298 -0.235432 -0.165224 -0.0493021 0.222947 0.108812 0.0800741 0.0793333 0.0483017 -0.177189 0.0197256 -0.19292 -0.150618 0.130687 -0.210253 0.0537584 -0.205421 0.0762754 -0.0518688 0.0162323 0.0676046 -0.147553 0.114974 -0.0931308 -0.0127702 -0.186134 0.0331492 -0.180346 0.197965 0.174368 0.0375139 0.128206 0.018756 0.121734 0.143238 0.333557 0.0424047 0.169741 0.0539192 -0.0375999 0.132997 0.259589 -0.251676 -0.0217742 -0.00474904 0.0948384 0.0267837 0.0981862 0.120022 0.203448 0.119481 -0.180109 0.354138 -0.0950488 -0.0390702 -0.10728 0.0665948 0.230992 -0.10381 0.0674732 0.12312 -0.172398 -0.0868178 -0.0171641 -0.0107618 0.0466072 -0.0261823 -0.0967546 -0.0564471 -0.166785 0.0667319 0.05387 0.107144 0.0259067 -0.0895854 -0.0220489 0.0885671 0.36166 0.0235282 0.149664 0.0297896 0.413028 -0.132805 -0.0811199 0.173829 -0.0781305 -0.108984 0.252515 -0.0186572 0.0717788 -0.0449383 0.208803 0.160084 0.0313602 -0.13003 -0.223557 -0.201543 0.170779 -0.0266788 -0.238224 -0.0125815 0.193904 0.127463 0.194233 0.343601 -0.129752 0.00124056 -0.186968 0.107296 0.118418 -0.238243 -0.0865975 -0.143936 0.0828578 -0.0841461 -0.0908789 -0.0209492 0.00149917 0.159229 -0.158511 -0.0236374 -0.0946328 -0.195035 0.0319389 -0.066269 -0.0205114 0.00847026 -0.0680254 -0.144761 0.295007 -0.0764683 -0.140734 0.0921063 -0.0031156 0.055563 -0.0354776 0.2073 -0.078722 -0.017497 0.117214 0.327972 0.168177 -0.0241617 -0.0408006 -0.0125522 0.186921 0.00911985 0.0476251 -0.0058421 0.128171 0.0166337 0.157519 0.0400711 -0.0232384 -0.0275127 -0.0257635 0.107996 0.0735139 0.302114 0.205968 0.110515 -0.0411192 0.159683 0.33696 0.151967 0.237298 0.22459 0.180965 0.268642 0.0473088 0.124665 0.00242534 0.0854633 -0.0438335 -0.0949652 0.0457799 -0.173435 0.216244 0.135046 -0.0317942 -0.070577 0.136583 -0.204986 0.143523 0.138991 -0.00524782 0.197549 -0.139566 0.154879 0.106954 0.212999 -0.180324 0.131778 0.0185087 0.191087 0.16618 0.133883 -0.152008 -0.00608605 -0.0431938 -0.00555512 0.175041 0.134041 -0.144444 0.134653 -0.121014 -0.0393681 -0.0683885 0.0801379 -0.00389048 -0.0654511 -0.125879 0.158006 -0.183378 -0.0328121 -0.0753837 -0.127365 -0.0936972 -0.204185 0.0180374 0.074467 0.0467098 -0.11057 -0.10796 -0.00821732 -0.158347 -0.117996 0.123006 0.144216 -0.186157 0.0095307 0.00254779 -0.0769349 0.0540227 -0.0768654 -0.107197 0.158697 0.113441 0.00557025 -0.191288 -0.0791409 0.0939047 -0.204879 0.0127749 -0.11991 -0.171845 -0.00419447 0.144826 0.120478 -0.0565814 -0.113388 0.0546997 0.0501994 -0.0828233 0.0399742 0.00115121 0.0179428 0.0580692 0.0920231 0.0918926 -0.0883529 0.0566679 0.32836 -0.222558 -0.179367 0.0230876 -0.259596 0.149639 -0.0700394 0.0505161 -0.0276574 0.081813 0.0257791 -0.0317162 -0.0405075 -0.0825855 -0.125038 0.350817 -0.211684 0.190482 0.0291259 -0.086501 0.11169 -0.240171 0.00224191 0.132339 -0.014927 -0.0624873 0.146231 -0.119734 -0.175904 -0.0504362 0.250166 -0.0077715 -0.189519 0.0997374 -0.157806 0.165033 0.102313 -0.0970681 -0.119246 -0.0633331 -0.0926065 -0.221005 0.303829 -0.0646068 -0.147954 0.201824 0.262921 -0.0915862 -0.0223122 -0.0272017 0.0252226 0.205417 -0.0105136 -0.00319739 0.0752078 -0.107896 0.0840852 0.0290677 0.00447861 -0.0396971 0.0564868 -0.0117773 -0.0518834 0.00646049 0.175048 -0.293032 -0.0252028 -0.126792 0.0633539 -0.188465 -0.203232 0.0365934 -0.0825255 0.134071 0.171758 0.0210428 -0.252672 -0.285611 -0.119041 -0.0480246 0.172221 -0.0372812 0.0238714 0.000653377 -0.112143 -0.138651 0.151954 -0.227726 -0.149234 -0.0537646 0.0233646 -0.0718275 -0.0154503 0.0255172 0.143137 0.083836 0.069249 -0.0340796 -0.0769779 0.0306983 -0.243969 -0.0284545 -0.0193602 -0.234587 0.0562958 0.0724686 0.0430496 -0.0573705 -0.109796 0.10697 -0.0329511 0.0211965 -0.121658 -0.181569 0.245744 -0.408027 -0.103154 0.220434 -0.113872 -0.139731 0.140836 0.0725693 0.0157567 -0.0574768 0.315595 -0.112898 0.0691289 -0.130414 -0.256068 0.13196 -0.227134 -0.0781192 0.0280139 -0.0437082 -0.0286261 0.0365002 0.129077 0.194147 0.291695 -0.148817 -0.0303943 0.0879317 -0.276826 -0.084323 -0.0502069 0.0383034 -0.505101 -0.107324 -0.251845 -0.00910945 -0.214636 -0.0808126 0.0930736 -0.265927 0.159445 0.052169 0.0989975 0.0816877 0.106665 -0.105825 -0.0917791 0.0635979 0.205195 0.250887 -0.147129 -0.122666 -0.126984 -0.0510381 -0.0262864 0.193385 0.111298 -0.00490694 -0.004741 0.0485291 0.0444112 -0.0513232 -0.0436595 0.0488118 -0.2194 0.0532313 0.015543 -0.0464403 -0.0419381 0.321989 0.0405207 0.045518 -0.0625474 -0.252695 -0.094542 0.0337326 -0.0452735 0.0768063 0.00596975 -0.0591902 0.157447 0.0473537 0.0889718 -0.0924065 0.0259375 -0.21792 0.0436046 -0.165901 -0.14547 0.205029 -0.0876083 0.0416194 0.0310831 -0.164594 -0.0800004 0.0247645 0.0852444 0.198857 0.255403 -0.313561 -0.165609 -0.12774 -0.0234393 -0.137607 -0.0139757 -0.00781499 0.0683521 -0.0731342 -0.0932438 0.017671 -0.0541811 0.124381 0.0285883 -0.0973673 -0.211005 -0.154024 0.111033 -0.0138226 -0.143384 -0.0789333 -0.0534327 -0.0382259 -0.153614 -0.022393 0.0871847 -0.0394527 -0.0420653 -0.320701 0.143396 0.212095 0.135273 -0.0785622 -0.0283557 0.0559313 0.137214 0.114566 0.110542 0.194417 0.159236 0.0988868 -1.98566e-05 -0.00745663 0.0634248 0.230936 -0.037607 -0.0221642 0.0790038 0.119594 -0.28352 0.210778 0.0439654 0.0643198 0.0479603 0.129486 0.237318 0.00813033 0.0151009 -0.140856 0.0783977 0.0820475 -0.168737 0.207703 0.207144 0.054347 -0.14203 -0.147662 -0.102497 0.092006 -0.220992 -0.101672 0.0800439 -0.0255063 0.057327 -0.103832 -0.172612 -0.010133 -0.190163 0.0884966 -0.0890162 -0.0014467 0.294946 0.0252009 -0.186942 0.0234034 0.312647 0.0507492 -0.131183 0.216028 0.0691312 0.026136 -0.384126 0.0850425 0.0661873 -0.0606246 0.211991 0.0498131 0.284348 0.0327941 -0.0542454 0.0440552 -0.233978 0.0986675 -0.187415 -0.123958 0.284267 -0.0687109 -0.139103 -0.0880773 -0.109078 0.0715154 -0.139419 -0.02749 0.0715216 -0.00887637 0.0330565 -0.176095 -0.206733 0.142122 -0.0318249 0.219986 0.350857 0.261224 -0.00831566 0.256827 -0.0122572 -0.0204618 0.0315933 -0.00676637 0.0878163 -0.00951604 0.0103746 -0.0352261 -0.140612 -0.356521 -0.0581879 0.198305 0.119263 0.232044 0.00518257 -0.0676179 0.165049 -0.0826853 0.12356 -0.0996957 0.0240742 0.119279 -0.281079 0.0416781 0.0263639 -0.00223292 -0.0617526 0.135141 -0.0449052 -0.0762881 0.0446537 0.00407628 -0.0570797 0.115075 0.282836 0.0280961 -0.0401543 -0.180481 -0.360999 0.185828 -0.0652332 0.146584 0.0880376 0.109406 0.118221 -0.0290582 0.135095 0.10637 0.263239 0.250576 0.0748339 0.0582054 0.0941785 0.0713911 -0.0469557 0.0451761 -0.0136963 0.259539 0.0400522 -0.201494 -0.0389634 -0.118687 0.250624 0.0315082 -0.039735 0.00103018 -0.0830564 0.0626367 0.0992216 0.04049 -0.100211 -0.116675 -0.114834 -0.0591089 -0.0385837 0.0601669 0.0221354 0.0407916 -0.142809 -0.0431924 0.276224 -0.0117371 0.0268192 0.0807407 -0.0859006 -0.025363 0.0312122 -0.0879085 -0.0965976 0.213927 0.0511946 0.113541 0.00785281 -0.0350464 -0.120211 0.0197223 0.127504 -0.2124 -0.034803 -0.159906 -0.263162 0.158915 -0.0285614 -0.144237 -0.132717 -0.00980443 0.124976 0.0876333 0.111078 0.0386216 0.242755 -0.0895306 -0.178865 -0.0104966 0.0404436 -0.0290682 0.0358624 0.0433928 0.205389 0.0166105 -0.407191 0.170165 -0.0486671 -0.154515 -0.0389407 0.0517397 -0.110075 0.0643463 0.163431 0.16534 0.209241 -0.120156 -0.186332 -0.135504 0.133347 0.0223926 0.154398 0.0431957 0.128306 0.0612808 -0.00430179 -0.0563497 0.0746197 0.267758 -0.044848 -0.0223637 0.176428 0.0829372 0.035471 0.210327 0.133572 -0.0841868 -0.0764659 -0.0209341 0.131614 -0.139148 -0.0200816 0.0895575 -0.0019989 -0.0372765 -0.090938 -0.0705373 0.0669097 -0.0542601 -0.0506159 0.065002 -0.105277 -0.088699 0.0868055 0.146377 0.247288 0.00193886 -0.120431 -0.201425 -0.146737 -0.118477 -0.0757454 0.165258 -0.130343 0.155966 0.0122184 -0.0679446 0.189661 0.223611 0.118875 0.0513709 -0.0555706 -0.0244387 -0.224494 -0.42032 0.147998 0.187722 -0.0734122 -0.125063 -0.0511308 -0.0525685 -0.187431 -0.112688 -0.11568 -0.199394 -0.0350951 -0.142795 -0.0684755 0.0322448 0.107744 0.0855347 -0.152303 -0.0101288 -0.0474322 0.113224 -0.107835 0.146324 -0.0714147 0.0737838 0.153222 0.220539 -0.160421 -0.205317 0.0362062 0.0937794 0.0249876 0.0393998 -0.0256141 -0.166564 0.147549 0.137597 -0.0206249 0.0558973 0.107625 -0.338175 0.0308335 -0.0590148 0.107508 0.0459917 0.0251768 0.192891 0.00936948 0.170402 0.015864 -0.319547 0.270113 0.000557876 0.0189683 0.0904241 -0.086103 0.110561 -0.28986 -0.100041 0.0567157 0.132567 -0.072513 0.15085 0.141189 -0.126682 -0.12353 -0.139821 -0.0858065 0.206833 0.0346616 -0.159652 0.296476 0.148485 -0.120695 0.182463 0.0883628 -0.130022 0.168029 -0.319036 -0.226218 -0.0747421 -0.0573676 -0.0147397 -0.249369 -0.00818187 0.22345 -0.0280664 0.017775 0.0532649 -0.0708252 0.0487404 0.137967 0.0363801 0.230102 0.0193611 0.107727 -0.228571 -0.111034 -0.186374 -0.204845 0.0771514 0.00646758 -0.00435805 -0.397228 0.00530077 -0.236472 -0.0708413 -0.0887505 0.00884943 -0.0137219 0.142802 -0.0206343 -0.111135 -0.0156073 -0.0204476 -0.0835807 -0.0565247 0.0297064 0.157484 -0.10933 -0.274637 -0.117971 -0.169582 0.046195 0.0577161 -0.177548 -0.26832 -0.0337728 -0.207225 0.0244969 0.00341297 -0.235921 0.148852 -0.137838 0.097686 0.0747956 -0.0787589 -0.0442897 0.306861 -0.0125749 -0.133105 -0.162002 0.203264 0.0858973 -0.263695 0.064845 0.011852 -0.200719 -0.12341 0.0104361 0.100157 -0.0106058 0.296851 0.0416804 -0.176193 -0.171761 0.0952668 -0.108231 0.174744 0.245396 0.0371772 -0.0133791 0.249764 0.0777268 0.0289367 0.231016 0.0649812 -0.0223666 -0.101815 0.138404 -0.138205 -0.263533 0.149476 0.0262674 0.0322911 -0.0338399 -0.196629 0.0844227 -0.220774 -0.176955 0.0073077 0.0522976 -0.0392475 0.00115026 -0.302336 0.0874263 -0.130378 0.00953495 0.0901981 0.40752 0.0313919 -0.158194 -0.0274702 0.0434179 -0.0384797 0.0230857 0.0510225 0.0306567 -0.225687 0.0522914 0.00795257 0.132402 0.0784227 0.0108006 -0.0722416 0.415449 0.0792449 0.00140887 -0.20085 -0.0644503 -0.0697184 -0.196938 0.0123366 0.0171873 0.144757 -0.0825274 -0.0507568 -0.0771708 -0.0187749 0.179697 -0.0764834 0.114893 -0.00639288 0.0606364 0.00174265 -0.0444022 -0.0199062 -0.0180558 -0.128578 0.0307678 -0.093796 -0.0486397 -0.0987015 -0.0600648 -0.153447 0.127492 0.0601825 -0.0372122 0.0537074 -0.124336 0.184454 0.266765 0.063908 0.124712 0.177814 -0.0928518 0.10118 0.108801 -0.00193224 -0.178505 0.106783 -0.0584531 0.0825151 0.207423 -0.07662 0.0112388 0.202535 0.0797479 -0.0268234 0.00304042 0.22066 0.0631672 0.134232 -0.117017 0.251548 -0.139252 0.259767 0.272619 -0.0916448 0.0320514 -0.166901 0.0906979 0.112229 0.0178175 0.0224247 -0.192943 0.0933265 -0.118917 -0.228114 -0.16359 -0.201149 0.121382 -0.00797479 0.260697 -0.0201724 -0.265049 0.0737644 0.0861748 0.000211331 0.439651 -0.0621252 -0.00568466 0.00483225 0.17363 0.0343122 0.215513 0.177764 -0.116021 0.0825841 -0.22937 -0.0542147 -0.147522 -0.301957 0.0798685 -0.313977 -0.429768 0.229855 -0.226351 0.098415 -0.117311 -0.0504632 0.177874 -0.151229 -0.135589 0.149805 -0.224034 0.0697217 0.0274707 -0.117594 -0.128489 0.0640149 0.0271189 0.175301 -0.0149312 0.226244 -0.214849 -0.127419 -0.290647 0.103112 0.158503 -0.0859947 0.0623545 -0.202396 -0.126512 -0.0349968 0.112866 -0.0806202 -0.0560316 0.115024 0.0624126 -0.307471 0.0115324 0.085607 -0.291632 -0.014327 -0.137515 -0.130478 -0.0924963 0.164711 -0.0991464 -0.00101552 0.109616 0.0946526 -0.0337302 0.00869341 -0.00455709 -0.000574896 0.0184832 0.111695 -0.120739 -0.132043 -0.100282 0.172569 0.0256264 -0.268912 -0.0918174 -0.121411 0.00327539 -0.0713259 0.0708261 0.101325 0.172452 -0.0584025 0.195964 0.0555881 -0.034768 0.0391846 0.0564145 0.13727 -0.0520924 0.224902 -0.0918491 -0.0158815 0.0339222 0.161501 0.0641865 0.156064 -0.0164356 0.106395 -0.194962 0.0952351 -0.0698484 -0.0470313 -0.135981 0.220783 0.268575 -0.00108077 -0.0771358 0.0190543 -0.042861 -0.178895 -0.11302 0.0016325 -0.0296941 -0.0973763 0.112204 0.0914548 0.0767018 0.180232 0.00485447 0.0880541 -0.0729484 -0.0979006 0.288011 0.136192 -0.147888 -0.201284 0.124217 0.0154725 0.102415 -0.0131129 -0.197908 -0.190549 0.0714171 0.0156149 0.081414 -0.230533 0.10432 -0.0360861 0.186593 -0.151834 -0.031095 -0.0489096 -0.386418 -0.176702 0.35319 -0.0685578 -0.0248042 0.139012 -0.0648016 -0.0679866 -0.0319479 0.027804 0.0444977 -0.125506 0.192443 -0.0478081 -0.143625 -0.0176979 0.0236681 0.110494 -0.00949429 0.0806547 0.0364733 0.253421 0.102699 -0.0713074 0.175606 -0.162942 -0.148735 -0.10617 0.0407817 -0.139827 0.0802117 0.170873 0.0590228 0.0978959 -0.112984 0.274123 -0.0479182 -0.0717244 0.00987961 -0.0774058 -0.00229155 0.0337964 0.164521 0.0567691 0.00147175 0.167887 0.0243357 -0.0131049 -0.00330802 -0.0375999 -0.370863 -0.0031468 0.0180619 0.154984 -0.139022 -0.293388 0.0741294 -0.145823 -0.0921999 0.0429229 -0.101292 0.159138 0.143659 -0.0728359 0.126581 -0.0814698 0.0255635 0.0912505 0.0792099 0.00919692 -0.166005 0.00428052 -0.137299 -0.151686 -0.0321781 0.163382 -0.0635501 0.149387 -0.0986779 0.0990343 0.0258117 0.0274466 -0.078852 -0.137314 0.19557 0.0456333 0.175726 0.129433 0.124386 -0.0470252 -0.0884961 0.0885411 -0.123389 0.0520333 0.103398 0.0573894 -0.269119 0.185478 -0.260377 0.0964724 -0.21456 0.0782208 -0.0846875 0.00605721 0.157554 0.210216 0.205104 -0.0634504 0.0770824 0.0590876 0.030053 -0.0351145 0.245695 0.250249 0.0976746 0.0458957 -0.161194 0.0217718 -0.151995 -0.0959731 0.227638 -0.0118837 -0.304188 -0.101688 -0.0231495 -0.36079 -0.209227 0.22698 -0.171557 -0.0192756 0.0230356 0.139013 -0.0845981 -0.0618179 -0.124591 0.00898086 -0.187964 0.200899 0.0360218 -0.142077 -0.0657036 0.151273 0.0485603 0.0700238 -0.172398 0.0999841 -0.092189 -0.0586692 -0.0313498 -0.0743062 -0.290501 -0.0925776 0.0609409 0.111492 -0.0384603 0.230021 0.160227 0.415507 -0.0119489 -0.095184 0.0860595 0.0766569 -0.19724 -0.0844738 -0.0996849 0.00656734 -0.210858 0.173495 -0.2522 0.0169973 0.0710403 0.0489905 -0.0757529 -0.149472 0.0737999 0.121868 0.409235 0.0187536 0.22664 0.081214 -0.0793649 -0.143738 -0.0151364 -0.294592 0.033101 -0.0782785 -0.017315 -0.00333213 -0.266589 -0.0332792 -0.114566 -0.0284517 -0.00495186 0.136575 -0.265893 0.0313214 -0.0490633 0.149448 0.251923 -0.0522976 -0.249772 0.167525 -0.170237 -0.00413017 0.0517487 0.00804287 0.203183 0.227238 -0.229395 -0.0605253 -0.116492 0.154326 -0.0755322 -0.169221 0.24862 0.0108705 0.174403 -0.217973 0.183933 -0.0335922 0.186401 0.128008 -0.0736803 -0.0446788 -0.158687 0.112881 -0.140524 0.144687 0.0318112 0.0658625 -0.0983956 -0.0127517 -0.0609087 0.00287353 -0.0148329 0.194033 0.16292 0.148367 -0.0198963 0.243453 -0.0429716 0.131977 -0.0193058 0.472968 0.0513832 0.119998 0.0177518 0.00155165 0.0488302 0.0415811 -0.0877818 0.0879222 -0.0390688 0.117649 -0.0401415 -0.0370193 0.131683 -0.015257 -0.027717 -0.285096 0.154853 0.316405 0.125077 -0.175436 -0.0164479 0.0820484 -0.0151355 -0.136887 -0.129848 -0.107787 -0.201036 -0.10302 -0.24776 0.0926429 -0.234007 -0.0413892 0.125889 -0.00218612 0.290224 0.0924566 -0.00362525 0.0249881 -0.296265 0.129877 -0.0899159 -0.278961 0.0751483 -0.0667801 0.0936868 -0.0038484 0.0826663 -0.0632494 -0.181007 0.00519865 0.163394 -0.0907863 0.240952 -0.0671503 -0.0858883 0.0104857 -0.0135588 0.193674 0.207273 -0.0430746 -0.0505157 -0.0474143 0.0637052 -0.16979 -0.0111991 -0.0784506 -0.242485 0.0440018 -0.0365607 0.00406682 0.0164498 0.0456645 0.00821685 0.192061 0.13825 0.214854 0.274905 -0.106186 0.00380396 -0.0106266 0.0241537 -0.096748 0.0665026 0.0300076 -0.0851976 -0.011775 0.138194 0.122781 0.116256 -0.254461 0.209214 0.025555 -0.104093 0.048617 0.0411136 -0.200609 0.225322 0.122468 0.0309966 -0.0746391 -0.0129389 0.0581515 0.235255 -0.0149577 0.256133 0.142888 -0.169742 -0.168594 -0.175637 0.0125262 -0.183515 -0.0653471 0.125794 -0.000180601 -0.101651 0.0367598 0.107237 0.0234795 -0.201963 -0.172003 -0.0872301 0.0591509 -0.255117 -0.000587661 0.110275 0.371336 0.0911782 -0.0124151 -0.168078 0.0484936 0.0965745 0.126336 -0.0862566 -0.194463 0.191638 -0.0991431 -0.136466 -0.00162115 0.101765 0.118631 -0.0648134 -0.0837296 0.17822 0.00840644 -0.0876376 -0.0195469 0.4302 -0.019528 0.0150456 -0.131579 0.227644 0.214214 -0.110765 0.170678 0.346641 -0.0662837 0.293794 0.0414549 0.0145379 0.0127432 0.0176019 -0.0127517 0.128578 0.110702 -0.129205 0.243605 0.0129148 -0.0689365 -0.226407 0.136112 -0.160665 -0.206876 0.0797545 -0.145917 -0.215784 0.191144 0.0557592 -0.106268 0.155548 0.0602927 0.164533 0.00215586 -0.00461619 0.359056 0.0956214 0.181316 0.217289 0.240258 -0.0344191 -0.125761 -0.00479868 0.0759562 -0.258879 -0.18748 -0.306928 -0.249682 -0.123453 0.0856987 -0.144562 -0.137464 0.02136 0.0669744 -0.00281964 0.0630286 -0.191578 0.0102162 0.0718067 0.0711197 -0.00313545 0.126523 -0.125351 -0.0333463 -0.153601 0.0465179 -0.104931 -0.000608463 0.127356 -0.201658 -0.148005 -0.0825184 -0.220525 0.0341921 -0.0768517 0.0490302 -0.0753653 0.10833 0.0113996 0.137227 0.00737105 0.0998248 0.158875 0.129991 0.0788652 -0.0340763 0.294693 -0.0302591 -0.255885 -0.0918051 -0.247527 0.0573723 -0.0998655 -0.0986178 -0.00498212 0.161301 0.0414965 0.056319 0.149228 -0.135243 0.119793 -0.0256665 -0.0448107 0.0614694 -0.164321 -0.276532 0.0178416 0.113337 -0.112166 -0.143454 0.200032 -0.060625 0.141075 -0.0174454 -0.133111 -0.136019 0.105891 -0.186745 -0.109606 0.0322244 0.156786 0.331413 -0.3839 0.154472 0.0248255 0.401521 0.170788 -0.0573213 -0.0311843 0.0411845 0.11664 -0.0445114 0.00432165 0.00181452 0.00921252 -0.0112469 0.124931 -0.201333 -0.056467 0.0122359 0.0080788 0.294927 0.0297632 0.0570452 0.0351504 -0.201644 0.0400791 0.032953 -0.0617763 -0.0369773 -0.00622268 -0.0496817 -0.0869648 0.0107074 -0.189678 -0.102491 0.120783 -0.0221817 -0.0875019 -0.0155709 -0.11042 -0.136956 -0.110085 0.0172317 -0.0920443 0.0890011 -0.0352672 0.0568499 0.107748 -0.145651 0.130202 0.105738 0.163161 -0.251731 0.020944 0.122724 -0.000942243 -0.168324 -0.0513142 -0.0376765 0.027101 -0.0420657 0.308407 0.101237 -0.177896 -0.232431 0.197481 0.0188496 0.224797 -0.176046 -0.535654 0.0675517 -0.00760461 -0.0416894 0.0274626 -0.106181 -0.0653249 -0.0795257 -0.0319625 0.159758 -0.242965 -0.135018 0.0425262 0.194886 0.0106639 0.100118 0.136014 0.102234 -0.183771 0.238657 0.0387057 -0.0339208 0.0785901 -0.0927795 -0.0659556 -0.00588796 -0.0188661 0.166698 0.007728 -0.0111457 -0.0186614 -0.272181 0.0634797 0.0217543 -0.0134571 -0.195365 0.0663896 -0.00634749 -0.0960804 -0.234549 0.0677153 -0.286103 -0.0337813 -0.146301 0.120222 0.180426 0.0653727 -0.167397 -0.0869965 0.197057 0.271214 -0.137359 -0.0430378 -0.0535514 -0.260631 -0.127295 -0.163665 -0.0105793 0.156997 -0.179224 0.303606 0.00945127 0.12897 0.14901 -0.0626055 -0.0158427 0.0521798 0.142055 -0.0442367 0.387871 0.00239367 0.0610453 0.153905 -0.229801 -0.0285122 0.153601 0.152398 0.0121537 0.0191824 0.156807 0.0617115 -0.0330631 0.0234336 0.0446859 -0.145028 -0.154107 0.184164 0.258201 0.12636 0.117874 0.130242 -0.328141 0.12047 0.0548718 -0.0210244 0.358555 0.179761 -0.00891183 -0.123217 -0.0503091 -0.109347 -0.143397 0.169652 0.0996466 0.0166777 -0.129909 -0.21951 0.129117 0.02704 0.122744 0.0441606 0.0701453 -0.00925743 0.0529944 0.118403 -0.232503 -0.0706749 0.159181 -0.187149 -0.123317 0.112627 -0.129886 0.0931152 0.008058 0.304259 -0.0382646 -0.161933 0.262735 0.355699 -0.247661 -0.0240066 0.307372 0.106162 0.0864093 -0.186415 -0.180737 0.134747 0.0348658 -0.101647 0.0244142 0.103778 -0.00547002 -0.315781 0.127834 0.0138334 -0.0124893 -0.0985582 0.100634 -0.172655 0.120912 -0.039595 0.0731286 0.0409675 0.0970269 0.129514 -0.039518 0.00777102 -0.109503 -0.218649 0.0886526 0.0127687 0.0416204 -0.00791569 -0.0668397 0.232137 0.135341 -0.113975 -0.0552959 -0.037328 -0.193797 -0.00205232 -0.0728704 0.096644 -0.0184704 0.110938 0.0807114 0.280254 -0.13636 0.0979782 0.134736 0.0231873 -0.100625 -0.0353481 -0.109945 -0.160355 0.0935142 0.00569885 -0.0526748 -0.145255 -0.0108663 0.0806495 -0.0166346 -0.0411273 0.0348933 -0.0838166 -0.221108 0.194262 -0.15273 -0.220394 -0.0372505 0.215837 0.0576139 -0.0978259 0.0410237 0.0884389 -0.120969 -0.132748 0.0549063 -0.0101103 0.0604374 0.0196618 -0.130647 0.00769302 -0.0913588 -0.136918 0.292731 -0.105748 0.077106 0.0288606 0.124335 0.00235963 0.00599386 0.049963 -0.00704957 -0.162927 -0.083219 0.166794 -0.0557224 -0.133595 -0.194523 0.212238 -0.00939123 -0.121295 0.413475 -0.168754 -0.0746613 0.0372165 -0.0133347 0.181238 -0.148188 -0.0893916 -0.133479 0.0842955 -0.080919 -0.0416771 -0.0436703 0.023965 0.129588 -0.115831 -0.0694664 -0.0292332 -0.0491238 0.261955 -0.201291 -0.0490865 -0.124997 0.225788 -0.0868523 0.219489 -0.0146419 0.0491635 0.01741 0.13968 0.0152669 -0.0930485 -0.450483 0.00338271 0.28099 0.0397855 0.280063 0.122365 -0.0764777 0.241311 -0.189456 0.276411 0.12118 -0.118099 0.207518 -0.0428104 0.273699 -0.130836 0.0724487 -0.151528 -0.0764886 -0.0686069 -0.13501 -0.0874352 0.0138533 -0.0419348 0.0925601 -0.0665045 -0.201327 0.138288 -0.0048469 -0.127186 -0.148796 -0.194815 -0.172451 0.240423 0.123272 -0.160264 -0.127907 0.0378188 0.00463321 -0.0670761 0.123666 -0.055172 -0.273959 -0.00292932 0.0138869 -0.219649 0.0680301 0.128294 -0.308189 -0.0180624 0.178627 0.203027 -0.058689 -0.18346 0.38723 -0.133511 0.0550699 -0.0463893 -0.0527354 -0.0797276 0.0988088 -0.140833 0.000821212 -0.0339155 0.0377361 0.205413 0.071055 -0.0453634 -0.263044 0.16733 0.0686183 -0.207115 -0.226005 -0.113041 0.145938 0.232541 -0.0616992 0.0594871 -0.0610482 -0.156193 0.0517794 -0.0835849 0.324638 0.116476 0.110751 -0.216505 -0.245229 -0.261506 0.124154 -0.336582 0.13024 0.0232923 0.14074 0.0914586 -0.221336 0.0358029 0.0502831 0.17405 -0.062337 0.210996 -0.0654299 -0.113261 0.0822796 0.0852704 -0.0229528 0.108672 -0.302785 0.0760442 -0.0124113 0.274663 0.0249172 -0.123898 0.0986637 0.0461425 -0.0961641 0.00845986 -0.137133 -0.0233249 0.331412 -0.134199 0.0664454 -0.198423 0.0198249 -0.109588 -0.298473 0.175432 0.146581 0.00948815 -0.297317 -0.15932 -0.0277732 0.0593925 0.134072 0.0320467 0.0759411 0.110216 0.170771 -0.0790316 -0.103286 -0.0300974 -0.034551 -0.121722 0.0398068 0.0362355 -0.190323 -0.00939785 0.0659797 -0.0192221 -0.290579 0.106713 0.136648 0.28619 -0.209252 -0.0726307 0.101303 0.159409 -0.179891 -0.0167472 -0.0725461 0.16451 0.0450064 0.136372 -0.110648 0.168517 0.00928154 0.259746 0.0322684 0.272176 -0.121044 0.117884 -0.0647982 -0.0453657 -0.119186 0.107662 0.242228 -0.0628622 0.144405 -0.0140693 0.249911 0.084773 0.0295854 -0.236453 -0.0437942 0.117371 0.0259375 -0.080249 -0.0416062 0.225467 -0.305662 0.0667248 -0.108128 -0.0286526 0.303167 0.0922949 0.134968 -0.169038 -0.162383 -0.0212872 0.134029 -0.00704342 0.0335491 -0.163927 -0.166628 0.0936348 0.047801 0.122431 0.0675323 0.287379 -0.255317 0.00567946 0.32906 -0.153868 0.0812348 0.272422 0.150066 -0.171721 0.195471 0.259882 0.186056 0.0151946 -0.0822494 -0.194951 0.0522716 -0.0863734 0.029888 -0.00731196 -0.00228398 -0.20229 0.0281283 -0.301289 -0.109341 -0.0689828 -0.0175617 -0.0405666 0.0927492 -0.323592 0.0701279 0.0365532 0.0941643 -0.112456 -0.194409 0.126348 -0.0393837 -0.127443 0.082239 -0.0361069 -0.191762 -0.240688 -0.0656185 0.019555 -0.25661 -0.0204282 0.0592564 -0.210222 0.101165 0.0258869 -0.119826 0.0389194 -0.0529751 -0.0481438 -0.135617 -0.133706 -0.0160125 0.0855503 -0.156572 0.0528857 0.135092 0.0923909 -0.100852 -0.160068 0.0624722 0.228949 0.033422 0.0144603 -0.373265 -0.0295282 -0.0209553 0.0330825 -0.0216664 -0.0617564 0.054921 -0.0412114 0.0292899 0.088299 -0.0468899 -0.0674779 0.0274456 -0.111893 -0.0431654 -0.158891 -0.0141743 0.0204159 -0.102731 -0.279792 0.0133016 0.11499 -0.125023 -0.0446783 -0.181136 0.0180771 0.0245834 -0.145396 0.125952 -0.0921852 -0.133302 -0.0272418 0.148917 -0.106171 0.0829685 0.0285888 -0.20164 0.0780955 0.122419 -0.0181196 0.132945 0.184572 -0.00924609 -0.0261639 0.140345 -0.132964 0.0453785 -0.197349 -0.151653 -0.32575 0.183802 -0.217727 -0.0614533 0.00764101 -0.0886366 -0.0613375 -0.233812 0.211095 -0.078573 -0.0755582 -0.0456886 -0.00745379 0.190969 0.0210863 -0.0738765 0.215488 0.100598 0.10244 0.385552 -0.0106729 -0.169303 -0.0461666 -0.113257 0.0339051 0.00395052 0.00787267 0.0948342 0.122572 0.1525 0.164497 -0.0400413 0.140101 0.109067 -0.0633984 -0.0661792 0.0256576 0.2144 0.0545135 0.10322 -0.0199114 -0.00575369 -0.0638725 -0.187218 -0.176282 0.162424 0.156672 -0.0070108 0.0422411 0.0228876 0.032153 0.0290242 0.0131555 0.401598 -0.246325 -0.0566254 -0.0811275 0.0148939 0.196221 -0.00138334 0.0375739 -0.185259 -0.0269577 0.314321 -0.260489 -0.119185 0.253684 -0.0312945 -0.308007 0.252419 -0.206313 -0.142455 -0.0338957 -0.10867 -0.22667 0.0387038 0.081847 -0.0210972 -0.122243 -0.248536 0.0289018 -0.113563 -0.0150655 -0.00608132 -0.147247 -0.0938759 0.0708006 -0.0849924 0.00704153 0.136989 -0.0865162 -0.0168899 0.122868 0.0270948 -0.0827609 -0.0834426 0.181729 0.18027 0.108704 0.334676 0.0282621 0.0415239 0.0617068 0.0471202 0.0928268 -0.108743 -0.149242 0.0390471 0.325367 0.0461969 0.00194831 -0.151049 0.113728 0.135475 0.0864665 -0.0837585 -0.0318368 0.131194 -0.197652 -0.0449279 -0.0309829 -0.0768053 -0.0967045 0.202815 -0.155287 0.0271468 -0.11979 -0.121919 0.115428 -0.00515421 0.0472422 0.184637 -0.0274759 -0.172062 -0.0170956 -0.109166 0.0871331 0.16579 0.321034 -0.157778 0.0314434 0.187245 -0.077141 0.0997898 -0.019936 0.131269 -0.26442 -0.0335307 0.0131219 0.308337 0.0527992 0.138951 -0.045413 -0.0973513 0.0578234 0.127706 -0.0451222 0.0963206 0.042964 -0.0357476 0.165082 -0.0360865 0.157621 0.0446963 -0.287177 -0.223826 0.255174 -0.179823 -0.0454929 0.109028 -0.114407 -0.0136041 0.189944 -0.147619 -0.031493 0.19923 0.179682 0.211281 -0.0303815 0.0481589 -0.0303508 0.0428851 -0.131581 -0.143068 -0.0431371 0.0513444 -0.207939 -0.0936844 -0.0893817 0.00718998 0.032891 -0.0923545 0.00944087 -0.121105 0.230678 -0.0281836 0.0703935 -0.12902 -0.0202868 0.00530786 0.172761 0.0987445 0.198744 0.111061 0.0626145 -0.102377 0.0108918 -0.122794 0.272321 0.172309 -0.0214929 -0.178385 -0.0415991 -0.0241622 -0.186129 0.00900497 0.0917938 0.0256557 -0.154863 -0.0489484 0.148529 0.0399434 -0.0428056 -0.150692 -0.193843 -0.0292355 -0.245715 0.0919077 0.0346682 -0.0628409 0.105309 -0.0670846 -0.0990022 0.0649136 -0.139433 0.0724714 0.16475 -0.16151 0.0599353 -0.0509705 0.223047 0.300018 -0.0360175 0.00383327 -0.0189512 0.0513908 -0.00689922 -0.301977 0.0209676 0.0943132 0.0364922 -0.0478473 0.162667 0.136827 0.153221 -0.165192 -0.205217 0.184738 -0.154544 0.256382 0.0853408 0.0146442 -0.0796429 -0.1587 -0.142727 -0.0181092 -0.215746 0.0570608 0.0724019 0.0546974 0.0848756 0.0697941 -0.0710578 0.0764224 0.0585529 -0.226783 0.022629 0.24778 0.0587978 0.0979956 -0.0928693 -0.0514825 -0.251977 -0.0790231 -0.205188 0.159513 -0.224469 0.249802 -0.0290356 0.0616774 -0.100372 0.176086 -0.0493768 -0.00257899 -0.042418 -0.097573 0.013102 0.000312032 0.29859 -0.157625 0.069752 0.0784227 0.0500935 -0.0758811 -0.0264603 -0.0599442 0.0922339 0.147423 -0.111717 -0.257414 0.236816 -0.16916 -0.135714 -0.081196 0.0366184 -0.0615881 -0.0369394 0.012687 -0.0910061 -0.146121 0.123615 0.0814367 0.037251 0.125279 -0.067451 0.0775013 0.105837 0.102982 0.0254751 0.0714946 -0.126953 -0.0540024 0.118412 -0.212269 -0.140903 0.0538346 -0.134205 -0.0328305 -0.237273 -0.0398479 0.0567086 0.120307 -0.311577 -0.106209 0.0245163 0.0512267 0.0130652 0.0930636 -0.0508523 -0.0686046 0.130388 0.11322 0.132507 -0.0164181 0.000991412 -0.0898469 0.0814924 0.0501006 0.257825 0.187751 -0.0786468 0.0699525 0.0550255 0.0939345 0.135214 -0.0770011 0.128678 -0.157436 0.269854 0.106751 0.0145521 -0.120944 0.125927 0.0270858 0.165995 0.276118 0.0488676 -0.0776677 -0.0111173 -0.0681526 0.0267497 -0.106882 -0.120071 0.188905 0.111719 0.230925 0.138383 -0.0589788 0.238264 -0.0983398 -0.162534 0.0333931 0.272027 0.0665078 -0.0122667 -0.0732666 0.0645685 -0.184124 0.154384 -0.231419 0.132863 -0.106771 -0.0881179 -0.0149653 -0.0301839 -0.0310775 -0.0614836 -0.250263 0.122187 0.15265 0.00687464 0.0261984 0.3286 -0.0498807 -0.198485 -0.015334 -0.0453922 -0.0639761 -0.0868873 -0.00718667 -0.0417674 -0.121805 -0.00890332 0.00220408 0.157462 -0.0334447 0.0914264 0.133791 0.18469 -0.103925 0.0506386 -0.0956478 0.0990859 0.0091728 0.0244818 -0.111073 -0.236187 0.171422 0.103532 -0.171824 -0.0444679 0.103654 -0.0781764 0.144248 0.0406072 0.187318 -0.1839 0.216361 -0.155206 0.0533949 -0.116221 -0.0972983 0.146784 -0.122768 -0.00678623 0.0676581 -0.0187328 0.2379 -0.139687 0.00612009 -0.0873133 -0.123047 0.431824 -0.0519472 0.130254 -0.0400697 0.132357 -0.120066 -0.151036 0.114494 -0.0446537 0.120765 -0.0554278 -0.157044 -0.0097321 -0.0875303 -0.0286621 0.242053 0.0751932 0.020814 -0.171709 -0.166372 -0.00665385 0.138005 -0.0552217 -0.202661 0.0915158 0.022949 -0.0952795 0.0107873 -0.24095 -0.186908 -0.267675 0.0225065 0.152264 0.122519 0.0995251 -0.264914 -0.096601 -0.0687015 0.0235575 -0.0780658 0.162237 -0.127246 -0.0241764 0.0464871 0.123117 -0.064316 0.0282465 0.125199 -0.0385246 -0.160494 -0.162505 -0.0592984 -0.0475221 -0.219193 -0.144078 -0.0917214 -0.110997 0.0861067 -0.029202 0.24449 0.257193 0.173936 -0.0269374 0.121732 0.0110942 0.0263232 0.0773211 0.0314661 0.169348 0.0301078 0.0663593 0.0295031 0.0312363 0.124875 0.0765619 0.0776247 -0.406249 -0.0130978 -0.0511553 0.0432089 -0.0764659 0.0943118 0.162979 -0.0601272 -0.299759 -0.136703 0.174301 0.0213808 0.178236 0.153088 0.346249 0.0477802 -0.231765 -0.0388745 -0.169068 -0.364698 -0.114362 0.369725 -0.0474284 -0.12393 -0.142642 -0.148264 -0.130965 0.0850463 -0.0626031 0.00448334 -0.0305503 0.130996 -0.206764 0.03047 -0.0843546 0.250763 -0.0214239 0.00567568 -0.196048 0.150119 -0.0400862 0.214851 -0.0673144 -0.0711391 -0.0879619 -0.245788 0.0949538 -0.138416 -0.193388 -0.176095 0.15201 -0.10254 -0.116152 0.0369352 -0.0363423 -0.0350062 -0.0809445 0.0515038 0.015552 0.0559256 -0.0626187 0.114878 0.124508 0.321764 -0.0698631 -0.053133 -0.174539 0.245711 0.0298435 0.0846128 0.0762196 -0.110484 -0.0611418 0.190095 -0.284616 0.0431839 -0.0806864 0.00115499 0.121417 -0.210794 -0.0757685 0.0409935 -0.1631 -0.141808 0.0965594 0.26125 0.109069 0.0556689 0.192752 0.0616448 -0.0365513 0.0400564 0.145995 -0.146451 -0.0754258 -0.116754 0.00484927 0.109503 -0.0229575 -0.141221 0.0458602 -0.144117 0.416104 0.0441289 -0.00772942 0.064524 0.0750234 0.100694 -0.0910227 -0.0485626 0.00879695 -0.272984 -0.0504622 -0.0910468 -0.320728 0.0142736 0.0268083 0.0930329 0.120972 0.0104573 -0.102861 -0.0687322 -0.325666 -0.16348 0.13518 0.229824 -0.206144 0.279321 -0.170713 -0.121363 0.042399 -0.019241 -0.226489 0.0715764 -0.120102 0.0988017 -0.201528 -0.0727054 -0.101128 -0.0291155 0.128043 -0.106269 -0.0166422 0.0989975 0.1967 -0.143853 -0.0655476 -0.0674794 -0.026952 -0.150075 0.00691955 -0.127111 0.00207076 -0.135188 0.0386097 0.0583519 -0.223351 0.00823056 0.0752192 -0.0777221 -0.00198802 0.0818631 0.14878 -0.0596223 0.183418 -0.161445 -0.0999846 -0.332616 0.092111 0.0954753 -0.0900388 -0.14963 -0.171143 -0.140606 -0.139693 -0.261328 0.0329483 0.00469325 -0.0545891 -0.155507 0.063214 -0.210879 0.0402162 -0.168294 -0.0715438 0.0100895 0.105414 -0.114388 -0.0051126 0.222777 -0.0217539 -0.183013 0.0905731 -0.0971484 0.131889 0.00615413 -0.158973 0.00951131 -0.282137 0.116991 0.0137682 0.0322131 -0.0501994 -0.314256 0.182378 -0.0899471 -0.216398 0.166566 -0.024894 0.106069 -0.189169 -0.0203781 -0.000664251 -0.167151 0.101267 -0.0358019 -0.125184 -0.140429 -0.0890616 0.0270518 0.0514957 0.00759751 -0.0862642 0.13052 -0.203351 -0.051865 -0.083766 0.140285 -0.0851186 0.208189 0.14083 -0.181053 0.108387 -0.454358 -0.0271383 0.00260689 0.0131058 -0.0797191 -0.149167 -0.244663 -0.130132 0.0622098 0.0227708 0.0817014 0.210142 0.0346791 -0.0951822 -0.0506674 0.0954932 -0.326921 0.081726 0.311093 0.160859 -0.00226791 -0.130623 -0.0813128 0.257339 0.0295168 0.0968728 0.0195914 0.283756 0.0429177 -0.164825 0.0336688 0.0951462 0.125744 0.0234667 0.0607021 -0.131272 0.216632 0.0845863 0.0730524 0.251146 0.0899168 -0.107037 0.00344607 0.154768 -0.0428576 -0.128893 0.0416743 -0.0360516 0.19395 0.0991407 -0.0311508 -0.0318193 -0.0825283 -0.049373 0.215551 0.142644 0.0322112 0.0383615 -0.193079 -0.138252 -0.294833 -0.0738888 0.368837 -0.372678 -0.0878971 0.0869738 0.177417 -0.0227949 -0.231936 -0.123442 0.275255 0.112621 -0.0454886 -0.182352 0.421779 -0.224286 0.0127678 -0.081561 0.0668283 0.00938461 0.0968728 0.333693 -0.00160318 0.0228885 0.170998 0.293238 0.0480516 0.0552576 0.29722 0.219755 0.0541986 0.0374609 0.103151 -0.21971 -0.0857167 0.0035827 -0.224616 0.325542 -0.0921928 0.243027 0.106881 -0.207816 -0.0364236 -0.0921762 -0.0775599 0.079052 0.144136 0.210201 0.163443 -0.281971 0.108134 0.128613 -0.0565937 0.125527 -0.376837 -0.170306 -0.184296 -0.117214 -0.227142 0.244472 0.0858491 -0.0892805 -0.0495351 -0.121899 0.108635 0.0954587 0.130586 -0.0350148 -0.188808 -0.163077 0.248741 -0.0652431 0.0484752 0.233004 -0.0905655 0.328075 0.0025563 -0.120321 0.0682471 -0.0554042 0.0656379 0.0193488 -0.00138618 0.171991 -0.0570627 -0.00701316 -0.00660516 0.0681185 0.14441 0.019537 0.167133 0.183507 0.130473 0.0492935 0.099379 0.116014 0.037789 0.107783 -0.115557 0.171902 -0.0252401 0.00953873 0.0554335 -0.110306 0.102211 0.0750811 0.0771245 -0.111971 0.227751 0.325343 0.122646 -0.0278659 -0.336791 -0.13171 0.0695326 -0.0719958 0.174828 0.129529 0.385977 0.0371489 0.051787 -0.0575979 -0.0256911 -0.00327729 -0.0691728 0.0909513 -0.132295 0.00627469 -0.0561956 -0.165128 -0.0327478 -0.0550699 0.0265261 -0.0736983 -0.0169585 0.0124127 0.0367357 -0.106551 -0.116038 0.272318 0.0190222 -0.039283 0.0581874 0.0840535 -0.0376949 0.122899 0.436523 0.0216432 -0.0120809 -0.0458163 -0.333016 0.0852416 -0.0692759 -0.177035 0.0191465 -0.0378476 0.216638 0.248524 0.084174 0.258401 0.12879 0.0376836 0.0814622 0.0116317 -0.090279 0.132632 0.19028 0.105382 0.21135 0.0298709 0.183256 -0.0773126 -0.034872 -0.181908 -0.136284 -0.0608137 -0.0656213 0.0198268 0.162544 0.0607796 -0.0529708 -0.00429517 -0.110951 0.0690594 -0.137062 0.111275 0.072426 0.106254 0.18622 -0.0145998 0.0387038 0.0158494 0.000357892 0.151064 0.0541178 -0.0380344 0.030965 -0.00661981 -0.0586365 0.058898 -0.0766479 0.13075 0.102811 -0.0224086 -0.0408833 -0.0863318 0.103455 -0.0529907 -0.129413 -0.140583 -0.111882 -0.110266 -0.0839882 -0.182685 -0.111248 -0.217622 -0.0162876 -0.111829 0.0800037 -0.193961 -0.143622 -0.00929478 0.145817 -0.303417 0.203268 0.0939993 0.0358308 -0.0412072 -0.00396659 0.0882106 -0.178216 0.115854 -0.119095 0.249313 0.0772568 0.280477 0.163743 -0.038292 -0.0313403 0.0505573 0.119907 0.107715 0.139187 0.0900478 -0.0337127 0.0467505 0.151903 0.00628272 0.147422 0.0811369 0.0805611 -0.0588923 0.148075 0.00377985 -0.0318958 0.0470918 -0.00994059 0.159206 0.317931 -0.0491914 0.123502 0.0668473 0.0370231 -0.231871 0.116797 0.0214295 0.0677465 -0.123555 -0.12299 -0.260503 0.199714 -0.0129588 0.0315838 0.0301991 -0.0444452 -0.171022 0.119555 0.193472 -0.216999 0.111358 -0.141774 -0.238634 -0.238815 0.00557971 -0.0171306 -0.143905 0.205641 0.0473235 -0.174915 0.297818 -0.116826 -0.0170204 -0.0562552 0.197206 0.154708 0.147732 0.0951831 0.169617 -0.0627818 0.246665 -0.000462848 0.0942011 0.054235 -0.038605 -0.0884768 0.151107 -0.0687161 0.0186453 -0.201103 0.201106 0.00830195 -0.018773 0.204376 0.125169 -0.124508 -0.0210513 -0.0409992 -0.0282143 0.319219 -0.0293797 0.0368936 -0.169242 0.192086 0.196707 -0.210952 -0.201915 -0.0513307 -0.156776 -0.068519 -0.0915701 -0.00921157 0.14739 0.00472209 -0.0939993 0.245288 -0.0724875 -0.12111 0.0693572 -0.125004 -0.123789 0.0737157 0.0407387 0.075178 0.143821 0.0241092 0.0177788 0.153748 -0.0778771 0.0768843 0.0948734 0.0414199 -0.0204627 -0.130101 -0.000927587 -0.00340399 0.0439133 -0.271039 -0.124189 0.301191 -0.0255299 -0.0993733 0.211838 -0.0528039 0.213085 -0.0272527 -0.0486567 0.269387 0.409263 -0.165894 0.0472946 -0.258683 0.257828 0.183442 -0.139205 -0.0985252 0.13702 -0.206479 -0.280406 0.171006 0.0193862 -0.17465 0.140789 -0.104148 0.0521874 0.284578 -0.189538 0.132764 0.00237428 0.1162 0.0751156 -0.221504 -0.190865 -0.164874 -0.18261 0.103859 -0.168807 -0.0995473 -0.226818 0.0614737 0.026267 -0.032909 -0.0877865 0.134696 -0.106707 0.0132845 0.0705377 -0.246293 0.239537 0.0130448 0.176251 0.0700101 0.0973295 0.0242577 0.0446093 0.013042 -0.241721 -0.163952 -0.157771 -0.0845868 0.0330045 0.0128132 -0.012451 -0.0265634 -0.0178308 -0.200868 -0.061233 -0.0231268 -0.163654 0.18347 -0.0878187 -0.130953 0.0210239 -0.0408597 -0.119349 -0.069066 -0.0955566 -0.102987 -0.0801758 -0.238743 0.221522 -0.0220995 -0.088047 0.0633029 -0.149465 -0.207237 -0.0321611 -0.118454 -0.0309801 0.0504121 0.0395397 -0.143156 -0.174557 -0.0828072 -0.174842 -0.0766838 -0.0165874 -0.0866982 -0.0487551 -0.0196018 0.0662553 0.0268466 -0.0411254 0.0836828 -0.262387 -0.00314018 -0.0371744 -0.227141 0.0635652 -0.293229 0.0548118 0.0322107 0.175757 -0.157458 0.307195 -0.0449284 0.147235 -0.0221727 -0.0445705 -0.0179088 -0.214482 -0.102073 -0.0622434 -0.105966 -0.163399 0.119014 0.00813601 0.143181 0.119588 -0.119931 -0.201499 -0.111125 -0.183241 -0.040125 -0.0346417 0.103184 -0.359193 0.253306 0.0119182 -0.0421234 -0.111915 -0.0943619 -0.117457 -0.172575 -0.158452 -0.145665 0.0397439 0.142734 -0.10308 -0.0189441 0.035332 -0.377448 0.0634608 -0.107612 -0.0875203 -0.017558 -0.132146 0.00941345 0.0502046 -0.0594483 -0.232453 0.146159 -0.303548 0.179455 0.148016 0.224676 0.0152518 0.0652904 -0.0665546 0.182577 0.0050067 0.0409245 0.0958218 -0.0325573 0.124348 0.112965 0.0825099 0.00245418 -0.066539 0.0199507 0.0490898 0.117883 -0.0429248 0.153239 0.29855 -0.192402 0.112046 0.338977 0.137625 -0.141937 0.228004 0.0533396 -0.269221 -0.106561 -0.180886 -0.169129 -0.190158 0.265564 -0.0236398 0.0732373 0.0392428 0.0924216 0.00972501 -0.00499441 -0.138616 0.12659 -0.190643 0.121016 0.0771056 -0.0607711 0.129764 -0.0662681 0.0543385 -0.0586063 0.0549016 -0.0533008 -0.129924 0.0410015 -0.0133266 0.0533632 0.271515 0.169061 -0.0103472 -0.0324641 0.0579723 -0.222912 0.195213 -0.285409 0.0178048 0.0565039 0.32341 0.106623 0.0182775 -0.173165 -0.229068 -0.0265398 0.0388674 0.131626 0.04266 -0.17563 0.215584 0.0172199 -0.0167344 -0.0552293 0.0171651 0.127881 -0.0924883 -0.0775046 -0.10176 0.127948 -0.195901 0.0708432 -0.11617 -0.0626088 -0.216545 0.0763751 0.0805299 0.0198117 -0.126073 -0.0632731 0.0461746 -0.205722 -0.158452 -0.102528 0.0647798 0.113665 -0.177664 0.175612 0.0174421 -0.235381 0.155909 0.0586049 -0.0981422 -0.0171627 0.352329 0.0283798 -0.112873 0.0407183 0.0431243 -0.0606113 -0.141037 0.137083 0.0655386 0.105848 -0.22413 0.175673 -0.146303 0.224108 0.067042 0.10894 0.0836138 -0.108387 0.251188 -0.0210754 -0.114988 -0.0116473 0.112373 -0.100286 0.074518 0.0774625 -0.175213 0.00734552 0.189443 -0.0335279 -0.0866802 0.324475 0.0424931 0.0122789 -0.123309 0.232132 0.0187981 0.283372 0.147022 0.0923639 -0.0145322 -0.0183896 -0.156854 -0.174799 0.135806 -0.0848955 -0.171093 -0.0200987 -0.241745 -0.244973 -0.0711888 -0.0525032 0.1435 -0.308505 0.0994589 -0.0248567 0.13208 0.0949136 0.0377933 -0.0145818 0.0195072 0.112522 -0.0383559 -0.020891 0.178414 0.0486236 0.136388 -0.0551914 0.0345221 -0.0734997 0.0701009 0.0135833 -0.0987426 0.196592 -0.201317 0.013008 0.193861 -0.0595906 -0.11927 0.000773462 -0.43067 -0.012426 0.136362 0.515672 0.0275733 -0.03541 0.433568 -0.252879 0.0253243 0.0103836 0.14625 -0.124375 0.028386 0.211972 -0.0956507 -0.0209005 -0.134945 -0.172634 0.0184969 7.80081e-05 -0.00124387 0.0580139 0.119029 0.155916 -0.116198 -0.16155 -0.0356133 0.0378585 -0.0918576 0.0176804 -0.0873639 0.262814 -0.148899 -0.219966 0.125356 0.0520408 -0.0332825 -0.00213317 -0.0796245 -0.261305 -0.194795 0.225207 0.0304061 0.00639052 0.198913 0.126211 0.0946716 0.108677 0.0407514 0.0434297 0.0132061 0.068971 -0.00320164 0.0500717 -0.209482 -0.122633 -0.0632263 0.0799455 -0.0221165 -0.033552 -0.259151 -0.0916193 -0.337789 0.244647 -0.050197 -0.0397217 -0.121238 -0.115587 -0.0397212 0.0952134 -0.0492794 -0.0931842 0.0366156 0.112856 -0.119328 0.0736793 -0.076047 -0.135348 -0.0766455 0.133892 0.131303 0.140637 -0.160497 -0.011905 0.241108 -0.0279274 0.0690783 -0.119017 0.043277 0.0783438 -0.0759184 0.134725 0.205921 0.211064 -0.134745 0.162737 0.289476 0.0882829 0.1289 0.182799 0.315548 -0.145187 -0.171414 -0.164889 0.0761557 -0.0460867 0.110687 0.0943685 0.0422615 0.0882664 -0.143759 0.0178587 -0.0887931 0.0515014 0.148793 0.154574 0.458214 -0.0500769 -0.148611 0.0751653 -0.199746 -0.0445469 0.00608416 0.0542908 0.159826 0.080935 -0.335353 -0.110951 -0.242393 0.160512 0.0128652 -0.0336782 0.104101 0.0913787 0.0736113 -0.129855 -0.00534474 0.0845778 0.00236435 -0.0963665 0.0121149 0.0536421 0.187405 -0.158256 0.0740524 -0.0121069 0.0386755 0.091443 0.244577 0.161727 -0.105016 -0.204185 0.0131044 0.128256 0.0649722 0.112127 -0.0948711 0.0405599 -0.116639 -0.00831755 0.0505507 -0.0384462 -0.0924197 -0.0856103 0.0299655 0.154955 0.00724671 -0.103118 -0.20099 0.0469041 -0.0798429 -0.226414 0.15584 -0.135015 0.106937 0.126507 0.0853522 -0.0988031 0.10241 0.100059 0.277071 -0.103413 -0.176236 -0.0769079 -0.198981 -0.000712474 -0.0273232 -0.115666 -0.0315503 0.276675 0.331304 -0.29883 0.0494571 0.0435701 0.165509 0.0686438 -0.0164408 -0.0789707 0.105695 0.169983 -0.0871374 -0.113468 -0.032509 -0.0517506 0.0967083 0.0354989 0.170648 0.0233173 -0.0682585 0.184713 0.120453 0.269301 -0.00724766 -0.130773 0.187692 -0.0653263 0.0614926 0.109922 0.173102 -0.15095 -0.00802916 0.0179806 -0.139578 0.0186576 0.137567 0.346995 -0.0250694 0.00132425 0.0832394 0.0282281 -0.145118 -0.278128 -0.0427461 0.0999094 -0.0643987 -0.00897235 0.111741 0.253794 -0.000182492 0.126274 -0.0922264 0.0714039 -0.0576182 0.131533 0.132554 0.179734 -0.154548 0.00767505 -0.0324556 0.0864372 0.23495 0.214998 0.0113471 -0.0907395 0.109242 0.0429754 -0.0660114 -0.0591462 0.0267223 -0.00668033 0.197669 0.153132 -0.0371408 -0.132449 0.0155742 0.0556292 -0.0563469 0.174319 0.309977 -0.151203 -0.00842156 0.16229 -0.0809714 -0.0420336 -0.0804126 -0.0329563 -0.18333 0.0576031 -0.223773 -0.122372 0.19198 0.130512 0.157554 0.108587 0.304846 0.170102 -0.188094 0.120759 -0.0529339 -0.0840123 0.105775 0.175099 -0.0103254 -0.158058 0.0216016 -0.148543 -0.156801 -0.188042 -0.0968974 -0.0242761 -0.106836 0.0834441 0.104742 0.286212 -0.041687 -0.185309 -0.075362 -0.139522 0.0554373 0.12334 0.0353481 -0.132261 0.134639 -0.286275 0.00476653 0.166599 -0.0437876 0.21357 -0.287172 -0.287192 0.0429711 0.337459 -0.0513652 0.0684443 0.326738 0.0577714 0.313172 -0.131588 -0.184848 -0.199119 -0.081909 0.26899 -0.0508764 0.0747535 0.0259895 -0.192502 -0.133391 0.0305697 -0.0965858 -0.124167 0.0221836 -0.0221595 -0.109126 -0.287328 -0.257495 -0.062518 0.0549981 0.227576 -0.273546 0.00371129 0.123652 0.173889 0.0258273 0.0785338 0.0672472 0.0121017 0.0552122 -0.091695 -0.0454844 -0.0791087 0.169053 -0.00824238 0.0215567 0.0214744 0.106356 -0.0293561 -0.118462 0.0292535 0.0279954 -0.112715 0.206001 -0.0978051 -0.0383998 0.0903995 -0.0851815 0.108395 0.00562604 -0.158981 -0.145147 -0.204513 -0.0350365 -0.0479485 -0.00394721 -0.298506 -0.238392 -0.0118241 0.0664577 0.0674141 -0.0807228 0.00528327 -0.0604468 0.0923885 0.13725 0.0489947 -0.00489182 0.059445 -0.0797035 0.0517293 0.025728 -0.124291 -0.322884 0.138371 0.163979 0.181751 0.193217 -0.0371361 0.251888 0.0943307 0.0743029 0.0730747 -0.0622741 -0.0863847 0.0212972 0.119362 0.0108313 0.0934594 -0.0556458 -0.185457 0.172109 -0.025338 -0.193217 -0.126014 -0.209192 -0.0713476 -0.0986958 0.0991355 -0.274097 0.0398153 0.111279 -0.276834 0.298726 -0.175747 0.121222 -0.032917 -0.0300771 -0.0726397 0.0464328 0.145529 -0.0627298 -0.119264 0.0409878 0.0287117 0.309044 -0.0123139 0.0729465 0.185718 0.00969711 0.121234 0.197764 0.0885018 -0.00291798 0.0150598 -0.0379223 0.07511 0.0755842 -0.278889 0.166954 0.068023 -0.0488714 -0.251425 -0.183782 -0.0570906 -0.113691 0.229827 -0.0837282 -0.102939 -0.127308 0.197557 0.0930627 -0.196626 0.00507951 -0.0188113 -0.0163912 0.219492 -0.289154 -0.333115 -0.0430808 0.0875251 -0.101765 -0.0985691 -0.0260523 -0.0694967 0.0531358 -0.0818328 0.0681304 0.12331 0.0192912 -0.0152305 0.186992 0.0237329 0.154697 -0.0940962 0.100743 -0.149311 0.213914 -0.0417055 0.0104952 -0.0344361 -0.0290772 -0.0999028 0.365737 -0.128094 -0.117334 0.0223633 -0.220749 0.18482 -0.146897 0.0828668 -0.0373886 -0.0598166 -0.0737389 -0.211594 -0.0712876 -0.0534544 -0.0313072 0.188155 0.10367 0.105554 -0.262851 0.0640844 -0.0438543 0.0155127 -0.0185801 0.11194 0.0414682 0.106922 -0.00181499 0.0874282 0.0239773 0.0501218 0.0761094 0.22481 -0.130595 0.034029 0.150724 0.232516 -0.168783 0.0921049 -0.319135 0.144896 0.0743729 0.105748 -0.0695397 -0.0454045 0.00712852 0.10761 0.111414 0.209501 0.057508 -0.204099 -0.277554 -0.000927587 0.188396 0.0261488 0.00901868 0.115059 -0.116913 0.108045 0.0979304 -0.0194784 -0.00264849 -0.0605938 0.22965 0.157354 -0.0981361 -0.0542099 0.0594412 -0.0766602 0.0691672 -0.097798 -0.176496 0.028802 0.33898 -0.185051 0.0473793 -0.024373 -0.121987 0.168514 -0.0129673 -0.177312 0.0598157 0.0792463 -0.129025 -0.0298071 -0.00956379 0.067312 -0.049338 0.257131 -0.0219775 0.0722667 -0.112114 -0.163861 0.104256 0.0513369 -0.0554013 0.0551697 -0.117751 0.0651405 -0.0260079 -0.116462 -0.045292 -0.159992 0.0215506 0.124256 0.0404942 0.0587396 0.145613 -0.0941184 -0.24817 -0.101425 0.000390986 -0.14039 -0.126186 0.0272229 -0.0152669 0.0598606 0.0301683 -0.0594379 -0.0487186 0.160694 -0.0668681 -0.199547 0.406556 0.131128 0.178364 0.0331596 0.000157434 -0.214901 0.240407 0.032657 0.155869 0.120062 -0.258149 0.0467765 0.0884153 0.183754 0.27233 -0.138538 -0.202449 -0.0414228 0.0336933 -0.141368 0.0156456 -0.281552 -0.188298 -0.156184 -0.223953 -0.113513 0.311231 -0.240607 0.0299102 0.0711169 -0.0660279 -0.0351065 -0.0825118 -0.260859 -0.0105084 -0.222383 -0.13028 -0.157319 -0.121804 -0.0899603 0.0200192 -0.0825992 0.0498571 0.0928135 0.213666 0.0492614 0.0665858 0.0364823 -0.0480199 -0.0234587 -0.0225476 0.0754234 -0.0317951 0.0277037 0.131703 -0.0312377 -0.0771519 0.00921063 0.0777996 0.105699 -0.110405 -0.110161 -0.155891 -0.0936678 -0.223794 0.154598 0.0270712 0.212089 0.0517246 -0.152152 -0.0766229 -0.236776 0.0510641 0.104602 0.021135 -0.132313 0.0460219 -0.0830947 0.10617 -0.00395619 -0.318581 -0.0914444 -0.0740699 -0.133587 -0.173563 -0.0724359 -0.0115258 0.0415476 0.303769 0.120059 -0.0589978 0.0263653 -0.0360322 0.0141374 -0.162932 0.135257 -0.0301499 0.0842208 0.219936 -0.221946 -0.0735101 -0.227032 0.0628079 0.130071 0.004411 0.142858 0.0348053 0.167936 -0.0112086 0.390531 -0.198266 0.0630669 0.156174 -0.0545016 0.00583973 -0.121244 -0.0108384 -0.0422889 -0.00280025 -0.173502 0.208329 0.0517156 -0.039213 -0.105844 0.20658 -0.216053 -0.140029 -0.180386 0.0563592 0.0686958 0.349746 -0.0907782 0.170467 0.0729106 -0.100029 -0.235402 -0.0584422 -0.115292 0.0648143 -0.0394338 -0.0999085 -0.0336319 0.197656 0.102633 -0.0440065 -0.0992282 -0.0638314 0.0842076 0.0788529 -0.394538 0.0204514 0.0870589 -0.0398139 -0.182071 0.0762943 -0.0599258 0.235975 -0.270278 -0.119605 0.132584 0.038388 0.093197 -0.107997 0.0914165 -0.361178 0.123492 -0.0176402 -0.0144353 0.151247 0.0335718 -0.100721 0.390184 -0.112691 0.0712663 -0.0665882 0.26566 0.0686679 -0.0669262 -0.0646928 -0.247521 0.0592582 -0.16898 0.0281987 -0.202115 -0.273714 -0.109155 -0.178533 0.117337 -0.0867838 -0.118328 -0.158642 0.0822503 -0.0256259 0.0346696 -0.0775887 0.0282451 -0.0227812 -0.19804 -0.29246 0.291471 0.0127002 -0.182859 -0.00248208 0.155688 -0.215923 0.0505256 -0.261019 0.0118497 -0.198435 0.0821969 -0.174384 0.279903 -0.0385856 -0.226642 -0.0159103 0.0603868 -0.0147407 -0.0409434 -0.228849 0.174992 -0.225809 -0.153696 -0.0229065 -0.139437 0.236358 0.0287798 -0.269129 -0.0728837 -0.0503667 0.177631 -0.0298563 -0.115793 -0.0499592 -0.0152409 0.074215 0.0748334 -0.0709443 -0.0960965 0.0629955 -0.000898275 0.0492921 -0.0970293 -0.0194075 -0.0283874 0.00684722 -0.092806 0.111322 0.143614 0.0916326 -0.125837 0.0356866 0.0828323 0.0479348 -0.0338253 0.0792378 0.360153 0.155387 -0.00883524 -0.0947056 0.106071 -0.0748901 0.0714393 0.0866315 -0.0772096 -0.0388414 0.0309408 -0.0896833 0.12439 -0.016914 0.194675 0.0862046 0.00698149 0.1867 0.350753 -0.124262 0.0190855 0.166511 0.0472266 -0.0440845 0.163019 -0.0212451 0.11703 -0.00563833 0.0965121 -0.216623 -0.118518 0.192752 -0.0363693 -0.173399 0.0412611 0.145186 -0.02499 0.254702 0.0234166 -0.355188 0.166106 -0.29422 0.0436231 -0.014831 0.036347 0.0932305 -0.189666 -0.00652715 -0.0741256 -0.227913 -0.0524309 -0.0168663 -0.0650356 -0.0255985 -0.0625753 0.1545 -0.0530937 0.226116 -0.0683374 0.00159987 0.0904104 -0.136801 0.0392603 0.124124 