0.204629 -0.0793976 0.124883 0.025781 0.0151936 0.0501597 0.10545 0.0469013 -0.0381445 3.78221e-05 0.0139181 -0.173022 -0.0876116 0.125178 -0.139764 0.0805299 0.032266 0.16208 -0.306205 -0.0211799 0.085659 -0.0583236 -0.113994 0.11873 -0.179426 -0.294724 0.00433961 -0.0150584 -0.00643023 0.0396314 0.0763226 -0.117553 -0.327662 -0.0335085 0.363049 0.161442 0.209868 0.192095 -0.0452489 0.0401713 -0.165327 -0.0205119 -0.0390371 0.173512 -0.207775 -0.0649112 -0.163023 0.0143398 -0.107525 -0.119937 0.0858524 -0.231413 -0.226684 -0.12872 -0.0303229 -0.0213373 -0.110333 -0.0790624 -0.11961 -0.0732969 0.212018 -0.21879 -0.092329 0.209568 0.0327502 -0.0809743 0.0727432 -0.0983578 0.0897216 -0.0511492 -0.104098 0.231739 0.0077124 -0.0618779 0.233811 -0.112799 -0.118805 0.070004 -0.0627209 -0.0830446 0.275827 -0.0123593 -0.154429 0.174951 -0.0501129 -0.0265866 -0.120175 -0.185429 0.0342333 -0.0821444 0.0341344 0.129623 0.0697444 0.100946 -0.142858 -0.213426 -0.0294176 -0.0308416 0.152953 -0.117231 0.0550274 0.0255725 -0.0556122 0.0135299 -0.0481173 -0.118369 0.00558112 0.0618637 -0.147287 0.0684339 0.128397 0.0161278 -0.112492 0.0375091 -0.364955 -0.146944 0.0405524 -0.0872802 -0.0231467 0.19014 -0.123782 -0.084861 -0.100175 0.315033 -0.155575 -0.076404 -0.190907 0.242596 -0.257374 -0.0829164 -0.136001 -0.174038 0.00432543 -0.0751936 0.0902279 0.0616335 -0.104154 -0.110532 0.214731 -0.208651 -0.0777854 0.104074 -0.131373 -0.0866443 -0.139652 -0.154161 -0.139139 -0.0972255 -0.0471315 -0.135205 0.0805535 0.180556 0.11286 0.416592 -0.0475301 -0.186111 -0.0310548 0.214102 -0.0346417 -0.0628892 -0.111676 -0.0367177 -0.18576 0.0815747 -0.23981 -0.142153 0.159863 -0.0460645 0.0307877 -0.0821605 -0.0298832 -0.101306 0.0444429 -0.102965 -0.115022 -0.0610174 -0.0244085 -0.0449724 0.393633 -0.035567 0.0405987 0.0842676 0.205285 0.058229 0.211614 0.147351 0.0996759 0.0887737 0.0826309 -0.167609 0.0393232 -0.147251 -0.143558 0.0753237 -0.00720275 0.110384 0.306243 0.0224706 -0.0375796 0.38091 -0.0380155 -0.134368 0.17247 -0.0214395 -0.0739526 -0.305172 0.136217 -0.12565 -0.123326 0.142977 -0.243111 0.0511331 -0.256028 -0.043025 0.259619 0.224494 0.38548 -0.0492297 0.15375 0.0595277 -0.109399 -0.115299 -0.0820087 -0.185814 0.16072 -0.19096 -0.139296 -0.0821851 -0.18639 0.18602 -0.0216484 -0.0450485 -0.0697605 -0.235082 0.0643269 -0.00754456 -0.0466058 -0.330572 -0.00677016 -0.0689383 0.0191782 -0.279511 0.048035 0.105306 0.0181735 0.023671 -0.0351173 0.253965 0.0533396 -0.0593547 -0.172845 -0.168052 0.183945 0.517533 -0.128954 0.134207 -0.164159 -0.0893755 0.146192 0.0926916 -0.0734808 -0.341043 -0.126527 0.0210447 -0.148967 0.0161429 0.164673 0.182128 -0.11849 -0.0884314 -0.105443 0.234937 0.0300558 0.29102 -0.161314 -0.178711 -0.0950956 0.0126605 0.26247 -0.193859 0.105975 -0.112422 -0.198471 -0.0827642 0.25199 -0.150493 0.0792888 -0.0115915 -0.173261 0.170591 -0.0433881 0.0303121 0.028073 -0.0868925 -0.22077 0.089029 -0.105996 0.25114 0.217848 -0.248657 -0.041228 0.230299 0.0671404 0.223027 -0.19129 -0.270918 -0.57365 -0.05322 0.252378 0.0502968 0.0578517 0.224997 0.0506395 0.166336 0.0303886 0.00527004 -0.197095 0.0157955 -0.148362 -0.0461245 0.23453 0.236224 0.0599873 0.157164 0.126974 -0.00745946 0.0199937 0.0576669 -0.230347 -0.148208 -0.0816272 0.196212 -0.0618618 -0.0344583 0.0602487 0.00817808 -0.0991885 -0.2212 0.1872 -0.00421622 0.107311 0.14812 -0.0296435 -0.0444608 -0.152823 0.163288 0.0317403 0.0420166 -0.20256 0.0685752 -0.235269 0.00832654 0.169681 -0.142387 -0.0211033 -0.0918836 -0.0138821 -0.137416 -0.145764 0.0448168 0.199982 -0.0651084 -0.251811 -0.0901395 -0.0842024 0.163853 -0.0194978 0.00624727 -0.0128746 0.127822 0.272976 -0.0748098 -0.386149 -0.11978 0.153848 -0.214025 0.136853 -0.318905 0.203575 0.0119612 0.258265 0.063223 -0.0612571 -0.00347065 0.262838 0.0156219 0.218993 -0.062528 -0.00581184 -0.0229226 0.00283193 -0.0667726 0.174988 0.259539 -0.0710413 0.0591098 -0.159928 0.106953 0.128528 -0.122105 0.146004 0.0940343 0.0651547 -0.0501138 -0.0657897 -0.15856 0.18751 0.0572863 -0.0105926 0.153321 -0.0928178 -0.161565 -0.239125 -0.166329 -0.160082 0.11947 0.1248 0.124088 -0.0711055 0.123713 -0.0499152 0.172359 -0.0976264 -0.219603 0.0498264 -0.0975252 0.0415334 -0.0845641 0.110263 -0.0254708 -0.0493493 -0.236375 -0.0918808 0.0378642 -0.065055 -0.00957325 -0.0496079 0.118688 0.134411 0.0270958 0.186069 -0.0848875 -0.108288 -0.202295 -0.257646 -0.0931591 -0.0182123 -0.0777178 0.0954497 -0.0227429 -0.0608246 0.0209459 -0.271941 0.0805077 -0.202424 0.0631851 0.133374 -0.181174 0.100204 0.0910019 0.131674 0.200502 0.0149615 0.154039 -0.314851 -0.0590294 0.120197 -0.0708493 -0.0415258 0.00367016 0.159303 -0.137097 -0.0207936 0.223527 -0.183915 0.269598 -0.0993771 0.121924 0.0973687 -0.143053 -0.146898 0.0260103 0.139439 0.245671 -0.0159633 0.185127 0.0549394 0.291481 0.213774 -0.169225 0.232647 -0.0579992 -0.0558623 -0.0562107 0.18084 -0.0240875 -0.162696 -0.0101202 -0.0407566 -0.0392007 0.00183201 0.137216 0.00232748 -0.274095 -0.36632 -0.0316595 0.016681 -0.0155818 -0.287522 0.350707 -0.234936 -0.0328348 -0.384669 -0.154357 -0.163412 0.0262263 0.202825 0.0281448 -0.0923748 0.11808 0.0329152 -0.253526 -0.0359764 -0.0580494 0.116538 0.0403434 -0.216682 -0.289918 0.165741 -0.101101 -0.043112 0.0693653 0.00522512 0.220843 -0.0405004 0.0412767 -0.17601 -0.10845 0.144994 -0.222751 0.114643 -0.227537 -0.130713 0.137729 -0.180203 0.0315975 0.00834072 0.0523723 -0.130319 -0.0514149 -0.400618 -0.0363305 0.210151 0.00762257 -0.160623 -0.148252 -0.0194198 -0.0623795 0.111308 -0.0402597 -0.0457236 -0.141378 -0.0228469 -0.157688 0.0396787 -0.176875 -0.0320018 0.245614 0.0503242 0.276397 -0.231138 -0.265066 0.328065 -0.0209326 0.0114393 0.133812 0.159281 -0.0504396 0.134447 0.165104 -0.288775 -0.278832 0.110764 -0.217532 -0.0417641 0.215936 -0.187098 -0.0479442 -0.054279 0.17801 0.20324 -0.0464966 0.144879 -0.0521259 0.1218 0.0734302 -0.0510726 0.0353457 0.0272121 0.00307825 -0.130704 -0.185553 -0.0893642 -0.0897514 0.275609 0.190443 0.328228 -0.00832181 -0.00103727 -0.111945 -0.204453 -0.189076 -0.225085 -0.214182 0.0621914 0.0557867 -0.225545 -0.0686996 -0.0627748 0.0216144 -0.101745 0.258955 -0.134214 -0.169876 0.168343 -0.212374 0.245524 0.219946 -0.305492 0.17698 0.039379 0.0340002 -0.0163056 -0.126953 0.0261436 -0.190145 -0.0747114 -0.096106 -0.184896 -0.16287 -0.133077 0.013884 -0.253205 -0.00625814 0.118155 -0.293352 -0.0873686 0.0425905 -0.315213 0.125742 -0.026587 -0.0390466 -0.181909 -0.156624 0.171689 0.275918 0.249926 0.029965 0.159675 -0.0326036 -0.28536 0.067234 -0.246348 0.0569232 -0.0221429 0.0995175 0.0405108 0.0841121 -0.115671 -0.0101789 0.106911 -0.0594015 -0.20729 -0.12891 0.0233386 -0.130042 -0.163197 -0.124906 -0.0556269 0.130194 -0.0675706 -0.0759567 -0.0733976 -0.0777778 0.106928 -0.0422028 0.0849844 0.0491423 0.0793025 0.0258259 -0.199426 -0.200043 -0.035679 -0.274362 0.256348 -0.0575908 0.0234592 0.0526205 0.00774738 -0.139275 0.178602 0.0656653 -0.0423905 -0.105359 -0.178972 0.0168167 0.0202121 0.230554 0.00429754 0.0331586 -0.0872627 -0.214752 -0.163968 0.0692735 -0.128919 0.0433616 0.190548 0.113324 0.213423 -0.00449799 -0.0477651 0.155332 0.285239 0.261434 -0.00568183 -0.109955 -0.0740604 0.141889 -0.0709599 -0.214082 0.0761435 0.0246397 -0.00361154 0.119859 0.141848 0.0761543 -0.14832 -0.110302 -0.210635 -0.0852586 0.230165 -0.0150731 0.00902908 -0.344825 -0.0637057 0.120326 0.117292 -0.506138 -0.148021 0.114913 -0.184201 0.11257 -0.0682779 0.104712 -0.000806084 0.10817 0.0688499 -0.0112786 0.0848832 -0.0157742 -0.174016 -0.00995761 0.0707496 0.0863152 0.0951188 0.0638201 -0.0968435 0.163973 -0.11926 -0.185765 -0.019302 0.044935 0.0013129 -0.0363196 -0.0902166 0.132769 -0.0191768 -0.170711 0.0956138 0.332535 0.0225335 0.247566 0.0854113 0.191482 0.118556 0.0376963 -0.0462318 0.0616264 -0.186903 0.0866623 0.0653571 0.0204495 -0.224714 0.0215837 0.160788 0.169318 -0.15456 -0.0798793 -0.0704257 -0.0710502 -0.181976 -0.0155397 0.0751327 -0.0765973 0.0368165 -0.036234 0.244264 0.262501 0.0630069 0.0609115 0.0665494 0.203875 0.180242 -0.00493909 -0.238043 -0.0884276 -0.0246463 0.0806556 0.0891944 -0.0907305 -0.12734 0.281763 0.188788 0.097885 0.100854 -0.197646 -0.0435659 0.0977304 -0.0476053 -0.196448 -0.141883 0.220695 0.0613399 -0.175843 0.0659967 -0.0287391 0.0753104 -0.1216 0.222269 -0.0135356 -0.0408223 0.141315 -0.000373493 0.019241 -0.253774 -0.0925814 0.361453 -0.0505228 0.174663 -0.0399713 0.188099 0.0618013 0.101985 0.018608 0.174625 0.101805 0.0300232 0.0428175 0.166411 0.129596 -0.0863313 0.337328 -0.027247 0.0165301 0.10987 0.0103661 -0.0171102 0.0191181 0.0329251 0.0309711 -0.042677 0.00245985 -0.182061 0.0987951 0.0476492 -0.124266 -0.0916439 0.0475977 0.250036 0.0440911 0.0968042 0.150234 0.00263005 0.201669 -0.156696 0.0170734 0.0396083 0.146563 -0.0473287 0.414397 -0.373815 0.0685648 -0.313767 0.138961 -0.185863 0.161256 0.00368813 0.435393 0.142689 0.248532 -0.0506915 -0.0157236 0.143631 -0.0843641 0.15292 -0.0824976 -0.0323034 0.0214191 -0.0893755 -0.161373 -0.243948 -0.284705 -0.148821 0.224398 0.0241693 0.191198 0.00823245 -0.0349547 0.141052 0.0372349 -0.186561 -0.0632844 0.296642 -0.0200263 0.2399 0.00362288 0.0164299 -0.205901 -0.335219 0.0502278 0.355913 0.26357 -0.247968 0.0375087 -0.0238535 0.171542 -0.0114223 -0.0857815 -0.0954152 0.145803 -0.0064047 -0.199343 -0.167645 0.0974534 -0.0104819 -0.198041 -0.008388 0.091642 0.0778114 -0.0524914 -0.00356757 0.165661 0.161546 0.0713651 0.0815539 -0.234324 0.130296 -0.0807237 0.0472724 0.129384 0.14042 -0.0208759 0.0640749 0.0872551 -0.0917484 -0.121451 -0.00973919 -0.082759 0.207226 -0.0285245 -0.0422804 -0.00507053 -0.0898767 -0.0600161 -0.194109 -0.0550042 0.148815 0.0557819 0.0529046 -0.0216503 0.373499 0.156311 -0.154224 0.00118194 0.254633 -0.128857 -0.245266 0.0593259 0.0588611 0.199839 -0.136971 0.138601 -0.0519406 -0.0444396 0.057421 0.0944375 0.0308108 0.247308 -0.0365915 0.074033 -0.0137488 -0.100292 0.181442 -0.185959 0.0480549 -0.260666 0.137438 -0.17699 -0.126606 -0.0874594 -0.0158891 -0.0954152 0.296914 -0.0641226 -0.0428624 0.129643 0.109045 -0.0109126 0.136022 0.107214 -0.050606 0.0647188 -0.382928 -0.00889718 0.0681942 -0.227823 -0.114366 0.136788 -0.0136869 0.0354195 0.221313 0.0523775 0.0928027 -0.176042 0.0801578 0.0560996 -0.14582 -0.0150939 0.117743 0.251933 0.153467 -0.27554 0.0631903 -0.0957467 0.0315176 -0.0345703 -0.00702073 -0.111027 -0.165703 0.12832 -0.0240804 0.00376094 -0.210426 -0.0883803 0.166185 0.0571185 0.0189626 0.139406 -0.180461 -0.113934 -0.0409921 0.00721693 0.027126 -0.243472 -0.102056 -0.175803 -0.0782454 -0.139229 0.220019 -0.0705132 0.140905 0.130413 0.324756 0.0103297 -0.221353 0.127671 0.023488 -0.137409 0.0242548 0.0948531 0.10206 -0.10253 -0.406997 -0.572265 -0.178024 0.0344602 -0.0277515 -0.0215473 -0.124294 0.0874901 -0.132933 0.049 -0.233512 0.337228 0.115719 0.123196 0.126209 0.117015 0.179355 0.133008 0.103198 -0.0896176 -0.212146 0.0460035 -0.0599353 0.22713 0.147834 0.188021 -0.0172133 -0.110408 0.0146632 -0.12331 0.0986708 0.131657 -0.17382 0.157018 0.0629814 0.0119839 -0.150656 0.0571095 -0.0800992 0.0404351 -0.152428 0.00227453 0.0401775 0.0481693 -0.0938801 -0.0623166 0.0742349 -0.0537254 0.0335761 0.232232 0.068918 -0.0385592 -0.127086 0.228735 -0.0766054 -0.254835 -0.0913801 -0.294247 0.182787 0.0844156 0.0674893 0.0366104 0.0338962 0.0690948 0.120206 -0.0316831 -0.164792 -0.0394295 -0.303642 -0.0322121 0.238878 -0.0132217 -0.123675 -0.134727 -0.201063 -0.00406162 0.0626812 0.0411079 -0.0156768 0.0797607 0.24728 -0.224796 0.0168847 -0.171214 -0.330261 -0.0337832 0.00634277 -0.263465 0.0171448 0.0618401 0.017053 0.039344 0.384452 -0.129507 -0.123949 0.32874 0.0310198 -0.0396565 -0.0537599 -0.00552865 0.116076 -0.0112426 0.12704 0.340232 0.127268 -0.0183007 -0.110102 0.244903 -0.0563247 -0.0707368 0.112597 0.164014 0.0305413 0.118777 0.192043 -0.133197 -0.0996972 0.150941 0.157614 0.171078 0.122819 0.100048 0.239561 0.125914 -0.0529112 -0.103044 0.121308 -0.0718596 0.0648961 0.170878 0.190626 -0.0427867 0.0811804 0.161228 0.00247262 -0.0582186 -0.226969 -0.0238109 -0.216972 -0.0221496 -0.134453 -0.142058 -0.0452953 0.168901 -0.134992 -0.0168989 -0.251975 0.0223269 -0.185059 -0.245369 0.00674699 -0.0836809 -0.103217 0.27277 -0.251903 0.111508 -0.0851319 0.0196415 0.0725272 0.0690745 0.130532 0.0288507 0.104382 0.304151 -0.309428 -0.0420572 -0.0334343 0.140938 0.154501 -0.0403912 -0.103359 -0.19341 0.18716 0.0520881 0.211588 -0.0682741 0.169637 -0.0579628 0.0535202 0.203581 -0.258402 0.0610401 -0.102283 0.116518 0.177497 -0.0553933 -0.0598218 -0.0841518 -0.182369 0.00703869 0.0715523 -0.146665 -0.0611517 -0.126417 -0.0292511 0.264095 0.0273889 -0.0310028 0.215955 -0.101347 -0.0640479 0.0915579 -0.030096 0.124768 0.239851 -0.211653 -0.139769 -0.0156569 0.18733 -0.307946 0.000895438 -0.278364 -0.125598 -0.0181485 -0.155498 -0.141943 -0.133452 0.121283 0.255103 -0.0810442 0.164598 -0.0303787 0.00203105 -0.113042 -0.0928273 0.0103056 0.224804 0.161472 -0.187916 -0.113456 -0.159395 -0.209094 0.0785069 0.0365276 -0.0075006 -0.0435782 0.018487 -0.136044 -0.171366 -0.0233741 0.0071602 0.341458 -0.193258 -0.0540454 0.06706 0.128109 -0.112176 0.0803379 -0.059193 -0.0235712 0.497548 -0.0554221 -0.0242364 0.136449 -0.120054 -0.194475 -0.1095 0.0445043 -0.0420459 -0.0341822 0.261303 -0.0373678 -0.110982 0.271643 -0.241145 0.168007 0.0324679 -0.116417 0.060643 -0.0184454 0.0120014 -0.0866424 -0.284615 -0.0415849 0.00553479 0.0295811 -0.10012 0.0382225 -0.318306 0.0337784 -0.067078 0.178799 -0.0143625 -0.0247673 -0.0543631 -0.197208 -0.168054 -0.198158 -0.0877563 0.113996 0.172534 -0.0285784 0.00940257 0.0147189 -0.244411 -0.0559148 -0.35211 -0.0855692 0.0811298 0.196688 -0.029541 0.0972926 0.0285656 -0.0915711 -0.169349 0.0156494 -0.165382 -0.11154 -0.288715 0.0153279 -0.120527 0.254104 -0.0237726 0.00861824 0.00943709 -0.0692187 0.0476171 0.15835 -0.0913172 0.0450367 -0.0551555 0.192914 -0.00835821 -0.0392773 0.112087 0.0248638 0.146403 -0.0481182 -0.0569303 -0.139475 0.0260084 -0.21049 0.103644 0.00233551 0.262854 -0.287613 0.191168 0.0796463 -0.026588 -0.0625809 -0.0524035 -0.0552056 -0.458138 -0.159316 0.273919 0.147135 -0.00979545 -0.0602738 0.112119 -0.100459 -0.131798 0.0121801 -0.116754 0.21426 -0.070621 0.232005 -0.147723 -0.0563464 -0.140092 -0.0661839 -0.0704649 0.0447218 -0.0339713 -0.135118 0.112243 -0.138473 0.10449 0.105664 -0.0704143 0.198663 0.0255975 -0.204403 0.0648739 0.102204 -0.0438977 0.000685053 -0.0315172 -0.13968 -0.160934 0.129711 -0.106656 -0.00847546 -0.0643217 0.0616245 0.246105 0.283392 0.269019 0.0671616 0.0803639 -0.0152953 0.0556562 0.00177764 -0.188896 0.36266 0.0799299 -0.083236 0.0220408 -0.0108587 -0.217644 0.0311337 -0.151615 0.0432987 0.0442457 -0.114936 0.118176 0.297576 0.0668851 0.08843 0.0497588 -0.00329572 0.0750003 0.129906 -0.211112 -0.217249 -0.0665877 0.00665433 -0.112832 0.0190557 0.0888942 0.275621 -0.103032 0.0420152 0.155034 0.0355249 0.0639359 -0.00929525 -0.0416464 0.225909 0.203492 -0.133898 0.0461444 0.0817846 0.0454503 0.0532067 -0.144085 0.0311536 -0.0189153 -0.161272 0.321449 0.0344545 0.153444 0.0825212 0.00646001 -0.179298 0.228605 -0.148791 0.0804438 -0.0747776 0.119596 -0.00144622 0.146245 -0.0121083 0.228486 0.0501006 0.0986348 -0.0323975 -0.179428 -0.0274064 -0.0431631 0.0109642 0.0344871 0.0597769 -0.0192094 0.0231779 0.207266 -0.130297 0.0680098 -0.0646157 0.134085 0.066817 0.191362 -0.188259 -0.257135 -0.193247 -0.175377 -0.0231211 0.000125758 -0.299199 -0.0508088 -0.112433 0.0428099 -0.0802637 -0.0228039 0.00498968 0.0530417 0.10042 0.112056 -0.172362 -0.145573 -0.113984 -0.202246 -0.108272 -0.206296 -0.144958 -0.0495696 -0.0547541 -0.14434 -0.194617 0.337934 0.0116814 0.035063 -0.00075786 0.113043 0.329016 0.0572712 0.123556 -0.119016 -0.232001 0.171127 -0.0637075 0.0538086 -0.106945 -0.244532 -0.114526 0.000296903 0.134026 -0.035905 -0.0195403 0.0660104 0.109873 0.0716228 -0.100907 -0.298425 -0.230858 -0.122647 0.111252 -0.177361 0.048547 -0.00289812 0.28212 -0.00379356 0.291425 0.066122 -0.13454 0.152511 -0.15079 0.00279127 0.0719405 0.272017 -0.0544194 -0.305437 -0.0407396 0.285137 -0.221199 0.0580938 -0.0650398 0.0755057 -0.18347 0.0981167 0.141964 0.34451 0.0713519 0.0949571 -0.0712176 -0.111992 0.0255966 -0.0217387 0.285142 0.0845768 -0.228124 0.156234 0.0484676 0.147868 0.0543177 0.0679777 -0.0626769 -0.11041 0.27904 0.269739 0.0247423 0.0365622 -0.0499956 -0.225624 -0.0641869 -0.162325 0.12613 -0.254759 0.0899712 0.0436443 -0.17791 0.102241 -0.0502708 0.0310657 0.187735 -0.116005 -0.00655646 -0.0268301 -0.25602 -0.125727 -0.0810466 0.058898 -0.083436 -0.0350639 -0.0458272 -0.00993681 -0.0113135 0.0250307 0.0688277 -0.0528138 0.00765141 0.0943794 -0.00613569 -0.0373834 -0.0499063 -0.387659 -0.101937 0.0327875 -0.0667815 -0.23403 -0.0944853 0.206834 -0.0228516 -0.0249976 0.092546 -0.235263 0.097989 -0.181666 -0.0249153 0.0094352 0.038787 -0.0816456 -0.0349632 -0.149911 0.0522867 0.130367 0.0806391 0.195505 0.018955 -0.0960502 0.0063579 -0.000823103 0.143239 -0.00423135 0.0830673 0.188629 0.182288 -0.23999 -0.120939 0.0495815 -0.186546 0.0777315 0.0875984 0.00426397 -0.135944 0.156474 -0.177819 0.00457458 0.0286857 0.0741455 0.192882 0.142881 -0.152956 -0.147096 -0.0503195 -0.259172 -0.0281472 0.0851607 -0.0199233 0.173164 -0.12607 0.174943 -0.133759 0.0019729 0.324185 -0.00301348 -0.0569809 0.156453 -0.0565445 -0.00599149 0.0518773 0.0190883 0.00568513 0.0243125 -0.00457553 -0.167134 -0.0816305 -0.0293022 0.013111 -0.0642347 0.186506 -0.313989 -0.169419 0.00575416 -0.0449005 -0.175069 -0.224555 0.0151979 -0.0676004 -0.195112 -0.0476795 0.205065 -0.0417594 0.0823813 -0.11596 0.137377 0.0752532 -0.217448 0.0873275 -0.118846 -0.104972 0.192464 0.00357703 -0.0377096 0.0315039 0.0580437 -0.210925 0.183763 0.00863668 0.173151 -0.013077 -0.17947 0.0619569 0.0578768 -0.0711897 0.152171 -0.215678 -0.000468048 -0.0380996 0.113061 -0.0755799 0.00734789 0.109888 0.0164484 0.16856 -0.046585 -0.214895 -0.0127758 -0.012695 0.142046 -0.201449 -0.0714625 -0.105715 -0.200816 0.0654034 -0.090184 -0.140852 -0.0659948 0.182371 0.061563 -0.155716 -0.0370089 0.0440585 -0.157226 -0.00708739 0.0620079 0.128015 0.00936428 0.112026 -0.136078 -0.0563644 0.164506 -0.165237 0.144146 0.0181683 0.0945661 0.132634 -0.148591 -0.0162583 -0.141184 0.0527429 0.0710753 -0.110472 -0.0219888 0.114618 0.0251233 0.133381 0.0767524 -0.236456 0.053088 0.0520385 -0.0233192 0.0818612 0.0675966 0.0663877 0.11267 -0.075343 -0.104965 -0.148959 0.0762016 -0.206432 0.293115 -0.00815114 0.0995993 -0.177687 0.0827439 -0.0588148 -0.00432354 -0.227204 -0.0043798 0.294181 -0.128474 0.0351381 0.0502746 -0.0943137 -0.309118 -0.0698754 0.0644961 0.212131 -0.0482955 -0.0596109 -0.0488397 -0.0128226 0.00830242 0.0660459 0.183298 -0.220026 -0.0118402 -0.0698432 0.02935 0.0675607 0.170859 -0.304263 0.149221 -0.00759657 0.233532 -0.307298 0.0902766 -0.0301575 -0.10821 -0.128725 0.0872234 0.305951 0.130412 0.0871506 -0.0194642 -0.0464342 0.0319691 -0.269019 0.0730931 0.0823685 0.078582 0.093691 -0.161734 0.0423404 0.118022 -0.100655 -0.00330991 -0.167241 0.0287576 0.140465 0.0418572 -0.00555323 -0.0410668 -0.0485083 -0.0653963 -0.195224 0.0366827 -0.0253725 0.218147 0.0999567 0.057508 -0.0994627 0.029115 -0.113574 0.198203 -0.0776644 0.216307 -0.0466285 0.0203015 0.178847 -0.0983209 -0.0265828 0.118851 -0.12924 -0.233067 0.0402848 -0.208958 -0.194763 0.0146537 -0.0849475 0.0484345 0.0956502 0.014632 -0.0224994 -0.133183 -0.174694 -0.0818896 -0.190177 -0.0021639 0.0818168 0.00716965 0.106354 -0.0100451 0.122433 -0.112188 0.14319 0.172343 -0.0683285 0.0724913 0.0313044 -0.380341 -0.211506 0.183509 0.202345 -0.0914345 0.0129706 -0.23993 -0.0191087 -0.13755 0.0970808 -0.105493 0.102336 0.119916 0.187884 -0.141836 0.096105 -0.0408517 -0.0559209 0.169832 0.182335 0.0291793 -0.19721 0.0227793 0.0675607 0.0984419 0.160204 0.169633 -0.186302 0.0580375 0.213119 -0.198875 0.00916004 -0.182071 0.0337846 -0.0570518 0.103492 -0.0225963 0.138015 -0.0304903 -0.0182605 0.0571218 -0.27437 0.0637548 -0.0460134 -0.099779 0.251509 -0.158965 0.257324 -0.118183 -0.239019 0.0969234 -0.022386 -0.115826 -0.182457 -0.0902223 -0.0557479 0.0534961 -0.0891916 0.195898 0.210315 0.0202031 -0.118265 0.0458886 -0.245042 0.143672 0.120329 -0.229134 -0.113508 -0.329188 -0.145005 -0.101993 -0.208931 -0.126117 -0.0211998 -0.103156 -0.0787801 -0.0127035 0.0273492 -0.214901 -0.0330981 0.0223235 -0.152269 -0.0568112 0.118941 -0.115859 0.016889 -0.0292965 -0.316162 0.0922221 0.0241508 -0.000266173 -0.101146 0.0960818 0.202361 -0.105017 0.113033 -0.0373432 0.120624 0.199932 -0.0889571 -0.109142 0.0865086 -0.0411315 -0.00237948 0.0402252 -0.174098 0.0625398 0.233074 0.176399 0.00494429 -0.0673077 -0.047705 0.000692144 0.0322779 -0.0245896 -0.0801791 -0.00406871 -0.12841 0.0184955 -0.212358 -0.0712819 0.256041 -0.0726057 -0.0936149 -0.0139455 0.027613 0.18761 -0.255179 0.0748636 -0.196234 -0.0765165 -0.0177376 -0.0204759 -0.0203015 -0.0308231 0.193263 0.0638896 0.231214 0.218197 0.0260084 -0.131964 -0.115813 -0.0340271 -0.214831 0.20738 -0.163484 -0.0369962 -0.0515955 0.0780421 -0.22541 -0.209936 -0.147533 0.269282 -0.137648 0.155537 0.27325 0.0615285 0.161372 0.147522 -0.0625828 -0.163478 -0.0878347 -0.030313 0.0348417 0.0924424 0.188986 -0.0373938 -0.0642754 0.191085 0.159005 -0.0154357 -0.108321 0.0296464 0.0944262 0.203966 0.0453487 -0.0979162 -0.0618046 -0.162067 0.0649528 -0.198259 0.104856 -0.208296 -0.0661967 0.0289609 -0.248024 0.15636 -0.254719 0.112869 -0.0482884 -0.0405841 -0.0517047 0.181559 0.0406975 0.146037 0.0794344 -0.115039 -0.317176 0.166788 -0.0487858 0.307204 0.125401 0.070785 -0.149172 -0.420612 -0.246214 0.0780984 -0.203895 0.182305 -0.279244 0.004767 -0.0738807 -0.0718412 -0.150255 -0.0318415 0.180965 -0.0904341 -0.0177679 0.0645812 -0.0456503 0.0439985 0.0686017 -0.329504 0.0951027 -0.14037 -0.167958 0.094637 0.0843225 -0.19065 0.0253621 0.108723 -0.112057 0.207069 -0.262921 -0.0580229 -0.241878 -0.0955481 -0.162839 -0.126663 0.12096 0.126776 0.133462 0.0593845 -0.076282 0.0412086 0.162778 -0.200974 -0.00387677 0.0402999 -0.174846 0.141368 -0.0729064 0.0290516 0.140696 -0.0377767 0.19329 -0.0438812 0.103918 0.0675678 0.112199 -0.0624736 -0.0478223 -0.0811643 -0.139203 0.103049 -0.148869 0.0263365 -0.0643836 0.0716303 0.200472 -0.0805975 -0.206763 -0.195448 -0.031624 -0.157796 -0.0245395 0.00113939 0.0979871 -0.0842161 0.327753 -0.0430165 0.190646 -0.1681 -0.0274087 -0.170765 -0.0063508 0.1167 -0.107637 -0.151486 -0.16825 -0.0560349 0.0674604 0.0347765 -0.173454 -0.141701 0.0117405 0.0479348 -0.0289613 -0.00323095 -0.0697099 -0.155835 -0.159402 -0.130201 -0.168934 0.327915 -0.147649 0.0398219 -0.255486 -0.223289 -0.24333 0.15849 -0.122357 0.0345458 -0.414012 -0.176496 0.00145284 0.0499942 0.146363 -0.0410389 0.063526 -0.0753913 -0.00664345 -0.143329 0.014448 -0.0357996 0.11392 0.120298 -0.232382 -0.0677157 0.0796444 0.139203 -0.102056 -0.0993818 -0.1039 -0.265499 -0.155624 -0.0827765 0.43414 -0.153879 0.226286 -0.167489 -0.242071 -0.0801857 0.113045 -0.192938 0.102626 -0.160167 0.105891 -0.0353485 -0.0506953 0.0478109 -0.197421 0.125554 0.117944 -0.036253 -0.176629 -0.20468 -0.0260755 -0.0299201 -0.142124 -0.0829292 -0.0681115 0.325675 0.203863 0.0181253 -0.267285 -0.124016 0.121774 -0.161696 -0.139507 -0.0480331 0.0539688 0.0568206 0.0756135 0.0293013 0.158992 -0.158194 -0.0829685 0.233954 -0.206914 -0.126659 0.00259081 -0.0667749 -0.0239234 -0.0346588 -0.157049 -0.0365924 -0.123536 0.102571 0.0641884 -0.0752764 -0.230931 0.0745937 0.069327 0.474771 -0.143798 0.0223907 -0.000436845 -0.0715764 0.100572 -0.0573033 -0.0991199 -0.0505355 0.0867497 0.102683 -0.106681 -0.234523 0.131857 -0.0809696 0.01748 -0.173784 -0.0449747 0.160411 -0.0773783 0.0426 -0.0975862 0.179342 -0.0104814 -0.101102 -0.0297182 -0.0152234 -0.0836223 0.0773949 -0.134142 -0.18233 0.0890228 -0.111203 -0.234286 0.0645004 -0.160092 0.142662 -0.168833 0.0148537 0.0818962 -0.324869 -0.0102214 0.037451 -0.0453161 -0.133903 -0.093362 0.0542331 -0.0530081 0.179979 -0.00517926 0.0568164 -0.210499 -0.136892 0.0175967 -0.143607 0.279143 -0.0213454 -0.0358676 0.235417 0.147178 -0.0125754 -0.190772 0.00707604 -0.0263289 0.0042999 -0.0171774 0.0146887 0.163172 -0.198386 0.106452 -0.0335042 -0.0449918 -0.117598 -0.112282 0.130861 -0.266359 0.096973 0.193633 0.0237594 -0.045978 -0.0992551 -0.050007 0.321549 0.0116884 -0.107949 -0.0268182 0.0341236 0.046515 0.0602459 -0.168874 -0.213549 0.0836587 0.00882342 0.112456 -0.123243 -0.00449988 -0.0932476 -0.251568 0.159133 0.114746 0.0384282 -0.0198575 -0.145649 -0.021509 0.160401 0.00772091 0.103885 -0.0665253 0.129507 -0.099231 0.101475 -0.212729 -0.269789 0.266262 -0.0180208 -0.479797 -0.0388518 0.00531873 -0.0236549 -0.0114294 0.236289 0.0103032 0.0692972 -0.175346 -0.157388 -0.225095 -0.190773 0.12716 0.2628 -0.093734 0.126578 0.146448 0.00494713 0.154566 0.0834417 0.0415268 0.0741252 -0.229373 0.0119768 -0.0210281 -0.291447 -0.0290119 -0.0925374 0.203595 -0.152342 -0.0999094 0.0624698 -0.205112 -0.160452 -0.00234592 0.173646 -0.399619 0.158962 0.00269435 -0.00108644 -0.0189787 -0.0757525 -0.1359 0.00104956 0.182088 0.107268 -0.269687 0.0462214 -0.172628 -0.106224 0.0278082 -0.17689 0.106809 -0.0377238 -0.00106044 0.129036 0.212294 0.0712034 0.159277 -0.370801 -0.191166 -0.0772767 -0.0175575 -0.146449 0.0668723 0.161216 -0.0318415 0.231621 0.0647973 -0.0480317 0.117708 -0.13282 0.0721338 0.0342474 -0.142813 0.13502 0.23359 -0.129975 0.0655466 0.144579 0.138451 0.0702096 0.0935402 0.0569743 0.064238 -0.0292029 0.171041 0.151944 -0.374745 0.176209 -0.106038 -0.0446802 0.102219 0.29026 0.103946 -0.0369371 0.212979 -0.0161576 -0.068301 -0.0474587 0.120194 0.0274716 0.0652582 -0.14896 0.0227547 0.230762 0.128054 0.203997 0.0797224 0.149915 0.00875534 0.0802826 0.0918997 -0.0219165 0.402565 0.278095 -0.0371919 0.0661324 -0.00051769 -0.0322292 0.000357892 0.0859087 0.0577061 -0.139514 -0.344337 -0.0231561 -0.0260344 0.105147 -0.224339 -0.0580957 -0.124777 -0.181951 -0.157832 -0.0387974 -0.37209 -0.203826 0.00703869 -0.353685 0.0285713 0.0985975 -0.104461 0.0560869 -0.102826 0.0821709 0.00772611 -0.0630433 -0.093848 -0.0524758 -0.169677 -0.126885 0.00544922 0.0355897 -0.00103585 0.0500968 0.143981 0.0387388 -0.0355778 -0.0495224 -0.0497739 0.0961622 -0.198775 -0.0267459 0.0374533 -0.0196944 0.117004 0.146978 -0.0234525 -0.306327 0.0163051 0.0885869 0.0802561 -0.159766 0.0163637 -0.158537 0.0123101 0.194568 0.0813795 -0.062563 -0.169966 0.051014 -0.0646148 -0.11252 -0.140796 0.0771169 -0.206334 -0.0797011 0.0810149 -0.218231 0.080684 0.0486633 -0.0290058 -0.0029019 -0.0201899 0.0500987 0.0240936 -0.135071 -0.277152 -0.169904 -0.0449965 0.073937 -0.0917645 -0.024921 -0.0900525 -0.0130075 0.146279 0.04589 0.142321 0.00429943 -0.0845433 -0.162553 -0.00265558 0.116761 -0.136585 0.202415 -0.14693 0.0171727 0.139604 -0.0373645 0.0614165 -0.0270272 -0.00755969 -0.0109519 -0.113599 0.120719 0.071775 -0.148305 0.0541456 0.00566197 0.229032 0.0823392 0.0581425 0.0638078 -0.128272 -0.0909319 -0.256004 0.0371262 -0.150411 0.335174 0.0302534 0.161675 -0.226582 -0.08638 0.0247565 -0.00533292 0.132166 0.0397699 0.0670354 -0.298286 -0.280816 -0.125166 -0.0481088 0.150595 -0.0169646 -0.108973 0.0778856 -0.117943 -0.0763609 0.0271066 -0.203471 0.096886 -0.163095 -0.143027 0.200128 0.137519 0.0169415 -0.157738 0.0171533 -0.21493 0.0772493 -0.100706 -0.0485286 0.167619 0.0837334 0.0540241 0.237155 -0.0240062 0.0398243 -0.0106937 0.108204 -0.0357825 0.140165 0.0133763 0.0034281 -0.155653 -0.295088 0.0350776 0.150549 0.145331 0.0575818 -0.235918 -0.0609238 0.00874447 0.0538081 0.015586 0.0745398 -0.0214787 -0.0528422 -0.000949335 0.0695066 -0.335748 0.0792406 0.0550813 0.0149577 -0.120947 0.115797 0.0125248 -0.218365 -0.170055 0.128528 -0.0694537 0.00638768 -0.0936527 0.041567 -0.0719353 -0.110715 0.1983 -0.121 0.0256037 0.110901 0.271315 0.0560457 -0.0641037 -0.0708243 -0.110999 0.292181 -0.230618 0.0982491 -0.0764333 -0.218622 -0.121455 -0.1835 0.115733 0.00470271 -0.0654667 0.0677706 0.139245 -0.00488945 -0.0649741 -0.168952 -0.177307 -0.0209331 0.0550037 0.0262528 0.157222 -0.0523614 0.0638678 0.0303154 -0.0872357 0.0297792 -0.153169 -0.227332 0.109399 -0.172999 -0.183073 -0.183615 -0.328423 0.0722539 -0.0589717 0.0906435 -0.13117 0.150462 -0.160919 0.0273761 0.0245541 0.162071 0.0296516 0.192295 0.0127541 -0.0271903 0.15369 0.09983 0.213931 0.0315701 0.0793054 0.373327 0.0592828 0.0713722 0.0143497 0.0711878 -0.313881 -0.144572 -0.0629502 0.00758617 -0.10457 -0.0710238 -0.028342 -0.249077 -0.138167 0.050926 0.00541991 0.351893 0.0505346 0.0369328 0.0446712 0.051881 -0.0162176 0.0246335 0.0380897 0.0555994 0.0450045 0.00564069 -0.0208617 0.0938849 0.099543 0.132222 0.00245796 -0.0925653 -0.00615791 -0.16706 -0.0922051 -0.123007 -0.00595556 0.0183707 0.131824 0.0744235 -0.441352 -0.0808991 -0.0856609 -0.0521628 0.196854 -0.00605816 -0.0657533 -0.0896006 -0.0481381 0.33807 -0.114252 -0.113773 0.0307546 -0.080953 0.0163864 0.00531117 0.0213591 -0.119491 -0.0915437 0.0481664 -0.0784799 0.0221864 -0.0305957 -0.00343614 0.0848614 0.290534 -0.0344427 -0.0195484 -0.041176 0.00110771 0.0293211 -0.0789588 -0.145243 0.120654 0.0916581 0.117279 -0.111297 -0.0286134 -0.0299797 -0.00908203 0.00615933 0.117489 -0.243298 0.0672732 0.201021 -0.0720232 0.0401018 0.173136 0.013564 -0.0816546 -0.002327 0.0089194 -0.0966166 -0.0775405 0.0343396 -0.0596317 -0.223233 0.135307 0.0969683 0.0777632 0.0697468 0.037719 0.327857 0.0662066 -0.0907324 -0.157044 -0.136112 0.0697326 0.110462 0.154701 -0.0445644 -0.0153775 0.180477 0.0416152 -0.0986608 -0.114625 0.0218073 -0.117531 -0.109022 0.114047 0.229917 -0.0299594 0.0280285 -0.278945 -0.108327 -0.0362738 0.209985 0.174181 0.263442 -0.0925044 0.0457066 0.054843 0.156755 -0.11374 0.0174757 0.0402058 0.13096 0.128982 0.110524 0.316872 -0.288079 -0.0203577 0.00224143 0.0228474 -0.112362 0.209062 0.305856 0.0467878 0.00404224 0.122229 0.264654 -0.16626 0.0702895 0.0527656 0.05169 -0.198029 -0.0548406 0.0141266 0.173668 -0.105822 -0.175483 -0.151523 0.0681602 0.0944215 -0.0190779 -0.332399 0.0562112 -0.212667 0.157383 0.0266783 0.0208778 -0.0887448 -0.0945136 -0.0512414 0.0752504 -0.0188425 -0.0531939 -0.111392 0.0237135 -0.140293 0.235646 0.038431 0.168347 0.221057 -0.268335 -0.114865 0.0178813 0.0193328 -0.16187 0.142259 0.140769 0.168805 -0.184594 0.00953779 0.0191413 0.202095 0.0212938 -0.0217543 0.119902 -0.216458 -0.185451 -0.072791 -0.15075 -0.0703179 -0.314684 -0.016316 -0.0981479 -0.017904 0.177804 0.223756 0.0228077 -0.00579671 -0.0179456 0.0488364 -0.18826 0.0684259 -0.0547187 0.135684 0.0977999 -0.173359 0.273669 -0.15217 0.205175 -0.16492 -0.0901268 -0.234797 0.00730203 -0.108982 -0.157874 0.296964 -0.0285916 -0.0614609 -0.13853 -0.0732468 0.150848 -0.0147563 0.0489021 0.049156 -0.0311952 -0.212515 -0.066027 0.0403453 -0.10308 -0.100502 0.299138 0.0251872 -0.0240364 -0.0431238 0.0426066 0.301018 0.132525 0.00598109 0.105734 0.117554 0.158668 -0.117345 0.0170582 -0.164522 0.0510858 -0.010827 0.171185 0.0695643 -0.0735701 0.0768167 0.113799 0.108035 -0.0154267 0.00755166 0.159408 -0.0862897 0.12548 0.0766801 -0.027899 0.17544 0.00143488 0.0336196 -0.0409349 0.173005 0.023783 -0.179094 0.105158 0.142206 0.150417 -0.325576 -0.108452 -0.1385 -0.0181849 0.0692211 0.202929 -0.0526001 0.0330513 -0.1243 0.00767221 -0.226105 0.136726 0.0736921 -0.123615 -0.0272504 -0.247432 0.0568334 0.286432 -0.0564604 0.0239759 0.167514 -0.0837608 -0.151122 -0.0666449 -0.204343 -0.0341212 0.048521 -0.131938 0.0351504 -0.206263 -0.160216 -0.0483447 -0.0979124 -0.293275 -0.0148442 -0.0377512 -0.0684556 0.0671631 -0.185657 -0.00603972 0.0199062 0.0700825 -0.0615243 0.0868348 -0.0965906 -0.217291 -0.0116927 0.138277 0.0995052 0.105106 0.0970808 -0.164739 0.179813 0.159 -0.113579 -0.0626367 0.00212655 0.0147889 -0.0310146 0.291743 0.327711 -0.0102498 0.0794373 -0.0133999 0.0246222 0.063483 0.0141989 -0.0619498 0.155001 -0.100321 0.0242251 -0.22218 -0.0214177 -0.0135739 0.0477145 -0.143946 -0.04036 0.025146 0.011366 -0.280763 0.0988173 -0.0672397 -0.271421 0.0808982 -0.264718 -0.0686405 -0.0856184 0.13465 0.00339122 -0.00674179 0.145614 -0.0775112 -0.110387 0.127788 0.103677 0.265686 -0.198823 -0.150281 0.0788567 0.194964 -0.087821 0.0644229 -0.0679186 -0.0926051 0.148192 -0.208997 0.0276385 0.0784894 0.0619271 0.0307754 0.036878 0.0386826 0.0225926 -0.0798907 -0.117175 0.135534 0.00677772 0.127163 -0.0966307 -0.109795 0.0687374 0.0925058 -0.0324131 -0.224019 0.0527689 0.3327 -0.0344139 -0.153544 0.0622429 -0.0222054 0.164839 0.130341 -0.0175173 -0.0837882 -0.0809176 0.18252 -0.096132 0.16872 0.0688939 0.201339 0.169576 0.299487 -0.0391 0.135813 -0.127987 -0.0948791 -0.0740732 0.241752 0.152415 0.107679 0.0264963 0.0519487 -0.112603 0.227239 -0.0571832 0.0174114 0.00989237 -0.0802263 0.156746 0.0115249 0.00117579 0.0262206 0.0203951 0.248351 -0.0215529 0.212364 -0.124529 0.111848 0.0498103 0.0246931 -0.0517425 -0.135967 -0.115856 0.0289122 0.0617507 0.115719 -0.0996962 0.273554 0.121847 -0.130227 0.147152 0.20152 -0.219838 -0.241176 -0.0769008 0.0900209 -0.268779 0.0109519 0.0790737 0.187447 -0.0862221 0.0374548 0.0436737 0.0726241 -0.196549 0.18022 -0.155717 -0.264673 0.0440443 0.0512031 -0.0309167 0.279937 -0.0376344 0.220544 -0.275234 -0.0856396 0.0656492 -0.0267856 0.0880943 0.0962057 0.0299773 -0.128185 0.00886739 0.0143105 0.0801469 -0.012599 0.0769283 -0.0947321 -0.0538242 0.00838327 0.0121518 0.223248 -0.111298 -0.178962 0.0456418 -0.181147 0.169923 -0.127625 0.0314633 -0.134618 0.115226 0.00110582 -0.0123664 -0.067094 0.212349 -0.250431 0.203649 -0.0968232 0.166317 0.0295334 0.0639936 -0.00547239 0.12814 -0.0793692 -0.00038153 -0.0704266 -0.0335898 -0.029453 -0.0227552 0.0603305 -0.0704281 -0.0884238 -0.22971 0.155476 -0.119679 -0.103418 0.0767434 0.00215208 0.00334442 0.0343987 0.072044 0.227845 0.0981086 0.0140084 -0.0801105 -0.266539 0.0342266 -0.231838 0.178978 0.0819855 -0.0771817 0.103903 0.151101 0.0515681 -0.150558 0.335682 -0.0691695 0.208778 -0.0762106 -0.00407391 -0.246965 0.212559 0.0713126 -0.101141 -0.366587 0.0563199 0.0828153 -0.0840516 0.131128 -0.145217 -0.164339 0.0976935 0.0298908 0.0252879 0.0658781 0.197848 -0.00159515 0.138156 -0.163892 0.209341 -0.0309068 -0.0994584 -0.00689875 -0.0800883 -0.00187929 0.00423418 0.148671 -0.0359187 0.253716 -0.135364 -0.0627549 -0.163196 -0.0221921 0.168792 0.0766711 0.0800358 -0.0453898 -0.0335752 -0.190248 0.123513 0.0845106 0.276292 -0.0967664 0.131666 0.0890961 0.0283893 0.00536601 0.153319 -0.212229 0.0158375 0.0585529 -0.00573005 0.269635 0.0180766 -0.0909522 -0.128016 -0.111643 0.142412 0.026979 0.059836 -0.0995227 -0.0650644 0.0703969 -0.0821836 -0.000912931 -0.261086 0.00651344 0.0371068 -0.0275307 0.225647 -0.131965 -0.0869157 -0.207745 -0.0217505 0.235603 0.0479991 0.173691 -0.0772616 -0.0601423 0.0445261 -0.251042 -0.0810641 0.0877407 0.112383 -0.121446 -0.0294384 0.0194259 0.0977205 -0.138223 -0.138445 0.0805223 0.172247 0.275388 -0.267369 0.0303021 -0.0605149 -0.0974865 -0.118472 0.0881028 0.232073 -0.128035 -0.0718114 -0.179647 0.0250056 -0.020189 0.188099 0.0323923 -0.0226744 -0.188946 -0.136255 -0.0410044 -0.0581283 -0.091286 0.00908156 -0.0984107 0.136125 0.0717627 0.0252614 0.00687369 -0.100281 0.0350332 -0.280816 0.118612 0.188523 0.101158 0.136241 0.0912865 -0.054305 0.0729522 0.168236 -0.0474379 -0.0727083 0.030651 -0.0623039 0.0959164 0.015351 -0.131413 -0.0401765 -0.0549059 0.213991 -0.103674 -0.132209 -0.19274 -0.11553 0.0107453 -0.0217529 -0.0257157 -0.0111618 -0.00601891 -0.0696593 0.000923805 0.217847 -0.110275 0.0416814 0.0517501 -0.123692 -0.0318405 0.113874 0.191975 -0.110745 0.250737 0.135121 0.096575 0.081734 0.0239239 0.00224994 -0.0188189 -0.00574376 -0.0140377 0.264791 0.0581486 0.122501 -0.0419249 -0.353559 0.131203 0.0580191 -0.000546529 0.158957 -0.110243 0.127375 0.00874873 -0.340001 0.217602 0.0380717 -0.148561 0.130882 0.0471467 -0.143103 -0.0628703 -0.11738 0.00437176 -0.122335 0.00195115 0.173071 0.0669319 -0.1741 -0.0523264 -0.121161 -0.132981 -0.0986727 0.1116 -0.104219 -0.119212 -0.0147856 0.0881335 0.0486109 0.123601 0.127598 0.219887 -0.181237 -0.0586176 -0.0516201 -0.329666 -0.205134 -0.0619242 0.0718015 0.0874371 -0.236357 0.101656 -0.207198 -0.067946 0.0133564 0.0403013 0.0345122 -0.239853 0.166058 -0.176503 -0.0172265 -0.128285 -0.0867294 -0.0250089 0.189628 -0.00621559 -0.0302714 -0.0560107 0.199188 -0.0613857 0.0628636 0.212233 -0.0124165 0.0844222 0.0820101 0.0256533 -0.197785 -0.0401983 0.0200022 0.0379729 -0.0484865 -0.111716 0.0548042 -0.145463 0.127894 0.08229 0.051631 -0.0940215 -0.11121 0.193048 0.206372 0.0893646 -0.127618 -0.221143 0.0624367 0.204443 -0.0423418 0.152659 0.033821 0.0249626 0.182516 -0.244309 0.0271894 0.133171 0.132515 0.108032 0.0909787 -0.218587 -0.0372439 -0.112348 0.121869 0.188798 0.205079 -0.0124416 0.026596 0.0351802 0.0764266 -0.0526607 0.236634 -0.0179073 0.0562651 0.061121 0.0788468 -0.00291372 -0.245328 -0.123863 -0.197769 0.0375266 0.0762442 -0.0712781 -0.0133956 0.142027 0.0892507 -0.173715 0.0787447 -0.199336 -0.036096 -0.0729536 -0.236702 -0.220111 -0.439537 -0.0258297 -0.127908 0.0265549 0.0471618 -0.114516 -0.0225127 -0.134555 0.0609933 -0.136787 0.0594667 0.0835069 0.0948432 -0.0445691 -0.03152 -0.0495474 0.132784 -0.0779703 0.0145142 0.0461595 0.241748 0.0432997 0.086519 0.273182 -0.0806495 -0.133924 -0.0416733 0.137881 0.238343 -0.029593 -0.275136 -0.152643 0.0134713 -0.0126581 -0.212987 0.0478667 0.120123 0.248963 0.018338 0.239339 -0.0528233 -0.128741 -0.100726 -0.285431 0.0082802 -0.0577827 -0.12167 0.0364364 -0.0386367 -0.285221 0.225546 -0.024946 0.0261762 -0.159874 -0.097616 0.20526 -0.192421 0.0846747 0.294767 0.297718 0.349895 0.0652672 -0.0611858 0.0825954 -0.0193786 0.0411065 -0.0093709 0.0312954 0.0824508 0.024243 -0.200956 0.0948881 -0.40965 -0.127438 0.15089 0.035167 0.020752 -0.0954663 0.148448 -0.0326613 0.032579 -0.132141 -0.177813 -0.14924 -0.294468 -0.0132269 0.214089 0.103863 0.134341 -0.0773722 0.177258 -0.0642025 -0.1334 0.088629 0.016976 0.0937761 0.189951 -0.124835 0.254753 -0.169052 0.120559 -0.119277 0.00922717 -0.0588687 0.0694697 0.0475079 0.0621772 0.0867951 0.0596998 -0.19285 0.0405495 0.053636 0.0538738 0.14042 0.095645 0.0397662 0.183944 -0.0954994 0.0389275 0.213577 -0.134397 0.135607 0.00328438 -0.101877 0.133648 -0.00120889 -0.146395 -0.109205 0.00897377 -0.0373158 -0.0855531 0.0765283 0.0585122 -0.112728 0.0205298 0.0383734 0.0229424 -0.0210901 -0.0811208 0.273148 0.138066 0.138694 0.115606 0.062806 -0.0114592 -0.0813142 0.0622812 0.179204 -0.119719 0.076951 -0.219685 -0.1232 0.019103 -0.140586 0.0660842 0.09396 -0.21485 -0.126993 -0.20125 0.0885874 -0.0621337 -0.141874 0.075952 -0.340124 -0.0347807 -0.0660884 0.171485 -0.0672283 -0.116526 -0.043468 0.0591869 -0.233631 -0.0116984 0.282198 0.350448 0.0570017 0.017652 -0.00712143 -0.205991 -0.128518 -0.188629 -0.0514338 -0.074884 0.0199266 0.0178624 0.190416 0.0871312 0.199379 -0.161006 -0.0342389 -0.152607 -0.0586531 -0.0267123 0.158307 0.0641822 0.145083 0.0536837 0.197454 -0.0515042 0.186753 -0.0922505 0.197396 -0.0201691 0.0553914 -0.0610089 -0.314151 0.0355641 0.13696 0.0756806 -0.00775353 0.0367848 0.229514 0.0338186 -0.211814 -0.139741 -0.161105 -0.0443753 0.117657 -0.0383417 -0.0173802 0.322999 0.0156877 -0.0115386 0.146299 0.124015 -0.181974 0.142783 -0.0656199 -0.0674865 0.0753161 -0.0938716 -0.0706347 -0.198935 -0.110316 0.0168431 -0.169367 -0.0382041 -0.141958 -0.0494411 0.18145 -0.133389 0.108623 -0.149731 0.13291 -0.0646744 0.0168129 -0.0317346 0.167432 -0.00458498 0.105068 -0.00080041 -0.0346583 -0.0237192 -0.0162933 0.221588 0.188577 0.021387 0.262615 -0.112121 0.180254 -0.181711 -0.044596 0.127783 0.118742 0.514842 -0.0868206 0.0953646 -0.101379 0.0793077 -0.147088 -0.00992168 0.158042 -0.151973 0.0421712 0.0250973 0.0870599 0.187092 0.0416932 -0.0540033 0.298404 0.237163 -0.183695 -0.0267747 0.105532 0.233747 0.189552 0.187148 0.0592412 0.0451175 0.0275846 0.0237546 0.0514026 0.129807 -0.138487 -0.013572 -0.0698886 -0.166455 0.101244 0.0545924 -0.14309 0.023523 0.0188723 0.0506206 0.0451463 -0.14309 -0.027456 0.125489 0.0070751 -0.0330811 0.0147246 -0.0647751 0.11659 0.0602279 0.0543324 0.0158635 -0.124323 -0.20092 -0.204365 0.157109 -0.046881 0.045447 0.00766087 -0.20646 0.121558 -0.18316 0.0485097 0.0750168 0.247128 -0.228257 0.224041 0.12512 0.0564391 -0.0584957 -0.11242 0.0247896 0.21347 0.0305428 -0.00486818 0.0844539 0.04623 -0.311231 0.118972 0.0134032 0.254855 0.000830195 0.254706 -2.36388e-05 -0.174917 -0.0345377 -0.0337156 0.104734 -0.00457837 0.113434 0.0556647 0.130558 -0.111477 -0.0783915 0.189209 -0.207535 0.117066 0.0440325 0.105395 -0.0590947 -0.140637 0.191726 -0.123692 0.145458 -0.155512 0.0652984 0.00676543 -0.112586 0.0770578 0.249527 -0.115242 0.234667 0.177358 -0.0834653 -0.148212 -0.0749431 0.0257053 -0.21126 0.044493 0.265081 0.0323563 0.0273435 -0.198631 0.0279605 0.0222942 0.0462829 -0.0828408 -0.258751 -0.057812 0.0886801 0.0804415 0.0661282 -0.0560821 0.103944 0.154222 -0.183379 0.0164323 -0.160786 -0.179284 -0.0116237 -0.146434 -0.0637629 0.136078 -0.171898 -0.188359 0.0517231 -0.0754939 0.0474875 -0.0511137 -0.185281 0.197465 -0.110884 -0.0273071 -0.0347817 0.000368765 0.00744859 0.0223973 0.0586512 -0.0584578 -0.0970851 -0.276728 0.0317829 0.347451 0.127766 -0.0867648 -0.061997 -0.0833358 -0.221 0.120381 -0.467572 -0.0383786 0.0918685 0.0530403 -0.187345 0.116706 0.129174 -0.0227732 -0.019642 -0.0545248 0.352856 -0.132288 0.0739417 0.047975 0.0961107 -0.216014 -0.235799 0.211496 -0.155163 0.0351741 0.117031 -0.116309 0.26578 -0.21609 -0.113612 -0.0342356 -0.0851877 0.142028 0.0402711 -0.0287944 -0.0387591 0.270331 -0.150862 -0.0899145 0.122973 -0.375184 0.14261 0.0613493 0.197977 -0.13892 -0.207454 0.0167746 -0.0785872 -0.27948 0.13354 0.0472847 -0.219986 0.206623 0.0951424 -0.218218 0.0310553 0.247558 0.0470086 -0.0477183 -0.232716 0.0321077 0.137124 0.0854217 0.0668213 -0.142164 0.0367002 -0.234082 0.288177 0.1987 -0.143801 -0.153811 -0.254833 0.117138 -0.0717443 -0.129459 0.141232 -0.200277 0.0855087 0.00502136 -0.0854274 0.0210494 -0.173023 -0.0623691 0.077931 -0.0936584 0.0763245 0.0812906 -0.00662218 0.032544 -0.12126 0.0719443 0.0703444 -0.0646824 -0.0439602 -0.233554 -0.0090513 -0.00808637 -0.148653 -0.0822286 -0.145391 -0.0325871 -0.0564717 -0.0551527 -0.0420653 0.235255 0.0369839 -0.107163 0.197829 -0.0144149 0.0405869 0.136687 0.0629587 -0.0097529 0.279155 -0.00394012 0.200965 0.112674 0.140329 -0.242347 0.0976222 -0.100272 -0.136177 -0.16265 -0.239784 -0.0946867 -0.0811015 -0.00946356 -0.11492 -0.216318 -0.139879 0.18804 0.148145 0.0492803 0.0413561 -0.137292 0.053046 -0.00169207 -0.0550373 -0.229932 -0.294704 0.17247 0.0610288 -0.0349784 0.370924 -0.155623 0.24952 -0.11241 0.238333 0.080458 -0.107849 -0.2469 0.0893925 0.0255115 -0.216923 -0.00682736 -0.105972 -0.100458 0.0519321 0.0379625 -0.094698 -0.0993591 0.133298 -0.110969 0.0190557 -0.00416043 0.143472 -0.174874 -0.0438311 -0.00452305 -0.324471 -0.0697652 -0.131345 0.247926 0.187418 0.235948 0.00925554 -0.0705373 0.0104999 0.00454433 0.012573 -0.0128085 -0.0767174 0.351161 -0.261113 -0.241537 -0.289769 -0.318731 0.103675 -0.137792 0.143166 -0.0660993 -0.108211 -0.140121 -0.0373555 0.0374496 -0.16992 0.128324 -0.0539632 0.0510674 0.152086 0.223224 -0.150084 -0.0135138 0.0684041 -0.160046 0.23597 -0.0279652 0.106431 -0.216034 0.0300133 -0.0215198 -0.114627 0.1934 0.031156 -0.151774 0.011306 -0.183203 -0.277415 -0.0495474 0.03403 -0.0393553 -0.0483258 0.0419731 0.0152447 -0.0570721 0.0126033 -0.0847986 -0.100967 -0.0697638 0.073364 -0.0806594 -0.258674 -0.0568627 -0.19227 -0.149576 -0.0417518 -0.0734344 0.203043 -0.218933 0.137132 -0.203941 -0.0138467 0.0976647 -0.191664 -0.12299 -0.0628792 0.00921772 -0.0711888 -0.233094 0.0500003 0.0261497 -0.0399964 -0.0476218 -0.0439658 0.00702924 0.126291 -0.31685 -0.242191 -0.101718 -0.189407 0.173474 -0.42245 -0.00679238 0.118451 -0.0132808 -0.213086 0.231498 0.282332 -0.0393898 -0.143832 -0.0164365 0.0527302 0.257798 0.0278536 0.267873 0.113713 -0.00803625 -0.059975 -0.232189 0.0894739 0.0351348 0.0255238 0.0627209 -0.0425158 0.062537 -0.153345 0.356159 -0.0382902 0.214214 -0.256389 -0.0229344 0.05908 0.159089 -0.0785376 0.24789 -0.0932452 -0.391331 -0.105172 -0.336907 -0.0858198 -0.259223 -0.118821 -0.00629312 0.00136396 0.0278678 0.186215 -0.338099 -0.17787 0.17399 0.0690622 0.111199 0.0648554 -0.133877 0.0842492 0.0385388 -0.0344257 0.223544 -0.144888 0.0149804 -0.0135101 0.0612538 -0.00586432 -0.0770148 0.110079 -0.0909513 -0.0712824 0.0768748 -0.263732 -0.121009 -0.168033 0.0012226 -0.112547 0.0462205 -0.220982 0.0897906 0.187704 0.0313134 0.0603007 -0.308207 -0.0795952 0.154351 -0.0971962 0.0486931 -0.217844 -0.00259932 0.0629038 0.0714559 -0.211814 0.00494382 -0.0527344 0.136944 0.132867 -0.148637 -0.0179107 -0.0264036 0.0540464 -0.025086 0.0598587 0.1056 -0.199745 -0.0674037 -0.0684448 0.0562977 0.198756 0.0904147 0.00204334 0.27033 -0.043945 0.0047202 -0.0504783 -0.232064 0.138013 -0.15544 -0.140102 -0.215917 0.00970231 0.285587 0.0276347 -0.285833 0.0708677 0.0926878 0.0402763 -0.204646 0.161984 -0.0317252 0.0824545 -0.0622495 0.13542 -0.00177575 -0.0317446 -0.128842 -0.0734165 -0.0314968 -0.185639 0.17933 -0.161371 0.0557413 0.0759085 -0.132792 0.143475 0.0215629 0.189199 -0.105382 0.0672018 0.0964043 -0.0155855 -0.0429791 0.143824 0.124752 0.0248647 -0.00209156 -0.221062 -0.2214 0.0140391 -0.147969 0.044788 -0.00363754 0.0401444 0.123058 0.0861583 -0.0910487 -0.131553 -0.0334362 0.262208 0.00378788 0.287342 -0.201607 -0.0580408 0.014119 -0.106254 0.00596265 0.187161 0.0875274 0.0679304 0.199553 0.0510546 0.0269033 0.034819 0.0601542 0.00545962 -0.0472332 0.0636409 0.0389156 -0.0387639 -0.14995 0.281653 0.170673 -0.0410639 -0.0309356 0.278422 0.209159 -0.13143 0.0958403 0.0962237 0.133088 0.127377 0.179501 0.126079 0.0387152 -0.00420204 -0.0110493 -0.0454116 0.0933464 -0.136759 0.0657845 0.0967967 -0.00265133 0.0401316 0.0159122 -0.155438 -0.0717169 -0.21953 0.153596 -0.117332 -0.042826 0.149505 -0.017193 0.141805 0.143341 0.0706545 -0.100917 0.0968657 0.131434 0.152804 -0.0164053 0.126248 0.0454461 0.108229 -0.18538 -0.141809 0.124487 -0.0129914 -0.338267 -0.171186 -0.123992 0.168644 0.0189687 -0.0828394 0.0421617 -0.110775 0.144045 0.0734761 0.0500377 0.0508882 -0.000873691 0.0575444 0.227156 -0.114026 -0.0225065 -0.121295 -0.111768 0.0501559 -0.0414114 -0.0629483 -0.227813 0.143079 0.206133 0.172523 -0.0995412 -0.00066236 -0.137777 0.12311 0.0647505 -0.165931 0.0897003 -0.170036 0.176203 0.00132046 -0.311464 0.0916146 -0.195847 0.5191 0.0317091 0.175184 -0.0332678 0.107714 0.110749 0.176796 -0.00297707 0.25196 -0.0461761 0.190123 -0.0865814 0.0877284 -0.00267497 -0.00632858 -0.207338 -0.110923 0.0253304 -0.138109 0.0688693 -0.00156773 0.250333 0.0743006 0.0284971 0.134333 0.137817 0.0450981 0.0260764 -0.231528 0.14818 -0.144741 0.131811 -0.30062 -0.071332 0.243793 0.0777892 0.136217 -0.0985795 -0.111717 -0.0666071 -0.188883 0.107583 -0.227564 -0.0622594 -0.101396 -0.0516924 -0.324706 0.12773 0.0881439 0.0224635 0.301057 -0.0148948 0.208098 -0.267334 0.120343 0.0390764 0.0370378 -0.0187007 -0.00289717 -0.12283 0.0991516 0.0639978 -0.0413032 0.153058 0.123411 0.190183 -0.0290143 -0.0557228 -0.0900951 -0.0244605 0.0145156 -0.325034 -0.0999326 -0.0412649 -0.16315 -0.0932523 0.183863 0.0738425 -0.149067 -0.174712 -0.0528474 0.149995 -0.0365305 -0.0694679 -0.0687923 -0.276641 -0.168444 0.122943 0.00870097 0.0636735 -0.192454 -0.0403576 -0.106739 0.00599528 0.249725 0.0434004 0.102999 0.178448 -0.0090461 0.0306023 0.0296984 -0.00276527 -0.133086 -0.218984 -0.0549456 0.110272 0.117239 -0.0468881 0.0639941 -0.0792945 0.0626377 -0.123465 0.0600667 0.0896615 -0.10462 0.0158815 -0.00862013 0.0118 0.254268 -0.0690348 0.195102 0.130284 0.236823 0.141422 -0.0303948 -0.0596095 -0.085017 -0.124638 -0.00827784 0.224571 0.0509483 0.0964998 0.0803285 0.0211435 -0.0878759 -0.15577 -0.124965 0.12056 -0.0572579 0.33449 -0.0782927 -0.0300591 -0.0678448 -0.18467 -0.186464 0.101153 -0.141231 -0.0619866 -0.000465685 -0.137964 -0.0547423 -0.127402 0.0144755 0.00315531 -0.0554359 -0.0733531 -0.0314595 -0.0341226 0.0839934 0.0760399 -0.109221 -0.0686764 -0.172433 0.178947 -0.26889 -0.0240553 -0.0809554 -0.207625 -0.0488468 -0.129545 -0.427358 -0.0830001 -0.00794973 -0.00870334 0.0878834 -0.0480809 -0.0250222 -0.0500155 0.192683 -0.122426 -0.221795 0.215803 0.0760366 -0.253071 -0.0226748 -0.219395 0.195585 0.101392 0.0894426 0.190091 0.0183943 -0.0381285 -0.0165713 0.0285377 -0.151137 0.185548 0.178029 0.222065 0.082899 -0.125208 -0.181374 0.124489 -0.292423 0.237902 0.228793 0.2441 -0.0711628 0.279485 0.0337581 0.0985516 0.277463 0.0258467 0.0282838 0.237877 0.0415055 -0.242724 -0.0351646 -0.247045 -0.0202296 -0.0572811 -0.111631 0.0905003 -0.0826843 -0.172994 -0.350964 0.0988192 0.185752 0.208977 -0.170127 0.048148 0.346067 -0.0328532 -0.0412715 0.121448 -0.104814 -0.018452 -0.21123 0.275126 -0.0511558 0.127475 -0.166371 0.000720511 -0.093466 -0.116639 -0.25266 -0.0707448 -0.135963 0.127978 -0.162215 0.0330948 0.211722 0.0782402 -0.101721 0.276163 0.101789 0.0845452 0.0859706 0.00125286 -0.0394064 0.0759912 0.0281586 0.19769 -0.186067 0.0404536 0.124133 0.0303366 -0.121204 0.182232 0.116801 0.074815 0.0405212 -0.0783456 -0.0337813 0.156946 -0.0237551 0.0800481 0.194577 0.0972264 -0.211527 0.210541 -0.260725 0.0293514 -0.0414147 -0.0358785 -0.0737243 -0.0774393 -0.00689071 0.210336 -0.085894 -0.125592 0.033457 -0.0132964 0.0664028 0.0875307 -0.0904104 0.112902 0.000879837 -0.202837 -0.0304837 -0.0492552 -0.0635898 0.0532379 -0.0341519 0.118236 0.263786 0.286153 -0.013737 -0.0772843 -0.198675 -0.124184 0.120807 0.00397652 -0.102345 -0.0262802 0.0988334 -0.139 0.00384414 0.146561 -0.00716729 0.141203 0.0349665 0.0503705 0.224676 0.144887 -0.0634868 -0.131579 0.0647349 -0.059983 0.00665858 -0.295337 0.137538 0.187896 -0.1636 -0.0595188 -0.0532412 -0.196896 0.142533 0.0485324 0.098493 0.056857 0.228854 0.131469 -0.141494 0.0810859 0.0184392 0.0944971 -0.241917 0.00641557 -0.0816286 0.131429 0.0122213 0.032553 0.120915 -0.032675 0.0577132 -0.12886 0.241785 0.0391577 -0.166518 -0.105122 -0.152072 0.00541376 -0.0636825 -0.184356 -0.288959 -0.0458489 0.0339973 0.0665064 0.0910392 -0.122774 -0.100385 0.0672368 0.0112625 -0.0274697 -0.0155397 -0.00116492 -0.0946862 0.0227311 -0.0553087 -0.0547716 0.156316 -0.132357 0.182268 0.0562074 0.0111225 -0.0413249 -0.0977011 0.0740699 0.00968246 0.258863 0.11527 -0.115202 -0.211693 0.131746 -0.0961277 0.16002 -0.140141 -0.099796 -0.0219165 -0.182637 -0.0634428 -0.00291088 0.147184 -0.250046 0.0591826 0.0413556 0.0939293 0.0488813 -0.0746878 0.140892 0.0134528 0.0665258 0.205726 0.0100801 0.0456664 -0.0202287 -0.139838 -0.0289018 0.0146074 0.0299083 0.0436727 -0.0296104 0.0359017 -0.0626386 0.150314 0.147944 0.0584881 -0.0183305 0.0272664 0.146363 -0.00555654 0.0944285 0.0486884 0.173731 -0.21309 -0.111576 0.158027 -0.141676 -0.0492699 -0.256092 -0.0683838 -0.0595074 -0.00644489 -0.118375 0.333125 0.0720185 0.122038 -0.028169 0.10714 -0.0556756 0.182767 0.0783097 0.0633842 -0.29766 0.341801 -0.0358606 0.0682783 -0.00513577 -0.062319 -0.0963783 -0.136679 -0.171567 -0.0933119 0.076317 0.250409 -0.0666506 0.141935 -0.0784932 -0.0057726 0.129841 0.11685 -0.0398985 0.211812 0.096409 0.178526 -0.0578886 0.278229 -0.143299 -0.0387076 0.299298 0.129395 0.0334357 0.0282309 0.112943 -0.134535 0.0579572 -0.247648 0.0378954 0.0336139 -0.142699 0.13393 -0.126323 -0.0351381 0.0921975 0.287519 0.295431 -0.159136 0.0388315 0.104701 0.119162 -0.108642 -0.210109 -0.0109344 -0.0504589 0.00230337 0.0475689 0.168549 0.160798 -0.164927 0.103886 0.117252 -0.07049 0.154053 0.0452376 0.249532 -0.0333586 -0.0603712 -0.0679989 0.0585165 -0.0341472 0.0129087 -0.129055 0.153968 -0.0265837 -0.112407 0.0129744 -0.215161 0.0469089 0.0720119 0.0905163 -0.129553 0.0056388 0.0197181 0.0126052 0.053567 0.15913 -0.0161803 -0.0795474 0.330183 -0.0750485 -0.111945 -0.065828 -0.0847366 0.127441 0.140359 -0.0260665 -0.0968047 0.113944 0.254061 0.113516 -0.367795 0.250382 -0.0616127 0.042729 0.194302 0.155209 -0.229137 -0.0187248 0.0211785 -0.045117 0.0243707 0.0223444 0.00425168 0.267542 0.126256 -0.155718 0.0291306 -0.0774795 -0.0302463 0.0181489 0.102655 0.0352852 -0.0537306 0.19637 0.213612 -0.223242 0.101549 0.173099 0.158962 -0.0880929 0.186264 0.352289 -0.0493318 -0.0319819 0.0679417 0.0864391 0.0988812 -0.0433465 -0.202765 0.000551257 0.0156196 -0.0450698 -0.270251 0.222696 -0.192933 -0.0368964 -0.0702295 -0.142534 -0.199145 0.00743488 -0.131681 -0.0713921 0.129851 0.0635988 -0.0491082 -0.273177 0.0157822 -0.0369078 0.121129 -0.176777 -0.00926689 -0.0185721 -0.121984 0.148068 0.0653003 0.101119 -0.0973328 0.109394 0.0474005 0.00956805 0.0524437 0.055207 -0.122785 0.0636674 -0.073964 0.215567 -0.129139 0.223497 0.011227 -0.0581226 0.0559318 0.191606 0.0677635 0.0966988 -0.366884 -0.0142348 -0.154431 -0.311944 0.0278394 -0.0306851 0.26915 -0.0837358 0.0122789 0.0949174 0.0604038 -0.0657897 -0.398692 -0.00512206 -0.155263 -0.118258 0.221451 -0.06937 0.0815563 -0.189552 0.217391 -0.169114 0.09409 0.120972 0.0265383 -0.116419 -0.045465 -0.021665 0.20605 -0.0522725 0.156195 -0.0697317 0.0668879 -0.0228157 0.129965 -0.12116 -0.176184 -0.150612 -0.194632 -0.215607 0.0767297 0.0650332 -0.00228115 -0.0425409 -0.0877539 0.10163 -0.0256041 0.364805 -0.0456295 -0.072469 0.146371 0.105781 -0.16485 0.31307 0.0224068 -0.171355 0.0961353 0.111427 -0.0199077 0.16927 0.131578 0.353968 0.100719 -0.0384183 0.154239 0.164737 -0.208468 -0.0960379 0.0553361 -0.19112 -0.0404271 -0.0835901 -0.0346597 0.218654 -0.0767812 0.0334144 0.302866 -0.0458664 -0.0635761 0.0569341 0.1129 0.135402 0.00707699 -0.324472 0.126666 -0.329045 0.174356 -0.120766 -0.157525 -0.135651 -0.176607 -0.255373 -0.0321114 0.114881 0.0290029 0.170901 0.172865 -0.176638 0.0433063 -0.3132 0.0753047 0.148539 0.107505 0.0799304 0.232495 -0.00916902 0.0968884 -0.100647 -0.0472767 0.115724 0.478128 -0.106193 0.0369139 -0.0576806 0.045742 -0.0248609 0.104323 -0.0404928 0.153304 0.0199814 0.00324183 0.20544 0.0165656 -0.345349 -0.0757184 0.0855148 0.142474 -0.0718133 0.280271 -0.0068042 0.00848444 -0.0795872 0.0817033 0.11132 0.191072 -0.209486 0.108418 0.0561904 0.118495 -0.00618911 0.203366 -0.0428846 -0.0230786 0.130486 -0.0200481 -0.123051 -0.255334 -0.0658204 0.160565 -0.116339 -0.190482 -0.0953122 0.017062 -0.00542842 -0.145952 -0.155329 -0.0550907 -0.222645 -0.076151 -0.241353 -0.188089 0.00831708 0.0220422 -0.0844761 0.0941033 -0.0480936 0.12783 0.0602861 -0.183319 0.0101155 0.0474034 -0.115991 -0.059644 0.108226 -0.117773 0.0293897 0.0282224 -0.00504169 0.124633 0.135854 0.0441502 -0.00877615 0.0907603 -0.0919843 -0.148226 0.171345 -0.0442117 -0.0610151 -0.128728 -0.102371 -0.0350086 -0.0930036 0.0913995 -0.0473599 0.101086 0.167239 0.0115617 -0.0220205 -0.0354814 0.0400957 -0.0959098 -0.0430075 -0.15208 -0.176115 0.0442467 0.143291 -0.0060123 0.0349821 -0.0823553 -0.34274 0.0228285 0.0899008 -0.0367007 0.0705978 -0.129005 -0.327774 0.175872 0.0606109 -0.174907 0.300551 0.00107131 0.0435432 0.360314 0.150978 -0.0401467 -0.0762016 -0.0653476 0.100136 0.22108 0.0246964 -0.109981 0.0402058 -0.251085 -0.228449 -0.192924 -0.029072 0.124763 -0.0372945 -0.0161392 0.0495162 -0.0128723 0.116916 -0.196387 -0.158575 -0.155182 0.00773651 -0.14565 -0.069482 0.127616 -0.110873 0.0663036 0.00764148 0.288024 -0.144605 -0.0277491 0.0814362 0.00772185 -0.0761605 0.10006 0.0529093 -0.0291235 0.0445332 0.174951 -0.200673 0.051309 -0.0115187 -0.132457 0.15251 0.109109 0.0546492 0.243324 0.100303 -0.0619885 0.113689 -0.121031 -0.0662038 0.077393 -0.0857971 0.048052 -0.0132845 -0.123045 -0.050909 0.0082282 -0.212988 -0.0648153 0.0931346 -0.112759 0.212334 0.0493749 -0.0438647 0.0772781 -0.144563 0.0735257 -0.007537 -0.0686637 -0.0323412 0.156349 -0.130805 -0.00757624 -0.0951699 -0.0407415 -0.00978221 -0.222883 0.293747 0.00595036 -0.0682372 0.0217997 0.1171 0.0431408 -0.133964 -0.148986 -0.103037 -0.187299 0.188818 -0.0710871 0.188051 -0.0394815 0.0579052 -0.164013 -0.0546685 -0.00858704 0.00467623 0.138636 -0.0627346 0.00397652 -0.0442462 0.233952 0.343497 0.00689686 0.0665485 0.108334 -0.114734 0.092233 -0.0756792 0.0841112 0.210995 -0.0441904 -0.0221921 0.18051 -0.104848 -0.1373 0.0505001 0.00355102 -0.0178913 -0.0316547 0.232495 0.0531731 -0.00584304 0.0618235 0.0891197 0.0748324 0.0716048 -0.0299428 -0.0567246 -0.159738 -0.0973711 -0.0349022 -0.0811223 -0.0260892 0.0101666 -0.0711164 0.24672 0.0348985 0.158683 -0.0566632 0.0911418 -0.0810911 0.184609 -0.0746268 -0.133897 -0.0193928 0.00447672 -0.0921985 0.108374 0.0542742 -0.203867 0.163626 0.0282252 0.017861 0.253409 -0.0640409 0.00301111 -0.137388 0.046994 0.204308 -0.332775 -0.059254 0.152478 0.0819118 -0.0142154 -0.00920401 0.29015 0.0592318 -0.187631 0.114891 0.182573 0.116228 0.251776 0.367359 -0.0559715 -0.0452324 -0.0750882 0.115943 -0.0718866 -0.163733 -0.0942607 -0.189943 0.00674794 0.00456513 0.149901 -0.0697761 -0.0568764 -0.292306 -0.142249 0.144356 0.205551 -0.057274 -0.0920259 0.259133 -0.0559706 -0.07029 -0.0774762 0.0922273 0.130918 -0.0358308 -0.398317 -0.24006 0.147402 -0.13236 0.096938 0.134719 -0.153871 -0.0744906 0.0417272 -0.305911 0.117425 -0.0941624 -0.122924 0.0509388 -0.0498027 -0.390196 -0.0026258 0.238206 0.184505 -0.272083 -0.0653145 0.0840412 -0.152826 0.0641695 -0.0100318 -0.0925308 0.0998305 -0.0106219 -0.0943274 -0.253279 -0.0861483 -0.18509 0.194381 0.101643 -0.125035 -0.302937 0.0541712 0.0552652 0.0311068 0.0554647 0.226259 -0.000424553 -0.103893 -0.049451 -0.0483135 0.0998631 0.0774039 0.0455875 -0.290335 0.302172 -0.161875 -0.039604 -0.0780237 0.181153 -0.0722175 0.0492184 -0.0794094 0.0242534 -0.0214938 0.126823 0.092058 0.179351 0.00670349 0.0403255 0.006469 -0.0348701 0.0948337 -0.104814 0.197881 -0.131272 -0.0515709 0.143235 -0.141078 0.143067 -0.0706465 0.20638 -0.101425 -0.0973914 0.0326102 -0.0600393 -0.124625 -0.181059 -0.310615 0.457822 0.0680921 -0.0318226 0.037199 0.13033 -0.104401 -0.111737 -0.0552278 0.0228876 -0.106955 -0.0360232 0.0467027 -0.103578 0.0858491 -0.156657 0.119288 -0.00359215 -0.112615 -0.0286115 0.179382 -0.111337 -0.0880371 -0.124458 0.0279978 -0.0178 -0.14094 0.143305 0.0969716 0.134956 -0.118884 0.203102 0.146568 0.173041 0.0353537 -0.140383 0.247357 0.274338 -0.0233925 -0.0332905 0.256572 0.123517 -0.080311 0.0515487 -0.0571705 0.209567 -0.234996 0.0446466 0.249995 -0.138069 -0.10166 -0.052829 0.00612954 0.117858 -0.0164091 0.206618 -0.0483102 0.00827217 -0.454579 -0.0294516 0.227907 -0.0849778 -0.0421721 -0.0522905 -0.211951 0.292423 -0.250011 -0.147593 0.0603825 0.0526654 -0.055894 0.0600757 0.0429333 -0.0188827 0.259926 0.0958478 -0.0364794 0.0765061 0.174007 0.128748 0.247845 -0.039161 0.174948 -0.264322 -0.0060123 -0.0936329 0.0220333 -0.0998239 0.11069 0.110882 -0.161062 -0.185797 0.0602298 0.106318 -0.0842015 0.14105 0.0584555 -0.0350337 0.0741327 0.125588 0.33135 -0.0747275 -0.360924 -0.177354 0.0919172 0.0650682 0.0539636 -0.0508632 -0.0194855 0.0475915 -0.150352 0.0163401 0.141407 -0.0646706 0.0514806 -0.0830668 0.116644 0.399064 0.0392262 -0.1241 -0.0457255 -0.0795805 0.0537807 -0.213294 0.0107178 -0.0952947 0.0764711 0.0633237 0.088716 0.16646 -0.16024 0.0243593 -0.184179 0.0178615 -0.124653 0.0491333 0.0374822 -0.345501 0.031242 0.205419 0.0844605 -0.0547891 0.0904856 0.183836 0.0174308 0.0118459 0.0760546 -0.256626 -0.124436 0.087535 0.197626 -0.128015 0.265685 -0.0400853 -0.111858 0.0331851 -0.00802821 -0.0545641 0.171404 0.0245517 0.116319 -0.0542322 -0.105608 -0.16905 -0.148606 0.00249862 -0.0341255 0.151782 -0.111894 -0.178724 0.124688 0.0609758 0.0321554 0.0635539 0.0977058 -0.193452 0.0178152 0.00181168 -0.0561677 -0.425149 0.208106 0.061894 0.00195777 -0.103557 0.129709 -0.031755 0.00116398 0.328536 -0.19937 0.139955 -0.147499 -0.340781 -0.00596313 -0.105734 0.104389 0.0856032 -0.154163 -0.0648228 -0.0187886 -0.0535287 0.0831193 -0.370037 -0.0249541 0.114863 -0.0469467 0.0355674 0.0360085 0.0828328 0.0371219 0.101818 0.266922 0.184576 0.0658237 0.0443388 0.231088 0.0562358 0.20627 0.0913423 -0.121651 0.0623478 0.0348209 0.206546 0.156262 -0.0955618 -0.0443927 -0.270476 -0.0096938 0.153964 0.248002 -0.0957202 0.0236043 -0.335 0.273821 -0.382112 -0.365758 0.00471216 0.0876277 -0.0854822 -0.174489 0.157347 0.166152 -0.0127952 -0.201714 0.153567 -0.0262065 0.0576555 -0.0514409 -0.290474 0.0266461 0.178659 0.28384 -0.159599 -0.169525 -0.0888602 -0.181881 0.0374368 -0.156559 -0.0776289 -0.247522 -0.0295523 0.232502 -0.194163 0.203325 0.0106134 0.0274664 -0.0674018 -0.221855 0.0633544 -0.122375 -0.0686112 0.112757 -0.0295277 -0.184543 0.0858595 -0.295338 0.133221 -0.177197 0.156351 -0.227071 0.206928 0.15672 0.169655 0.0397808 -0.110784 0.0560854 0.0742802 -0.140934 -0.217983 0.100075 0.0116936 0.00885746 -0.245115 -0.025806 -0.108744 -0.0576253 -0.0895051 -0.0398881 -0.0759993 -0.00419116 -0.0816324 -0.339643 -0.0422402 0.0967395 0.0341477 -0.0163302 -0.0330031 -0.136786 -0.0210641 0.229847 0.0269478 0.00525396 0.219693 -0.380305 0.11163 -0.0612865 -0.0770914 -0.0530734 0.0696555 0.0927502 0.0474147 0.267099 0.163881 0.0765084 -0.245858 0.209253 0.0399335 0.0267104 0.069864 0.111341 -0.00382381 -0.0910723 0.016082 0.131721 0.00160271 -0.103573 0.253973 0.122007 0.192976 -0.0669777 0.0246146 -0.0885656 -0.143418 0.116797 0.186458 -0.112717 -0.146492 0.133774 0.120179 0.102933 -0.007728 0.10258 0.12454 0.106427 0.0134344 0.00401623 -0.0746585 0.274459 0.153063 0.10425 0.184959 0.0288375 -0.130189 -0.0391856 -0.107476 -0.156212 0.071932 0.0351277 0.029584 -0.143802 -0.0796221 -0.202108 -0.0133971 0.188994 0.191877 -0.20396 -0.046741 0.0469216 0.0106431 0.131317 -0.0614543 0.0540988 -0.179757 0.0447393 0.211501 -0.00391884 -0.033422 -0.034447 0.044675 -0.196241 0.0941993 0.180505 -0.00817997 0.000648649 -0.151583 0.2085 -0.0695293 0.138462 0.0454565 -0.0581988 0.145802 0.0935979 0.0930759 -0.0613616 -0.25355 0.084504 -0.12995 0.101026 -0.0530668 0.144696 0.121184 0.0915536 0.0377124 0.123245 -0.0429791 0.0993483 -0.00867544 0.111126 -0.0898752 0.0387568 0.201004 0.0270565 -0.151189 0.125883 -0.144208 -0.141594 0.0232379 0.0660979 -0.0613706 0.236184 -0.00639477 -0.07583 -0.055173 -0.0332253 -0.0713405 0.0685738 -0.198311 -0.0544449 -0.0313796 0.177908 0.0216844 -0.0330494 0.0896143 0.155645 0.188975 -0.10346 -0.0523335 -0.0433578 0.16529 0.0552463 0.00256245 -0.047609 0.118421 0.0111485 0.104047 -0.0701836 0.17319 -0.14023 0.0662549 -0.132911 -0.178075 -0.0441682 0.131766 0.297624 0.221032 -0.0144854 0.135383 0.168704 -0.0881813 -0.0814159 -0.0897944 0.0971532 0.0442391 0.00473533 0.189479 0.130968 0.0725598 -0.0251328 -0.206245 -0.0168431 -0.00949429 0.238344 -0.212064 -0.154175 -0.174852 0.0733271 -0.130863 -0.0731007 -0.0848208 0.00343283 0.0667206 -0.0447336 0.107693 0.138036 0.0531471 -0.0262495 -0.106894 -0.201923 0.0107178 -0.0619242 0.0639326 0.0740004 -0.0290824 -0.284041 -0.130428 -0.0568972 0.0376618 0.0848468 0.0142972 0.213854 0.00848964 0.0197559 -0.184247 -0.0526748 0.123075 -0.0530058 0.0570499 -0.0252018 -0.056719 0.0449208 -0.190645 0.269857 -0.104148 -0.137127 0.185927 -0.159615 0.183868 -0.04181 -0.180814 0.0303215 0.131099 -0.104676 -0.316751 -0.174737 0.0146457 -0.148795 0.0871038 -0.186112 0.0977219 0.02163 -0.0187981 -0.0188605 -0.104159 0.18153 -0.0661712 -0.171841 -0.038787 0.211012 0.275441 -0.0335799 0.0431574 -0.243554 0.014066 0.106171 0.136601 -0.152119 0.061971 0.0226129 -0.0699231 -0.119765 0.0715901 -0.0507927 -0.0827406 -0.0408323 0.0434869 0.160049 -0.12776 -0.0361849 -0.177603 -0.0339921 0.140769 0.0561143 0.13885 0.0829718 0.0172838 -0.0454102 -0.0691147 0.0368118 0.144407 -0.0651481 0.338162 -0.129102 -0.118416 -0.173936 -0.00624537 0.354029 0.124565 -0.0289032 0.259954 -0.236614 -0.021716 -0.084912 0.039595 -0.108839 0.0104573 -0.103703 -0.0853314 -0.0288502 -0.15775 -0.0719495 0.0266764 -0.0169363 -0.157458 -0.227289 -0.0907069 0.120419 0.140216 0.0556737 0.0358799 -0.0575515 -0.0812948 -0.170835 -0.20049 -0.217859 0.0260476 -0.0892942 -0.0681488 -0.213804 -0.0473419 -0.131024 0.00677205 0.0775698 -0.0639888 -0.326632 0.0981053 -0.0459387 0.12896 0.00685384 0.00617729 0.0656275 -0.00266693 -0.0639099 -0.0330981 0.0949713 -0.00126704 0.373807 0.0509691 -0.173884 0.075934 0.133374 -0.18886 -0.0101411 -0.0393988 0.118608 0.172919 -0.0499635 -0.0868424 0.150377 -0.104554 -0.188263 0.048114 0.0184553 -0.221206 -0.0200112 0.0481783 -0.152257 -0.000670397 -0.213719 -0.027153 0.398198 0.0807204 -0.154681 0.194497 -0.0762286 0.357971 0.161607 -0.0437569 -0.0506046 0.192197 -0.057873 -0.132553 0.0552127 -0.0060052 0.320905 -0.0372609 -0.0764011 0.275537 -0.148338 0.256648 0.234366 0.0420799 0.140168 -0.212414 -0.199632 -0.0451742 -0.0644195 0.0255299 0.0386651 0.0322495 -0.052316 -0.0412181 -0.151029 -0.0208348 -0.0245049 -0.0867228 -0.070621 0.0677399 -0.0355168 0.0555399 -0.119958 0.0969503 0.06337 0.0657121 0.207596 -0.262768 0.0483092 0.00454716 -0.146271 0.0609357 0.0688504 0.0795125 0.122969 -0.140304 0.0490572 0.02381 -0.164265 -0.19977 0.12108 0.0882432 -0.153015 0.0412526 0.117139 0.117657 0.152113 0.141418 0.111687 0.283171 -0.123498 -0.0251843 0.295993 -0.192499 -0.270886 0.217643 0.140078 0.166738 0.0525713 -0.12275 -0.00558963 -0.0187782 -0.133072 0.0283155 -0.188611 -0.0288691 0.0306959 0.201232 0.0375687 0.0298355 0.0689937 -0.549968 0.37066 -0.210358 0.158791 0.0918869 0.0168053 -0.01378 0.222791 0.134943 -0.0314637 0.134265 0.023688 0.0980779 -0.0111098 0.0152177 0.111258 -0.043972 -0.251369 0.0105699 0.0970534 0.0185626 0.033535 0.0138547 0.0692225 -0.0237821 0.0835883 0.0463028 0.353786 0.252708 -0.194969 0.0944839 0.203959 0.134789 0.149915 0.0419617 0.187957 -0.0641439 0.111697 0.114879 -0.0984651 0.100544 0.0377181 -0.139438 -0.0734898 -0.0215605 0.106583 -0.124934 0.067755 0.00101931 0.0356015 0.034881 0.151132 -0.106866 -0.00512017 0.229869 0.0533481 0.0760399 0.454643 0.0175679 0.176815 0.133424 0.0349197 0.0264296 -0.0493337 -0.0523765 -0.109504 -0.0564301 0.0127248 -0.0639444 -0.126842 -0.379328 0.196002 0.0287136 0.286438 -0.105683 -0.0217657 0.148885 0.0691128 -0.263684 -0.129617 0.0459094 0.0846142 -0.0457146 0.0582612 -0.191274 -0.0205005 0.00239272 0.0748324 0.053844 -0.1866 -0.0955292 -0.3435 -0.217696 -0.0849045 -0.119311 0.0516574 -0.0133077 0.115233 -0.111862 0.0899027 -0.193269 -0.00638768 0.115129 -0.0441455 0.135286 0.0378334 -0.0837178 0.0102011 -0.14573 0.105153 -0.0247021 0.0920349 -0.10575 -0.0515747 0.066895 0.00547002 0.0590299 0.0117527 0.175399 -0.282159 0.0239901 0.0620826 -0.0243243 -0.0456366 -0.0453823 0.00194311 0.0641912 -0.124802 -0.0504901 0.0938385 -0.0716152 0.0263313 -0.183866 -0.0171457 0.227741 0.0204868 0.00137531 0.103762 -0.0672113 -0.242442 0.0392423 0.127791 0.149727 -0.146138 -0.125331 -0.0645448 -0.2068 -0.0379048 0.0941751 0.153188 0.0221288 -0.313083 0.0635482 0.0119797 0.107807 -0.0656923 -0.0733744 0.0983644 -0.145242 0.210584 0.0695388 -0.0146093 -0.0896341 0.0140117 -0.0232355 -0.0137332 0.0577922 -0.118469 -0.0727593 0.163498 -0.00187692 -0.0131909 0.00199843 0.130504 0.00494855 0.00175778 0.0829486 0.162653 0.270314 0.0673777 0.202227 0.199207 -0.0272461 -0.0740141 -0.205452 0.125307 -0.0981195 -0.151339 -0.166966 -0.0787068 0.167432 -0.040142 -0.0509998 0.0914619 0.139069 -0.00682027 -0.0491905 -0.0201062 -0.163023 0.0741067 0.0230549 -0.112523 0.174318 -0.0833542 0.0615115 -0.1018 -0.253591 0.238613 0.161364 -0.0936508 0.0259743 0.13445 -0.130569 -0.000879364 -0.272857 -0.0380434 0.0994475 0.132728 0.241789 -0.0552363 0.0822858 -0.136168 0.148609 0.111143 -0.246048 -0.0119281 0.0829963 -0.295158 -0.259236 -0.0910605 0.110268 0.0315531 0.00104767 -0.0133318 0.0549536 -0.0670945 0.07378 -0.017123 -0.300455 -0.0191602 -0.0956143 0.0146542 -0.140278 -0.0751421 0.122285 -0.123514 -0.110445 0.13814 -0.218324 -0.0522356 -0.206405 0.0523794 -0.0149946 0.0219165 0.0155718 -0.00451785 0.0126132 0.107663 -0.0412426 -0.138366 0.237683 -0.0124019 0.0244747 -0.269299 0.155136 -0.252922 0.039344 0.232134 0.00815539 -0.0759577 0.173967 -0.0901083 -0.0276394 0.00144244 -0.0417651 -0.00976472 -0.0248921 0.19657 -0.183628 0.0849158 0.128289 -0.164507 0.0597944 0.0617384 -0.0304458 -0.0260164 0.0151444 0.328873 0.0629232 0.00512679 0.0952668 -0.0515884 0.162959 -0.117628 0.299997 -0.175643 -0.0771268 0.000888819 0.109579 -0.210677 -0.241849 -0.0942777 -0.292805 -0.141557 -0.159478 -0.0994929 0.0967158 0.0803748 -0.138996 -0.125126 -0.0454584 0.165249 0.038666 0.068901 -0.0254793 0.034559 0.0437602 -0.0151024 0.208566 0.100576 0.12581 0.247809 0.0631237 -0.120175 -0.231814 -0.200294 0.113185 -0.0415386 0.165464 0.0587278 0.0609342 -0.00434198 0.128246 -0.0347022 0.072948 0.0443828 0.0892876 -0.184212 -0.0597358 0.101242 0.101172 0.0455014 0.202139 0.29762 -0.0119125 0.278023 -0.0899953 0.0416464 0.136663 0.0339089 0.00906265 0.044431 0.00639004 -0.0856184 0.183132 -0.108722 0.0955783 0.026041 -0.219151 -0.0393208 -0.152755 -0.2179 -0.00269246 -0.10366 -0.160127 -0.177207 0.0294511 0.0131054 -0.126326 -0.093456 0.246559 -0.0913498 0.135359 -0.207409 -0.0732056 -0.0338631 0.226099 -0.0473651 -0.33236 -0.0969962 -0.0871851 -0.0931421 0.24515 -0.110704 -0.123537 -0.0626977 -0.0311266 -0.181268 0.0692083 -0.12909 -0.249315 0.27527 0.0934267 -0.111267 0.172742 -0.423986 0.110482 0.0175504 0.00703822 -0.0431815 0.0683871 -0.171874 0.0892441 0.0360454 0.170283 0.279146 -0.298039 -0.172694 -0.060157 -0.0469533 -0.065393 0.00128926 0.0488028 -0.044926 -0.149734 0.109769 0.0402857 -0.181609 -0.0965863 0.163294 -0.0904218 -0.0942106 -0.102202 -0.0694712 0.190191 -0.0758064 0.0812286 0.0076708 0.144754 -0.106013 0.0385251 -0.034862 -0.0884805 0.287822 0.0702158 -0.270022 -0.052594 0.156549 0.0977422 0.149055 -0.147005 0.0153444 0.278698 -0.0937837 -0.140808 0.0240653 0.136478 -0.117671 0.206324 0.0619413 0.207287 -0.0392622 -0.158484 0.166317 -0.172399 0.105398 0.136781 -0.0259564 0.0582517 0.285813 0.129753 -0.272372 0.242467 0.067165 -0.0139441 -0.359544 -0.0524451 -0.149178 -0.0448613 0.0271955 -0.205984 0.0417665 0.103693 -0.00429565 -0.0227178 0.0178369 -0.177124 0.0495942 -0.153528 0.187207 0.0594048 -0.0293117 -0.0145213 -0.143974 -0.139315 0.196801 0.245918 -0.160573 -0.00604208 0.111489 -0.138751 0.213484 0.0226706 0.250859 -0.0980959 0.140116 -0.0553399 0.0895859 -0.0279056 0.0235844 0.0647864 -0.191134 -0.0661334 0.284357 -0.18677 -0.0994797 0.0112072 -0.0951784 -0.0749289 -0.0842005 -0.00976945 0.111933 0.00328485 -0.199957 0.0223746 -0.0874934 0.120525 0.0124789 0.00457316 -0.311479 0.152203 0.0508797 -0.0606421 -0.0826512 -0.223458 -0.0068666 0.124208 0.315736 0.105826 0.00459539 0.373605 0.350086 0.0654781 0.0795824 0.156653 0.031493 -0.306499 0.242635 -0.0153837 -0.0807677 0.0132699 -0.0966156 0.166052 0.104747 -0.145155 -0.0787021 -0.040342 -0.0531216 -0.0197777 -0.0202466 0.050067 0.0751199 -0.0342725 -0.0640508 -0.0210031 0.0685426 0.171861 0.143724 -0.220758 -0.0887283 -0.225419 -0.103233 -0.232159 0.220581 -0.0537802 -0.0626367 0.0905887 0.0816697 -0.0575468 -0.0507265 -0.176384 0.186882 -0.0330792 0.124834 -0.022794 -0.111077 0.0414715 -0.0500429 0.0872523 -0.139308 0.158457 -0.0319786 0.184423 -0.020014 -0.165559 0.37253 0.0967201 0.0296587 -0.120609 -0.243467 0.123673 0.0138911 -0.156318 0.0972888 -0.0911324 -0.128154 0.0658592 0.100894 0.0496368 0.0158659 0.0531679 -0.1855 -0.0302132 0.130207 0.061243 -0.0685247 -0.00324608 0.236579 -0.0161817 0.309417 0.221018 0.137608 0.08078 -0.00728028 -0.124794 -0.230889 -0.0698692 0.0176653 0.139649 -0.00945363 0.191033 -0.0123172 0.115312 -0.0347108 0.104316 0.128482 -0.017966 0.0259185 0.23112 0.0500037 -0.0621862 -0.175169 0.013624 -0.11101 0.117423 0.139717 0.00543078 -0.184023 -0.114859 -0.258947 0.0438892 0.0581907 -0.163277 0.296156 0.034012 0.0624112 -0.173587 -0.0556278 -0.0437058 -0.0467164 0.141098 -0.054522 -0.0448164 -0.0435739 0.0428841 0.0996641 -0.106959 0.313163 0.0824418 0.0214692 0.228836 -0.0896559 0.313379 0.0876726 -0.1318 -0.0415892 0.030703 -0.262225 0.17494 0.0182388 0.123756 0.0235466 -0.0361636 0.119618 0.000911985 0.025789 -0.178007 -0.0461959 0.0358823 0.298955 0.0804854 0.0740453 -0.155955 -0.0199157 -0.0577529 0.00361485 -0.211433 -0.206604 0.0598227 0.101091 -0.11146 -0.186689 -0.162393 0.00907021 0.233704 0.172195 -0.0166569 -0.0909338 -0.142269 -0.0457657 0.0751005 0.0908307 0.00720606 0.0219694 0.185986 0.105557 0.0906875 -0.15545 -0.152497 0.17476 0.00905177 0.131794 -0.0595689 0.140121 -0.0643226 -0.0975404 -0.0605546 0.110591 0.245568 0.0904355 0.0365702 0.0103122 0.0193569 -0.00580475 0.00426255 0.0897296 0.159856 -0.149494 -0.01872 -0.0168672 0.143595 -0.116326 0.121165 0.0660076 0.092223 0.0705619 -0.122048 0.111713 0.0136282 -0.197973 0.155295 -0.0833765 0.180416 0.135103 -0.195407 -0.0675139 -0.0803828 -0.0650361 -0.086276 0.0952914 -0.0761515 0.0512036 0.0708777 -0.0726421 -0.283062 -0.221887 -0.0248699 -0.161496 -0.168812 0.0859833 -0.181699 0.0943245 0.0602341 -0.0415202 -0.0280574 -0.17883 0.124919 0.125667 -0.0709429 0.0848534 0.129576 0.0464153 0.116991 0.249223 -0.135709 0.00119518 0.235416 -0.034732 0.153634 0.188509 0.103445 -0.00877615 -0.226361 -0.0550401 -0.153212 -0.0820584 0.0785735 -0.0608009 0.0340144 -0.0152187 0.401601 -0.0572617 -0.172593 -0.199312 -0.00681649 -0.165254 -0.0462659 -0.0400092 -0.0258992 0.149053 0.238615 0.0163462 -0.0337217 -0.0623384 -0.203112 0.0141303 -0.00661414 0.0782691 -0.0323015 0.0823869 -0.241271 0.18767 0.0500282 -0.0142258 0.120814 -0.025685 0.0803653 -0.113558 0.0710819 -0.0623147 -0.0960875 -0.0322901 0.21965 0.226233 0.0645964 0.0198873 -0.0408417 -0.0874414 0.187048 0.00392735 -0.00248255 0.197108 0.0133077 -0.0672245 -0.103824 0.12792 0.101896 0.113901 -0.267018 0.114549 -0.0866344 -0.00153132 -0.132849 -0.115134 -0.0376098 0.0284299 0.267358 -0.115308 0.0385544 -0.0179565 0.151797 0.0972855 -0.0127286 -0.311028 0.15166 -0.0170114 -0.118483 -0.0386112 0.00280498 -0.206811 -0.131528 -0.243481 -0.045908 -0.192349 0.176816 0.294765 -0.0885453 -0.0964374 0.0529812 0.0614751 0.112898 0.096313 -0.114738 0.350708 0.0438297 -0.0941033 -0.175073 0.191231 -0.196636 0.0895717 0.102129 0.00221543 -0.0959306 -0.00106942 0.0356842 0.0804448 0.535175 -0.113556 -0.00285651 -0.0753298 -0.0661688 0.17041 0.0167216 0.0838889 -0.0105869 0.228726 0.0516773 -0.163616 0.0512995 -0.00970657 -0.0420889 -0.0361773 -0.0967825 -0.14149 -0.103311 0.00507147 0.0524649 -0.0224999 -0.0143984 -0.096774 0.171927 0.129723 -0.0588119 0.0531854 -0.0136774 -0.0203455 0.154294 -0.0981077 0.0169424 -0.0188874 -0.0833703 -0.0354317 -0.0974666 -0.00343992 -0.257015 0.0856888 -0.0323138 -0.0188728 0.0804632 -0.127173 -0.0151851 -0.240004 0.141985 -0.0448509 -0.0178785 0.0964081 -0.0623417 0.002492 0.103191 -0.244242 0.0523056 0.0693686 0.0147293 0.174153 0.0675403 0.00561847 -0.231902 -0.0139989 0.0258897 -0.052385 -0.0477131 -0.432842 -0.0216125 -0.00750201 0.149647 0.12375 0.329416 -0.211044 0.110208 0.214919 -0.312516 -0.246422 0.0480922 -0.0685459 -0.10405 -0.335215 -0.0199961 0.117143 -0.0729796 0.0160777 -0.168272 0.0454135 -0.257114 -0.147705 -0.0221359 -0.141717 0.0499455 -0.0610695 0.265903 0.055954 -0.115148 0.193437 -0.0588625 0.0443209 0.256553 0.0285784 -0.193874 -0.164337 -0.07978 0.0417622 -0.197743 0.128538 0.00873029 0.018044 -0.228853 -0.049512 -0.0659986 -0.384048 -0.147824 0.147779 -0.0443894 0.0330995 -0.0380987 -0.0559086 -0.285733 0.212419 -0.0751606 -0.126387 -0.0127243 0.0755898 -0.203069 -0.0579373 -0.0399463 -0.180074 0.120005 -0.147645 0.128206 -0.0361513 -0.152159 0.0891387 -0.161339 -0.072739 -0.336449 -0.102315 -0.146441 0.0864249 -0.139805 0.158191 0.031095 -0.0138022 0.140871 0.284366 0.459058 0.266408 -0.0201195 -0.0654351 -0.0185801 -0.0551546 0.024226 -0.0699038 0.328617 0.09944 0.192896 -0.0579624 0.199025 -0.0565554 -0.0647571 0.0726222 0.170342 -0.110538 -0.024087 -0.0767032 -0.0607361 -0.0804386 0.0571615 0.106169 -0.00610401 0.0611106 -0.0129158 -0.0869275 -0.162523 -0.164752 0.0538156 -0.0972208 0.167423 -0.0164375 -0.0317223 0.0771651 0.187384 0.0225878 -0.0416549 -0.043572 0.087075 -0.177415 -0.0550184 -0.0868863 0.0603475 -0.0636182 -0.0537967 -0.105085 -0.0884257 0.0114038 -0.0345562 0.0852572 0.0037042 -0.079078 0.155304 0.188579 -0.0461472 -0.118895 0.234593 -0.184775 0.0458848 -0.0789191 -0.0426161 0.0322022 -0.186092 0.0195597 0.00607423 -0.0504873 0.0930088 0.175529 -0.105847 0.102502 0.0639123 -0.00100323 0.0725702 0.146763 0.377574 -0.00570688 -0.0143951 -0.0544723 -0.233794 -0.149142 0.204508 -0.0552392 0.0746594 0.0617838 0.190936 -0.0227235 -0.0190779 0.0205204 0.166572 0.13638 0.155111 0.345876 -0.101231 0.0922543 0.138967 -0.0937582 -0.0876608 0.172852 -0.188176 -0.149949 0.0802306 0.306922 0.0780421 -0.052446 -0.0964227 -0.0523302 0.139087 0.0874934 -0.00761264 -0.0457912 -0.164161 0.0930391 0.0807516 -0.18654 0.176847 -0.152454 0.142251 0.0185423 0.0369007 0.0723617 -0.073754 0.0462087 0.0219401 0.196739 0.0772138 0.0848823 -0.133759 -0.153106 0.121312 -0.10031 0.0460607 -0.109051 0.0107438 -0.0821657 0.2236 -0.0728246 0.131961 0.223382 -0.0574834 -0.172831 -0.00877189 -0.195504 0.0549475 -0.0635076 -0.0667503 0.032771 -0.158716 -0.214064 -0.0234502 0.206006 0.132514 -0.028072 -0.309059 -0.126944 -0.196196 0.0147223 0.211044 0.0132453 0.344209 0.0564925 -0.146397 -0.15457 0.000672761 -0.124822 -0.0442977 -0.109273 0.171822 0.107576 -0.0932646 -0.0270556 0.0983521 0.0511326 0.0442982 -0.131297 -0.0669149 0.118747 -0.104746 -0.0109235 -0.072608 0.0922188 -0.0134727 0.0546402 0.152245 0.183198 -0.0380254 0.00448523 -0.0108559 0.0570428 0.00518683 -0.0404063 0.0226866 -0.365382 -0.0117792 -0.278011 -0.0360109 -0.0986731 0.0849971 -0.0404465 0.0406682 0.0798982 -0.0244075 0.0292734 -0.0278068 0.13934 0.0560349 0.13625 0.178629 0.0842241 0.0216054 -0.0413112 -0.0472133 -0.236831 -0.120486 0.16379 -0.00836814 0.204579 0.108466 0.0187758 0.184086 -0.212885 -0.127064 0.0937894 -0.129094 -0.240226 -0.12267 -0.0961603 -0.11443 -0.130018 -0.205305 -0.0442745 -0.14126 0.0880224 0.149845 0.145654 -0.215098 -0.0346696 -0.0573998 -0.0172393 -0.00449894 0.051457 0.0910529 -0.201903 -0.0092527 -0.0930376 -0.0391293 0.0241693 -0.211266 0.0429257 0.244047 -0.010437 0.201458 -0.240474 -0.0706952 0.265147 0.028394 0.142023 0.172448 -0.164701 -0.254074 -0.0790222 -0.211845 0.0269534 0.197542 -0.264735 0.252344 -0.220668 -0.285709 -0.227597 0.0488643 -0.0274243 -0.097164 -0.0624348 0.123342 0.0266915 0.00584115 -0.366993 -0.338066 -0.170384 1.08739e-05 0.217881 0.125812 -0.146908 -0.0895996 0.296663 0.285217 0.103513 0.0143923 -0.0538842 -0.0481542 0.198662 -0.158735 0.170121 0.0146873 -0.0965712 0.0625786 -0.0419844 0.197793 -0.0143029 -0.0535249 -0.0201852 0.110893 -0.130125 -0.03758 -0.129153 0.128985 -0.404342 0.089498 0.0428747 0.0149459 0.144004 0.0305508 0.230858 -0.0912312 -0.0805474 0.053115 -0.187484 -0.0922169 0.341587 0.19662 0.159407 0.200079 -0.0592942 0.145638 0.0134486 -0.018339 -0.109426 -0.0391653 0.324652 -0.197909 0.175989 -0.197919 -0.00892649 -0.175873 0.0657466 -0.0844052 -0.101264 0.00540147 -0.201745 -0.0172403 -0.0331775 -0.33857 0.0694915 -0.048696 0.0382211 0.0938423 0.296725 -0.346245 -0.173187 -0.0270021 -0.203632 0.0502051 -0.0959183 0.038345 0.0300714 -0.212013 0.0667324 0.243955 -0.137436 0.10156 -0.176772 0.0830153 -0.202782 0.0775774 0.144465 0.146715 -0.220022 0.246901 0.0522181 0.0456111 -0.00149445 -0.210253 -0.29897 -0.213511 -0.0341983 0.0211142 -0.00462092 -0.168485 0.0847239 -0.166657 0.0150461 0.0569062 0.0224209 0.0488903 0.0695492 0.193883 0.0200509 -0.0968643 0.0608321 -0.0811634 -0.074527 0.172743 0.0988693 -0.173846 -0.0067451 0.00792373 0.100009 -0.236583 0.0568542 0.0184964 -0.18959 0.123364 0.0136136 -0.0660048 -0.236694 0.173791 -0.0645628 0.0124959 0.0273941 0.191247 0.166376 0.153699 -0.219599 -0.00380821 0.0870088 0.0262466 0.0853999 0.0431077 0.100983 -0.0205762 0.296165 -0.0452206 0.258444 0.110462 -0.0227869 0.164387 0.0905092 0.0347207 0.0837944 0.0396626 -0.170875 0.449416 0.194512 0.110179 0.16834 -0.1533 -0.0151478 -0.0792089 0.0911792 0.10095 -0.199216 -0.299865 0.0114573 -0.0424147 0.00413206 -0.110502 -0.0394267 -0.107082 0.0354653 -0.0405391 0.15588 -0.0871312 0.0798316 -0.108114 0.00613333 -0.0695927 0.201092 0.178135 0.114722 -0.0416686 0.0702257 0.115213 0.084366 -0.0734605 -0.0780695 -0.0307186 -0.260217 -0.216374 0.206878 0.059046 0.0295703 0.0620141 0.0579482 -0.135442 -0.148929 0.0204755 -0.0359542 0.0744958 0.0811383 -0.0784255 0.0910889 0.0683592 -0.0803294 0.0560117 0.0133947 0.168676 -0.0579945 0.0885562 0.145803 -0.0317176 -0.0708952 -0.0272347 -0.128159 -0.196444 0.0351329 -0.063812 -0.054296 0.0228313 0.0599556 0.0718469 0.136343 -0.0131975 0.111491 0.000826413 0.138068 -0.23681 0.220852 -0.100501 0.21772 -0.00182113 0.158502 0.241418 -0.0607541 0.00353589 0.00537168 0.144406 0.021586 -0.0913768 -0.107639 -0.0359442 -0.0223817 0.111122 0.189983 -0.0117362 -0.127592 0.0707812 0.184459 -0.0723324 -0.113244 0.195814 -0.179335 -0.0402323 0.136243 -0.0044058 -0.169976 -0.0360846 0.0834559 -0.215443 -0.171257 0.115027 0.089203 0.235265 -0.0106928 0.200594 0.0285557 0.0276101 -0.17216 -0.137532 -0.138195 0.0782724 0.386077 -0.0454811 -0.0442883 0.190012 0.0765931 0.0362175 -0.136768 0.183867 0.0437625 0.0906161 -0.0151808 -0.210322 -0.0099439 -0.0146485 0.191631 -0.0399184 -0.039665 0.0717972 -0.294204 0.0640035 0.0524096 0.0792869 -0.0263875 -0.029176 -0.0552586 -0.0236549 -0.0284474 -0.00224711 0.0653783 -0.082638 0.0940461 0.0301319 0.116119 -0.250748 -0.0592072 -0.225333 -0.298991 0.216927 0.151454 -0.120861 -0.0206093 -0.0355202 -0.0494221 0.128276 -0.204194 0.131156 -0.0461033 0.168043 -0.0887169 -0.00661745 -0.171401 -0.132824 -0.170608 0.0242378 -0.195761 0.0238884 0.0423154 -0.135778 0.0354284 -0.069352 -0.0938886 0.0322254 -0.0972184 0.199728 -0.12119 -0.0398385 -0.160245 0.0474573 0.221024 -0.34454 -0.10884 0.0432136 -0.197813 0.376075 -0.124333 -0.181863 -0.184864 -0.0952138 0.226014 -0.0168091 -0.208695 0.128658 -0.157199 0.113373 0.145722 0.0182671 -0.103176 0.00349382 -0.125376 0.217023 -0.0355613 -0.0458205 -0.0252269 -0.204345 0.0437276 0.0675749 -0.0211482 -0.0797555 -0.146052 -0.101603 -0.0323464 -0.118475 0.00645718 0.0156153 0.133165 0.165944 -0.0256363 -0.108735 0.0525089 0.253999 -0.115312 -0.350127 0.271826 -0.192543 0.117641 0.0404493 0.0366137 -0.122641 -0.162231 0.156427 -0.274223 0.118562 -0.21168 -0.154699 -0.0640664 -0.194567 -0.116388 0.0442249 -0.112665 0.3874 -0.131224 0.306904 0.0741956 -0.170866 -0.0671569 0.0740136 0.151256 0.062666 0.128797 0.00668837 0.0815184 0.0939028 0.0967168 0.139016 0.253352 0.12173 0.0592942 -0.0683403 -0.0332291 -0.116142 -0.098684 -0.0770157 -0.0349854 0.0464295 -0.00657301 0.0244657 -0.0985601 0.179741 -0.064003 -0.315231 -0.00801734 0.202828 -0.0643084 -0.0921857 0.00554188 -0.10425 0.313115 -0.204984 0.0463675 0.0498944 0.206673 -0.125425 -0.318094 0.0736775 0.136102 0.146937 0.199177 0.0936381 -0.00904137 -0.133939 0.168573 0.0680221 0.0251025 0.096061 -0.180376 0.140256 -0.000783863 0.358536 0.199114 -0.0621408 0.100791 0.0275359 -0.00982713 -0.0577061 -0.219685 -0.0888068 -0.0269331 0.0821453 0.0103458 -0.187724 -0.0609513 0.0947902 -0.243735 0.0856221 -0.380672 -0.175564 -0.26564 0.132832 0.0050483 0.0845839 -0.0403316 -0.0566074 0.116785 0.240574 -0.145649 0.247057 0.0657476 -0.107504 0.154107 -0.162457 0.132673 -0.0205327 -0.0453312 0.100423 0.285423 0.0378008 0.132856 0.0729858 -0.024088 -0.3582 0.353786 0.175792 0.22061 -0.0430468 0.230038 -0.0607305 -0.076308 0.0951491 0.0314888 -0.0379649 0.108878 -0.0637997 -0.089471 -0.181079 0.0258122 0.327094 0.117261 0.0327487 -0.147205 0.236566 0.0730132 -0.0054062 -0.147542 0.10113 -0.0369725 -0.0778109 0.0982316 0.00234402 -0.10632 -0.0803833 0.177932 0.0374997 0.00424128 -0.0255337 -0.0972307 -0.156221 0.174534 0.0693927 0.120431 0.164983 -0.165423 -0.135868 0.100417 0.280671 0.0274083 -0.0569705 -0.00538492 -0.0296209 0.228741 0.0431503 0.106412 0.0274565 -0.137047 0.140669 -0.165972 0.0627294 0.0125338 -0.228696 -0.168748 -0.210046 -0.159103 -0.329216 -0.0781977 -0.00631014 0.191459 -0.0659721 0.0859696 0.00251517 -0.209609 0.122873 -0.122875 -0.054479 -0.257794 -0.00120369 -0.227811 0.0568726 -0.110698 -0.263895 0.228782 -0.0350417 0.137328 0.362319 -0.306455 0.0743795 -0.0368761 -0.0638962 -0.141386 -0.186748 0.249084 -0.174568 0.133611 -0.0244624 0.21969 -0.149781 -0.269005 -0.110284 -0.0165226 -0.310219 0.0445384 -0.188782 0.0270958 -0.241087 -0.0800902 -0.0993686 0.135758 -0.0513818 0.274619 -0.0484014 -0.030538 -0.0689346 -0.109722 0.0630731 0.052611 -0.107906 0.188072 -0.011027 -0.0731191 0.111485 0.123448 -0.0529457 0.0298814 -0.0200292 0.0530687 -0.0155936 -0.21118 -0.246641 0.187835 0.18753 -0.126792 0.0175012 -0.117322 -0.207046 -0.203239 -0.0862542 -0.0361627 -0.105672 -0.17688 0.0546775 -0.208362 0.12538 0.00381294 -0.205454 0.233818 0.14181 -0.108876 0.0222928 -0.0695714 -0.0959901 0.00398267 -0.148099 -0.201901 0.0689265 0.103738 0.0425267 0.0283363 0.148114 -0.152058 0.0802987 0.357574 0.121298 -0.00607754 0.0327856 -0.0866745 -0.025606 -0.127317 -0.0431555 0.127689 -0.0477944 -0.148003 -0.209692 -0.0846374 0.00381058 0.117135 -0.0586304 -0.000372075 0.233511 -0.119414 0.087752 -0.108419 -0.0902643 0.00973021 0.0542364 -0.06343 -0.238905 -0.0580243 -0.0838644 0.331758 0.0682159 -0.192294 -0.071602 0.131655 -0.00413159 -0.0923488 -0.0840582 0.0461628 0.0787797 -0.123529 0.00220976 -0.130625 -0.137177 0.236694 0.0621587 0.0648744 -0.0336881 0.0701297 0.00682027 0.0397709 0.198228 0.140227 0.0607049 -0.150614 -0.0583623 -0.0384939 -0.0609839 0.0577 0.0435956 -0.44306 -0.12707 0.163415 0.131094 0.0790444 -0.086536 0.0875728 0.0791569 0.170042 0.087734 0.189338 0.105829 0.109759 0.125954 -0.22821 -0.0401605 0.0876319 0.266453 -0.0751596 -0.0653107 0.0267412 -0.0709713 -0.251166 0.108187 -0.0650805 0.190113 -0.179958 0.258991 -0.200747 0.209288 -0.125137 -0.0436992 0.0736689 0.0965631 0.189305 -0.234161 -0.191344 -0.0922817 -0.117385 0.0285978 0.361398 -0.0346762 0.175284 -0.119841 0.084852 -0.132052 0.0826734 -0.00524451 -0.0756456 -0.098216 0.188961 0.0180388 0.0940683 0.129754 -0.0341723 0.0582858 -0.0588205 -0.234471 0.0293074 -0.0965319 -0.0280668 0.0172436 -0.0785811 0.0849432 -0.0377885 0.0439862 -0.135586 -0.233974 0.157592 -0.133979 0.0844237 0.100238 -0.14155 0.0346143 0.273179 -0.119315 -0.0918604 0.0162195 -0.256885 -0.0945486 -0.028203 0.0351457 0.0697128 -0.115948 0.0973111 0.0143332 0.0761122 0.356388 0.0438462 0.0364671 -0.0133526 0.061225 0.208576 0.0817477 -0.00420251 -0.150859 -0.117664 0.0410091 0.0268915 -0.0623152 -0.35119 0.0657069 0.131087 -0.0790373 -0.0807336 -0.0285122 0.110633 0.0363149 -0.0536724 0.261294 -0.0875558 0.295155 -0.148423 0.0658719 0.273201 -0.0690532 -0.228809 0.119001 0.00409613 0.0857772 0.285819 0.0391029 -0.0821349 0.0896875 0.0242804 0.0727607 -0.150482 -0.223576 0.0029227 -0.0593883 0.0522645 -0.106663 0.0879151 0.131203 0.220005 -0.138424 0.307065 -0.179937 -0.17235 -0.0065054 -0.134237 0.157941 0.0323317 -0.162433 0.0355012 -0.0589684 -0.213519 -0.0155558 0.00820456 0.0203587 0.148251 0.210029 0.0180194 -0.155364 0.209657 0.333836 0.0458758 0.116803 0.0130174 0.175147 -0.126296 -0.117068 -0.0662752 -0.156614 0.0287533 -0.0435176 0.232057 -0.237808 -0.0583864 0.0731787 0.196282 0.0322145 0.0778932 -0.0588337 0.264502 -0.0183546 0.00117154 -0.319144 -0.0543518 0.0442656 -0.142737 0.0884545 -0.0403472 -0.134803 -0.271317 -0.0592337 0.0282493 0.208569 -0.112396 -0.0558051 0.134937 -0.126604 0.061867 -0.150672 -0.105586 -0.146037 -0.0435167 0.218353 0.0683899 -0.000667087 0.062952 -0.058247 -0.206265 0.134658 -0.0227713 -0.107944 -0.191911 -0.0138963 -0.0194079 0.0594469 -0.114779 -0.0902591 -0.219258 0.151373 0.112574 0.0807705 0.0651703 -0.0657367 0.0569284 -0.204766 0.114328 0.151641 -0.0986136 0.142882 -0.140206 -0.0338432 -0.109597 0.100271 -0.0709788 0.252159 -0.0561318 -0.0808069 -0.0320523 -0.0399619 0.131913 0.121071 -0.0178544 0.107866 0.0486492 0.0927034 -0.00741124 0.0642848 -0.213722 0.146131 0.0792723 -0.0507275 0.104852 -0.172167 0.286907 0.0932561 0.231286 -0.0942971 0.00423844 0.165687 -0.0557162 -0.00586195 0.205498 -0.123612 -1.32377e-05 0.142554 -0.0164077 0.0853451 -0.0557157 -0.0990202 0.306572 -0.0356478 -0.183407 -0.182677 0.308597 0.0261143 -0.138014 0.175023 -0.0184104 0.353024 -0.101871 -0.106685 -0.0376874 -0.170319 0.0385393 -0.0391695 -0.0684027 -0.158634 0.00181877 0.132379 0.00250619 0.136076 0.3258 0.0741895 0.0237348 0.251135 0.157621 0.00788544 0.328944 0.079616 -0.0511369 -0.153636 0.203765 0.0332135 -0.00500386 -0.120031 -0.364938 -0.0802183 -0.00482988 -0.122278 0.113148 0.123463 -0.052386 -0.0290932 -0.0882513 0.112739 -0.12976 0.140251 0.129181 0.125799 -0.157837 0.0180553 -0.00335624 -0.010602 -0.0475145 -0.10439 0.0946768 0.163682 -0.179475 0.0925975 0.141129 0.229453 0.06073 0.0310713 -0.0267194 0.107767 0.132375 0.0831335 -0.161107 0.194506 0.0641359 0.0135923 -0.147758 0.103015 -0.0541225 -0.161278 0.0285954 0.0133323 -0.178786 -0.160204 -0.122837 -0.010672 -0.0405779 0.0130467 0.0666203 -0.0128193 -0.186825 0.0797337 -0.0126458 0.0059792 -0.0403108 0.0949888 0.246058 0.0240818 -0.116998 -0.160683 -0.13607 -0.00245418 -0.206982 -0.11095 -0.258966 0.0160843 0.0321497 -0.106133 0.0902785 0.117209 0.011835 0.082333 -0.297914 0.283235 0.138607 -0.293945 -0.128008 -0.177682 -0.095818 0.139081 0.18444 -0.141405 -0.0466994 0.0389024 0.12996 -0.0917536 0.388395 0.0570769 0.123983 0.160389 -0.107026 0.194195 -0.231634 -0.0433541 0.167088 -0.278711 -0.287826 0.0687691 -0.145842 0.0133498 -0.0324036 -0.0728766 -0.0735389 -0.00738146 0.10947 0.257892 -0.176965 0.226761 -0.0439337 0.0279415 -0.0165075 -0.0503029 0.0405221 0.00630873 0.090844 -0.255342 -0.0115409 -0.0614968 0.105706 -0.211804 -0.0758182 -0.0579789 0.152631 0.0424799 0.00732094 -0.273054 -0.240334 -0.00545206 -0.039613 0.143905 0.129104 -0.266849 -0.0853621 0.0219075 -0.35298 -0.258233 0.158468 -0.069223 0.0712753 0.0731739 0.238657 0.0490888 -0.00290568 0.0763042 0.257485 -0.104333 -0.0178691 -0.121547 0.141747 -0.0161741 0.236347 -0.150647 -0.0194477 0.113414 -0.191663 -0.148453 0.15085 0.0137072 0.193886 0.0617332 0.152565 -0.0204792 -0.107849 -0.0104526 -0.185944 -0.00976236 -0.216248 -0.121651 -0.0267922 0.145753 -0.0962095 0.099423 0.0592748 0.182648 0.00941108 0.00467292 0.0993676 -0.0891008 -0.0773254 -0.264494 -0.116623 -0.015985 0.145869 -0.0801706 -0.00436136 -0.00330518 0.134256 0.0594559 0.273767 0.00221023 -0.09918 -0.282245 -0.0289604 0.012929 -0.0938423 -0.168068 0.130397 0.199071 -0.0168294 0.131701 0.238497 0.0329289 0.134508 -0.120258 0.025668 -0.212036 -0.124153 0.181543 -0.0151648 -0.312091 -0.0985776 -0.295743 0.030279 -0.00794879 0.0499247 0.0482705 -0.00558822 0.0652412 0.282063 0.00272981 -0.0340574 -0.351853 -0.216125 -0.160466 -0.169292 0.073147 -0.0567341 0.12318 0.129792 -0.0905286 0.0614968 0.00672572 -0.111648 -0.0671267 -0.149465 0.0425593 0.344279 -0.0351301 0.00438973 0.100025 -0.0635685 -0.0460262 0.00380159 0.00781263 0.0872367 -0.167158 -0.104363 -0.0681724 0.231654 -0.0947883 0.119888 -0.018383 -0.0690755 -0.0467207 -0.0363801 -0.12383 0.00672099 0.170398 0.0785787 0.217062 0.0651854 0.414097 0.25022 -0.19005 -0.0975701 -0.153375 0.282817 -0.258619 0.041115 -0.0597376 0.173751 -0.0916973 -0.0257706 0.142456 0.0101708 0.108567 -0.0203336 -0.0389738 0.0961036 -0.105471 0.0147752 -0.00580806 0.0578111 -0.283688 0.0218371 -0.00958885 0.165984 0.13826 -0.0390286 0.223866 0.0992523 -0.0365598 0.0239532 -0.156014 0.358219 0.0703718 -0.0189342 -0.00566622 -0.147969 -0.172812 0.0390296 0.0357816 -0.00792657 0.172454 -0.00610212 -0.0269142 -0.0504613 -0.0100058 -0.122384 -0.142424 -0.0378268 -0.259151 -0.0311839 -0.233627 0.0292266 0.0705661 0.133465 0.164729 -0.0830866 -0.143873 -0.0421693 -0.0889321 0.207043 0.060348 -0.170308 -0.0414015 -0.188653 0.0410436 -0.365117 0.0356714 -0.0442897 0.187718 0.157675 -0.297449 -0.0747313 -0.00575983 -0.379246 -0.182531 0.295947 0.087248 0.0097789 -0.211477 0.0565223 -0.058394 0.0335364 0.127758 -0.0647841 -0.139784 -0.136967 0.0661617 0.0104673 -0.00666425 -0.155898 0.0861663 -0.268279 0.0335723 0.0752811 -0.0652549 0.0163495 0.0218758 -0.185033 -0.030399 -0.171784 -0.0227486 0.0712828 0.346843 -0.0691076 0.113211 0.0577194 -0.140044 0.111177 -0.1034 0.228515 0.124022 0.239944 0.207817 0.189467 -0.110688 0.143059 -0.0123962 -0.0261332 0.0996196 -0.183588 0.056988 0.104992 0.0604449 0.129539 0.155956 -0.253189 0.0656819 0.0336763 -0.0408909 -0.133618 -0.0619673 -0.164857 -0.188354 -0.0619039 0.285047 0.0543508 0.171704 -0.116879 0.110921 -0.124065 0.0888129 -0.108948 -0.0965646 -0.221829 -0.0661433 0.106782 -0.0258178 0.0254448 0.0437261 0.319427 -0.0711722 0.0177192 0.315599 0.109775 -0.249966 -0.0341023 0.172955 0.121815 0.060573 -0.128182 -0.104532 -0.245589 0.218044 -0.174624 -0.321886 -0.254502 0.126781 0.162262 0.04424 -0.0303537 0.237599 0.123773 0.130888 -0.106105 0.248573 0.0630802 -0.187623 0.0463169 -0.0750863 0.0417353 -0.154907 0.217192 0.158733 -0.0133219 -0.0156068 0.059324 0.143381 0.206681 -0.0964435 0.249129 -0.130635 0.10001 0.172994 -0.430233 0.0180005 0.0149284 0.0568783 -0.0315049 0.268586 0.03693 -0.190009 -0.190311 -0.0599159 0.0401292 0.0262192 -0.0941458 -0.0393799 -0.12388 -0.112849 -0.0823373 -0.106857 -0.178448 -0.0974463 0.0947562 -0.159935 0.0155666 0.061147 -0.0640844 -0.204462 -0.0888559 0.126055 -0.166097 -0.0369616 0.293556 0.0603764 -0.139616 0.131191 -0.0714497 -0.124191 0.238656 0.282048 -0.0132075 0.125446 0.162808 0.0795219 0.221141 0.151517 -0.0983417 0.220823 -0.0698229 -0.0643392 -0.0757941 -0.204583 0.13934 -0.0662251 0.2769 0.0902104 -0.0476932 -0.0509728 0.0587448 0.0804618 0.23428 -0.0793044 -0.0345609 -0.154289 -0.174816 -0.184731 0.00891183 -0.376859 -0.0362052 -0.0460342 -0.286462 0.0255668 0.334361 0.0759766 0.0625724 0.105852 -0.137593 -0.279561 -0.262282 -0.120372 -0.152561 0.177614 0.0442935 -0.195809 -0.00169774 0.0537041 0.0384996 -0.0539717 0.0331142 0.0706158 -0.144006 0.00824947 0.2678 0.0117457 -0.152217 -0.0389691 0.0305092 0.200083 -0.0771505 -0.214165 0.0592114 -0.0478762 -0.029141 0.0500221 -0.173544 -0.317753 0.00802254 0.0499838 0.137887 -0.089037 -0.0188132 0.25464 0.0403708 0.137688 -0.160217 -0.141646 0.103309 0.0101704 -0.0880324 -0.159208 0.0238085 -0.204283 -0.0926079 -0.280328 -0.0536544 -0.017453 -0.140302 0.150933 0.290342 -0.0808334 0.126979 0.0317517 0.249567 0.0754286 0.111787 0.158242 0.244899 0.243869 0.0510088 0.0825652 -0.0950285 -0.0783078 0.14381 -0.108361 0.0422326 -0.0809743 0.205253 -0.0792936 0.198179 0.193846 -0.197946 0.321832 0.251655 -0.138021 -0.0341874 -0.188842 -0.273856 -0.0385648 0.149181 -0.113493 0.0462229 0.00114885 0.0415542 -0.148662 0.172065 0.0387459 0.100213 0.209343 0.0380665 0.137378 -0.0252463 -0.152692 0.00526389 0.0322925 -0.0364501 -0.0468777 -0.115791 -0.0516262 -0.159858 -0.133868 0.0945803 -0.0764011 -0.174238 0.10956 -0.139497 0.00829959 0.0810646 -0.0291353 0.196188 -0.146072 -0.117381 -0.190518 -0.0213227 0.0299995 0.0733702 -0.11122 0.162918 -0.121261 -0.133398 0.0112143 0.217446 0.0365272 0.174763 -0.323971 0.0577146 0.135533 0.147815 0.22548 -0.190997 0.195519 0.2566 -0.0765567 0.250996 0.023358 -0.157545 -0.162616 0.0582347 -0.186165 -0.0637818 0.103865 -0.346063 0.0906634 -0.244573 0.171383 -0.00826602 -0.162894 -0.00230431 0.272532 -0.0860287 0.10996 -0.103791 0.23492 0.191925 0.166763 0.21549 0.142416 0.0243281 -0.0797815 0.0976458 -0.0156177 0.0454442 0.247813 -0.0398673 0.263893 0.0475868 -0.0782506 0.0512901 0.0640517 0.104806 -0.13637 0.00299551 -0.099917 0.226777 -0.127768 -0.130919 0.175135 -0.227981 -0.136385 -0.119555 -0.167869 -0.201704 -0.032562 0.00184099 0.138291 0.0220333 0.133668 -0.091103 0.0900658 0.301197 -0.0613422 0.061624 -0.273604 0.250725 -0.14054 -0.145102 -0.115109 0.0843466 -0.0705411 -0.0466867 -0.0972425 -0.00334442 0.0941997 -0.268976 -0.0856212 0.0606775 0.0635709 -0.20407 -0.1003 0.0424572 -0.245241 0.114823 -0.0355528 -0.196875 0.159781 -0.0662308 0.147483 0.157316 -0.2451 0.145022 0.14936 0.128455 0.167567 0.120882 -0.0481773 0.251618 0.169209 0.198962 -0.0655618 -0.152059 0.0885302 0.058421 0.139497 -0.00884281 -0.16011 0.0839008 -0.19816 0.033231 -0.197873 -0.0304496 0.0638962 -0.0377701 0.203027 -0.0332574 -0.131932 -0.152504 -0.0261006 -0.213329 -0.0609617 -0.179475 -0.0696518 0.0197743 -0.2309 0.11815 -0.0431891 -0.190646 -0.0458688 0.0727863 0.0163817 -0.0425896 -0.177711 0.181964 0.00707084 -0.00813601 -0.15686 0.0266301 -0.0169471 -0.0355457 -0.178548 -0.0216026 -0.159039 -0.205757 0.0732955 0.187574 -0.122107 0.137157 0.0763345 -0.153042 0.171525 -0.0835339 0.283093 -0.0258126 -0.0751071 0.0899811 -0.0347349 -0.087553 -0.00411363 -0.0968411 -0.138644 -0.259672 -0.0632343 0.181101 -0.291919 0.178349 -0.139144 -0.263671 -0.0174714 0.163268 0.0520347 0.277212 -0.125205 -0.132873 -0.0707363 0.236711 -0.0357825 -0.12701 -0.103691 0.0152919 0.13077 0.0233154 -0.0911324 0.0286947 0.140169 -0.275257 -0.0215567 -0.066748 -0.123058 -0.0740136 -0.0503374 0.0829056 0.0786775 -0.034299 -0.0112828 -0.134553 -0.354817 0.187071 0.0496524 0.127899 0.0171032 -0.00996518 0.137982 -0.101616 0.185712 0.0773008 -0.225476 -0.126367 -0.0944839 -0.107245 -0.186763 0.152478 0.027013 -0.0494444 -0.0927459 0.297067 -0.0588488 0.104261 -0.0651401 -0.0240052 -0.00358033 -0.188484 -0.281702 0.259695 0.108813 0.112786 0.0526233 -0.0884059 0.300343 0.117558 -0.0205431 0.0664643 -0.0475121 0.0251134 -0.00415287 0.0979295 -0.179448 -0.0176823 -0.149538 -0.0922264 -0.0106077 -0.139547 -0.00327823 0.182811 -0.0529169 0.253294 0.136832 -0.000141833 0.0274031 0.0022906 0.0160106 0.225371 -0.024443 -0.0391293 0.103354 0.0109131 -0.0829869 0.0878281 -0.193141 0.143629 0.0451161 0.0122057 -0.0379171 -0.0651727 0.206851 -0.113604 -0.0104384 0.0242085 0.197258 -0.248385 0.283855 0.0968993 -0.164271 -0.201808 -0.15819 0.255259 -0.0392499 0.159931 -0.103168 0.300227 0.0155709 0.19643 0.374159 -0.39989 0.227517 0.0337912 -0.156259 0.0610784 -0.0222408 0.181607 -0.0515728 0.0679928 0.299503 0.213017 -0.166112 -0.140452 -0.186126 0.146595 -0.12035 0.0560462 0.122454 -0.159909 0.117652 0.0356913 0.0978065 0.0671451 -0.19616 -0.0201474 -0.0160659 0.220432 -0.0751539 -0.0899603 0.0761033 -0.00164999 0.0897608 -0.319912 0.14216 0.100791 -0.000500197 -0.0156347 -0.0859016 -0.27136 -0.274095 0.0481508 0.192868 0.155142 0.22904 0.17289 0.136119 -0.19004 0.0613777 -0.0071706 0.113501 -0.140846 0.157189 0.225946 0.108898 0.0177948 -0.0280555 0.094499 0.12856 0.179853 0.0850865 0.0371092 0.0809199 0.131904 0.152157 -0.00954441 -0.0180298 0.174403 0.165644 -0.00497928 -0.365673 0.139928 -0.105461 0.13643 0.124783 0.0742836 -0.192221 0.149117 -0.129324 0.0654459 0.158096 -0.139615 -0.0530805 0.0635657 -0.369199 -0.0712181 0.0504448 -0.0673096 -0.0561483 0.19986 0.117804 -0.187144 -0.0603002 -0.157595 0.188327 0.130251 -0.0615701 0.211858 0.0442665 -0.223444 -0.024652 -0.0631634 0.150989 -0.0708748 0.059228 0.00594563 0.359034 -0.0916926 -0.0789116 0.0850647 0.111515 0.0369659 0.0872168 -0.0569383 -0.143738 0.247808 -0.183232 0.124275 0.0937213 0.153566 0.21917 0.00320211 0.126537 0.136507 -0.238244 0.127589 -0.301248 -0.101161 -0.0495488 0.0628079 0.101263 0.0831325 0.0334475 0.0755459 -0.0277326 0.0683635 -0.0739573 0.124687 0.0948356 -0.29218 -0.117805 -0.0767302 0.137068 0.0865639 0.114501 0.0445038 0.102153 -0.0687412 -0.0688462 -0.000835868 -0.123792 0.0655098 -0.162651 0.0329984 0.209305 0.0787853 -0.255707 -0.0248468 0.109942 0.196798 -0.0763685 0.235581 0.139513 -0.143732 -0.0725688 0.0094872 -0.0300785 0.203368 0.000554567 0.0522446 -0.0928764 0.28741 -0.000357419 