0.21917 -0.052654 -0.0170152 -0.174889 -0.121474 -0.0104824 -0.24391 0.137296 0.359542 -0.172809 0.0596644 -0.277551 0.113094 -0.112096 0.039656 0.0932953 -0.128771 0.114693 -0.212455 -0.030904 -0.0563511 -0.0771661 -0.0525699 -0.14283 -0.057214 -0.0109821 -0.0884966 -0.0571293 -0.278509 0.114066 0.290511 -0.0233306 -0.111496 0.284983 -0.116487 -0.0431758 -0.0840313 0.0789012 0.116961 0.222978 -0.00422993 -0.258329 -0.0893968 -0.231905 0.523854 0.130255 -0.0736439 -0.0328286 -0.0553115 -0.196102 0.036643 0.255391 0.171268 0.297318 0.0788709 -0.268291 0.00471263 -0.062162 0.00379261 -0.0353693 0.0338669 0.0756409 -0.0529117 -0.0199729 -0.0672486 0.0266849 0.061311 0.0112743 0.130375 -0.199208 -0.0693681 -0.118756 -0.22955 -0.105792 -0.0264863 0.182807 -0.115908 -0.0402659 0.0586474 0.024895 0.0486685 -0.150037 0.00747743 0.0586644 0.0502571 0.0647817 0.422658 0.0804878 0.041775 -0.033291 0.00608794 -0.00924183 -0.0656942 0.0400858 0.0279926 -0.00817336 -0.217723 -0.0294355 -0.0692674 0.232946 -0.117388 0.25496 -0.0182076 0.146146 -0.0922027 -0.144276 -0.141985 -0.0163982 0.0385147 -0.0831604 -0.183735 -0.121056 0.255172 -0.110776 -0.0495271 -0.0254737 0.0242033 -0.03469 0.0574863 0.0462021 0.164509 -0.0298147 0.0565355 -0.230198 0.0339728 0.17098 -0.083836 -0.0501479 -0.027092 -0.120691 -0.0407935 -0.102603 -0.0556803 -0.209404 -0.309611 -0.20474 0.0655344 0.0195838 0.244562 0.169275 -0.080666 0.169503 0.0771155 0.0430661 -0.006712 -0.0508249 -0.218664 0.0622599 -0.0451255 0.174018 -0.0169561 0.218328 0.0669347 0.00136869 0.0356785 0.0947656 -0.00397085 -0.0159018 0.163581 0.0837774 0.0298691 -0.0989904 -0.178162 -0.0765401 -0.131249 0.0795399 0.206167 -0.0240416 -0.0651306 0.0954899 -0.146867 0.0603778 -0.12765 0.224756 -0.21574 -0.0972085 0.108367 0.262487 -0.0884408 0.0777651 0.0460286 -0.00938461 0.0243844 -0.042903 0.171092 0.00239792 -0.192273 0.0697487 0.287497 0.0406966 0.162168 0.0611328 -0.142574 -0.330582 0.108113 0.0623918 -0.0878149 -0.0128694 0.12227 0.334929 -0.0454589 -0.0456919 0.0720927 -0.0479145 0.0197351 -0.170969 0.0946645 -0.132246 0.133133 0.0284867 0.0546832 -0.110577 -0.0454763 -0.114092 -0.0953169 0.0095983 -0.196803 -0.0833315 0.0371782 -0.0633057 -0.302343 -0.057249 0.0944933 0.145798 -0.103772 -0.00785565 -0.0879718 -0.238765 -0.2842 0.0640342 -0.119357 -0.0482114 0.311388 0.255452 -0.10708 0.164373 -0.0850449 0.0234265 -0.128255 -0.1029 0.0870036 0.0205445 -0.234872 -0.0446159 -0.00799701 -0.403898 -0.104853 -0.0370803 -0.0609513 0.15146 -0.037415 0.221703 0.0570939 -0.0334645 0.0105306 -0.0124165 0.0548515 0.239671 0.124437 -0.311797 0.000367347 0.146058 -0.0527297 0.00994579 -0.00937752 0.109491 0.00111764 0.236522 0.292739 -0.077984 -0.317538 -0.0658601 0.00144291 -0.121324 0.238496 0.276177 0.0680665 0.1742 -0.0866504 -0.173053 0.0717447 -0.167292 0.15599 -0.0312983 -0.0313082 0.0794165 -0.0539111 0.143651 0.137219 -0.165319 0.0666137 0.230548 0.086337 -0.0566764 0.150995 0.00988197 0.00214215 0.0110904 -0.0655632 -0.0305905 -0.0911929 -0.0830488 -0.136912 -0.203808 -0.026449 0.111897 -0.0354388 -0.182154 0.129715 -0.360144 0.0954828 -0.0216683 0.0576097 0.24083 0.107522 -0.216011 0.174572 0.232042 0.142877 -0.0366633 0.0344006 -0.14663 0.0546194 0.0202953 -0.0221047 0.0174289 -0.157013 -0.053463 -0.00759279 -0.00522938 -0.243902 0.0558604 0.140199 -0.0670557 -0.0457681 -0.0593481 0.116085 -0.06502 -0.0729905 0.00536128 0.16508 0.203918 0.110983 0.0735002 -0.194332 -0.139688 0.0807091 0.0217747 -2.03294e-05 -0.105042 -0.0529415 0.00573241 -0.0394064 0.238526 0.0101779 -0.207481 -0.00427815 0.29653 0.105657 0.133881 0.13526 -0.0578806 -0.221944 0.222582 -0.260036 -0.0308392 0.220086 0.315437 0.0714516 0.00675597 0.0198216 0.0455326 -0.0808939 -0.0277241 0.090278 0.140854 0.00995525 -0.110385 -0.0311862 -0.00390277 0.0754078 0.0263109 -0.105989 0.0540913 0.198642 -0.0496193 0.15468 0.0786941 0.0810476 -0.0230218 -0.15228 0.0532819 -0.0765212 0.0908771 0.132944 0.185 0.309145 -0.0605437 0.303307 0.0868164 -0.124904 0.0231136 0.120783 -0.0693128 -0.182092 -0.169318 -0.233821 0.0128255 -0.150526 -0.0597079 -0.0800651 0.0861729 0.0758314 -0.114416 -0.0439479 -0.0407424 -0.0209842 0.0694277 -0.0643463 0.0760432 -0.209322 -0.232501 0.233013 -0.108566 -0.0235882 0.0750126 0.0946115 0.0167963 0.0404843 -0.000743204 0.0308278 -0.246755 0.106393 0.130836 0.00812466 0.057309 -0.122312 0.105565 -0.280635 -0.0648729 0.00707084 -0.221334 -0.145909 0.0329416 0.0655443 -0.0546983 -0.0290195 -0.251606 0.100478 -0.282696 0.304391 0.244135 -0.0072382 0.126183 0.253262 -0.341452 -0.10955 -0.0953594 0.502412 -0.141792 -0.0513038 0.0813014 -0.0172644 0.267459 -0.106635 -0.00233315 0.121874 -0.0616236 0.293242 -0.308597 0.0085199 -0.117132 -0.102156 0.0678784 -0.0786638 -0.028315 0.0126978 0.0729716 -0.020674 -0.0194562 -0.0351036 0.213458 0.124301 0.00407013 -0.136052 0.028012 -0.0340593 -0.0473391 -0.0295239 -0.0795701 -0.0339236 -0.185919 0.0786009 -0.012937 0.146669 0.172351 0.0403609 0.186065 -0.158729 -0.196822 -0.1506 -0.131942 0.015326 0.00158664 0.0160058 -0.0401638 0.0757633 -0.169069 -0.0680878 0.081691 0.062432 0.160993 -0.0273667 0.0908648 -0.164014 0.112049 -0.168543 0.0913465 -0.0910619 0.240982 0.211019 -0.0374032 -0.255583 0.0700428 0.0515284 0.261427 0.0105651 0.0314973 0.0421064 0.0825061 0.0672226 -0.0830375 -0.0408379 0.0320022 -0.0172601 0.0326197 0.0763808 -0.169142 -0.159851 -0.0154773 -0.0855224 -0.0298336 -0.0649098 0.00177433 -0.0636447 0.0050067 0.0940744 -0.0346417 -0.138717 -0.0343448 -0.162056 -0.0583269 0.0712762 0.161114 0.0211889 -0.101938 -0.128767 -0.0306298 0.136006 -0.297664 -0.0388424 0.0229609 0.206468 -0.199296 -0.188888 -0.138243 0.0470611 0.0118501 0.024972 -0.0114502 -0.0753681 -0.17003 -0.00511166 0.257217 0.0170181 0.0798056 0.000488378 0.182953 0.106856 -0.138159 -0.0304544 -0.144985 0.0223945 0.31185 0.105859 0.0799734 -0.026059 0.0188146 -0.0685072 -0.230519 0.0656525 -0.0609357 0.135687 0.0786619 0.29321 0.0593353 -0.095046 -0.139488 -0.0365735 -0.083341 0.206733 -0.157454 0.0601594 0.181859 -0.0337543 0.00920637 -0.144825 -0.0962785 0.0818215 0.057205 -0.262573 -0.225628 0.0410077 0.116146 -0.0228214 0.13545 -0.126013 -0.0711727 -0.183569 0.0385847 0.0744107 0.144705 0.0838795 0.0257564 0.113625 0.0155889 -0.0726449 -0.0628268 0.163898 -0.0540454 -0.00139044 0.225493 -0.053081 -0.213958 -0.142244 -0.213573 -0.13041 0.135229 -0.00687937 0.102919 0.01259 0.0324263 -0.0334352 -0.0715211 0.195727 0.0864022 0.0218333 0.0752769 -0.0594861 0.143714 0.171416 0.171386 0.010811 -0.30612 -0.103609 -0.167788 0.188488 0.109224 -0.0966705 0.0672014 0.178386 0.0689766 0.034638 0.158095 -0.157721 -0.0464725 -0.101723 -0.0491522 0.0908449 0.0586952 -0.00842676 0.201837 0.167346 -0.114898 -0.00269199 -0.288412 -0.00162635 0.0372756 -0.0573161 0.130942 -0.159187 0.051544 -0.107743 0.256078 -0.06376 0.323305 -0.148905 0.030053 -0.136649 0.0299206 -0.245444 0.0931903 0.0495522 0.0545305 -0.203026 -0.186299 -0.0429191 0.151297 -0.125012 0.0579061 0.146058 -0.0664634 0.003864 -0.0309356 -0.0086537 0.203302 0.104241 -0.147432 0.21683 0.00680845 -0.0771992 0.184453 -0.0184818 -0.0229159 -0.0974127 0.178927 -7.89536e-05 -0.150834 -0.245398 0.0095359 -0.18267 -0.0632891 -0.0833396 -0.131109 0.0743691 -0.0401245 0.177959 0.0619999 0.0130893 -0.0658369 -0.164606 0.128945 0.301725 0.129869 0.0166039 0.0152915 -0.043104 0.143318 0.178573 -0.0538625 -0.050884 0.151192 0.0352927 -0.205632 0.178729 -0.0178974 -0.212462 -0.0217543 0.220875 -0.0913697 0.0958251 0.139512 -0.116241 -0.0725858 0.168455 -0.0411292 0.0837154 0.157663 -0.0297093 0.201216 -0.0119792 0.0525614 -0.247189 -0.133554 0.239466 0.0604005 0.0626041 0.0714006 -0.358656 0.0998485 0.119559 0.224919 0.0782364 0.032284 0.11778 -0.102659 0.0800368 -0.0500486 -0.192278 0.0214659 0.0101089 -0.169557 0.131604 0.207012 -0.0707061 0.0743672 -0.0157458 -0.029401 0.0344418 0.220654 0.058142 0.0492292 0.0693747 -0.182045 0.15932 0.107194 -0.253211 -0.141539 -0.18601 0.00504736 0.096044 0.165135 0.056719 -0.00515468 0.0125423 0.221187 -0.0715892 -0.199005 0.0707273 -0.128029 0.254828 0.0875794 -0.115487 -0.0728071 -0.0487002 0.0303229 0.0876064 0.0708711 0.158024 0.00727603 -0.304032 0.403184 -0.152253 0.0731947 0.245186 0.00940494 -0.111544 -0.0887288 0.224358 0.146521 0.0203932 0.0296648 -0.166683 0.160512 -0.24424 0.0681814 0.0807275 0.0322556 -0.227646 -0.197667 -0.153093 -0.0333856 -0.143621 0.0112497 -0.081874 0.251744 -0.143956 0.216067 0.315416 -0.219121 0.103476 0.164876 -0.192951 0.132019 -0.0106999 0.0173509 0.0307513 0.0675451 -0.170016 -0.10305 -0.122174 0.126878 -0.0191971 0.00633993 -0.117104 0.103757 -0.179131 0.276827 0.0174544 0.0375573 0.0457127 0.122207 0.167459 0.0359868 -0.0254992 -0.125397 0.178034 -0.292392 -0.142464 -0.141594 -0.102562 -0.111188 0.152084 0.0778558 -0.296059 -0.0190623 -0.252427 -0.097303 -0.339 -0.0112648 -0.112458 0.0487858 0.140056 0.252019 -0.184942 0.0647982 -0.0834469 -0.0328962 -0.000929951 -0.19829 0.330952 -0.0166053 0.0906979 0.186002 -0.0454546 -0.243169 0.0768871 0.289434 0.111069 -0.0531996 0.0158219 0.0422747 -0.0926183 0.107734 -0.0686254 0.10005 -0.0590687 0.0564892 -0.0540251 0.0711689 -0.0844255 -0.247288 0.0522134 -0.0741545 0.105402 -0.0421745 -0.0882924 0.110902 0.191606 -0.00196297 -0.193425 -0.0847031 -0.262275 0.256625 -0.199788 0.115204 -0.0149955 0.065828 -0.0153492 0.158785 0.141324 -0.219044 0.112786 0.130325 0.0755151 -0.0915876 -0.0789456 -0.1003 0.0398182 0.123262 -0.0555143 -0.0121797 -0.0529122 0.1043 -0.0184463 -0.176812 0.0557503 0.366004 -0.31063 0.0472866 0.14868 -0.00420109 -0.101834 -0.0973371 -0.137699 0.103477 0.187772 0.369263 0.139339 0.12229 0.0082022 -0.205535 0.00358364 0.00893642 -0.0861493 -0.0657769 -0.0948124 -0.307337 -0.10205 -0.0113012 -0.0849565 0.134792 -0.226789 0.0369427 0.115169 -0.00761075 -0.288643 0.142311 0.291032 0.322177 0.0755582 0.264969 0.0435871 0.0661943 -0.0810168 0.150427 0.0276943 -0.235186 0.169488 0.163301 -0.00341297 0.00653566 -0.131654 0.281077 -0.240661 0.0812797 -0.158713 -0.00860595 0.220981 -0.163682 -0.0754452 0.247037 0.213519 0.303359 -0.0324589 0.051821 0.121345 0.0272447 -0.113405 0.266223 -0.0430704 0.151857 -0.200471 0.165785 -0.19685 0.101551 -0.0829803 0.0516692 -0.0325908 0.162522 0.0562098 -0.184344 -0.0524597 0.108823 -0.027829 -0.00973115 0.0206409 0.12742 -0.090661 0.0122633 0.0234488 -0.0333043 0.124519 0.0764687 -0.0848567 0.236815 -0.127844 -0.0950819 0.0629544 -0.00916335 0.19049 -0.0581624 -0.0925483 0.342958 -0.0468469 -4.39682e-05 -0.0482686 -0.0793337 0.0264641 0.12297 -0.289694 0.235626 0.301099 0.126548 0.012069 0.000518163 -0.065576 0.0349892 -0.0517052 0.0508041 0.102038 0.120987 -0.0161231 0.0201478 0.0650914 0.032623 0.0495767 0.159256 0.327504 -0.0071758 -0.0143421 -0.0872622 -0.189568 -0.0536918 0.0794604 0.0591509 -0.119932 -0.294441 -0.17472 -0.0316907 0.0218754 0.123013 0.1447 0.014571 -0.0283604 0.159718 0.220757 -0.0194628 0.00126657 -0.0362218 0.091025 0.164914 0.287291 0.0436741 -0.0131139 -0.106505 0.371669 -0.0501833 -0.216068 0.00849957 -0.0350951 -0.0605655 0.0608231 0.0118293 -0.0313706 0.0595424 -0.0585302 -0.117094 -0.039856 -0.0403037 -0.154152 0.0402281 -0.0118672 0.296448 -0.0123314 0.0102597 -0.113402 -0.311215 0.0405609 -0.0510031 0.122014 -0.152888 0.0100541 -0.0710885 -0.130946 0.251422 -0.123681 0.0561299 -0.121594 0.234011 0.0174922 -0.0097165 0.0403132 0.0361489 0.148519 -0.239956 0.0538516 0.102553 0.0930963 -0.154769 0.0916831 0.110847 -0.273098 0.0048365 0.0212173 0.0961707 0.148352 0.13165 0.0464942 0.0370609 -0.147882 0.128451 -0.18237 -0.279953 0.0663494 0.0176511 0.132196 -0.10735 0.199516 0.211218 0.034455 -0.111821 -0.0933936 0.156128 -0.27397 -0.0638371 0.210909 0.0623015 0.176696 0.12792 -0.0796907 0.0248917 -0.196016 -0.215637 -0.00704626 0.0966052 0.179655 0.0230965 -0.0763557 -0.0442935 0.103623 -0.0068718 -0.0862013 -0.196907 -0.253157 -0.341434 -0.037971 0.23222 -0.169329 0.0502935 0.047592 0.0929294 0.209449 0.0904657 -0.0358814 -0.175957 -0.141833 -0.0245021 -0.187586 -0.00564495 0.21431 0.00351556 0.146615 -0.0239693 0.00320637 -0.0581056 0.0827113 -0.0185707 -0.0951996 -0.0109334 0.0778677 -0.122896 0.137188 0.10526 -0.0384135 0.228959 -0.0825122 -0.0663754 -0.233865 0.140331 -0.0768677 0.00356284 0.0566542 -0.0818834 0.101444 0.0947746 0.0306477 -0.154969 -0.0116312 0.170564 0.169042 -0.247718 -0.026189 0.0999331 -0.0975678 0.121174 0.0279297 -0.00691388 0.0370283 0.153688 0.128705 0.0942134 0.0175788 0.110784 0.0236757 -0.0124837 0.0746358 0.111383 -0.0103453 -0.148542 0.281952 0.439548 -0.0422809 -0.286872 -0.364919 0.00126515 -0.0597523 0.0876163 0.249285 0.0945184 -0.0756333 0.0907655 -0.0664378 0.176202 0.204378 -0.168952 0.118194 0.0286479 -0.31091 -0.0242969 -0.182568 0.11836 0.130312 0.226645 0.0730534 -0.0533585 -0.016463 -0.0599599 0.208299 -0.228622 -0.222557 -0.0970354 -0.182696 0.0536993 0.13009 -0.0403297 0.0424927 -0.0687053 0.273246 0.0643127 -0.0270802 -0.162737 -0.0640068 0.0806424 -0.0238908 -0.180722 -0.0845201 0.327813 -0.189745 -0.0597925 -0.234877 0.304254 -0.090383 0.129728 -0.128764 -0.12684 -0.0812858 0.0810348 -0.120622 -0.293561 0.0900379 -0.0762966 0.116508 -0.0896979 -0.294996 -0.162754 0.140479 0.253613 -0.00324277 0.0164715 0.102119 0.0641307 -0.0491281 -0.199305 0.160163 -0.178033 -0.343414 0.00268301 0.0527878 0.00328059 -0.127104 0.22084 0.253922 -0.00718573 0.148014 0.0465774 -0.225371 -0.170709 -0.110744 -0.0208688 0.029566 0.107107 -0.107437 0.0567771 0.0982665 0.010264 -0.132915 -0.00675172 -0.255232 -0.0299017 0.0627974 -0.115448 0.155667 0.211538 -0.149952 0.255049 -0.135349 0.197973 0.0273269 0.0262131 0.0365012 -0.0841755 -0.0319408 0.00252557 -0.14854 -0.0752135 0.403228 0.031424 -0.0813525 0.180562 0.109339 0.283923 0.0245423 0.0473235 -0.0893188 -0.113623 -0.0577279 0.00232275 0.124945 0.125968 -0.219837 0.00466725 -0.113827 -0.198463 0.0440665 0.290035 0.288911 0.121591 -0.151313 0.218032 0.0543721 0.00195209 -0.0481631 0.22546 0.0263393 -0.187863 0.0845636 0.105955 0.00233173 0.193202 0.117274 -0.1065 0.00182492 0.0766214 -0.0636811 0.064029 -0.00572201 0.0165032 -0.0325124 -0.0241021 0.128077 -0.0596752 0.0816617 -0.0262296 0.143726 0.038441 0.0807417 0.322872 -0.183574 -0.0949235 -0.0398669 -0.115601 0.0956691 0.371788 0.103179 -0.00761359 0.0789598 -0.086346 -0.117218 -0.0909726 -0.106118 0.0891803 0.15034 0.0253782 -0.0931223 0.0877246 -0.101212 -0.124871 -0.185885 0.0150215 0.0748296 -0.117025 0.105746 -0.206633 -0.168453 -0.0163387 -0.0342701 0.0656838 0.185472 0.0565587 -0.30666 -0.0899655 -0.0271998 0.0214087 -0.310352 -0.101858 0.0208078 -0.0177613 0.255784 -0.128083 0.0869596 -0.0768824 -0.174753 -0.0812225 0.113013 -0.0683322 0.059366 0.0202452 0.0189631 0.102148 -0.0583032 -0.0539802 0.122887 -0.186199 0.124767 0.142487 -0.0398815 0.0119712 0.0412105 -0.188187 -0.0460522 -0.0322608 0.0903608 -0.00702546 -0.274301 0.23006 -0.289795 0.0293206 -0.10244 -0.0910179 0.200762 0.0574612 0.0797044 0.0289051 -0.111008 -0.127473 0.0288691 -0.0988717 0.0192368 -0.214851 0.23604 0.0848501 0.180753 0.256064 -0.0415892 0.000802774 -0.110461 -0.0664468 0.19048 -0.00146655 -0.246905 -0.248453 -0.297823 0.130647 -0.217527 -0.0151752 -0.0500523 -0.0660341 -0.0858722 -0.156512 -0.064793 0.0187219 0.0651831 -0.219832 -0.0133621 -0.0867204 0.0753416 0.430665 -0.0270636 0.0340257 -0.178625 0.017157 0.222599 -0.0903873 -0.084019 -0.0333624 0.205843 0.133554 -0.185393 -0.207086 -0.0444783 0.0313082 0.0459973 0.127785 0.0507974 0.080206 -0.00913687 -0.267919 -0.118927 -0.0614448 0.0498779 0.0902563 -0.00690915 -0.104367 0.15473 0.0764016 -0.112947 0.243901 -0.0479665 -0.0129295 -0.0552136 -0.10294 0.12844 0.145485 -0.180508 0.0325209 0.0424752 0.0390674 0.102198 0.0383663 0.113457 -0.264179 0.15197 -0.0984211 -0.0633794 -0.129324 -0.0870391 0.511834 -0.100499 -0.212993 -0.077593 -0.0489409 -0.12034 -0.0614056 0.261352 -0.0972591 -0.0723097 -0.171053 0.0959107 -0.0128586 0.171757 0.098067 -0.0861309 -0.0368709 -0.212842 -0.202983 0.00367489 -0.211036 0.0260155 -0.0220257 -0.126595 0.188873 -0.00672051 0.223982 -0.0794671 -0.029402 -0.14606 0.110317 0.110301 0.106082 -0.0909844 0.076265 0.184981 0.251764 -0.0471178 0.0621843 0.224296 0.162784 0.00040706 -0.016228 0.232581 0.234592 -0.0894029 -0.00597589 0.127542 0.247659 0.125379 0.183762 -0.0779192 0.0297863 -0.159535 0.162468 -0.27576 0.190566 0.0615607 0.00461571 0.241829 -0.0313583 -0.0920325 -0.0210239 0.283137 -0.0512901 -0.102553 0.150907 -0.313753 0.0316595 0.022958 -0.0723783 0.223091 -0.0198561 0.00830715 0.229495 -0.100072 -0.0585056 0.00633 0.183452 -0.0453865 -0.169948 -0.127785 -0.0437455 0.280455 0.169596 0.100955 0.184719 0.148583 0.0120426 -0.170078 0.0814792 0.258399 0.171354 -0.125445 -0.278841 -0.122719 -0.255802 -0.263585 -0.077679 -0.251383 0.000779135 -0.16323 -0.123741 -0.0792609 -0.232996 -0.117137 0.116837 0.229128 0.0899154 -0.154944 -0.0004411 0.076551 0.0781546 0.185401 0.0744925 0.143271 -0.208557 0.182101 0.114245 0.323367 0.10248 0.393449 -0.182137 -0.0175788 -0.114938 0.0692787 -0.0446178 0.0448669 -0.18357 0.194947 -0.0278905 0.00401576 -0.0077663 0.0951197 -0.0239863 0.0121778 0.157442 -0.0612534 -0.037729 0.0811658 -0.186672 0.268303 -0.0248345 -0.0311125 -0.103356 0.116155 0.0055745 0.178676 0.181365 0.145838 -0.0391118 -0.110553 -0.215269 0.0758158 -0.199411 -0.147594 0.0483574 0.24011 0.0948243 -0.197451 -0.0998759 0.0505639 -0.166514 -0.22936 -0.0129976 -0.205487 -0.100043 0.0640082 0.0697922 0.0520356 0.0719017 -0.101448 0.134161 -0.425816 0.0601617 0.150302 0.142136 -0.140638 -0.186558 -0.0613304 -0.00729541 0.0353632 0.0527869 -0.374706 0.0577695 -0.18909 0.0986069 0.0151359 -0.0593656 0.0266764 -0.00288488 0.201585 0.085582 0.0682651 0.0510579 -0.132297 0.138852 -0.04814 -0.173723 0.217128 0.299903 -0.0783267 -0.143007 0.0159184 0.214745 -0.0665215 0.0141143 -0.0444613 -0.0692712 0.174224 0.134279 0.122315 0.0908444 0.0139611 0.0504651 0.15477 0.128446 -0.127353 -0.240402 -0.112997 0.0706635 0.156651 0.543878 -0.374973 0.18275 -0.0508334 0.170184 -0.0965924 -0.129169 -0.118606 -0.251889 -0.0119234 0.208902 0.0614047 0.241461 0.130732 -0.0467273 0.0145738 -0.105587 -0.206389 -0.119145 -0.0824588 -0.0702933 0.0294246 -0.0469902 -0.0828739 0.0804854 -0.322867 0.311543 0.113203 -0.0258363 0.125178 -0.123276 -0.214888 -0.217072 0.0928972 -0.042557 -0.0102436 0.26231 0.200083 -0.0374259 0.169995 -0.0229155 0.20745 -0.13287 -0.00391411 0.309476 0.0509218 -0.13823 -0.0250089 0.170424 -0.246775 -0.102504 -0.225229 0.0373947 0.0680491 0.111307 -0.175516 -0.0464176 -0.382725 -0.098701 0.164 0.0212915 0.0501833 0.0135526 -0.263954 -0.0886299 0.0820933 -0.125346 -0.24461 0.0640248 0.0535169 0.143463 0.0020405 -0.0736817 0.0325766 0.126459 0.0332234 -0.144475 -0.0343973 -0.102726 0.0260353 -0.203563 -0.0175197 0.0646852 -0.0882125 0.0423934 0.0765661 -0.0546118 0.152699 0.0766342 0.0781977 -0.108696 0.13009 -0.0888446 0.00269908 0.159026 -0.257282 -0.0857465 -0.0109462 -0.176042 -0.122824 -0.0975569 0.09463 -0.250069 -0.127264 -0.0100025 0.227299 0.0751156 0.15242 0.0569213 -0.141206 0.0106668 0.127426 0.0155354 -0.0394782 0.0500434 -0.0525453 0.268906 -0.321228 -0.17972 -0.014623 -0.0721631 0.0679942 -0.110567 0.102988 0.0612259 0.0512556 0.0807601 -0.0877974 0.180744 0.202604 -0.131659 0.209821 0.0817113 0.126155 -0.108487 -0.136994 0.0301853 0.111766 -0.278885 0.0362501 -0.0393657 -0.0514749 0.244231 -0.0274305 -0.200527 -0.0892488 -0.0234086 0.0863899 -0.101275 0.0678949 -0.0780431 0.0619115 0.016038 0.0672661 0.0481669 -0.317766 0.173962 -0.0307054 -0.398363 -0.0465458 -0.270537 -0.102041 -0.180133 0.00700749 -0.0608553 0.159723 -0.257214 0.364267 -0.127179 -0.129229 -0.00546908 -0.0115239 0.00974865 -0.235938 0.0389161 0.00103916 -0.017053 0.119149 0.178743 0.00851848 0.0152707 -0.153805 -0.121812 -0.0238965 0.247472 -0.134745 0.0173655 0.230298 -0.248382 -0.124719 0.203588 -0.00137862 0.271645 -0.06956 -0.184937 0.0561015 -0.0258462 0.121029 0.00846411 0.105502 0.0198547 -0.0387927 -0.259093 -0.0451799 0.210048 0.14001 0.163495 0.182607 0.174928 0.0216111 0.266764 -0.0967385 -0.104822 0.11025 -0.191419 0.123436 -0.235955 -0.0505672 0.058055 -0.0220493 0.0117263 0.00595131 -0.0133871 0.0486411 -0.34435 0.353005 0.236972 0.0368501 0.091955 -0.177562 -0.308609 0.0365919 -0.216858 -0.0263195 0.050059 0.0905844 0.0940049 0.0801309 -0.121414 -0.00692334 -0.0837041 0.0545759 0.167971 -0.340353 0.00972501 -0.23251 0.082003 0.128875 -0.0160092 0.0636158 0.186685 0.0310893 -0.00786322 -0.138163 0.312704 -0.0156451 -0.0526191 0.00584115 -0.242685 0.00276621 0.166244 -0.124999 0.0706153 0.0709193 -0.374858 -0.111804 0.247194 0.260933 0.104701 -0.0982268 -0.215327 0.0233391 0.0550756 0.155147 0.0258249 0.166967 -0.27448 -0.219653 -0.23017 -0.0341515 -0.109787 0.0881827 -0.0838809 -0.0380273 0.279176 -0.0828956 -0.00457316 0.0582101 -0.0607607 -0.158997 0.156511 0.172578 0.21918 0.160119 0.157065 0.0249451 0.172693 0.181481 -0.183275 0.259109 -0.073676 0.00640092 -0.00144386 -0.100523 -0.0520924 -0.137273 -0.0824512 -0.140385 -0.0679474 0.263478 0.249126 -0.1994 -0.0886035 0.139186 0.0768621 -0.0905144 -0.0211322 -0.132361 0.150887 -0.0262996 -0.00946167 0.234053 0.0874958 0.170862 0.00972454 -0.0544629 0.160997 -0.0136164 0.372175 0.254151 -0.305467 -0.0354053 -0.147145 0.0148475 -0.0368761 -0.422167 0.036234 0.0270059 0.214767 0.0149984 -0.0210281 0.0556637 -0.180899 0.161279 -0.0203748 -0.168844 0.0520134 -0.101603 -0.272344 -0.0550803 0.201772 -0.106604 -0.0191333 0.0282432 0.0626046 0.16001 -0.119192 -0.148855 -0.0686944 -0.053757 -0.124165 0.154917 0.123818 -0.0505024 0.12727 0.00201734 0.0352748 -0.133447 0.177728 0.109215 0.0557153 -0.391853 0.109291 0.0183536 0.103555 -0.266434 0.0415769 -0.126447 -0.131862 0.000251044 0.11434 0.0277619 -0.00622977 0.141279 -0.00194216 -0.0290573 -0.225611 -0.379988 0.101307 0.0501819 -0.00231708 -0.327347 0.0775485 -0.0978155 -0.010125 -0.21177 0.0622798 -0.013147 0.0726983 0.321021 0.0401401 0.0768715 -0.0660416 -0.0212863 -0.0341803 0.290344 0.0349656 -0.0884976 0.147802 0.0845863 -0.248921 -0.188517 -0.196834 -0.239568 0.000659996 -0.000292176 0.049398 0.140995 -0.0761789 0.00672808 0.278745 0.0933383 0.11247 0.0187394 -0.133132 0.176755 0.35651 -0.193788 0.118514 0.00517406 0.0105018 -0.0827912 0.0110129 0.0276782 -0.0281141 -0.0653519 -0.0046091 0.0368846 -0.245497 0.0592743 0.0215794 0.0356076 0.168234 -0.0866069 0.153497 -0.0314576 -0.179696 0.110691 0.0396792 0.0134122 -0.168697 0.166783 -0.302556 -0.0431408 -0.0595098 -0.0339803 0.0644815 0.0306 -0.0178662 -0.0783244 0.290417 0.317284 0.094863 -0.0671962 0.104058 -0.271981 0.0880253 0.294879 -0.0337368 -0.0418747 -0.150461 0.0894961 -0.229806 0.247469 -0.388876 0.203858 -0.113495 -0.0350583 -0.16403 0.0680457 -0.0622438 0.191274 0.170332 0.233575 0.096965 0.105373 0.0923029 -0.0766715 0.11931 -0.00935955 0.348495 0.0717774 0.017418 0.0304964 -0.0512442 0.0285046 0.102662 0.243885 -0.211613 -0.218654 -0.165733 -0.280475 -0.191805 0.0526555 -0.36382 -0.0465921 0.177788 0.0259006 -0.00903617 -0.297809 -0.0690755 -0.038901 0.130966 -0.0584474 0.180859 -0.00206792 -0.0591457 0.061537 0.0765987 0.0260646 0.0122875 0.132905 0.0300563 0.0130737 -0.0616113 0.0353036 0.00758191 0.0482487 0.0846009 -0.124535 -0.161035 -0.131505 0.0496765 0.0749941 -0.121272 0.13165 -0.147264 -0.156955 -0.186556 -0.0423688 0.125593 -0.103746 0.0808793 0.0679583 0.173732 0.0847513 -0.13136 -0.0526607 0.0251862 0.135362 -0.047531 0.15215 -0.185326 0.203093 -0.240618 0.144963 0.022723 -0.130969 0.0173816 0.316661 0.153715 -0.0503346 0.102725 0.223327 0.0930154 -0.0287774 -0.0905664 0.169088 0.0675016 -0.020839 0.00178851 -0.120783 0.171495 0.0282616 -0.0392111 -0.146591 0.000104956 -0.02235 0.0671342 0.0429413 0.196909 0.0113986 0.134216 0.083975 -0.0408483 -0.0631743 -0.0459543 -0.291095 -0.0456418 0.140467 0.0343798 0.0273421 -0.0362478 0.145184 -0.213068 0.391406 0.206158 0.242454 -0.0231646 0.165174 0.107025 -0.0478549 -0.224199 -0.0915172 0.18991 0.0678826 0.0183262 0.0411273 0.106063 -0.0639723 0.0689851 0.0712682 0.302405 0.129249 0.0418989 0.0563398 0.130259 0.0135469 -0.0688977 -0.137779 -0.242205 -0.10991 0.0690811 0.0522976 -0.185555 -0.0199814 0.179639 0.0800179 -0.0277307 -0.098711 0.143273 0.0690915 0.0132127 0.158584 0.266131 -0.0502812 0.0982963 0.172107 0.0358208 -0.345596 0.349856 0.0420903 0.176414 -0.0805852 -0.160983 0.133299 0.0418364 -0.0269837 0.0697851 0.146457 -0.072123 -0.0723376 0.0461945 -0.128662 0.0873809 0.0536275 -0.138708 0.0818035 0.124508 0.142024 -0.145816 0.105708 -0.0186255 0.139826 0.0916737 -0.107333 -0.134455 -0.197058 0.026415 0.0386792 0.0819643 -0.273755 0.102825 -0.0424553 -0.0531604 -0.176469 -0.106923 0.169405 0.0356194 0.113041 0.0280597 0.0633019 0.0302128 -0.212271 -0.0152002 0.0407547 -0.19736 -0.0202282 -0.063421 0.048816 -0.115188 0.0894947 -0.0114152 0.0607182 -0.029141 -0.0763132 -0.321362 -0.0753809 -0.128764 -0.0135866 -0.0999511 -0.188308 -0.060114 -0.30773 0.149361 0.233152 -0.050397 -0.118254 -0.0314198 0.0691572 0.236747 0.3241 0.117403 -0.0303522 0.204872 -0.114394 -0.103591 0.00471405 0.178916 0.0348838 0.0597462 0.128061 -0.259751 0.0407954 0.011244 0.301339 -0.200912 0.0543679 0.0459803 0.112482 -0.182126 -0.0263691 0.20213 -0.114509 -0.0833713 -0.138822 0.0744301 0.00313734 0.0763132 0.276909 0.113986 -0.112341 -0.121423 -0.125292 0.280247 -0.142558 -0.263162 -0.172458 -0.115026 0.217355 -0.0832904 -0.0303012 0.105728 -0.0862155 0.113388 0.016134 -0.0733441 0.141983 -0.124635 -0.0668288 -0.227767 -0.122009 -0.128832 -0.0766848 -0.0364156 -0.29292 -0.1498 -0.055059 0.297359 0.137105 -0.0911848 -0.220204 -0.0424 0.0547612 0.0166252 -0.0984812 -0.26863 -0.00492255 -0.138873 -0.0835084 0.038753 0.050935 0.10271 0.159598 0.1449 -0.0889098 -0.0100805 -0.0874792 0.150659 0.18549 0.0430411 -0.0861881 0.107739 -0.211451 0.020448 0.0928466 -0.0654611 0.0393373 -0.252181 0.0390508 -0.11405 -0.0652048 -0.113194 0.162826 -0.124776 0.223245 0.0242813 0.160223 0.124925 -0.0829434 0.077567 -0.00887874 -0.225544 -0.0101765 0.0489186 -0.00760035 -0.00708739 0.135856 0.113213 -0.132232 0.209343 0.00186132 0.187811 -0.125272 0.222485 0.25508 0.184356 0.0535533 0.0334012 0.0700706 0.179918 -0.0535083 -0.00444457 0.0545324 -0.149153 0.132407 -0.147875 0.336957 -0.0719877 0.0403458 0.141047 0.00392168 -0.00208353 0.0163595 -0.196967 0.295314 0.0332849 -0.11668 0.153212 0.0574125 0.12167 0.110684 -0.140222 -0.012461 0.254402 -0.0798689 -0.0201762 -0.147523 0.0646205 0.119989 0.14581 0.00440013 0.362664 -0.0549224 0.363116 -0.00701884 0.0611801 0.194352 -0.452132 -0.0800377 -0.154141 -0.0578952 -0.107563 -0.0939718 0.14541 -0.267724 -0.0314741 -0.0252226 -0.04932 -0.0345477 0.0232303 -0.13623 0.119186 0.0218475 -0.024747 0.166529 0.0306964 0.0420308 -0.0198561 -0.462906 0.0836436 0.0729035 -0.0536596 0.0937889 0.0538984 -0.0200136 0.260847 0.0625724 0.288349 0.0497115 -0.240029 -0.311329 -0.157105 -0.0361267 -0.142893 0.214966 -0.122428 -0.270592 0.269465 0.0658989 0.0792302 -0.190267 -0.0969224 -0.0563951 -0.112158 0.197301 0.103221 0.152757 0.162479 0.273292 0.0355088 0.0766635 -0.105857 -0.0433701 0.200304 0.0929497 0.0622783 -0.340818 -0.0406134 0.0356194 0.122624 0.149714 0.380556 0.106523 0.145521 0.117782 0.040072 -0.0649183 -0.219392 0.0818442 -0.046177 0.128216 0.0341028 0.0954474 -0.155757 0.132376 0.100728 -0.000103538 0.0428439 0.177269 0.0210901 0.154918 0.124532 -0.00417178 0.387252 0.185629 -0.0166034 -0.00197715 0.0792591 -0.0822999 0.0750022 0.179674 -0.145274 -0.0803942 0.0833159 0.0849867 0.100857 0.100562 0.0992617 0.0637709 0.0217345 -0.0142405 -0.285617 -0.0049372 0.00734222 0.0391648 -0.0819855 -0.371045 -0.00133843 -0.0330277 -0.00787314 -0.177522 0.0774871 0.0267591 -0.0189545 0.105334 -0.0944082 -0.0369877 0.180254 0.14627 0.26965 0.0516116 0.111263 0.00362856 0.0616992 -0.0518257 -0.168657 -0.051404 -0.249447 0.140005 0.25266 0.250825 -0.115396 0.0213146 0.0457283 -0.0269506 -0.0300303 0.0899102 -0.191731 0.225378 0.271653 0.0494907 0.12622 0.0311687 -0.0505001 -0.0699577 0.104021 0.0343779 -0.131447 0.082204 -0.179472 -0.0492439 -0.165711 0.0120359 0.233499 -0.0893434 0.0343264 -0.0177083 0.025711 -0.131908 -0.0802807 -0.0836842 0.14222 0.207396 0.0337841 0.185679 0.10664 -0.0299253 0.209202 -0.154806 -0.0151596 0.0553768 0.187718 0.0457855 0.0615082 0.060809 -0.0850775 -0.0440769 -0.101911 0.00530029 0.107014 0.25848 0.207693 0.148994 -0.153796 -0.0879865 0.131643 -0.0401931 0.0390768 -0.0927644 0.118068 -0.0322599 -0.166182 0.0729617 0.226071 0.0299442 0.135252 -0.0309375 0.119999 -0.133795 -0.121436 -0.0205194 0.125342 -0.165157 -0.186774 0.127461 -0.0552458 0.288377 0.0533013 0.0740372 -0.12682 0.169401 -0.206385 0.362066 -0.224895 -0.167896 -0.226959 0.0306208 0.007867 -0.192215 0.162678 -0.0669962 0.188965 -0.0464219 0.135378 0.174494 0.056431 -0.0476866 0.000996612 -0.106941 -0.150939 0.078922 -0.0446518 -0.15061 -0.0816329 -0.262543 -0.0624925 0.105682 0.0841192 -0.0636768 0.0979261 0.215749 -0.0511917 0.127073 -0.170258 0.30893 -0.0302241 0.122562 0.152272 0.169811 -0.0146003 -0.350825 -0.240492 -0.243385 0.0457832 0.0218569 0.027135 0.0365555 -0.0247163 -0.153889 -0.241905 0.0337175 0.0286389 -0.116378 0.0470512 -0.14912 0.15084 0.00286739 -0.14987 0.312063 0.0158928 0.104247 0.0855479 -0.0670619 0.0525448 -0.322086 -0.0978273 0.159523 -0.115961 0.108123 -0.00293925 -0.116838 0.070473 -0.00422757 -0.0191257 0.053463 -0.399931 -0.00794926 0.304057 -0.0302118 -0.0271132 -0.0611517 0.0325837 0.0706233 0.00997274 -0.020258 -0.0876787 -0.220941 0.091329 0.116957 0.139668 0.0229783 -0.0860599 0.225754 -0.109887 -0.178594 -0.049042 -0.0870958 0.0612595 0.223345 0.119757 0.264013 -0.186024 0.240246 -0.0927535 -0.175027 0.071558 0.0842799 0.0365012 0.132462 -0.114232 0.360478 -0.0461288 -0.0616997 -0.551224 -0.196134 0.0311063 0.00702687 0.0137602 0.0395789 0.0341552 -0.109029 0.145843 -0.0347448 -0.123695 0.187228 0.00679427 0.00818518 -0.0784255 0.0582673 0.0106209 -0.341174 0.0578517 -0.0823822 0.16091 -0.138565 -0.162839 -0.0354237 -0.0396144 -0.093231 0.0600189 0.0829112 0.0680968 -0.0199304 0.162925 0.22817 -0.0350493 -0.0200443 0.0879539 -0.0661873 0.317354 0.0617692 0.0247924 -0.181179 0.00105098 0.32556 -0.399299 0.370692 -0.0515558 0.00299598 0.132737 0.0503984 -0.0829462 -0.161037 -5.62604e-05 0.168187 0.0120501 -0.179578 -0.110686 -0.327619 0.129887 -0.0769467 -0.212593 -0.183411 -0.00742826 -0.0259304 -0.0230029 -0.125749 -0.297919 0.0639416 -0.131937 0.021516 0.0187555 0.0353646 0.0488955 -0.156259 -0.140867 -0.285487 0.0356833 -0.165322 0.295079 -0.0472478 -0.0463552 0.100472 0.0835462 -0.177541 -0.0412824 -0.0213657 -0.0181712 -0.179279 -0.127309 -0.0868637 0.0680533 -0.140732 0.123276 0.100305 -0.0125943 0.17994 -0.0201809 0.231911 0.000506343 -0.107994 0.0480298 0.0175944 0.210079 -0.0496732 -0.0534332 -0.0787834 0.0816262 -0.222555 0.0622325 0.00464266 -0.0194079 -0.111482 -0.270158 0.0467935 0.217579 -0.201574 0.120812 0.134671 -0.0245749 0.107609 0.192163 0.21814 0.0639071 -0.0959017 0.0529164 0.136672 -0.0260424 0.134501 0.133309 0.0868835 0.0619332 0.14619 -0.114842 -0.109297 0.0804675 0.0737919 0.0175263 -0.240721 0.297971 -0.170273 0.214559 -0.035531 -0.0597589 0.0767732 -0.197069 -0.121258 0.122383 0.0166299 0.0827774 -0.0877544 -0.0601367 -0.246122 -0.0784208 0.0362757 0.0401165 0.0168261 0.0658516 0.29427 0.00661083 -0.154005 0.0860439 -0.0577127 0.00126704 -0.0446764 -0.0964927 -0.0488033 0.236418 -0.00866599 -0.299737 0.110188 -0.00272556 0.0730766 0.219781 0.123693 0.00878371 -0.326274 -0.119286 0.0669144 0.0929904 -0.0184123 -0.495217 0.125255 -0.151295 0.0702971 -0.176724 0.0957826 0.0826101 0.273813 0.235915 -0.0569743 0.0397539 -0.0684812 0.040645 -0.0596885 0.130133 -0.0633449 -0.100829 0.0395293 0.0231429 -0.0215406 0.0892204 0.217646 -0.202292 -0.00767174 -0.0254113 -0.0213383 -0.158839 -0.100171 -0.0714682 -0.143524 -0.0781892 -0.0902038 -0.188418 0.112829 0.342516 -0.182511 0.125583 0.176503 -0.13543 0.110642 0.115374 -0.0240525 0.324909 0.0251848 -0.09746 0.217428 0.185186 -0.0564046 -0.0764229 -0.13862 -0.125488 0.00643259 -0.0731834 -0.245994 0.0440065 0.0550794 0.13083 -0.141406 0.258424 0.033387 -0.0154938 -0.161953 0.119775 -0.148381 0.175931 0.118915 0.0791399 0.00455615 0.0660242 0.28186 0.0861583 -0.0547319 0.129434 0.0332385 0.100597 -0.0738916 -0.346074 0.0960733 -0.145565 0.0366477 -0.0136174 -0.209418 -0.202217 -0.121859 -0.359996 -0.218364 0.0381214 -0.285532 0.157696 0.177554 -0.213984 -0.0582602 0.123554 0.0418067 0.248558 -0.348256 -0.0469907 0.140385 -0.278694 0.0416284 0.0541258 -0.0356048 0.0723929 -0.0811 -0.0353632 -0.0357825 0.21377 0.134428 0.105163 -0.080207 0.0592478 -0.0760872 -0.270554 0.0134859 -0.0110578 -0.274654 0.0874135 0.132564 -0.0600156 0.000863762 -0.0936636 0.0616514 -0.0246345 0.0920959 -0.135178 -0.051717 -0.248222 -0.0784572 0.024425 -0.0224682 -0.10255 -0.10707 0.184122 0.0769982 0.0097373 -0.0718729 0.255557 -0.00226413 -0.0274489 0.140623 0.00193507 -0.0679502 -0.127593 0.26329 0.198196 -0.122434 -0.046342 0.111125 -0.150496 -0.0778516 0.328027 0.131092 0.119708 0.00903003 0.129612 0.123606 -0.0328598 0.0571412 0.113406 -0.0961981 -0.0756768 -0.075239 -0.0732373 0.0789338 0.0777263 -0.0854439 0.043008 -0.117919 -0.219262 0.0239012 -0.0185054 0.140959 0.299729 0.033179 0.162234 0.138792 -0.243901 -0.15707 0.313496 0.0970534 0.0882347 -0.111527 -0.00282815 -0.06442 -0.0309191 0.114547 -0.0215643 0.00762824 -0.0899741 0.0236119 0.154924 0.109391 -0.0111835 -0.0622698 0.364447 0.129214 0.115069 -0.256203 -0.0222583 0.149629 0.0911872 0.240939 -0.0456848 -0.267442 0.194928 -0.07378 -0.183517 0.112482 -0.173642 0.0861862 -0.131123 0.124539 0.0353396 0.221568 0.0710961 0.0134382 0.114539 0.149767 0.117752 -0.0908875 0.0273719 0.0683502 -0.397399 -0.0373621 -0.112424 0.019581 0.0803601 -0.0785773 0.132195 0.275932 -0.130676 0.0669461 -0.116882 -0.0403822 0.00673801 0.122559 -0.116956 -0.0857309 0.0371744 0.137124 0.0510825 0.0425787 0.381356 -0.0197422 -0.0867455 0.0243891 0.11905 0.110127 0.00693657 -0.108024 -0.0869639 0.203362 -0.174915 0.0441554 -0.0167462 -0.130052 -0.00796013 0.123054 0.111238 0.0202958 -0.0907962 0.116537 0.0921034 -0.0362619 0.0232341 -0.070411 -0.035123 0.0278536 -0.129521 0.0678911 -0.379134 0.293138 -0.132214 -0.116114 0.308948 -0.226863 0.244087 -0.0416086 -0.301272 -0.0200405 -0.0908255 0.239989 0.125461 0.123299 0.182598 -0.0979796 -0.0993705 -0.202886 -0.134469 0.158114 0.0287401 0.140279 -0.147497 -0.316694 0.135498 0.0943969 -0.0540114 -0.250643 0.194021 0.00583973 0.134093 0.192516 0.0458636 -0.0500282 0.201872 -0.00377606 0.135209 0.102443 -0.0929483 -0.00688504 -0.173018 0.0405467 0.166464 -0.18216 0.0720847 0.0188794 0.0444055 0.0158829 0.0691757 0.0938068 -0.0453137 -0.0798273 0.323322 0.0195309 -0.23062 -0.0717126 -0.352602 0.0895958 0.0601683 -0.190991 0.143665 0.0337822 -0.0841953 0.00698527 -0.00407439 0.283702 0.091 0.0779386 0.107998 -0.129574 -0.250315 -0.109254 -0.0427201 0.272917 0.15453 0.10503 0.352024 0.0573057 -0.00872934 -0.145693 0.106041 0.0250406 0.00888157 -0.0230672 -0.0502798 0.116467 0.0578711 0.0349008 0.0054809 -0.16361 -0.168754 -0.13815 -0.081752 0.108686 -0.171225 -0.127956 0.00873785 -0.264494 -0.104573 -0.113341 -0.158737 0.329061 0.266933 -0.0468795 -0.154359 0.00914255 -0.204038 0.113586 0.199445 0.139266 0.0375791 -0.139536 -0.151917 -0.151426 0.03357 0.266468 0.0594861 -0.0607267 0.165649 -0.0750074 0.0547291 -0.268763 -0.0888271 0.0660866 0.212965 0.0752934 0.217348 0.159164 -0.0665669 -0.171571 -0.0757312 -0.122502 -0.013529 0.0603556 -0.235449 0.0918458 -0.0776407 0.0267468 -0.101098 -0.003725 -0.216128 0.353576 -0.0675862 0.0932409 0.0692272 -0.183237 0.0344971 0.0447019 0.151669 -0.286835 0.133242 -0.263251 -0.128254 -0.208308 0.183877 0.259272 -0.0164261 -0.219563 -0.0168152 -0.10979 -0.0580872 0.0395241 0.122795 -0.132113 0.0778502 -0.160215 0.13451 0.113065 -0.246812 -0.0416114 -0.0495952 0.0606988 -0.409024 -0.0621219 0.223421 0.157982 0.196308 -0.0644025 0.0799956 0.0943827 0.25723 0.000416043 -0.0636243 -0.138969 0.173102 0.0746911 0.0213203 0.0137493 0.196065 0.093344 -0.0774918 -0.152348 0.114515 -0.0551167 -0.0596771 0.175993 0.0999941 -0.0540714 -0.414952 -0.0555399 -0.154917 0.0472512 0.0737096 -0.174371 0.172438 -0.00400252 -0.0547465 -0.104998 0.201108 0.0383559 0.252793 -0.115392 -0.00471547 -0.00150863 -0.139219 0.0121806 0.0292455 0.122057 0.0597329 0.0216924 -0.00278749 -0.202431 -0.0678803 0.167579 0.00520763 0.107947 0.0481206 -0.0949637 0.231117 0.0385573 -0.117497 0.184969 -0.159479 0.0694333 -0.0606591 -0.0383554 0.0263729 -0.0194065 0.11779 -0.177936 0.0240705 -0.0784099 -0.102521 -0.0501252 0.165716 -0.00253739 -0.193513 0.0923493 0.13439 0.0137422 0.00953448 -0.000149397 -0.0482322 -0.0274347 0.115414 -0.159871 0.081413 -0.0349977 -0.163993 0.00420771 0.149394 -0.200859 -0.0414544 0.103548 0.060426 0.0742301 0.198052 -0.0649339 0.262175 0.0605749 0.119359 0.0155747 0.0209071 0.0456612 -0.0969971 -0.231507 -0.123353 0.0792212 0.421419 0.211409 0.0926126 -0.180801 0.25014 0.263404 -0.102478 0.0738311 0.461105 0.130221 0.304346 0.115793 0.145539 -0.0131753 0.115065 -0.0869979 -0.237379 0.0334796 0.0687086 -0.0072557 -0.113304 0.0463628 0.107903 0.00791758 -0.0225141 -0.0750192 -0.0175721 0.031086 0.296869 0.24401 0.10008 -0.0330026 -0.155947 0.0268915 -0.0841286 -0.00600331 0.11652 0.306366 0.209893 -0.226352 -0.128596 0.0613697 0.0198708 0.055268 0.0740665 -0.14827 -0.0283756 -0.088421 0.0546227 -0.160439 -0.390579 -0.167081 -0.0306279 -0.164946 0.0658908 -0.0198703 0.0839438 0.0541683 0.123116 0.127832 0.135894 -0.0694674 0.106964 0.147383 -0.0705368 -0.051648 -0.10593 -0.00838374 0.234785 0.204289 -0.0517506 -0.0266773 0.208623 0.0513421 -0.296689 -0.324451 -0.0434727 -0.168345 0.324968 -0.137465 0.118333 -0.251672 0.132895 0.194806 -0.033431 -0.0907012 0.141212 0.161094 -0.0183527 -0.13339 -0.0563218 -0.202998 0.124763 -0.10773 -0.0567081 0.221749 0.229549 -0.133866 -0.070272 0.00572248 -0.099222 0.141145 -0.108462 -0.289439 -0.168222 -0.148384 0.187628 -0.0780459 0.377517 -0.185814 -0.151322 0.096192 0.288722 0.0763936 -0.0474956 0.00475471 0.0208196 0.36633 -0.102192 0.00764668 0.0653121 0.176969 0.165605 -0.0878645 -0.231258 0.0279184 0.0131602 0.168376 -0.0716838 0.172639 0.150098 0.144679 -0.142438 0.271265 -0.153028 0.0868807 -0.00883241 -0.0609333 0.129792 -0.297217 0.00138382 -0.164149 0.0907173 -0.110662 -0.0653367 -0.227104 0.0305749 -0.335877 -0.117263 -0.231092 -0.10292 0.0163533 0.0355126 0.0843414 0.129404 0.000875582 -0.246118 0.0530724 0.0690405 0.164743 0.0694976 0.0705439 0.0381199 0.0323544 -0.26893 0.132045 -0.0130614 -0.10313 -0.203738 0.220905 -0.157263 0.117017 0.0212957 -0.044622 -0.26936 -0.0652757 -0.0453747 0.140956 -0.00499394 0.0609721 -0.0774384 -0.297023 -0.0649916 0.151304 -0.131038 -0.0235324 -0.159565 -0.358794 0.058515 -0.244124 0.160698 -0.108035 0.0018391 -0.238335 -0.00759373 0.0202835 0.119384 0.101021 -0.088151 0.045882 0.0874821 0.125698 -0.181673 -0.0332915 -0.0715263 -0.233418 -0.0795281 0.346395 -0.127347 -0.0974222 -0.220955 0.158688 0.138877 0.155371 0.191544 0.0589051 -0.0232578 -0.0128709 -0.129557 0.145834 -0.107867 0.155826 -0.10996 -0.0863819 0.143794 0.0117234 0.0564093 0.0758952 -0.0153581 -0.0123834 0.0549867 0.195955 0.0550945 -0.163868 0.109729 -0.111279 0.132626 -0.103164 0.125498 -0.238277 -0.240322 -0.019468 -0.0967953 -0.0402578 -0.0246236 0.194299 -0.0144395 -0.0299144 -0.272832 0.137324 -0.00771571 0.0628764 -0.333434 0.2732 0.202117 0.00415098 0.0537755 0.0456309 0.305381 0.138743 0.0413845 -0.115912 -0.080398 0.341663 -0.11183 -0.116849 -0.0871412 0.0864098 0.217754 -0.0794609 0.0819959 -0.156652 -0.202313 0.0391728 -0.264722 0.0467245 -0.189074 -0.103339 -0.0459099 0.144987 0.204373 -0.0424019 -0.0119348 -0.203924 0.223244 -0.209362 -0.173459 -0.0910501 0.159113 -0.153797 -0.154818 0.108765 0.0287519 0.0972969 -0.15119 -0.12209 -0.0347079 -0.162766 0.156135 -0.0723026 -0.38047 0.249718 0.0125943 -0.0897032 -0.0611333 0.0545518 -0.0685965 0.074337 -0.112141 0.0991989 -0.00686471 0.0397132 -0.0242988 0.135916 -0.0810055 -0.0236625 0.0792312 -0.0893627 -0.0186917 -0.0083776 -0.0829836 -0.0996433 -0.108568 -0.141796 0.0684282 0.151335 0.0410096 0.0097477 -0.0846643 0.132227 0.142088 -0.0291051 -0.0561346 0.317666 0.0151534 0.0731924 0.151333 -0.0157269 0.0157037 0.0334347 0.0491309 0.089524 0.0620382 0.10384 -0.0356487 -0.0430921 -0.0822073 -0.0694579 -0.0348242 -0.0884172 0.117032 -0.0339798 0.108496 0.0465221 -0.00906501 -0.0451809 -0.0399425 0.207776 0.121498 -0.198401 -0.0954928 -0.231936 0.181946 -0.118184 0.208553 0.107529 -0.325611 -0.142761 0.0738368 0.123042 -0.0504008 0.173039 0.0513095 0.0488978 0.260458 0.214344 -0.20315 0.0382731 0.0371791 0.0381147 0.304686 0.255424 0.187493 0.113571 -0.0424411 0.149382 -0.0380065 -0.0648328 0.21134 0.141456 -0.278525 -0.268462 0.0771509 0.213299 -0.170761 -0.0250335 0.0158872 0.0380561 -0.240741 -0.2584 0.253238 -0.0478369 -0.104726 0.0664038 0.188191 0.0144821 0.265887 -0.16011 0.0799053 0.00274305 0.493063 0.0459364 -0.0609451 0.0404782 -0.0306737 -0.0133446 0.00342999 0.037537 -0.0181423 -0.210846 0.113029 0.0465822 -0.413771 0.0639822 0.251974 -0.0914179 -0.0194075 0.056823 -0.0946517 -0.346761 -0.181221 0.0619507 0.0191645 -0.0997473 0.0460451 -0.106211 -0.0250657 0.038901 0.0977947 -0.182334 0.126957 0.126648 0.07946 0.0185168 0.0154376 -0.0870168 0.283429 0.0755884 -0.092381 -0.0710569 0.199961 -0.0880191 -0.126443 0.166754 -0.144924 -0.367462 -0.256801 -0.207176 -0.129965 0.0956105 -0.134495 0.0793252 -0.106365 -0.0538331 0.0553503 -0.205223 -0.0800609 -0.201062 -0.111909 0.0437058 -0.0740457 0.0282857 -0.07477 -0.200133 0.116966 -0.0106323 -0.119733 -0.0176294 0.0515388 -0.0437933 -0.062971 0.235204 0.0601499 0.00128832 -0.301808 0.125314 0.0375871 0.0309484 -0.0267861 -0.442187 0.0369697 0.00356473 -0.0543693 0.0118586 -0.0380486 0.0695454 -0.138673 0.0468285 -0.0914723 0.0378642 0.0553886 -0.106675 0.245377 0.347821 -0.124918 0.20114 0.048295 -0.0357045 0.0702375 0.468151 0.0154243 0.00475755 0.0265667 -0.144892 -0.190018 0.135159 0.164229 0.317814 -0.118052 -0.0709926 -0.0695099 -0.134611 -0.146996 -0.027881 -0.0956422 0.0206693 0.0236837 -0.136007 -0.0368297 -0.069483 0.074866 -0.177259 0.0163037 0.0403179 -0.0532474 0.0502798 -0.0534147 0.239595 -0.152118 -0.019276 0.324011 0.00351746 -0.0116085 -0.307889 -0.0550085 0.0929454 0.0486856 -0.0599797 0.269412 -0.0189215 0.0885425 0.0903419 0.113997 -0.124649 0.0589576 -0.161085 -0.0510527 -0.0054426 0.188541 0.128165 0.174705 0.18876 0.134027 0.156934 -0.278602 -0.217461 -0.0072557 0.0403141 -0.0998338 -0.0620306 0.203829 -0.0771689 0.0940399 -0.0728931 -0.079304 -0.0699061 0.139912 -0.0455085 -0.0825534 -0.107525 -0.0134524 -0.0129753 0.136148 0.0848614 0.192945 -0.0781466 0.0201667 -0.111454 0.165342 0.0452036 -0.0596833 0.0469996 -0.0638858 0.0306747 0.250327 -0.00602412 -0.0717826 0.087864 -0.084791 -0.263833 0.0101515 -0.245025 -0.158708 0.148561 0.200312 -0.00506674 -0.246223 -0.122028 0.10146 0.107674 0.13986 0.117358 -0.103802 -0.0649027 0.0582498 0.075891 -0.0454905 0.0419338 -0.208554 -0.0156716 -0.145012 0.308146 0.338513 -0.0618344 -0.109677 -0.156591 0.0858912 -0.228119 0.0430988 0.197028 0.197233 0.0411339 0.00452352 0.23692 0.123032 -0.168186 0.0270688 -0.140276 0.0955377 0.0853262 0.0653916 -0.0629086 -0.11543 -0.00185281 0.135085 0.182399 -0.208593 -0.0847537 0.0308274 -0.17307 0.213688 -0.160309 -0.0986623 -0.0275912 -0.158301 0.0904719 0.335311 0.274606 -0.0609106 -0.00965267 0.0392428 0.133192 0.0342942 -0.0349278 -0.0540327 0.184024 -0.238754 0.216949 0.0279463 0.0708276 -0.221087 -0.0671205 0.107941 -0.0677876 0.192983 -0.00468096 0.0418237 0.166709 -0.10717 -0.0565086 0.0202046 0.0447719 -0.126948 -0.0525566 -0.0500145 0.189998 -0.158309 -0.105621 -0.146113 -0.0234199 0.0293821 -0.0314793 -0.0268835 -0.0781372 0.0270891 -0.264413 0.0478402 0.0313952 0.248781 -0.137968 0.193542 0.0682727 0.136353 -0.30942 0.112583 -0.0629204 0.10272 0.0114691 0.22396 -0.00215681 0.0720331 0.146979 -0.154919 0.115366 -0.15907 0.0127583 0.00921346 -0.234387 0.381758 -0.0484756 -0.0506689 -0.0508083 0.137221 -0.237707 0.150321 0.159023 0.0107292 -0.110927 0.00736254 0.0128151 0.0251295 0.041583 -0.119417 -0.0427371 0.217254 0.130562 0.191426 0.0112705 -0.0888824 0.031867 -0.0842298 0.116063 0.0281084 -0.0672685 0.190967 -0.0976264 0.103005 0.169832 -0.0367678 0.182142 -0.104341 0.1914 0.143026 0.0114922 0.0984126 -0.200254 0.0247106 -0.0968808 -0.199408 0.0191914 0.0925582 -0.104198 -0.32315 -0.0241088 0.035401 -0.0416681 0.0508078 0.243559 -0.0986485 0.060643 0.043321 0.0228431 -0.00827358 -0.140195 -0.0893353 -0.134847 -0.224449 0.130222 -0.168304 0.113763 -0.0614292 0.0172852 -0.181007 -0.0103368 0.233443 -0.24466 -0.026771 -0.0411689 0.052255 -0.240129 -0.113154 -0.0526673 0.197665 -0.0931038 -0.0024088 -0.0829623 -0.130692 -0.0257082 -0.0400281 0.114739 0.114943 0.174746 0.00547239 0.215686 -0.260253 0.18577 0.117911 0.195771 0.0162626 0.0178842 0.161394 -0.159389 0.0492822 0.0944111 0.0581028 0.0292171 0.232796 -0.2672 -0.10371 0.0426562 -0.19064 -0.0523165 -0.255054 -0.026015 -0.127442 -0.270064 0.285631 0.0752863 -0.0617644 -0.201128 -0.136524 -0.0537424 0.0137162 0.198929 0.0621611 0.0088187 -0.160076 -0.0247957 -0.00506249 -0.11453 -0.000371129 0.15399 -0.165594 0.246424 0.0489654 -0.0378136 -0.0506712 -0.339834 -0.0248217 -0.0729617 -0.185477 -0.198856 -0.0549461 0.0691587 0.16624 -0.15582 -0.0043694 -0.0996244 -0.204261 -0.0213553 -0.242738 0.0530951 0.0932405 0.0179192 -0.186453 -0.144671 0.0369602 0.0651831 -0.270007 0.160008 0.197073 0.266668 -0.309639 -0.0314283 -0.249756 0.0223817 -0.0949831 0.203437 -0.0798363 0.0977687 -0.0860845 -0.0688958 0.0324906 -0.0258902 -0.155404 -0.406009 -0.0909546 0.10744 -0.0942097 0.0557162 -0.113429 0.08322 0.0633672 0.204227 -0.154539 -0.080692 0.0802353 -0.237405 -0.162595 -0.0026797 0.0328764 0.0870622 -0.0250605 -0.180408 -0.242199 -0.0817596 0.180862 -0.0890815 -0.150864 -0.0700706 -0.104062 0.172417 0.262353 0.17186 0.156825 -0.0601078 -0.0657646 0.101278 0.0363347 0.145852 0.0960473 0.102187 0.20321 0.174189 0.035731 -0.161562 0.0928145 0.165667 0.262056 0.00654937 0.103864 -0.177616 0.203137 -0.0764597 0.00457269 0.0737313 -0.186382 0.168385 -0.151127 -0.0427257 0.0619058 0.306588 -0.13531 -0.102711 0.0331473 -0.016194 0.00834639 0.00343283 -0.104498 -0.131343 -0.122344 0.103055 -0.0507043 -0.0705354 0.060061 -0.0670004 0.0478955 0.0471783 0.0365229 0.0180213 0.211329 -0.00371177 -0.106605 -0.256213 -0.183571 0.170521 0.141097 0.325775 -0.180726 0.0674723 -0.232204 0.0429995 0.173534 -0.0518068 -0.0898984 0.0701619 -0.149111 0.062172 0.0772417 0.0373819 -0.223043 0.0708659 0.143009 -0.183699 -0.175231 0.0940182 -0.0872343 -0.0506599 0.0153255 0.168335 0.068527 0.0697255 -0.0973683 -0.295744 -0.143243 -0.0314789 -0.111312 -0.184769 -0.0131091 -0.00872083 0.309259 -0.0455236 -0.0532502 -0.00614042 -0.113634 -0.419396 -0.130183 0.196643 0.221188 -0.0170478 -0.112048 -0.0766035 0.241909 -0.0790605 0.148525 -0.136433 -0.0807289 -0.237336 0.0122161 0.108785 -0.0921408 -0.144117 0.241749 0.0248099 0.14878 -0.0955452 0.159229 0.0349249 -0.168417 -0.0780303 -0.0547343 -0.0481381 -0.0267147 -0.0628178 -0.181295 -0.174461 -0.197481 -0.0460427 -0.231775 -0.029114 0.107353 -0.0150697 -0.102809 -0.0575945 -0.0353448 0.135875 0.0741436 -0.0012713 0.19577 0.0283032 -0.0552553 0.00645718 0.0237499 0.0848354 -0.0266721 -0.0561734 0.176625 -0.238193 0.00611962 0.0224975 0.217037 -0.110036 0.0753681 -0.140387 -0.139968 -0.0615999 0.0494496 0.131764 -0.0551092 0.297617 -0.184245 0.0660005 0.066461 -0.138895 -0.0785206 0.113623 -0.0596946 0.234934 0.0324116 -0.080866 0.161062 -0.0554415 0.34953 -0.0235972 -0.0679649 0.0344356 0.0459704 0.328177 0.0836625 -0.091043 -0.136058 0.265645 -0.144196 0.0911555 -0.121398 0.145453 -0.141477 -0.117365 0.199477 -0.100437 0.00846459 0.0932755 -0.0893736 -0.186703 0.214633 -0.195253 0.0444741 0.109767 -0.0724336 -0.241061 -0.274432 -0.0732841 0.105507 0.143438 0.0369413 -0.130987 0.0956228 -0.0634419 -0.129156 -0.170555 -0.232353 0.00939265 0.0564424 0.125762 -0.136628 0.0360454 0.0479726 -0.143413 0.0968279 -0.14533 -0.184763 -0.0664955 -0.169861 -0.0169202 0.173011 -0.0617885 -0.102911 0.0617781 0.00532488 -0.123662 -0.209816 0.0994622 0.249562 -0.106798 0.155765 -0.0212712 0.0498864 0.157927 -0.274271 -0.0962265 0.342532 0.00191522 -0.330221 -0.0134623 0.204006 0.0249867 0.0105689 -0.176465 0.0318618 -0.137325 -0.0805956 -0.0668709 0.081032 0.00403231 0.153834 0.110503 -0.0896029 0.208481 -0.091321 -0.255598 -0.047635 0.0596511 0.108404 0.221009 0.0141946 0.186521 0.123737 -0.0532389 -0.0291334 -0.0173064 -0.000379639 -0.0593556 0.195614 -0.115609 -0.219613 0.0457335 -0.0790033 -0.0248723 0.219586 -0.0282867 -0.411182 0.142107 -0.136588 0.283364 0.163634 0.179635 0.170101 -0.0876054 -0.0244652 0.0169547 0.0200746 0.0653032 -0.273858 -0.19067 0.0419617 -0.209834 -0.15721 0.0101496 -0.0287869 -0.165007 -0.0226034 0.0996995 -0.0185603 0.0199148 -0.117879 -0.272572 0.059253 0.299308 0.0781769 0.215525 -0.0901821 0.100747 -0.0944725 0.0968785 -0.342889 0.146243 -0.0451468 0.175121 -0.100343 -0.205993 -0.0372907 -0.0209657 -0.000429754 0.215416 -0.0509161 -0.0670628 -0.179301 0.0177702 -0.131033 -0.332817 -0.0206816 0.0918897 0.0574674 -0.116846 -0.198958 0.330892 0.0659703 -0.160529 -0.0684878 0.0896535 -0.167084 -0.10665 -0.1257 0.0411755 -0.121326 -0.0346488 -0.0835916 0.105418 0.0216659 -0.0901376 -0.126601 -0.073929 -0.100643 -0.011166 -0.0120695 -0.047541 0.0690107 0.225389 0.265656 -0.0414327 0.40711 0.0675517 0.130613 -0.081648 -0.281602 0.408698 0.0960662 -0.21476 0.0357324 -0.13064 -0.10378 -0.15145 -0.00843527 -0.0418393 -0.0941931 0.113174 -0.159558 0.0060903 0.0192689 -0.238623 -0.0213392 -0.0806188 -0.0918864 0.0832365 -0.0123224 0.0270409 -0.119424 0.0335458 0.173562 -0.166358 0.0511298 0.0488236 -0.0318821 0.166072 0.133366 0.0857725 -0.0549092 0.268369 -0.13343 -0.0856467 -0.200143 -0.00772847 0.0533708 0.0934792 -0.0279529 0.131172 -0.247753 0.0522318 0.0472275 -0.170466 0.000971082 -0.0614292 -0.287899 0.188498 0.152887 0.0372203 -0.00669593 -0.0321946 0.211838 -0.0671541 0.124303 -0.0260897 -0.00957561 -0.0388367 -0.268983 0.0240757 0.0735432 -0.157039 -0.123192 -0.226055 0.295576 0.252907 -0.111236 -0.117791 0.307403 -0.212132 -0.16458 -0.0426416 -0.0040985 -0.0769377 -0.00863337 -0.212856 0.0705968 0.136807 0.0706673 -0.154294 0.193298 0.0340413 -0.0287169 0.0856255 0.101108 -0.150847 -0.119667 0.0583874 0.0290185 -0.0874854 -0.0377673 -0.114392 -0.0493276 0.294642 -0.0770299 -0.0109306 -0.148724 -0.18323 0.064064 0.270411 -0.0144972 -0.143116 -0.0215137 0.22308 -0.0470096 0.0455198 0.0900889 0.0787163 0.127606 0.341683 -0.100953 -0.120687 -0.123883 0.144311 -0.0531036 -0.183956 -0.0348323 -0.0130359 0.154425 -0.119923 0.110254 0.0744575 0.231415 0.107035 0.0520451 0.187512 -0.0448991 -0.0208121 0.053185 0.219791 -0.031962 0.094446 -0.333979 0.0109509 0.0278437 -0.215164 0.172185 -0.086259 -0.207568 0.0707094 0.0378344 0.0288167 -0.0689695 0.288123 0.0677328 -0.126154 0.024513 0.0616713 -0.177018 -0.173747 -0.0317181 -0.0261762 -0.328068 -0.109306 -0.0752977 0.142622 0.0677276 -0.0455633 -0.0598043 -0.226233 -0.037451 0.330201 -0.0182563 -0.079711 -0.2625 -0.115653 -0.0891108 -0.112082 0.0607952 -0.111072 -0.181989 -0.286877 0.00333969 -0.00615271 0.0272381 0.0952148 0.0427484 0.0148844 -0.00279411 -0.0333638 -0.0909499 0.285841 -0.176802 -0.19393 -0.0778639 0.0201809 -0.0259393 -0.189619 0.325413 -0.0822101 0.150624 -0.118817 -0.263694 -0.0978552 -0.172658 0.0124023 -0.100262 -0.180409 -0.0471183 -0.0923592 -0.0614954 -0.0491957 -0.0409717 -0.315464 0.0580513 0.0627209 0.0120619 -0.0552765 0.0128089 0.069735 -0.0400517 -0.0415793 -0.207192 -0.00282531 0.200846 0.0312519 -0.100117 -0.0312671 -0.177731 -0.286821 -0.0816504 0.0151856 0.139043 -0.0893755 0.0195441 0.0321653 -0.0488534 0.117582 0.30227 -0.0681474 -0.119803 0.128553 -0.15675 -0.150949 0.240179 0.100103 -0.0239092 0.0488638 0.147501 0.315025 0.146446 0.13498 -0.0383819 -0.00950233 -0.370489 0.0901783 0.211678 0.130062 -0.143266 0.0890285 -0.11568 0.178462 -0.205656 0.0562835 0.213283 0.074987 -0.115528 0.165986 0.00150579 -0.155041 -0.107183 -0.27314 0.214843 0.149793 0.0806807 -0.0407065 0.0419858 0.00700134 0.0663655 0.130548 -0.0830829 -0.164769 0.0873624 -0.251566 0.0170833 0.192359 -0.153699 0.091677 -0.147123 0.000395714 -0.123597 0.03568 0.0943316 0.220388 -0.159429 -0.012973 -0.200933 -0.053792 0.244989 0.0677016 0.11153 -0.0669768 -0.0948351 0.11845 0.0687303 0.109278 -0.0715258 -0.0911966 0.170212 -0.0753114 0.0174384 0.0571591 -0.0369574 -0.336614 -0.0339912 0.0235164 -0.0335274 -0.141153 0.00799228 -0.0395113 -0.150399 -0.124616 0.0288871 0.00322244 0.0858585 -0.128942 -0.0829685 -0.109691 -0.124647 -0.114038 -0.0229887 -0.111781 -0.0384178 0.0297698 0.0695066 -0.148845 0.0720331 0.288796 -0.027525 -0.27492 -0.0434269 -0.13092 -0.0967948 0.0433342 0.0795091 -0.0489796 0.0826172 -0.0622131 0.0875237 -0.0114331 -0.00810339 0.0653088 0.0350843 -0.0160389 0.104228 -0.0559006 -0.0797626 0.148556 -0.12708 0.133051 -0.257828 -0.133385 -0.213436 0.242535 0.0378897 0.0755359 0.0740145 0.146605 0.0144395 0.238001 -0.00929147 0.0645987 -0.0160214 0.0133153 -0.465911 -0.186254 0.131294 -0.0162843 -0.195826 -0.0219326 -0.0165703 -0.100558 0.0283377 -0.215166 0.229678 -0.145645 -0.0412478 -0.113264 -0.0686764 0.108861 0.00843149 0.163339 0.274179 -0.021699 -0.270549 0.000831613 -0.226211 -0.108849 0.0537036 -0.028134 0.0439838 0.210951 -0.13942 -0.0871804 0.101227 -0.022472 -0.0587458 0.0328972 0.0309768 -0.112945 0.0288767 0.00933828 -0.250912 -0.0426841 -0.112165 -0.0449123 -0.0431735 -0.036052 0.13899 -0.0887046 0.0334863 0.0102096 0.17656 -0.0300534 0.00135119 0.130138 0.123281 -0.056163 -0.172926 0.0530091 -0.147302 -0.0651297 0.0958511 0.0917611 -0.154912 0.105033 -0.088725 -0.0419598 -0.0733834 -0.232843 -0.0809417 0.0965376 0.063796 0.0590739 0.119628 -0.222237 0.078696 0.259149 0.00850524 0.158791 -0.00401765 0.0779372 0.0950039 0.135439 0.125176 -0.236733 0.28275 0.213013 -0.099891 0.20756 -0.0612274 -0.0398806 0.036148 0.25281 -0.033708 0.0116544 -0.0100063 -0.0954058 -0.0173873 0.118162 0.0018391 -0.0136282 -0.198769 0.0149203 0.182205 -0.198404 -0.093231 0.12207 -0.146586 0.149535 -0.0523463 0.254264 -0.168728 -0.125389 0.0215364 -0.286206 0.0511842 -0.166778 0.246936 -0.07016 0.160563 -0.13584 -0.04273 -0.198287 0.0560892 -0.0844525 0.0401108 0.100008 -0.100051 -0.00997274 -0.0664695 0.0520054 0.124057 -0.00212418 0.071958 0.193027 0.17158 -0.208403 0.0281349 0.0438155 0.0713542 -0.170277 -0.0911579 -0.0562065 0.0774403 -0.0377857 -0.0227812 0.129311 -0.0501635 -0.0371692 -0.143911 -0.053827 -0.0730534 -0.0725362 -0.112434 0.12715 0.324045 0.132352 0.0212721 0.0152191 -0.0649732 0.0258897 -0.0952961 0.00490316 -0.0544846 0.183628 0.000290285 0.173803 0.0221888 -0.0419234 0.31574 0.0733257 0.0261852 -0.1569 -0.083229 -0.118735 -0.248662 0.0177953 -0.077809 0.119326 0.275315 -0.0398498 -0.152649 0.0045656 -0.00142258 -0.07365 0.0269383 -0.0070316 -0.138008 0.0880045 0.045907 -0.243253 0.0862131 0.0873118 0.0666421 -0.0885656 0.099552 -0.16385 0.164961 0.0696182 -0.015031 -0.265697 0.172726 0.0735096 0.221927 0.154749 -0.0044337 -0.0343538 -0.0297026 0.0656365 0.139325 0.00754315 0.206176 0.0718057 0.0348791 0.0389137 0.164243 -0.17729 0.00732992 0.359227 0.00975574 -0.00286408 -0.37766 0.103119 0.0198051 0.263688 0.244935 0.0401694 0.0870513 0.196741 -0.114939 -0.038302 0.242733 -0.0751889 -0.060765 -0.00283429 0.186735 -0.0410077 -0.254157 0.174825 0.122948 0.262874 0.165415 -0.164361 -0.492177 0.0393113 0.00184052 -0.00986495 -0.254184 0.0237334 -0.129765 0.248 -0.315086 0.0614174 -0.0848128 0.257048 -0.0212863 0.279302 -0.267952 0.0707481 0.0319044 -0.158098 0.135831 -0.197191 -0.0726567 0.0909801 -0.0818432 0.0255663 -0.070169 -0.243924 0.0566637 0.0694759 0.132422 -0.19808 0.120481 -0.210211 -0.149006 -0.178355 -0.101063 -0.242097 -0.184709 -0.0348375 -0.299432 0.0443403 0.0750339 0.0666444 -0.0950053 -0.119533 -0.00358033 -0.0343793 0.0978784 0.0900785 -0.0596365 -0.00616406 -0.0114894 -0.313826 0.126666 -0.101131 -0.0919351 0.151064 -0.0884451 -0.0679814 -0.149897 0.115367 0.121334 0.250212 -0.0675063 -0.275322 0.02044 0.201096 0.261426 -0.19984 0.103866 -0.00159467 -0.00605768 -0.0155624 -0.0609262 -0.11514 -0.0570045 -0.231008 -0.0715225 -0.0535433 -0.028402 -0.221137 -0.00569979 -0.0533032 -0.0716147 -0.065149 -0.131159 -0.233503 -0.0929544 0.241062 -0.151434 0.0715476 -0.187753 -0.0962558 -0.0153265 -0.0861309 -0.060149 -0.28741 -0.151123 0.214826 0.346527 -0.020978 0.0574092 0.0764134 -0.085738 0.141632 -0.0213752 -0.120537 0.140947 -0.161122 -0.0375087 0.187714 -0.155897 -0.116404 -0.152078 0.0814229 -0.170247 0.078896 -0.0665466 -0.0486926 -0.0314018 0.0454749 -0.177658 0.0026797 0.11307 0.0784747 0.11312 0.0358052 0.164392 0.112585 0.248066 -0.0657093 -0.0955845 0.00796392 -0.143571 0.0605683 -0.183927 0.0453407 0.0237471 0.0986537 -0.0680415 -0.139236 0.0738864 0.1346 -0.0340635 0.0299088 0.0617602 0.00857569 -0.0423726 -0.0781802 0.204879 -0.147437 -0.0505109 -0.117034 -0.00255914 0.075821 0.148016 0.0742992 -0.0333515 0.0683426 0.184445 0.0915749 0.0313474 -0.0829921 0.0787688 0.0831769 0.199843 -0.0296847 -0.0341316 -0.0625819 0.2892 0.0648039 0.0354346 -0.120318 -0.0189451 0.0508986 -0.102304 -0.235925 0.249955 0.151932 0.138373 0.033969 -0.00574092 -0.128286 0.0830796 0.278816 -0.0354464 -0.137541 0.229799 0.0306567 -0.213414 0.00341108 0.057656 -0.0897249 -0.010342 0.00532677 0.122815 0.111943 0.0534767 0.00445923 -0.153673 0.0313451 0.0639293 0.0530772 0.00590734 0.00403278 0.211555 -0.0780464 0.0773382 0.0534048 -0.206925 -0.0348795 0.0194075 -0.0440353 -0.0319772 0.348689 -0.0816267 0.177621 0.166219 -0.10914 -0.0247721 0.0322145 -0.177188 -0.0253011 0.153315 -0.16729 -0.11376 0.242599 -0.012461 -0.00459491 -0.101749 -0.175263 -0.0107954 0.100204 -0.0133276 0.0729598 0.0653079 0.047401 -0.20129 0.0737356 0.119227 0.225205 0.197985 0.0459619 0.180307 0.0411348 -0.075604 -0.129368 0.292468 -0.117014 -0.265718 0.179776 -0.0142608 0.147564 -0.0748797 -0.0307361 0.0828186 -0.221456 -0.148764 0.286064 0.29371 -0.167362 0.215345 0.0276366 -0.293489 -0.172821 -0.0856586 0.127093 0.0769013 0.0040082 0.0843991 -0.129446 0.0724591 -0.0346195 -0.0490463 -0.0761836 0.186853 0.175768 0.150515 -0.0566197 -0.0442235 -0.113747 -0.096452 -0.115443 -0.181977 0.0801266 -0.1026 0.0997374 0.172266 -0.0999033 -0.0835627 0.141299 0.187402 -0.0698754 0.137087 -0.0140032 0.15276 0.121501 -0.0988769 0.00359121 -0.168688 0.0536776 0.0889013 -0.0885704 -0.105416 0.252255 -0.0249295 0.0522096 -0.140548 -0.0270286 0.114337 0.174139 -0.0269246 -0.184776 -0.00514144 0.0624013 -0.0713906 -0.0257011 -0.148136 0.0198788 -0.212216 0.163622 -0.00591254 0.217637 0.230902 -0.104078 0.0964752 -0.260428 0.0682897 -0.231293 0.0180544 0.126073 -0.032414 -0.0141204 0.209503 0.0874669 -0.374683 -0.0201615 0.175434 -0.0697473 0.0359806 0.122933 0.166282 0.345808 -0.195589 0.0353372 -0.19058 -0.121485 -0.0223023 0.154713 -0.309986 -0.205459 0.0921587 -0.121796 -0.00423087 0.108207 -0.0469883 0.126543 -0.105734 0.00678339 0.0903986 0.23745 0.0193763 0.0572239 -0.0373588 0.19638 -0.00169159 -0.199522 -0.01826 0.319303 0.0567128 -0.0904156 0.152025 -0.164431 -0.0517458 0.244214 -0.0832238 0.160724 0.121121 -0.0709684 0.158013 -0.101086 0.0216073 0.155502 -0.124865 0.148687 0.0859285 -0.00291183 -0.0921928 -0.031172 -0.0799337 -0.0891609 0.16812 0.0714677 0.122782 -0.150475 0.141437 0.107847 0.0779495 -0.00492869 -0.0625242 -0.234935 0.169971 0.109825 0.0307253 0.152203 0.0674964 0.144873 0.258905 -0.231769 -0.0396735 0.0701075 -0.14399 -0.0268892 -0.256454 -0.0638565 0.162768 -0.1718 -0.00607943 -0.214552 -0.152542 -0.160648 -0.183278 -0.350398 -0.0185782 -0.178827 -0.0267596 0.0504301 -0.168119 -0.110565 -0.036755 -0.20092 0.0459042 0.137679 0.0614297 0.0344852 -0.0400985 0.0500935 0.0196316 -0.0479641 0.0703633 -0.171414 -0.131563 -0.0985549 -0.0496079 -0.0233533 0.0638971 -0.227688 -0.0934787 0.168285 0.0496004 0.017279 0.194582 0.309465 0.0427555 0.033526 -0.0363281 -0.208572 -0.0474998 -0.102506 0.325454 -0.0262419 -0.0340876 -0.0887321 -0.302382 0.137341 0.0339898 -0.0930149 -0.0647183 -0.0184019 -0.00126515 0.120958 -0.204306 0.116709 -0.0843371 0.152621 0.134248 -0.267202 -0.0358142 0.0217586 -0.162434 0.0226072 0.0474596 -0.0891609 -0.00180411 -0.201296 0.0716237 -0.00719093 0.00113986 -0.0716757 -0.310673 -0.256575 -0.0627105 -0.180501 0.246031 0.0493687 0.0890309 0.0949637 0.0352379 -0.0256453 0.206052 -0.128305 -0.000760697 -0.0272059 0.0264637 0.15756 0.216128 0.0578707 -0.145245 0.123388 -0.138654 0.109435 -0.0548676 -0.262068 0.0228379 0.088342 0.0144405 0.0499242 -0.188016 -0.0233447 -0.210323 0.0995572 0.098277 -0.0699567 -0.0272305 0.0267019 -0.0235201 0.0242392 -0.0466701 0.115589 -0.161527 -0.0058473 0.296726 0.290223 0.000943189 -0.090218 -0.139987 0.122666 -0.0464711 0.142628 -0.246569 -0.00318651 -0.201154 -0.0690745 -0.199585 -0.0625927 -0.105589 0.0539613 -0.171834 0.145536 -0.178282 -0.219114 0.0591226 0.0426595 0.106573 -0.16786 -0.0752943 -0.0061877 -0.141272 -0.061581 -0.00236908 0.14348 0.124166 -0.132675 -0.0729215 -0.0540454 0.0999591 -0.00834876 0.0360828 -0.406514 -0.189213 0.0686684 -0.0647713 0.257405 0.0143634 -0.0686911 -0.133777 0.0423707 -0.129853 -0.204192 0.149588 -0.114495 -0.201215 -0.1297 -0.18957 0.00263053 -0.0167561 -0.0628031 -0.0531098 -0.0109088 0.0360497 0.218191 -0.178189 -0.110558 -0.19091 0.166214 -0.207101 0.080832 -0.192378 -0.129553 0.031224 -0.0721972 -0.133983 0.227682 -0.0314916 0.040255 0.0411835 -0.0546945 -0.125689 0.0305087 -0.194707 -0.128549 -0.148255 -0.13342 -0.254406 0.092267 -0.0563776 -0.0984401 0.0972576 -0.0595136 0.171715 0.208708 -0.0601348 -0.061364 -0.265761 -0.182458 -0.0507336 -0.0772124 0.17282 -0.0926878 0.192337 0.130156 -0.00627941 0.196036 -0.0194458 -0.140808 0.0715982 0.109486 -0.132972 -0.0334291 -0.29157 0.265809 0.033716 0.121511 0.00360256 0.0907749 0.356568 -0.134107 0.196156 -0.126765 0.185181 0.0200103 0.0789475 0.0265587 -0.0956776 0.0129068 0.0135668 -0.311635 -0.0841315 0.113523 0.112491 -0.16851 0.0895547 -0.0368383 -0.0980434 0.0255904 0.0953122 0.0152702 0.0668274 -0.131291 0.183937 0.0702319 0.053019 0.064967 0.0616609 -0.0512551 0.0662407 0.0598218 0.113179 0.278474 -0.240725 0.106369 -0.184171 -0.0841362 -0.198342 -0.0572532 -0.210088 0.0831684 -0.339548 0.0701808 0.0540137 -0.0752622 0.0578962 0.0810334 0.190834 0.251594 0.0121461 -0.412746 -0.197502 0.124493 -0.101241 0.0194448 0.052872 0.0276811 0.059253 -0.185553 0.20985 0.0696168 0.108424 -0.0730208 -0.33904 -0.178747 -0.280627 0.162745 -0.0866665 0.168761 0.18536 -0.0179868 0.00388528 -0.218 -0.11267 -0.0670458 -0.321915 -0.12815 -0.0207535 -0.14292 -0.411681 -0.0621531 -0.189324 -0.0222385 -0.0557536 0.0932584 -0.207522 0.109215 -0.00741502 0.00647042 -0.0383875 -0.0289174 -0.00956663 0.0276863 0.000116776 0.287382 -0.122057 -0.0373512 -0.0684646 0.0167065 0.0692504 0.166197 0.133651 -0.228546 -0.161861 0.173197 -0.0249678 0.0647878 0.136611 -0.0211345 0.140077 0.082967 0.142025 -0.0013668 -0.220478 0.13229 -0.176712 0.01292 0.0171892 -0.0599244 -0.0953141 -0.230117 0.325879 -0.0831514 0.0200571 0.139281 0.270947 0.211418 -0.157389 0.214433 0.318754 0.00599197 0.13911 0.0320476 -0.117585 -0.0663929 -0.0805753 0.309562 0.35061 0.160577 -0.151015 0.247181 -0.0593112 -0.131878 -0.1572 0.0406734 0.139451 0.217023 -0.0569454 0.0118473 0.178618 -0.090374 -0.0915229 -0.240933 0.137296 0.080501 -0.16867 0.136988 0.139578 -0.0630225 0.153177 -0.175189 0.154669 -0.021968 0.195006 0.135306 0.11975 0.0363948 -0.0123882 -0.0903475 -0.167717 0.00740651 -0.10735 0.0396111 -0.0666785 -0.366157 -0.0458654 -0.0688131 -0.0062553 0.0236506 0.175073 -0.022698 -0.104621 0.132019 -0.129853 -0.193234 0.0431196 -0.103364 0.0446514 -0.000541802 0.194449 -0.320678 -0.218919 -0.0669593 -0.14327 0.0753969 -0.0431848 0.137372 -0.0555867 0.0363924 0.136711 -0.0389667 -0.193804 0.0175443 -0.0293674 0.000926169 -0.0119953 -0.0516688 0.447538 0.209083 -0.148171 -0.177186 0.295694 -0.0150806 -0.136328 -0.0426586 0.0855422 0.0709146 0.074284 -0.0674519 0.168108 0.0920136 0.0648068 0.060027 0.204326 0.0287637 -0.00652904 -0.173137 -0.13264 -0.154852 -0.201158 -0.0706115 0.0249635 -0.109584 -0.154806 0.193714 0.0814891 0.0603948 0.10405 -0.0964743 -0.257776 -0.0330409 -0.0696016 0.0693463 -0.0477495 -0.17063 0.14087 0.151505 -0.0870064 -0.039691 0.0847688 -0.164271 -0.0106554 -0.141166 0.186613 0.166183 -0.23447 -0.162058 -0.223769 -0.0125886 0.0484123 0.0194633 0.332953 -0.060556 -0.330279 0.28738 -0.261236 -0.192196 -0.0775103 -0.125938 0.0336593 0.203981 0.0606846 0.0703926 -0.00650871 0.0963707 -0.0483986 0.0695265 -0.00787362 0.175038 0.147852 -0.079555 -0.14275 0.111724 -0.0646432 0.00505161 -0.0469074 -0.160598 0.11303 -0.0426302 -0.100228 0.24228 -0.0431957 -0.0971272 -0.0255351 0.128355 -0.0443223 0.0389667 -0.14269 -0.2715 -0.0587075 -0.101908 0.00934962 -0.0126879 0.103201 0.0732538 -0.0258211 -0.218486 -0.245936 -0.113953 -0.12464 -0.0158489 -0.0276413 -0.0665702 -0.127129 -0.111964 -0.3039 -0.0345391 0.108399 0.318513 -0.166395 -0.161053 0.248463 -0.0496945 -0.0132221 0.280295 -0.0035028 -0.0864854 0.110713 0.120149 -0.00296289 0.0244496 -0.0773675 -0.0903929 0.0948115 -0.160785 0.0410271 0.0487603 0.279259 -0.106522 0.150778 -0.128391 0.154552 -0.0364818 0.210769 0.221259 0.0357116 0.18855 0.142644 0.0883808 -0.116234 -0.0396749 -0.364224 0.0671806 -0.0944872 -0.181941 -0.0855006 0.0392749 0.0495739 -0.0932561 -0.118821 -0.343448 -0.00184666 0.067476 0.0204958 -0.130202 0.0312411 0.133121 -0.246044 -0.252024 0.117419 -0.201901 0.140986 -0.0949514 0.0252987 -0.080901 0.232457 0.0159397 -0.133881 0.149293 -0.0824919 0.0883401 0.066122 -0.0398792 0.107018 -0.270086 -0.107722 -0.11111 -0.226726 0.214152 -0.0211553 -0.238006 -0.0299215 0.0757756 0.318622 -0.0785125 0.250216 0.0917611 -0.069179 0.441085 0.105595 0.230959 0.0864902 0.167654 -0.260016 -0.199222 0.0478421 0.466763 -0.0899783 -0.0180147 -0.0850595 -0.401908 -0.09614 0.22103 -0.0326443 0.132059 -0.0641855 -0.0521945 -0.0663641 0.085929 -0.147966 0.114282 -0.0254883 0.106867 0.131069 -0.230147 -0.0166228 -0.151521 0.199383 0.0965163 -0.0616756 0.0719414 0.0977919 -0.113159 -0.178349 0.0443743 -0.0885491 0.102855 -0.0798321 0.239919 -0.153189 -0.186106 0.0439819 0.121438 0.152349 0.230174 -0.0513019 -0.0441148 0.198822 0.0585566 0.190021 -0.151324 -0.0833552 0.0737238 0.00570546 -0.154513 0.0472228 0.114689 0.0615432 -0.086736 -0.159751 0.223047 0.267012 -0.164967 -0.105932 -0.0901409 -0.121104 0.267589 -0.193149 -0.108618 0.139059 -0.0239159 0.0580314 0.0584484 0.0336721 -0.135977 -0.031971 -0.200157 -0.361556 0.212974 0.130195 -0.0211752 -0.116612 -0.0331596 0.0319403 -0.0886838 -0.200328 0.290971 -0.00047845 -0.0944749 -0.0214763 0.0352927 -0.0245669 -0.201189 -0.0558784 -0.0270135 0.00303901 0.167994 0.157294 -0.171318 0.0776965 0.1921 -0.0196911 -0.145319 0.0976822 0.0133578 0.0329856 0.121047 -0.0504055 -0.0706455 0.141817 0.226549 0.0281056 -0.0812329 -0.0598435 -0.244538 0.22979 0.0328546 -0.235395 0.054314 0.146155 -0.0934026 0.254972 -0.0562604 -0.189432 -0.0153109 -0.0711982 -0.104004 0.0997392 0.0153132 -0.130193 0.0375455 -0.0137129 0.0388688 0.016464 0.0413476 0.111133 0.031936 0.0424969 0.181234 0.121391 0.0604166 0.226284 -0.259862 0.138563 0.0705089 0.116941 -0.121822 -0.225367 0.217194 0.0497025 -0.0424912 0.184593 -0.0614737 -0.0157784 0.108957 0.0916841 0.345321 -0.0528942 0.00279174 0.27799 0.0230351 0.266771 0.118384 -0.132061 -0.12278 0.0385814 -0.18596 -0.148881 -0.157945 0.280413 -0.293261 0.0703406 0.0803266 0.0219765 0.159801 -0.288479 -0.175322 0.104686 0.232765 -0.00833599 0.00717863 -0.0781948 0.22686 -0.00736538 -0.00576456 0.114089 -0.0354677 -0.0435507 -0.332383 -0.293696 -0.109833 0.00664676 0.0702139 -0.0208154 0.0992301 0.0696324 -0.233048 0.179773 -0.00191096 -0.263048 0.0950961 0.193558 -0.100421 0.202661 -0.105943 -0.0843934 -0.201753 0.0103784 0.0962681 -0.0434127 0.302095 -0.0595812 -0.183178 -0.15347 -0.0770928 0.000287921 -0.0217888 -0.263765 -0.3062 -0.150077 -0.150425 0.153923 0.151064 -0.113728 0.228472 0.246137 -0.133646 0.125009 -0.106369 0.136876 -0.0588304 -0.179268 0.125331 0.0598837 0.154727 0.189348 0.0257422 0.18948 -0.0497616 0.101075 -0.0729101 0.0658894 0.0653542 0.1216 0.00970704 0.118623 -0.00879931 0.0211974 0.0788591 -0.00680325 -0.141752 0.0769008 0.212416 -0.13485 0.162525 -0.0333203 0.115879 -0.0838152 -0.190538 -0.144487 -0.132918 -0.101666 -0.0616297 0.124981 0.397308 -0.0914931 0.1097 -0.115392 0.0692163 0.319066 0.0689459 -0.150176 -0.200789 -0.120896 -0.250271 -0.133596 0.0846426 -0.0767401 0.297095 -0.143118 -0.0169207 -0.137883 0.162717 0.218546 -0.187387 0.0539778 0.0790416 0.096817 -0.189269 0.125107 0.0920812 -0.0681412 0.159162 0.0961187 -0.0445804 0.18163 0.195816 -0.0723603 0.0656795 0.117435 -0.0233665 -0.239711 0.144006 -0.13558 -0.0756021 -0.0669328 -0.0149487 -0.0152083 0.181718 0.213756 0.0908269 -0.113967 0.338056 -0.151154 0.185326 -0.142219 -0.33578 -0.240313 0.125249 0.129722 0.197071 0.160476 0.153527 0.10223 -0.0690584 0.0896483 -0.193796 0.232881 -0.0888451 0.0349505 -0.0404715 0.0844487 0.0436155 0.147519 0.202384 -0.0246936 0.127132 -0.0668066 -0.118207 0.163584 -0.0390683 0.0822858 -0.090921 0.0390778 0.170946 -0.0721684 0.1321 -0.198409 0.152617 -0.0771368 -0.0972108 0.16004 -0.0614146 -0.102164 0.0819364 0.113489 0.250893 0.0701033 0.181686 -0.228246 0.0863001 -0.0143001 0.112155 -0.0913574 0.138572 -0.0507005 0.0271856 0.200939 -0.0129914 -0.120994 -0.275048 -0.129619 0.0558746 0.0777934 -0.0306246 -0.0272953 -0.143558 -0.00767647 -0.13005 -0.070681 -0.158172 0.0620996 0.0141105 0.00341392 -0.132999 -0.0346153 0.16312 0.132421 -0.179129 -0.277843 -0.0890658 -0.123857 0.0550132 -0.0344815 0.123837 0.0591065 -0.0501715 0.128544 -0.0278787 0.223321 -0.175402 0.0254789 -0.149655 -0.109376 0.0883118 -0.0450523 0.0785683 -0.139862 -0.0916326 0.212336 0.00175825 0.266259 -0.0618907 0.122602 -0.179631 0.0396281 -0.00650824 0.141124 0.0502107 -0.187657 -0.0127437 0.107271 0.0559006 0.229817 -0.249324 -0.183604 0.269217 0.247207 -0.145521 0.129045 0.306987 -0.0384046 0.182595 0.0330267 -0.170034 0.218876 0.0699728 0.0380448 0.0950148 -0.0597863 0.228553 0.229065 0.0738391 -0.0444939 -0.236367 -0.172331 0.054469 0.0416658 0.218859 0.0406498 -0.0724166 -0.0524763 -0.111695 0.0801691 -0.135785 0.217734 0.0569828 0.0272248 -0.174407 0.01945 0.0810589 -0.137695 0.193483 -0.10206 0.198105 -0.0452759 0.116757 0.259047 0.0340706 0.153986 0.413531 0.16906 0.0273766 -0.241177 -0.146528 0.0232738 0.0679436 -0.277898 -0.058003 0.208301 -0.135639 -0.259945 0.0900743 0.0790827 -0.170703 0.202992 0.044475 0.0447294 -0.0578059 -0.0334508 -0.094064 -0.143147 -0.183584 0.0922004 -0.0676382 -0.0398125 -0.0144287 0.135096 -0.270589 -0.0586465 -0.167311 0.0612718 -0.124781 0.177988 -0.037355 -0.116039 0.198947 0.216258 -0.00278702 -0.176197 -0.0326452 0.210286 0.0356029 -0.0526072 -0.0970364 -0.0431555 -0.0154574 0.192726 -0.0952734 0.289035 0.0061825 0.154274 0.00610212 0.185935 -0.0958124 -0.105556 0.0152172 0.0829335 0.0485328 -0.0162905 -0.0845853 -0.201696 -0.14662 -0.10088 -0.0979115 -0.148534 0.204283 0.0962771 -0.0230857 0.232307 0.171785 -0.00503412 0.059479 -0.0847026 -0.083792 -0.355515 -0.0601324 -0.330005 -0.138216 -0.218884 0.161233 -0.133047 -0.111378 0.209317 -0.131079 -0.149448 -0.0703136 0.095038 0.0157638 -0.140424 -0.143219 0.177376 -0.204654 0.136165 -0.124767 -0.119532 0.074458 0.155029 0.126367 -0.278217 0.205937 -0.0681597 -0.203311 0.197871 -0.0737001 0.0646408 0.0327568 -0.00712663 0.0696589 -0.0274432 0.125595 0.0877558 0.124305 -0.108938 -0.177899 0.116358 -0.213151 -0.0274404 0.0191947 0.1727 0.026024 -0.0600483 -0.139234 0.0249754 0.0969735 -0.0114894 0.0553909 -0.129075 -0.139702 -0.00261162 0.0646261 0.0719622 -0.00553479 0.133425 0.00811662 -0.273316 -0.0467056 -0.0745318 0.117667 0.165167 0.0642328 0.0324173 -0.124169 -0.18239 -0.11877 0.109718 0.225944 0.352811 0.212733 0.238595 0.0421551 0.372361 0.0869369 -0.0627667 -0.103768 0.190189 -0.0477542 -0.0353764 0.14352 -0.190588 -0.000810811 0.0906184 -0.187349 0.171475 -0.135403 -0.256012 -0.0517246 -0.0422615 0.0622226 0.00817099 0.000136632 -0.100457 -0.00159846 -0.00594185 -0.207693 -0.175148 0.0999425 0.0510527 0.0238842 0.111792 0.188211 0.117125 -0.137767 0.0730666 0.0333378 -0.157519 -0.0407547 -0.0509426 -0.0870901 0.0884111 -0.0691984 0.294585 -0.155014 0.265053 -0.13222 -0.105589 0.0314202 -0.204843 0.0456744 -0.0850326 -0.266567 -0.0751681 -0.0481267 -0.109635 0.198431 0.0329379 0.00774691 0.0543324 -0.0167509 0.122718 0.157822 -0.324954 -0.017166 -0.146164 0.125728 -0.148667 0.100973 0.076377 0.0749644 -0.0349954 -0.173865 -0.130834 -0.187808 -0.270342 0.0244373 0.0887004 -0.0124827 0.0599915 -0.155267 -0.144845 0.179911 0.100932 -0.113764 -0.0984571 -0.14837 -0.0715391 -0.213734 0.155775 -0.172922 -0.0914529 0.0371687 0.210228 -0.0891798 -0.166658 -0.0556808 0.278791 -0.0898927 -0.0092806 0.213232 -0.305087 0.284705 -0.159913 -0.25149 -0.109203 0.00338319 -0.0567889 -0.227823 -0.0822484 -0.147479 0.188991 -0.237352 0.264125 -0.0571813 -0.0168847 0.0380835 0.0972416 0.226554 0.127907 -0.020614 0.0597906 -0.0123744 -0.0564131 -0.036348 0.0802259 -0.150849 -0.0526696 -0.185475 0.105045 0.0102517 0.0930826 0.185308 -0.181502 0.238381 -0.0938749 -0.0432945 0.19765 0.0288195 -0.104245 0.139089 0.228133 0.0208745 0.00403467 0.138448 -0.279225 0.324791 0.0526592 -0.176771 0.0558623 0.227185 0.0179943 0.125641 0.060669 0.159934 -0.306791 0.125035 0.313546 0.46049 -0.0464578 0.0695269 0.0908534 0.235477 0.139276 0.00252888 -0.221124 0.0448863 -0.0286266 -0.0767949 -0.00636546 -0.192637 -0.4527 -0.115861 -0.239126 -0.126759 0.143503 -0.150044 0.0375578 0.0774734 0.0587434 0.0773845 0.0267468 0.103322 -0.140864 0.00379214 -0.00114412 0.159785 -0.158085 0.00618297 0.0800703 0.0122671 -0.155706 0.118825 0.0387941 0.0978363 -0.0775296 0.0256793 0.071592 0.148335 -0.0410786 0.0767136 0.1872 0.0246865 -0.0379275 0.0342654 -0.209135 -0.00580664 -0.0575629 -0.166498 0.140229 -0.116228 -0.0535864 0.164694 -0.0281652 -0.0927975 0.00203814 0.102611 0.260197 0.0573062 -0.0361395 -0.0871615 -0.286901 -0.0711221 0.00322339 0.222125 -0.120468 -0.16795 0.246562 0.11856 0.116148 -0.0949004 0.00850335 0.152444 -0.110947 0.0839282 -0.135692 -0.0899334 0.0918325 0.0395988 0.0345978 0.0883288 0.0533173 -0.110374 -0.243684 0.180935 -0.0187758 0.165043 -0.117588 0.0737715 0.0719679 0.0251597 0.115718 -0.142132 0.106284 0.0638116 0.0353197 -0.0161368 0.433578 0.000114885 -0.0273534 0.141726 0.121588 -0.280648 0.0904534 0.0891614 -0.191079 -0.096496 0.217689 -0.149998 -0.046742 -0.154635 0.187826 0.296657 0.128889 0.0579662 -0.0728085 0.00460011 0.0762342 -0.0365168 0.14413 -0.200574 0.0936825 -0.14832 -0.100282 -0.0505095 -0.0161841 0.0504027 0.12599 -0.258804 0.0226606 -0.2191 -0.0450267 -0.0593906 -0.251929 0.0854841 -0.127836 0.145469 -0.0790941 0.114481 -0.0568064 -0.0961608 -0.162662 -0.159944 0.0578825 0.107717 0.156376 -0.024998 -0.01503 -0.229446 0.0495105 0.177603 -0.197088 -0.27538 -0.0820465 0.0552883 0.0442003 0.153306 0.0334224 0.0516551 -0.278912 -0.165926 0.316683 0.0151525 -0.0225056 -0.177056 0.155577 -0.195189 -0.266759 -0.102551 -0.116861 -0.0413013 -0.0868372 0.00240927 0.0795919 -0.0242596 0.0558018 -0.197461 -0.00510267 -0.114811 0.175937 -0.147319 -0.146346 -0.327525 0.0422539 0.17694 0.214674 0.0375602 0.149711 -0.0440268 0.202279 -0.123011 0.116569 -0.0397321 0.150908 0.0379029 0.257258 0.0158754 0.182644 -0.0448702 -0.181034 0.0369527 -0.181726 -0.00747837 0.00845229 -0.0155411 -0.191064 0.0364492 -0.0839424 -0.206118 0.254338 0.128525 -0.112025 0.196873 -0.111691 0.160892 -0.238291 0.00734505 -0.0527065 0.118949 0.112884 -0.0908633 0.204952 -0.141242 0.178571 -0.145494 -0.184515 -0.0316926 0.0453837 -0.0707302 -0.261426 0.00821638 0.0957462 0.0571601 -0.157406 -0.0124959 0.0204466 -0.0650644 0.0339359 -0.0439412 0.0542189 -0.102227 -0.33762 0.0228824 -0.0201176 -0.051578 -0.232378 -0.192135 0.114425 0.0255819 0.160166 0.0846998 0.00360256 0.136412 0.0203431 0.0524177 0.103664 0.150195 0.239301 -0.0839258 0.155279 0.0685719 -0.240481 0.0189886 -0.252536 -0.166033 0.0240714 0.0228625 0.372105 -0.211151 0.116344 -0.0501129 -0.0811128 -0.14059 -0.0462834 -0.126264 -0.13271 0.00449752 -0.0597911 -0.229159 0.155356 -0.125119 -0.121827 0.163477 -0.0108559 -0.15721 0.129099 -0.0043382 0.106675 0.0403945 0.0243399 -0.0719599 -0.17062 0.0805625 -0.124174 0.00190623 0.0406039 0.0169651 0.181065 -0.0265024 0.0551059 -0.00387771 -0.314869 0.13475 0.0229817 -0.29462 -0.0751199 -0.207161 0.113786 0.295955 -0.0874787 0.0864226 -0.0675867 0.0728827 0.0556803 0.0380419 0.0903248 -0.0489309 -0.0773618 0.0237367 -0.0359291 0.048843 0.18684 -0.139952 0.0729186 0.17909 -0.0597844 0.0814489 -0.215007 0.258818 -0.0883907 -0.12728 0.178345 -0.0116464 0.195035 0.0431933 0.0931729 0.0837088 -0.106227 0.144567 -0.000588606 0.0320675 0.112868 0.0336985 -0.189413 -0.15956 -0.0858675 -0.00836956 0.179113 0.0629681 0.342281 0.17106 -0.101136 -0.185549 0.101441 -0.018651 -0.0500221 0.00352313 -0.0990566 0.00953542 0.139623 -0.0605466 0.0642711 0.0421934 0.0530441 -0.177133 0.00201166 -0.00634229 0.147756 -0.192125 -0.132835 0.175239 0.0507875 -0.121431 0.270385 0.206998 -0.118647 0.27042 -0.0941643 -0.115177 0.0724903 0.240504 0.0653845 -0.181355 -0.0696773 -0.0646129 -0.160013 0.0649533 0.117705 0.0329908 0.055772 -0.0777202 -0.0866949 -0.0710181 -0.0726317 0.0168219 0.0262367 -0.00802349 -0.0449558 0.339196 0.0471679 -0.0867497 0.0251342 -0.262345 0.21966 -0.0820404 -0.0946479 0.164728 -0.240477 -0.0996012 -0.128975 -0.0758073 0.2084 0.00634749 -0.137938 -0.120015 0.0205431 0.265032 -0.0612326 -0.172982 0.0927294 0.0517789 -0.230472 -0.0892914 -0.0159519 0.155524 -0.0430633 -0.00106422 -0.014127 0.044727 0.14144 0.295417 0.0837802 0.127567 0.0323374 -0.0586285 -0.12307 -0.243937 -0.0462196 0.05005 -0.0318003 0.0164096 -0.229681 -0.0559327 -0.153211 -0.101905 0.0233807 -0.158271 -0.0419858 0.0928173 0.0600733 0.0688679 0.0889391 0.00779655 -0.0404318 -0.0587174 0.173852 -0.0358762 0.250723 -0.256632 0.0351807 -0.0487787 -0.0963078 -0.014736 0.215166 -0.278957 0.190078 0.0381753 -0.0955197 0.0920788 -0.0972302 0.0381356 -0.148468 0.231986 0.0615616 -0.0300776 0.12382 -0.18764 -0.034124 -0.185754 -0.0672217 0.0207634 -0.128172 -0.0527193 0.0891056 -0.0402834 0.231909 -0.335063 0.0112719 0.21276 0.136918 0.0106535 -0.0382547 0.0443582 -0.134395 -0.163743 0.11204 0.0514017 0.00928627 0.120324 -0.214944 0.0139994 -0.10001 -0.0614065 -0.0361419 -0.0195729 0.125586 -0.145679 0.0973669 0.0827652 0.327845 0.0345666 -0.0971243 0.0608808 -0.0404068 0.23916 0.0980207 -0.14271 0.0912364 -0.157669 -0.101152 -0.0928764 0.211906 0.0042096 -0.103039 0.0305763 -0.0331279 -0.119332 0.184067 0.0833107 0.176522 -0.210199 0.103833 -0.0867804 0.0899518 -0.106604 0.300299 -0.074796 -0.0752386 -0.0741412 0.0737663 0.0710398 -0.0355348 0.204674 0.00372737 -0.0317966 -0.295544 -0.0525132 -0.0424492 0.0799394 0.0388367 -0.188091 -0.140044 -0.0917247 0.123259 0.142153 0.0189233 -0.0418714 0.152845 0.236694 0.0160054 0.10926 -0.195461 -0.269967 0.0632873 0.00267686 0.1589 -0.0625866 0.0656871 -0.00344323 0.0819217 0.345732 -0.0619535 0.147327 0.0366577 -0.0871 -0.0614028 0.0851569 0.184374 0.0099822 -0.105556 0.128393 0.225951 0.00571587 -0.0320982 0.0153747 -0.0912869 -0.146486 -0.13513 0.189381 -0.0924013 -0.0354681 -0.127117 -0.166661 -0.0426454 0.0315956 -0.190422 0.156589 0.0681531 -0.158023 0.0724359 0.176644 -0.0967901 0.168943 -0.0696915 0.234164 0.0895939 0.114233 -0.187982 0.0350899 0.0535438 0.0350266 0.0471973 0.0590115 0.096305 0.0973049 0.0976349 0.119446 0.00934064 0.0615299 0.135817 0.139294 -0.251857 0.116468 -0.123096 0.038692 0.274261 0.0420657 -0.346479 -0.24895 -0.328383 0.0809818 0.00538256 0.078158 0.0809596 0.0120719 -0.0177929 0.105642 -0.011453 0.380012 -0.0412663 0.0342938 -0.0059584 -0.208946 0.037625 0.163375 0.113342 0.0245995 -0.0541234 0.0770077 0.10238 0.0680524 -0.179212 0.0435243 -0.080528 0.0602558 0.274518 -0.181403 0.107424 -0.0651046 0.0701297 -0.0449355 0.0919413 0.146202 0.0178482 -0.0943624 -0.296201 -0.150251 0.229869 0.0024764 0.0872887 0.110779 -0.140685 0.0759936 0.190891 0.10941 0.136068 -0.0143024 0.149845 0.00396848 -0.164904 -0.159936 0.0942517 0.120167 -0.292024 0.0296998 0.054235 0.164476 0.0191791 0.185212 0.0919049 0.0488071 0.0486203 -0.0977333 0.24312 0.116557 -0.0535079 -0.258242 0.0207766 -0.235195 0.39963 -0.094273 -0.177831 0.0754154 -0.109042 0.151529 -0.274961 0.116933 -0.00516886 -0.0777135 -0.138264 -0.171849 0.121136 0.263647 -0.104204 0.0504745 0.265671 -0.146028 -0.262522 0.207145 -0.120337 -0.115883 0.125359 -0.199935 -0.148591 -0.0170289 -0.00562084 0.0714095 -0.268771 -0.071479 0.0315001 0.236312 -0.158958 0.0624032 -0.141768 -0.0816437 0.109645 0.0371205 0.0341846 -0.0191408 0.12381 0.0908771 0.250409 -0.0961712 0.0300355 -0.0620169 0.0203308 0.0775954 0.159492 -0.00845088 0.0396735 0.0373574 0.0751577 0.0748551 0.213458 -0.139793 0.0652606 0.0058837 0.298468 -0.0159496 0.215542 -0.00893642 0.0319739 -0.183658 0.140412 -0.03798 -0.140717 -0.0877113 -0.140067 -0.0937567 0.0356355 -0.103748 -0.308297 -0.096166 -0.0112625 0.0534185 -0.224651 0.00288299 -0.0368425 -0.217713 -0.0513227 0.0949812 -0.0620103 0.0254566 0.372113 -0.155628 0.0744651 0.130393 0.150387 -0.0829179 -0.00677347 0.0985762 -0.0528947 -0.0693563 0.00589741 -0.00421527 0.211581 0.166461 -0.136071 -0.0238279 0.038188 -0.0500769 -0.037468 0.0882139 -0.166367 -0.0151137 0.192701 0.0863573 0.0618765 -0.120073 -0.0151884 0.0972737 0.236252 -0.0752882 -0.149692 0.10781 0.1855 -0.0173381 0.158031 -0.114649 0.0992438 0.203964 0.059124 0.123331 0.240034 -0.246193 -0.109125 -0.0265889 0.0922457 -0.135359 -0.0844449 0.0735408 -0.340621 0.0515321 0.132467 0.27496 0.00399212 -0.13386 -0.221884 0.0651542 0.0387927 0.0846884 -0.293413 -0.0239872 -0.110255 0.078618 0.229916 -0.167601 -0.201195 -0.0769387 0.0300393 -0.0419944 0.243741 -0.0060227 0.0964501 -0.0264542 0.213397 -0.0199597 -0.0925455 0.395104 0.0738481 -0.180217 0.144618 -0.0261639 0.0333662 -0.208368 -0.0982623 -0.0801266 -0.0962398 -0.162731 -0.07102 -0.0595079 -0.246005 -0.0886337 0.055651 -0.132003 -0.158129 -0.116047 -0.256241 -0.0276792 0.136138 -0.0314529 -0.256067 0.0113495 -0.0324098 -0.08974 -0.0680013 0.0585987 -0.16592 0.032041 -0.13107 0.00139327 -0.081475 -0.0393756 0.023192 -0.0396976 -0.0802334 -0.0305744 -0.0926249 -0.107913 0.0596941 -0.121047 -0.0877728 0.153028 0.024278 -0.19266 0.0233107 -0.0656388 0.00192893 0.0276399 0.182561 -0.147567 -0.0929752 -0.0500334 -0.094255 -0.154604 -0.0714772 0.028941 0.068197 0.239919 -0.0513771 0.0233036 -0.0218512 0.0640711 0.219549 -0.0797408 -0.0655433 -0.049676 -0.0648824 -0.102723 0.0737408 0.223117 0.0364194 0.243016 -0.166143 -0.235963 -0.038389 -0.180171 -0.0419182 0.049754 0.0386121 0.0388197 0.145225 -0.00817477 -0.303051 -0.00373777 0.0130444 -0.133332 -0.056979 0.0774393 -0.0553262 0.0752655 -0.066713 0.0978879 0.00811662 0.181434 -0.00266504 0.068232 -0.00877662 0.0629171 -0.174429 0.396311 -0.0776942 0.0111906 0.0957415 -0.105833 0.175118 0.0490193 -0.190546 0.290314 0.278612 0.0121901 0.037684 -0.211854 -0.0965849 -0.145492 0.0641557 -0.0748485 -0.185924 -0.0766569 -0.268022 0.225848 -0.0480208 0.0650554 0.102027 -0.113462 -0.0874003 0.176492 -0.085954 -0.0986727 -0.0397302 0.17699 0.0323743 0.0367257 -0.0824508 -0.123739 0.0390428 -0.0251143 0.0101184 -0.213661 0.0306458 -0.0617753 -0.100401 0.0306799 -0.0177395 0.0783466 0.106759 -0.0785697 -0.0347684 -0.174883 0.199937 -0.105531 -0.0649552 -0.411497 0.160462 -0.233092 0.140924 0.0857115 -0.0665348 -0.0566736 -0.0187385 -0.0401491 0.000676543 -0.103327 -0.102106 -0.052402 0.30893 -0.12348 -0.0792047 -0.0223628 -0.285308 0.0101236 -0.00410228 0.0730491 -0.109035 0.0783121 -0.0693062 -0.0821784 -0.00436562 -0.0431101 0.140946 -0.0730028 0.190152 -0.226162 -0.097625 0.230318 0.129544 0.119232 0.00140982 0.106448 0.0908596 0.00058246 -0.0305962 0.137289 0.13655 -0.0637227 -0.164727 -0.0172573 -0.110841 0.125799 0.106352 -0.0505923 0.105451 0.120085 -0.052238 -0.0962587 0.125576 -0.045057 0.225279 0.089541 0.010915 -0.174243 0.0901471 0.115847 0.148193 -0.15306 0.133032 -0.0464101 -0.0885765 0.0333591 -0.102375 0.176169 -0.00984982 -0.0217869 0.0319256 0.0300473 0.246537 -0.0631019 0.121865 -0.26593 -0.0902903 -0.0466488 0.0958904 0.0194302 0.154395 0.180963 -0.223922 0.0208196 -0.0698503 -0.211327 0.194131 -0.174772 0.0442367 0.279654 0.0627005 0.428179 0.134077 0.152446 -0.0166909 -0.160488 -0.167439 0.213689 -0.0827878 0.00429706 0.0771717 0.0526134 -0.015022 0.0630939 0.106694 -0.172916 0.0576844 -0.141116 -0.296786 -0.12451 0.0128723 0.111714 0.11155 0.0775396 -0.0744746 0.113295 0.0380977 -0.144142 0.0143407 0.000982429 0.0462441 0.0783419 0.152223 -0.173311 0.320066 0.120774 0.0548803 0.0320079 -0.103879 -0.0250236 0.151604 0.130268 -0.220919 -0.115279 -0.0239958 0.10467 0.0239144 -0.146468 0.0736269 0.140236 0.175644 -0.119855 0.117206 -0.120246 -0.125193 -0.268783 -0.0382656 -0.102703 -0.035887 -0.202279 0.297608 -0.0497971 0.0555465 -0.175727 -0.100035 -0.182604 0.278263 -0.231337 0.0245872 -0.0826541 -0.0973952 -0.408033 -0.222061 0.336218 0.28723 0.226763 0.134528 -0.104093 0.049225 -0.100176 -0.128011 -0.0799564 0.00843669 0.0292686 -0.139986 -0.194647 0.0351561 -0.279346 -0.0315403 -0.23262 0.216172 -0.0504774 0.104303 -0.0172327 0.0537896 0.161374 -0.246259 0.126469 -0.192159 -0.0222205 0.028446 -0.108119 -0.238436 0.0248255 -0.218788 0.0143166 -0.022784 -0.0258429 0.19379 0.0729437 -0.192221 0.0523023 0.0224796 0.0958658 -0.0367295 0.185064 -0.0617105 0.176237 -0.0533514 0.0856132 0.0713084 0.058385 -0.0242099 -0.141792 0.0728917 -0.0282947 0.159022 0.0276777 -0.308648 0.22813 0.222227 -0.0204972 0.154191 0.100963 -0.313982 -0.0285424 -0.22439 0.198488 0.199468 -0.302661 -0.0940215 0.0504807 0.0550132 0.0491659 0.146928 0.0324589 0.24338 0.157966 -0.0458399 -0.000563549 -0.0351637 -0.0626145 -0.0748452 -0.0257696 0.0655816 0.0272102 0.28764 -0.0772138 -0.0399042 0.0716034 -0.186431 -0.120118 -0.0293788 -0.188476 0.02684 -0.0675711 0.0750811 0.103182 0.0806188 -0.137342 -0.0685228 -0.194635 0.000423135 -0.0416393 0.130123 -0.0969395 0.211064 0.395397 0.248409 0.129115 -0.0983346 -0.166599 0.0333747 -0.164395 -0.0164729 0.134174 0.0737824 -0.0202887 0.163756 0.037971 0.195465 0.18629 -0.0901428 -0.150817 0.0542771 -0.0150641 -0.161097 -0.113404 -0.125096 0.0978812 0.0711637 -0.247921 0.05394 0.276951 0.344852 0.133253 0.00199086 0.100984 0.168435 0.140022 -0.161033 0.228502 0.0297268 0.307283 -0.0104016 -0.038267 0.102546 0.25368 0.0382424 -0.119401 0.167273 0.135513 0.0889954 0.0719802 0.0845357 -0.031945 0.00441904 -0.136985 -0.0459052 -0.0597783 0.0120742 -0.0891231 -0.179761 -0.123855 0.0978472 -0.210697 0.122749 0.0755842 8.88819e-05 0.150704 0.0607707 -0.0759217 -0.246744 0.00538398 0.122761 0.055858 0.124358 -0.176579 0.0907239 -0.194702 -0.044832 -0.168987 0.014587 -0.0556883 0.280951 -0.00085998 -0.319563 0.171515 0.308703 0.151555 -0.0981644 0.0461486 -0.210917 -0.232924 -0.0619214 0.210035 -0.0347982 0.0590356 -0.156519 0.43784 0.059324 -0.025347 0.0649391 -0.17794 0.0281567 0.0215959 0.0224063 0.139166 -0.190488 0.23147 0.132561 0.13801 0.181128 -0.0439706 0.129154 0.237252 0.212278 0.187704 0.0228412 0.151033 -0.106104 0.113613 0.0219988 0.0188439 -0.0018235 -0.186266 -0.134218 -0.00121125 -0.199887 -0.14249 0.0995511 -0.172618 0.00875913 0.0489635 -0.0597098 0.109985 -0.140062 -0.00458262 0.0706257 0.154215 0.0406729 -0.0431177 0.110501 -0.146217 -0.058941 0.0713363 0.0390452 -0.074275 -0.00730534 -0.138489 0.0804854 -0.0573175 -0.000840596 -0.0242676 -0.157956 -0.147295 0.0733545 0.243624 0.099005 -0.193007 0.0640929 -0.0281742 0.133824 -0.137846 0.0834351 -0.0467831 0.0731881 0.183264 -0.0141611 -0.0311744 -0.262929 -0.00125475 -0.134241 -0.4491 0.0762635 0.066313 0.0578243 0.113922 0.0196401 -0.0285789 -0.292407 -0.022619 0.161214 0.18573 -0.175778 0.0774341 0.208202 0.06752 0.182205 -0.129102 0.0837187 -0.0359447 0.0445497 -0.0826195 0.121118 -0.219203 0.139631 0.0833401 0.0829703 0.0325128 -0.121523 -0.0598828 -0.216735 -0.104259 -0.0970487 -0.0891122 0.241583 -0.255977 0.176381 0.268415 0.209675 -0.158258 -0.00486156 -0.119919 -0.0955656 0.0460427 0.0155737 0.0873799 0.119289 -0.0989932 0.0238657 -0.0494354 0.2875 -0.0250226 0.103204 0.112308 0.120962 -0.118453 0.165967 0.0285344 0.046395 -0.0296298 -0.0719911 -0.0326835 -0.102212 0.110103 0.352332 -0.322022 0.00874589 0.000600426 -0.251295 -0.136277 -0.080919 0.129986 0.133497 0.195943 -0.0412114 -0.144747 -0.00587283 -0.0886668 -0.111179 0.115638 0.176726 -0.207428 0.00202396 -0.0509728 0.0108975 0.229489 -0.102798 -0.317937 0.14224 0.0425201 -0.0801805 -0.0281463 0.167029 -0.211852 -0.210174 -5.81515e-05 0.167001 -0.157067 0.235435 -0.0168597 -0.223982 0.0757208 -0.233697 -0.257183 -0.187337 -0.0656611 -0.144681 0.0476005 0.00860831 -0.00624537 -0.0365962 -0.0485948 0.103437 -0.180439 -0.064143 0.085738 -0.00826035 0.110358 -0.108535 -0.0850903 -0.131062 -0.0619096 -0.140055 -0.0365711 0.241002 -0.0127555 -0.126396 -0.0134779 -0.128657 -0.243386 0.201229 -0.17968 -0.233736 -0.00458262 -0.0188179 0.0506977 0.0647292 -0.201107 -0.0337108 -0.216961 -0.0531192 -0.0436921 0.286271 -0.048817 0.0288862 0.163779 -0.0799659 -0.0666799 0.0985166 0.225877 -0.146389 0.15376 0.0690159 -0.118481 -0.226164 -0.259179 0.127704 -0.275595 0.0777414 0.272538 0.00706895 -0.00247593 0.176449 0.385422 -0.000889765 0.0675233 0.127353 0.318347 -0.0393974 0.0553318 0.0250973 -0.188256 0.00864377 -0.0510253 -0.214913 0.094221 -0.0584408 -0.241876 -0.00119991 -0.155472 0.129798 -0.205733 -0.147425 -0.0762427 -0.121859 -0.30813 -0.0130188 0.0661286 -0.038909 -0.0176374 0.0434103 -0.205261 -0.0682665 -0.189119 0.00391695 -0.0264613 -0.1205 0.0436311 -0.0676529 -0.0792813 -0.368854 -0.0310368 0.0641794 0.0505743 0.136819 -0.324704 0.331588 -0.067651 -0.194279 -0.0171273 -0.0724544 0.0557006 -0.300404 -0.100087 -0.0288776 -0.0855664 -0.100651 0.235839 0.182164 0.177691 0.0139138 -0.220136 -0.0260074 -0.16867 0.179782 0.0190827 -0.119508 -0.235112 0.1379 0.0736741 -0.107194 -0.00382571 -0.346482 0.00341155 -0.0922959 -0.158921 0.0492103 -0.120884 -0.0283826 0.0364208 -0.144844 -0.0605078 -0.126423 -0.0282739 -0.151581 -0.0912411 -0.087222 0.150819 0.296232 -0.010749 -0.207043 -0.307388 0.134286 -0.213473 -0.391402 0.0876622 -0.103237 -0.0656577 -0.0698314 0.0215383 0.00990088 -0.0747644 0.178598 0.043468 0.0726936 -0.0999794 -0.244072 0.177015 -0.267387 0.0592166 -0.220264 -0.0176516 -0.221737 -0.110034 -0.105277 -0.146211 -0.139276 0.0483839 -0.0681597 -0.029237 0.283917 0.0920259 0.249789 0.130591 -0.207864 -0.0643813 0.118085 -0.231756 0.0664492 0.187665 -0.0665683 0.117548 -0.00349003 -0.0988358 -0.0264859 0.18991 0.0787324 0.135735 0.123497 0.108005 -0.0816135 0.0322925 -0.0705992 0.123342 0.250542 0.049337 -0.148603 0.130056 0.313175 -0.147199 0.0656535 -0.0602161 -0.119816 0.304736 0.0283931 -0.064916 -0.0564991 -0.105213 -0.0196552 0.0684098 -0.0275274 0.0726808 -0.0346086 -0.111771 -0.0693913 0.139049 0.0857342 0.0534336 -0.0741918 0.394867 0.0267057 0.0627275 0.178538 0.0553749 0.165825 -0.031589 0.0807946 0.0607763 0.064889 0.0776251 -0.125564 -0.0232275 0.0438372 0.0379195 -0.297216 -0.176731 -0.000442046 -0.018548 -0.0714502 -0.050493 -0.0346247 -0.00615082 -0.102876 -0.196408 0.294773 -0.0507852 0.0140032 -0.166731 0.0258453 -0.066322 -0.0835363 0.118972 0.299088 0.172549 -0.292372 -0.144108 0.022037 0.182365 -0.0342753 -0.121294 0.00447908 -0.275171 0.142847 -0.0874943 -0.249618 -0.0512102 0.0106852 -0.403982 -0.115498 0.0167372 0.067754 -0.109102 -0.030392 -0.0614529 -0.0730264 0.0280895 0.0406455 0.00925223 -0.174403 0.0964133 0.150223 -0.122325 0.0996362 0.104144 -0.0616344 0.0619384 0.0965646 -0.190147 -0.0435725 -0.145275 -0.0316179 -0.115539 -0.263558 0.151192 0.0539428 -0.189567 0.08678 -0.0342801 -0.0728132 -0.0584181 0.137253 -0.0167027 -0.0509832 0.149277 0.162877 0.195562 0.0462857 0.0855342 -0.00122496 -0.0306406 0.321925 0.250023 -0.00701174 -0.168578 -0.16678 -0.0845778 -0.00356331 -0.160529 -0.236901 0.045742 0.166065 0.0802547 -0.216332 -0.019555 0.0822049 0.264404 -0.0645335 0.0346999 0.0123466 0.169154 0.0340484 -0.100321 0.195934 -0.00351415 -0.0974387 0.137849 -0.162774 -0.290951 0.312431 0.0295187 -0.436427 0.235537 0.00798472 0.13362 0.00234639 0.167041 -0.0341666 0.120679 -0.198132 -0.153777 -0.0224521 -0.0282909 0.134837 0.208959 0.00507147 0.0795489 -0.0629364 -0.0148159 0.0635619 -0.0482936 -0.125975 -0.142448 0.135573 0.11232 -0.0874244 0.156607 -0.0617086 0.0813785 -0.14705 -0.0223685 0.00768687 -0.169599 -0.14291 0.0737025 -0.172795 0.203842 -0.112054 0.00397274 0.148383 -0.041531 -0.137962 0.021561 0.159449 -0.00777859 -0.0391161 -0.0854973 -0.0364539 0.18291 0.21074 -0.179481 -0.122596 -0.098615 -0.0977706 0.079477 -0.0449889 0.0811293 0.0202258 -0.167411 0.19154 -0.0848553 0.130556 0.172714 -0.0897826 0.320708 -0.0302969 -0.0965315 -0.0807431 -0.0134169 0.15567 -0.192513 -0.127419 0.0480081 -0.0996669 -0.0574849 0.0504594 -0.12715 -0.141533 -0.161923 -0.0877019 0.0916396 -0.100207 0.0771746 -0.224438 0.0446372 -0.0410176 0.144116 0.0947292 -0.0197767 0.0548628 -0.0921654 0.0858727 0.0807965 0.155639 -0.0701907 -0.122649 -0.124868 0.0233944 -0.0850671 -0.0517742 0.0408899 -0.103677 -0.0301352 -0.00857332 -0.0344942 -0.140681 0.0985053 0.0408238 0.0281165 0.180255 -0.0582673 0.00589647 0.107127 -0.166724 0.0474568 0.00524498 0.122623 -0.11152 -0.26069 0.207663 0.174894 -0.163086 -0.000456702 0.00105335 -0.106308 0.152308 0.0747573 -0.0769543 0.234168 -0.109139 0.103235 0.0317507 0.0190817 -0.0498713 0.0488595 -0.164822 -0.0142826 0.113344 0.286349 0.237661 -0.0355055 0.0465566 0.0317332 -0.0882271 0.0112573 0.109761 -0.140518 0.0288781 0.0771481 0.0451071 -0.0946843 -0.00245276 0.339691 0.0177717 -0.404007 -0.112301 -0.130683 -0.437651 -0.132222 0.244226 -0.132239 0.0290431 0.185863 -0.135911 0.0502372 -0.050449 -0.0310756 -0.268513 0.020562 0.264029 -0.049415 0.00271705 -0.0244165 -0.0839802 0.0726402 0.156836 0.0771694 0.0739172 -0.0603471 0.197195 -0.0838138 0.0218498 0.293109 -0.217409 0.105243 -0.178681 0.122981 0.24962 0.0617172 0.0095671 -0.0336215 0.0683672 0.048626 -0.116813 0.164797 -0.0880669 0.196972 0.0551167 -0.074962 -0.213104 -0.0317909 -0.299741 0.129818 0.0993884 -0.135887 -0.0938371 0.0493564 0.265064 -0.0942938 -0.00956946 0.147492 0.191696 -0.157616 -0.00600237 0.191277 -0.0416407 0.227979 0.0845253 0.37852 0.294266 -0.25332 0.167247 -0.180904 -0.165091 -0.0807105 0.0604794 -0.0496571 -0.149985 0.0535131 0.0367602 0.168321 -0.0595656 -0.0512461 0.0946966 -0.0855422 0.196699 0.0538629 -0.0100659 -0.0306534 -0.0903712 -0.134968 -0.0626452 0.349732 0.066617 -0.132376 -0.0229287 -0.0470195 -0.0236076 -0.00192987 -0.012035 0.00475235 0.228046 0.0952753 -0.0747157 -0.0454154 0.0105197 -0.136775 -0.0703467 -0.0797228 -0.0533084 0.104738 -0.316949 -0.00705335 0.0831609 -0.129611 0.118817 0.0226687 -0.1188 0.0770725 0.00628414 0.0987048 -0.0063456 0.0445696 -0.288162 -0.0639071 -0.0505606 -0.0238312 -0.142391 -0.0898601 -0.166325 0.0904549 0.0948536 -0.18024 0.11078 -0.073295 0.0611148 0.128455 0.0378543 0.0692201 -0.259666 0.22796 0.162625 0.0606454 0.136831 0.226017 0.252202 0.0113145 -0.0411736 0.210923 0.146808 0.184915 -0.0696934 0.104435 0.231432 0.0737871 0.0125484 -0.08315 0.137412 0.183959 -0.0658875 -0.138017 -0.0724218 -0.00491498 0.145338 -0.00243291 -0.014596 -0.0948952 -0.0868693 0.0280337 -0.0452787 0.0115376 0.182857 0.131334 0.0667239 -0.0394215 -0.0433668 -0.142726 0.156345 0.112167 0.038128 -0.117015 -0.0903655 0.157813 0.150792 -0.179879 0.194717 -0.103638 -0.165761 -0.224568 0.189989 0.146395 -0.144731 -0.195888 0.0475055 -0.136003 0.00377465 0.11702 -0.101517 0.0493257 -0.0989289 0.186974 0.186166 -0.00370184 -0.0428312 0.233933 0.0614302 0.106411 0.257383 -0.164378 -0.149745 0.00974203 -0.190179 0.198337 0.0452679 0.30032 -0.117918 -0.185762 0.0494254 0.00597826 0.242036 -0.0622864 0.0650862 0.0123347 -0.0386405 0.0443162 0.0673115 0.150389 -0.172083 0.0232393 0.0317758 0.0391894 0.00782019 0.194376 -0.153926 -0.222133 0.268885 -0.167967 0.0839334 0.0282162 -0.149411 -0.0679157 -0.0878385 -0.0619115 -0.133719 -0.234207 0.14199 -0.15934 0.156034 0.223089 0.0899003 0.0980926 0.0270173 -0.0347817 0.141791 0.0538506 0.0569218 -0.059975 0.0831155 0.127214 0.210259 0.0352786 -0.021483 -0.285725 -0.0889207 0.0460862 0.100676 -0.15378 -0.137046 -0.0236015 0.0163377 -0.173564 0.110483 -0.0228531 0.0114365 0.118311 -0.175469 0.0856562 0.179701 -0.0698135 0.101563 0.0741119 0.041402 -0.0441838 0.123817 -0.148441 -0.0160073 -0.0205251 0.115998 0.0767864 0.081265 -0.28961 0.259739 0.00255394 -0.0304421 0.0722979 0.0635482 -0.0280352 0.177898 0.219646 0.0349008 -0.224226 0.0194614 -0.0961977 -0.147026 0.141735 -0.141187 -0.0305711 -0.194709 0.11025 -0.238897 -0.0769008 -0.00384982 -0.285041 -0.0996887 -0.236317 0.10017 0.128367 -0.200434 0.236454 -0.242813 0.249945 -0.235455 0.120212 -0.316486 -0.156561 0.0308695 0.0792383 -0.0276749 -0.0483002 0.036088 -0.0188406 -0.115431 -0.133988 0.0207364 -0.0477783 0.0674311 0.00140415 -0.0104129 -0.132734 -0.246972 -0.0210154 -0.0225949 -0.0456305 0.130026 -0.0457567 -0.145943 -0.281448 0.0870376 0.0647533 -0.106761 0.0837287 -0.0761728 0.0798349 0.016967 -0.157195 -0.0336111 -0.0734619 -0.120975 0.0181636 0.0740491 0.0386674 0.169402 0.0655949 -0.128193 0.228593 0.0362941 0.0397373 0.00521236 0.0649514 0.0017975 -0.148195 -0.0694007 0.143074 0.032927 0.00850524 0.0952857 0.162036 0.158829 0.0518394 0.00960209 -0.109168 0.18754 0.0420331 0.0131125 -0.0978132 -0.204428 -0.0259885 -0.0795318 -0.0624878 0.0639657 0.000227405 0.0390527 -0.19417 -0.0391828 0.132257 0.109863 -0.326284 -0.0597343 -0.163013 -0.0674534 0.0017105 -0.215663 -0.0262958 0.173586 -0.116923 0.0149638 0.176521 -0.180279 -0.000617919 0.103367 -0.237617 -0.11547 -0.0444112 0.0245078 -0.00615129 0.146738 -0.0329634 0.0342772 -0.236077 -0.00803909 0.139018 -0.154872 0.0294965 -0.0429035 -0.0605537 0.153704 0.116072 0.164928 -0.0316287 -0.249224 0.211383 -0.117534 -0.0646507 -0.0329535 0.250238 0.0768238 -0.0709935 -0.123725 0.0485087 0.171056 -0.134927 0.0057447 0.0376945 0.142942 -0.193745 0.0115854 -0.0562419 0.018859 -0.0765524 0.0272021 0.245374 0.000767789 -0.0278862 -0.157616 -0.0789257 0.32292 -0.131053 -0.147927 0.0353173 0.258211 -0.24313 -0.0997166 0.201396 -0.156537 0.0158928 -0.14251 0.00634277 0.0850572 0.128642 -0.280627 -0.136268 0.0532748 -0.114869 -0.0343562 0.0576872 -0.0401969 0.0452069 0.183342 0.157829 0.139593 0.130463 -0.318357 0.0262622 -0.171115 -0.0503634 -0.05928 -0.167611 0.320392 0.203377 0.215395 -0.0835665 0.0587495 0.0572835 0.0784151 0.338652 -0.0750395 0.0265738 -0.321445 -0.0320642 0.142838 0.0795966 -0.25235 -0.0854345 0.0106668 0.0284006 -0.168408 0.00118714 -0.0130032 -0.240791 -0.0897778 0.137551 0.0914614 -0.317769 -0.159528 -0.111582 -0.0148523 -0.0690873 0.0517959 0.119735 0.0852907 0.0140963 -0.26336 -0.0560533 -0.19058 -0.130884 -0.0454059 0.0491423 -0.212524 -0.151383 0.0118199 -0.100052 0.101433 -0.212057 -0.0293268 0.0965617 -0.348828 -0.126632 0.146079 -0.0152664 0.0793839 0.0179825 -0.157441 0.187095 -0.268288 0.0485281 0.207597 0.0323403 0.0270395 -0.328665 -0.0592772 -0.207557 -0.327398 0.105073 