-0.00475282 0.0437337 -0.115313 -0.165956 0.0564968 0.056528 -0.0300033 0.0699127 -0.0925786 -0.159561 0.147728 0.0293079 -0.0226748 -0.25925 0.00824285 -0.0411538 -0.00500717 -0.119199 -0.0240213 -0.0287524 -0.0927327 -0.0854047 0.0051821 0.04121 -0.270846 -0.142066 -0.248778 0.0715665 -0.0196916 0.141779 0.143325 0.00124529 -0.0718029 -0.273334 0.088699 -0.0881936 0.154404 -0.0478152 -0.148092 -0.229728 -0.045838 -0.00456087 -0.156827 -0.0563559 0.248049 0.00417981 -0.0822929 0.135519 0.2163 -0.275217 0.0355348 -0.0652852 0.156507 -0.252161 0.00191616 -0.42078 0.0580494 0.19125 0.161738 -0.223765 0.102357 -0.0784813 -0.177082 -0.0257838 -0.0769339 0.202491 -0.21726 0.111621 -0.0905277 0.00437602 0.0570608 -0.114019 -0.0411041 -0.143298 -0.228119 -0.03165 0.266016 -0.0187697 -0.177913 0.210609 -0.0792335 0.0581094 0.122134 0.268404 0.0735361 0.300914 -0.0567795 -0.0452849 0.00509558 0.0286706 0.00766843 0.0753761 -0.300649 -0.257208 -0.214555 -0.13508 -0.192239 -0.0405826 0.00825609 -0.167179 -0.00273737 -0.0881108 0.0633085 -0.023158 -0.0146821 0.0582772 -0.0614987 -0.0149473 0.131018 -0.0216966 -0.0701695 -0.129291 -0.0409051 -0.179594 -0.0208967 -0.190512 0.0678642 -0.0704976 0.0591169 -0.19488 -0.313691 0.0351013 0.0439431 0.0501072 -0.214822 0.0607522 -0.104059 -0.18934 -0.110602 0.106705 0.155349 -0.0784369 -0.262282 -0.0645562 -0.0219647 0.211074 -0.000264282 0.0580068 -0.0966965 0.0654625 0.0290814 -0.133674 -0.136925 0.050068 0.0163793 0.0862457 0.0749549 -0.10579 0.0728936 0.185233 -0.22268 -0.187884 0.17124 -0.0534048 0.047158 -0.122813 0.0976387 0.0733432 0.240592 0.34737 -0.146329 -0.0532715 0.0531249 0.0725541 -0.204511 -0.0344862 0.0341987 -0.06799 0.303064 -0.0824858 0.0066113 -0.0111164 0.0859904 0.044224 0.0586238 0.0814967 0.13821 -0.0470545 0.0879165 0.222568 0.239896 0.190216 -0.0949756 -0.0604667 -0.105309 -0.262654 0.00291088 0.219533 -0.103296 -0.0220356 0.0383039 -0.14698 -0.0988585 -0.0884626 -0.0320575 -0.0775003 -0.0997714 0.169119 -0.000460011 0.15992 0.0415225 0.074858 0.223477 0.228706 -0.239834 0.294678 0.00863668 0.000454338 0.15038 0.0545688 0.0549106 -0.0407604 0.0415698 0.0189337 0.099067 0.133696 0.119976 -0.0777192 0.248757 0.204727 -0.0394882 -0.0318727 -0.0495195 0.0200216 -0.017157 -0.249129 0.103183 -0.00261776 0.22045 0.0729938 -0.171561 -0.0567194 -0.184613 -0.145111 -0.0351452 -0.313924 -0.227139 0.228528 0.0683635 -0.00342574 -0.22049 0.146343 -0.191003 -0.0718937 0.127726 -0.0163382 0.0737942 0.165327 0.0973413 -0.0515241 -0.133386 -0.272475 -0.242477 0.00698101 -0.0115901 -0.128528 -0.149716 0.212104 0.0755402 0.12474 -0.108511 -0.0943515 -0.252259 -0.101445 -0.143623 -0.168155 0.0141516 0.0464214 0.0620963 0.0508821 0.148288 -0.0902483 0.0598289 -0.126008 -0.1182 -0.22984 0.0894029 -0.0150017 0.154444 0.154396 0.12699 0.0254874 -0.0659721 -0.106758 -0.135796 0.10506 0.195783 0.00793082 0.121821 0.170585 0.0994854 -0.0219756 -0.0520763 0.170517 0.144241 -0.185481 0.0620883 -0.165127 -0.0231859 -0.0404106 -0.165626 -0.00226602 0.143937 0.139594 -0.414984 -0.101145 -0.0493531 0.0730141 -0.172499 0.109236 0.0838417 0.0400886 -0.0512745 -0.013458 -0.0800245 0.0466904 -0.152319 0.0732572 -0.196862 -0.0399052 0.278152 0.0170332 0.235605 -0.142291 0.161157 0.134466 -0.336097 0.0261998 0.0895292 0.0483702 0.163083 0.352867 0.0182619 0.0119088 0.0133975 -0.106266 0.07906 0.122642 -0.00443748 -0.11276 0.101823 0.031338 0.285441 0.12678 0.206476 0.208847 -0.0556377 0.164147 -0.198353 -0.0141965 -0.0480005 -0.077853 -0.0430642 -0.0418284 -0.0597315 -0.0946106 0.197019 0.249001 0.0346696 0.246635 -0.293312 0.0907499 -0.159154 0.0231197 -0.0805961 -0.0840284 0.296602 0.129311 -0.205096 0.0607333 0.298306 0.0140084 0.174698 -0.0636399 -0.119044 -0.000588606 -0.140566 -0.097339 -0.187269 0.156423 0.274811 -0.0208319 0.116264 -0.109361 -0.137574 -0.398082 -0.0534214 -0.0215435 -0.113935 0.0823397 0.0531391 -0.0566551 0.124096 0.0357821 -0.204738 -0.0466659 -0.403508 0.0233788 -0.187531 0.0562178 0.107932 -0.0872977 0.12694 0.0998277 -0.0483537 0.259783 0.0978046 -0.103154 0.178561 0.24586 -0.0985885 -0.094837 0.0362175 -0.0205001 0.0952011 -0.0284006 0.0718176 -0.00299598 0.0778828 0.308049 0.052603 -0.145297 0.138297 -0.0804495 0.158919 -0.0241868 -0.223024 0.103391 -0.12165 0.19759 0.0186534 -0.0493096 0.131371 0.07049 0.00528327 0.000616027 -0.00943094 0.14241 0.0613484 -0.0236435 -0.122433 -0.0337104 0.0539178 -0.251024 0.118042 -0.0877941 0.0411103 0.0949292 0.0914893 -0.105251 0.0653467 -0.160299 0.255521 -0.206564 0.170563 -0.00818328 -0.061641 0.0511979 0.0397208 0.0331128 0.162855 -0.127557 -0.44965 0.0328301 -0.0708843 0.208432 -0.103188 0.00121787 -0.105091 -0.176982 0.0418265 0.0552491 -0.0335785 -0.0184785 -0.0289353 -0.223349 0.157539 -0.094533 0.225956 0.0132623 0.0271941 0.155453 0.0289892 0.16824 0.181743 0.214875 -0.066165 -0.111769 -0.0738127 -0.0227074 0.0160011 -0.138526 0.0730714 0.00839367 0.158707 0.282859 0.0574088 0.0136235 -0.0410909 0.14764 0.0729588 0.189388 0.0291386 -0.094776 -0.0274049 -0.00783201 -0.152432 0.178093 -0.0817771 -0.0827529 0.0455917 0.191174 0.0969626 -0.0190997 -0.158963 0.145065 0.199284 0.143141 -0.221369 -0.292878 -0.052107 -0.0908761 0.292996 0.19303 0.034116 -0.104832 -0.125333 0.105116 0.176328 -0.202235 -0.256807 -0.138738 0.0555791 0.100341 -0.0117542 -0.020709 0.193432 0.259137 -0.188463 0.0748504 -0.171293 0.268028 -0.32463 -0.0157307 -0.042183 -0.10324 0.24255 -0.0857285 0.0338423 -0.378921 0.0653802 -0.00617919 -0.0634314 0.132495 -0.147878 -0.0164361 -0.0624178 0.047984 -0.016194 -0.1443 0.146392 0.162036 0.0869454 -0.156284 -0.163171 -0.0262433 -0.0150664 0.0753624 0.0779499 -0.0288824 0.0371891 -0.043755 -0.11803 0.0889443 -0.166306 -0.20651 -0.0580026 -0.099109 0.335734 -0.253323 0.111785 -0.107705 0.00584682 -0.133108 -0.175244 0.143002 -0.0950356 -0.164563 -0.0769689 -0.0403387 -0.17913 -0.0539906 -0.0588006 0.0608468 -0.137612 -0.243712 -0.302684 -0.252512 -0.0433682 -0.14732 -0.0164115 -0.126139 0.126616 6.05154e-05 -0.0185536 0.0800741 -0.150162 -0.324631 -0.0536511 -0.0184983 -0.225144 -0.00212844 0.23028 -0.273286 0.0499015 0.000746041 -0.0531916 -0.157964 -0.0476407 -0.101695 0.214068 -0.0277543 0.108897 0.108471 0.028359 0.0892951 -0.0784955 -0.0498429 -0.192106 0.028142 -0.0703765 -0.00519487 -0.156361 -0.273285 0.187114 0.0266272 -0.188294 -0.116096 -0.0760446 0.0742878 -0.327742 -0.0759042 0.132487 0.114877 0.16475 0.0280489 -0.0219264 0.0321247 0.219769 0.149901 -0.109148 0.0787399 -0.0243139 0.207961 0.0253243 0.331136 0.215737 -0.212817 0.0383516 -0.165135 0.247044 0.0482856 -0.0377176 0.0161595 -0.082533 0.0310472 -0.0127962 -0.0423697 0.156562 0.265501 0.0339444 -0.0402976 -0.0199233 0.0673829 0.0890729 0.0970383 0.156968 -0.112142 0.153368 -0.247256 -0.117304 0.147642 -0.0915399 -0.145273 -0.0971215 0.00469514 -0.130378 0.155463 -0.0781409 -0.0832077 0.092692 -0.0800727 0.13827 -0.154303 -0.10752 0.0249044 -0.0491219 0.11613 -0.150755 0.158551 -0.341671 0.0834422 0.135443 0.0972789 0.124526 -0.12166 0.46203 -0.0293069 0.0881685 0.0286134 0.134365 -0.0495611 0.0842015 0.0347145 0.281207 0.18228 0.230497 -0.107844 -0.187111 -0.210011 0.233269 0.129226 -0.0961447 0.0134131 -0.216232 0.162186 0.157451 0.085268 -0.0661877 -0.024495 0.213868 -0.109275 0.0951911 0.20869 -0.00204523 -0.121317 -0.178491 0.103003 0.0435507 0.0817927 -0.0420152 -0.0886493 0.116043 0.292778 -0.0609881 -0.0462432 0.123899 -0.0369153 -0.088482 -0.0105722 -0.0454409 -0.0669134 -0.187932 -0.232611 -0.151981 0.0781991 0.22796 0.139281 -0.105548 0.196157 -0.015387 0.207175 0.483299 0.0362903 -0.0194018 0.0996229 -0.0273553 0.115732 -0.0832271 0.12655 0.0515681 -0.0259833 -0.177954 -0.00029974 -0.0043798 0.00191049 -0.138963 -0.307524 0.0795021 -0.0482123 -0.201587 0.303616 0.0862732 0.0439602 -0.0210263 0.0733702 -0.0594682 -0.0684443 0.131645 -0.101844 0.027525 -0.146381 0.274081 0.0676879 -0.0104413 0.0871284 -0.104988 0.267359 0.142174 0.11667 -0.0473712 0.0701983 -0.0501961 0.114532 -0.0598469 0.0618997 0.382704 -0.2742 -0.22066 -0.31229 -0.182358 -0.311847 -0.0177277 -0.0784118 -0.0479107 0.213803 0.164518 -0.128604 0.0859399 0.17569 0.0904208 -0.0463874 0.211968 0.179386 0.106038 -0.0281803 -0.00560854 0.0382282 0.112193 0.0252883 -0.0863899 -0.11559 -0.043111 0.339654 0.212061 -0.146552 0.0279548 0.315085 -0.218661 -0.0809053 0.039864 -0.180694 0.0145057 -0.1785 0.151954 -0.377879 0.019546 -0.0474899 0.161904 0.0416852 0.137447 -0.103951 0.00083445 0.32184 0.136976 -0.0601669 0.382194 0.153512 0.0954327 -0.163057 -0.0609971 -0.279845 -0.0277619 0.00514712 -0.170446 -0.142427 -0.104059 0.0297277 0.105985 -0.126063 0.139892 -0.0880428 0.0560472 0.107064 0.0929667 0.0634513 0.0743148 0.0666728 -0.112803 0.118591 -0.0493881 0.111057 -0.238179 -0.222914 0.112941 0.00688173 0.0247985 -0.183999 -0.182098 0.201953 0.121489 -0.13871 -0.204401 0.0942948 -0.167414 -0.161111 0.121565 0.159007 0.0615758 -0.14915 -0.145098 -0.0521108 -0.0375767 0.131256 -0.214635 -0.0231604 -0.108756 0.0435952 -0.0568863 -0.0575832 0.168436 0.232869 0.00823387 -0.123355 -0.139676 0.101514 0.0197034 -0.166678 -0.0737876 -0.0770725 0.229647 0.149883 -0.0878971 -0.0652176 0.126017 -0.0901362 -0.102352 0.0546298 0.223704 0.118573 0.0106843 -0.0182265 -0.00937941 0.385541 -0.141058 0.0540033 -0.214153 0.0832384 -0.171489 0.00573998 0.0648989 0.146332 -0.00525869 -0.181832 -0.0440609 0.086763 0.0814064 -0.217684 0.102758 -0.141475 0.0661887 -0.175919 0.279138 -0.0128865 -0.0582853 -0.156779 0.190213 -0.067903 0.192175 0.171586 0.100855 0.0111674 0.0872041 -0.162468 0.0850926 0.0684561 -0.0796869 -0.00183343 0.00610591 -0.243242 -0.240038 -0.337864 -0.00193129 0.200592 -0.0407292 -0.161433 -0.264933 -0.280609 0.132293 -0.158965 0.0574371 0.0515359 -0.177219 -0.200438 -0.198565 -0.0180293 0.0437602 0.0513615 -0.106441 -0.000608936 0.180629 0.198592 0.253729 -0.249105 -0.0836549 -0.0639822 -0.0849328 0.020458 -0.193349 -0.301037 0.0593963 -0.071376 0.163396 -0.0915054 -0.172385 0.218297 0.157553 0.120652 -0.0374467 -0.0145615 -0.00830006 -0.0110417 -0.0524838 -0.0706479 0.0422615 0.268737 0.0583699 -0.109881 -0.0627015 -0.0344881 0.0608061 0.214219 -0.0695501 -0.146824 -0.0742576 -0.230915 0.156322 -0.0835708 0.0358738 0.100399 0.0646172 -0.11732 -0.167972 -0.0602572 0.109548 -0.0532564 0.150753 -0.0703264 -0.0736259 -0.0398678 -0.0588257 -0.0521283 -0.158683 0.012017 0.0298213 0.0105978 0.217949 -0.25012 -0.0105661 0.0924694 0.113721 -0.0380982 -0.179707 0.031494 -0.0199006 -0.0650673 0.0554377 0.17942 0.250354 0.204807 0.0671063 0.188932 0.192448 -0.0860462 -0.111871 0.0439739 -0.0505733 -0.117634 -0.0359613 -0.0862509 -0.235497 0.184335 -0.115217 0.159405 -0.114223 0.0433389 0.0755515 -0.292538 0.0827387 0.0645028 -0.300131 0.0393643 -0.0209421 0.302403 0.0395137 -0.157525 -0.0745251 -0.275628 0.0777925 -0.276306 0.178605 0.231931 0.0214116 0.0316145 0.0401519 0.219149 -0.162595 0.0418743 -0.126905 0.00634513 0.0348209 0.21615 -0.20908 -0.392399 0.16317 0.0750523 0.0262192 0.0762049 0.0876385 0.0582564 -0.0592932 0.084939 0.173736 0.0300563 -0.160297 -0.35133 0.179347 -0.131288 0.000278938 0.272576 0.111391 0.152916 0.30812 0.0142282 0.0245333 0.0107542 0.0510353 0.0855144 0.19937 0.100763 -0.0347443 -0.0730255 -0.0725092 0.270855 0.00473013 0.0122421 0.173343 -0.161345 -0.0999908 0.0627582 -0.0541896 -0.0231963 0.0840303 -0.219203 -0.236068 0.13672 0.211207 0.183607 -0.127516 -0.124168 0.109938 0.215365 0.140023 -0.0325847 -0.0266083 -0.049563 -0.225456 0.199639 0.0386329 0.0126931 -0.186691 0.188948 0.0330995 0.0228715 0.146004 0.0214163 -0.068866 -0.191644 0.0307068 -0.174544 -0.0081152 -0.0140381 -0.110221 -0.0215279 0.000880782 -0.264444 0.00876433 -0.167304 0.249188 0.255487 -0.151355 0.166178 0.0200155 0.0739687 0.103437 0.0961651 -0.0819572 0.2893 -0.297039 -0.26745 -0.0640437 0.0868031 0.0995568 0.0234743 -0.0587647 0.167332 -0.0115698 -0.098111 0.0238227 -0.166956 -0.245156 -0.125154 0.0563876 -0.182013 0.228051 0.0719017 0.0126539 -0.0459912 0.164912 0.0101576 0.221834 -0.115292 -0.329116 0.00266126 0.0697605 0.055243 -0.208339 -0.0589552 -0.0325719 -0.120746 0.0880721 0.113198 0.18859 0.0382084 0.164287 0.0122005 -0.0209397 0.102408 0.00657159 0.0581397 0.0104521 -0.0342465 -0.0401326 0.108177 -0.065853 -0.126694 0.0392466 0.0858259 0.0171935 0.0192226 0.065897 -0.357547 -0.0550808 0.0983044 0.0518829 -0.0723674 0.11925 -0.171941 0.0925044 -0.0885723 0.00268348 -0.0449984 0.182926 -0.103435 0.00142164 -0.0198041 -0.178478 0.304039 -0.136167 -0.0834091 0.240742 0.0634584 0.160154 0.180842 -0.0872078 -0.0350677 0.0164867 0.0320958 -0.0788099 -0.232228 0.0152782 -0.0734926 -0.10375 0.239131 -0.0317687 0.0383351 0.239504 0.451612 0.03752 0.0481792 0.109573 -0.29666 0.0630263 -0.0158966 -0.0975413 -0.026891 -0.0844653 -0.0388892 -0.090045 0.353666 -0.10869 -0.0680197 0.0770502 -0.203797 0.0176312 -0.0892805 -0.0921668 -0.0859933 0.0156792 0.485268 0.0830753 0.134198 0.0903248 -0.0371957 0.115431 -0.089585 0.0293717 0.237387 0.0229788 -0.108265 0.27693 0.204476 -0.0134926 0.318094 -0.0461467 0.161735 -0.0511459 0.0525642 -0.02604 -0.217398 0.387751 0.013138 0.0495777 0.0288162 -0.0435432 -0.122408 0.262227 -0.10606 -0.295445 -0.0460872 0.0129966 0.120348 0.221377 0.0482293 -0.159726 -0.115406 -0.00771382 -0.0824385 -0.120848 0.18358 0.342666 -0.0575359 -0.0254897 0.0243475 -0.147408 0.114053 0.176875 -0.129246 -0.114195 -0.139165 -0.169105 0.177928 0.19786 -0.0256878 0.189491 0.0878518 -0.0396172 0.128807 0.186305 -0.214677 0.171789 0.0749648 0.215867 -0.126543 -0.153404 -0.0338503 0.172548 -0.107281 0.21531 -0.105288 -0.165688 0.149589 -0.113 -0.0521354 -0.150704 0.229747 0.0270806 -0.0845088 -0.0949292 -0.00892082 -0.0917583 -0.396539 0.0363366 0.0260339 0.104196 0.0628296 0.00716351 -0.396438 -0.041219 -0.0711708 0.295493 -0.165607 -0.185522 -0.0948876 -0.122189 -0.427215 -0.0797871 -0.112044 0.162398 -0.0761217 0.0703467 0.0969333 0.0856855 0.0659655 -0.18749 0.0871922 -0.117501 -0.0658837 0.40003 -0.021821 -0.0863115 -0.140258 0.252723 -0.0145634 0.044111 0.346461 -0.0246761 0.194241 0.16221 0.0018807 0.00551304 -0.135811 -0.00509606 -0.0498424 -0.0970132 -0.0195365 0.10124 -0.0985412 0.063804 -0.029966 0.0374117 0.3818 0.0176851 -0.209481 -0.198094 0.00257947 0.0154825 0.137405 0.0488524 0.130963 -0.0210924 0.049259 -0.0446291 0.0810405 -0.0889202 0.192607 -0.00580049 0.0161477 0.330935 -0.173087 0.0355372 -0.0387341 -0.00481948 -0.309464 -0.3326 0.172678 0.0134023 -0.106555 0.094647 0.206364 -0.193013 -0.0914363 0.0215997 -0.0258992 0.0752665 0.0264263 0.0805469 -0.0271501 -0.113935 -0.0661631 -0.0483475 -0.041062 -0.287945 -0.0226824 0.129613 0.20386 -0.142887 0.0647793 0.230999 0.135191 0.0405864 0.0556675 0.235112 -0.0652999 0.0730619 0.0716842 0.231898 -0.155849 0.0238525 0.00821969 -0.219771 -0.0939685 -0.0471391 0.24847 -0.040499 0.0988552 -0.0842076 0.137689 -0.164207 -0.0961688 -0.0454593 -0.0951675 -0.117147 -0.0442476 0.125188 0.264689 -0.161794 -0.0961182 -0.19812 -0.00501852 -0.0420137 -0.109523 -0.198123 -0.177961 0.148772 0.163945 -0.0598511 0.00160602 0.137997 0.0198453 0.279054 -0.0725083 0.0749308 -0.0228989 -0.124326 0.0712828 0.0739498 0.320554 -0.0543598 -0.0144414 0.00523931 0.0889902 -0.114639 -0.0971645 0.0172351 0.0193758 0.27129 0.0260533 -0.0118246 0.231448 -0.182659 -0.0490997 0.0605295 0.212859 0.0837069 0.0188827 0.0242747 -0.314894 0.0954209 -0.0788028 0.0941747 0.0155364 -0.0977096 -0.0245532 0.123323 0.293043 0.107409 -0.110435 0.0669007 -0.14814 -0.0648616 0.120181 0.0371597 0.226192 0.00547049 -0.0949245 -0.101468 -0.0921748 0.0226848 0.173869 0.212851 -0.181194 0.113171 0.0661683 -0.240611 -0.0625105 0.0110549 0.0197464 0.0764328 -0.121577 0.144676 -0.135744 -0.0326698 -0.21107 -0.0213236 -0.124786 -0.0160049 -0.121507 0.287252 -0.0174804 0.116656 -0.188209 -0.0546293 0.0130283 -0.132521 -0.0496023 0.263643 -0.14422 0.201369 -0.152495 -0.0134372 0.139866 0.122063 -0.0475046 -0.141327 0.212546 -0.10064 0.108111 -0.116998 0.163551 -0.0165013 0.0431995 -0.0641794 0.00137578 0.0326041 -0.123143 -0.0504102 -0.180448 -0.0256855 -0.22119 -0.0691747 -0.0366094 0.052567 0.255604 0.00395241 -0.0977933 -0.00218423 -0.0584976 0.0117641 0.224843 0.0306907 -0.148319 0.160816 -0.00585344 0.0236034 -0.159736 0.219936 -0.0530053 0.063058 0.095367 0.0720246 -0.0182704 0.0185257 0.0454002 -0.0244123 0.0547792 0.239789 -0.150752 -0.149345 0.0642924 -0.273901 0.177247 -0.175258 0.0464427 -0.0268773 -0.0292814 0.0714672 -0.185545 0.00511024 -0.203177 0.463837 0.0367234 0.123057 -0.105236 -0.0794548 -0.0740812 0.0857347 0.120061 0.272985 -0.176431 -0.116987 -0.0453662 0.0209407 -0.0921881 0.281053 -0.0802779 -0.0735191 -0.0268967 -0.0588153 0.0478535 0.160305 -0.00806604 -0.167775 0.0446216 -0.143828 -0.0417977 0.021074 0.161641 -0.156261 0.0100219 0.133089 -0.033847 -0.054939 0.0544969 -0.141555 -0.0916869 0.0561375 -0.160249 -0.259454 -0.019807 -0.125933 -0.0967754 0.269509 -0.092919 0.181181 -0.110841 0.211612 0.168589 -0.338993 0.193941 -0.0882035 0.136148 -0.00847168 0.0615167 -0.128621 0.364192 -0.0898611 -0.131249 -0.0685776 0.00329289 0.0982547 0.157502 -0.0175145 0.0242113 -0.096219 0.0523458 0.260866 0.0488827 -0.018791 -0.139369 0.275524 -0.108744 -0.0730992 0.0502263 -0.0721234 -0.0578064 0.0785371 0.116465 0.169719 -0.00249011 0.0247418 -0.0961206 -0.0347864 -0.157408 -0.185999 -0.0731962 0.0190732 -0.180804 -0.126833 0.10814 -0.0818116 0.124225 -0.0529051 -0.0250094 -0.211383 0.070472 -0.308036 0.30111 0.091452 0.270578 0.0156688 0.258582 0.0180785 0.0156659 0.0798179 -0.180382 0.118229 -0.340587 -0.202035 -0.234559 0.276965 -0.193369 0.00975385 0.0159226 0.138232 0.230426 -0.0587888 0.0523302 0.0306227 -0.0397194 -0.157677 -0.00476937 0.237474 -0.166523 -0.46296 -0.0799999 -0.0221136 0.226938 -0.264699 -0.100157 -0.256809 -0.0919512 -0.0790775 -0.164581 -0.191683 0.0789853 0.253371 0.0438618 0.0411538 -0.0543541 0.0355622 -0.241701 0.0548416 -0.00419683 -0.0177471 -0.193309 -0.0561351 -0.0128103 -0.437669 0.136154 -0.11166 0.140166 -0.223832 -0.211967 -0.0455893 0.160508 0.110416 0.0127702 -0.19712 0.0421253 0.113382 0.0417362 0.0316311 0.00643118 -0.109608 -0.218159 -0.0362378 0.0175797 0.0850747 0.125204 0.114014 -0.126765 0.0105959 -0.15089 0.247649 0.150886 0.0370373 0.145259 -0.135842 0.0837169 -0.231919 -0.0104417 -0.0328858 0.139951 0.221345 -0.0685856 0.0194354 -0.0111197 0.281257 0.113578 -0.0391738 -0.00129399 -0.0474393 0.371945 -0.0528153 0.0574811 -0.0178785 -0.0529126 -0.114762 0.159783 0.136464 -0.0100654 0.140118 0.26956 -0.11836 0.195501 0.125368 0.0327511 -0.117943 -0.0614912 -0.0150428 -0.199796 0.0472828 -0.0807611 0.0801219 0.104239 -0.188686 0.0151109 -0.130588 0.0400659 0.144193 0.186084 0.0894289 -0.282324 0.0475641 -0.00558396 -0.213112 -0.094273 -0.134604 -0.105544 -0.169757 0.00201119 -0.195291 0.146458 0.183535 -0.0906591 0.0745573 0.10012 0.106569 0.125162 -0.077132 0.194622 0.199554 0.186357 -0.197401 -0.0807237 -0.0219264 -0.184601 -0.068319 -0.0838828 -0.117641 0.0706895 -0.197043 0.0301471 0.0416738 0.175394 -0.0887491 0.0478729 -0.0626797 0.0328239 0.128128 0.0187711 -0.155073 0.0228455 -0.305946 -0.216048 0.0427257 -0.0275832 -0.0909059 -0.0456418 -0.266341 -0.114218 0.106745 -0.0544908 0.0266721 0.115462 0.23801 0.0986419 -0.169142 -0.13815 0.0446003 0.301334 0.138608 0.0162507 -0.0315053 -0.0154725 -0.164355 -0.0227202 -0.264931 0.0361669 -0.120829 -0.120575 -0.00856056 0.0103391 0.0595637 -0.179889 0.0694248 -0.0828616 -0.149428 -0.0343604 0.0737271 0.321423 -0.0943094 -0.0687861 0.0530474 0.229689 0.0842109 0.122549 -0.0376963 -0.0847801 0.0299074 -0.0712776 -0.0498628 0.129204 -0.167449 0.0499918 -0.0791636 -0.0596819 -0.0212537 -0.0399264 0.0839376 0.0471523 0.0114133 -0.0602672 -0.20771 0.0595731 0.0996315 -0.176511 0.00179135 0.183299 0.168085 0.0277406 0.189455 0.169612 -0.00624207 0.16389 -0.297581 0.347763 -0.210978 -0.0411764 0.0371101 -0.0437583 -0.199537 0.00623025 0.01082 -0.147618 -0.0959145 0.0193574 -0.215666 0.418236 -0.0453071 0.0770375 -0.162758 0.0268887 -0.12243 0.0274726 0.258136 0.0298189 0.0121584 0.155481 0.0882489 0.117519 0.175166 -0.0068042 -0.0635553 0.2701 0.0455614 -0.0431096 0.00555512 -0.0514168 0.157166 -0.138227 0.138068 0.19814 -0.131005 0.0770101 0.210542 -0.0992546 -0.144381 0.064359 -0.0981715 -0.242527 -0.203153 -0.13771 -0.418289 0.041124 0.067615 -0.0119017 -0.0191536 -0.117455 -0.160419 -0.0875861 -0.146601 -0.196996 -0.143816 0.0390792 0.13082 -0.046942 0.244972 0.0334489 -0.0733872 -0.192413 0.00537357 -0.245611 -0.0805285 -0.0286498 -0.0268466 -0.0698711 -0.260617 -0.241771 0.00293074 -0.0286025 -0.0359962 -0.162071 -0.0435597 -0.153798 -0.072756 -0.0098971 0.0931015 0.275046 0.143839 0.00167599 0.0416818 -0.0765155 0.107718 0.0447454 -0.0277657 0.270399 0.178827 0.0795039 -0.0273969 -0.146226 -0.326384 -0.22483 -0.0493768 0.0277397 1.2765e-05 0.197733 -0.0623488 -0.00807455 0.126709 -0.0335066 -0.0590795 0.194144 0.149194 0.0128137 0.151959 0.0280659 0.0220867 -0.13619 0.184897 -0.0959915 0.128852 0.0388286 0.0652578 -0.44956 0.185138 0.302498 0.201884 0.0336711 0.140567 0.152902 0.191326 0.0206405 -0.230683 0.248268 -0.183111 0.11777 0.0407675 0.156233 0.0220668 0.0183078 -0.363278 -0.164188 0.0190562 -0.00385218 0.122702 0.164094 -0.143836 -0.0416592 -0.111179 0.155298 -0.0745223 0.156553 -0.0881061 0.22529 0.134365 0.00964794 -0.049945 -0.0844407 0.041393 0.143156 0.204414 0.0328669 -0.106745 0.266684 0.0246704 0.0786633 0.169191 0.0801441 -0.097364 0.14041 0.122738 0.182653 -0.211426 -0.0341382 0.0154031 -0.204701 0.010324 -0.0576172 -0.364403 -0.0356724 0.207508 -0.09475 -0.127368 0.082603 0.321462 0.00959358 0.148791 0.0850406 0.192774 -0.0904322 -0.206155 0.0943907 0.153252 0.0377729 -0.0554718 0.018747 0.0572244 -0.136421 0.0573189 -0.0368969 0.108075 -0.122688 -0.0183853 -0.0960918 0.123577 0.024269 0.257119 0.400064 0.0108597 -0.172328 -0.0241631 -0.120647 0.151734 -0.220015 0.10377 -0.00683493 -0.0401415 -0.258347 0.0642697 0.197731 -0.1082 0.1809 -0.0339921 0.127073 0.226401 -0.0464834 -0.109308 0.0494623 0.18553 -0.0686145 0.106566 -0.0503374 0.0975853 -0.239691 -0.0748282 0.00155685 -0.156455 0.00872603 -0.239628 0.0829023 0.0839584 0.0854231 0.0855583 0.152752 -0.057343 -0.0415353 0.0156569 -0.107139 -0.0584862 -0.0731602 0.128956 0.0337841 -0.137206 0.00627327 -0.202428 0.023184 0.243501 0.114371 0.082681 0.0232937 -0.0800145 0.0972529 -0.0291717 0.0978921 0.00655032 0.112327 -0.212685 -0.03791 0.0269638 0.126504 -0.176772 0.0730524 0.167524 0.00635222 0.321013 -0.122588 0.0798798 0.191469 -0.152002 -0.22399 0.0386651 0.0167779 0.103569 0.0622599 0.0488732 0.188627 0.245637 0.071706 -0.143959 0.207784 -0.0125101 -0.200256 -0.000164526 -0.00259649 -0.0282375 0.0620448 -0.102046 -0.165776 0.118837 0.170039 -0.124849 0.000285557 -0.145764 0.0858382 -0.0893679 -0.0023218 -0.157378 0.287274 0.416965 0.0730562 0.0456068 -0.222848 0.0905045 -0.114168 -0.0410705 0.166655 0.0935998 0.213806 0.279668 -0.0498623 0.0293703 0.197566 0.179002 -0.0513652 0.0410961 -0.0059844 0.227774 0.00935199 -0.236544 -0.0898918 -0.027022 -0.0426246 -0.133304 -0.00366922 -0.0980647 0.0746708 -0.180324 -0.101114 0.00826035 -0.107324 -0.120407 -0.0286706 0.0484043 0.0341954 0.161014 0.14992 0.202585 -0.166559 -0.143763 -0.0638777 0.192747 -0.0336253 0.276482 0.0557739 -0.112167 -0.0505856 -0.0597362 -0.0543778 0.0439186 0.0857914 0.00209393 -0.18538 0.226698 -0.0254708 -0.270665 0.0421901 0.254908 -0.146728 0.0673148 0.163208 -0.0220626 0.20197 0.170083 0.192702 -0.0702607 -0.14393 0.0944763 0.0584054 0.135573 0.0739252 -0.0174095 0.0116431 -0.20116 0.0206348 0.295815 0.166675 -0.199996 -0.273158 0.142293 -0.0785712 -0.0401113 -0.0792747 -0.0887439 0.145778 -0.0577685 0.0147024 -0.0438637 -0.0271875 0.066375 0.297342 0.011592 -0.0227982 -0.0106658 -0.0702025 0.23712 -0.137811 0.035176 -0.282233 -0.0687261 0.114433 -0.340086 -0.0377923 -0.0435441 0.0676264 0.303007 0.185266 -0.141282 -0.170923 0.326108 -0.265999 -0.17961 -0.182806 -0.139805 -0.266921 -0.108976 -0.128866 -0.0850241 0.369303 0.195946 -0.0876636 0.0215818 -0.177548 0.272025 0.011627 0.0769164 -0.152427 -0.054712 -0.106998 0.0245494 -0.200925 0.233694 -0.221476 0.197804 -0.15407 -0.0128969 0.0767425 -0.229749 -0.169283 0.000947916 -0.189145 -0.0183191 0.159807 0.0400531 0.0423518 -0.058421 -0.135649 -0.0528025 0.221486 0.0152371 -0.17537 0.100671 -0.179112 0.0374637 0.0776048 0.0616486 0.251013 0.0399094 -0.0399009 -0.0484066 -0.0705377 0.0671938 -0.0188236 -0.232463 -0.147127 0.176765 -0.208244 0.0560055 0.143961 -0.0519543 -0.314243 -0.183979 0.13709 0.0694863 -0.182589 -0.0277884 -0.0239074 -0.138609 0.0309035 -0.138125 -0.0944749 -0.025016 0.142565 0.266326 -0.183472 0.145128 -0.129383 -0.0530545 -0.16366 0.111979 0.182682 0.192559 -0.145511 0.0928509 -0.127926 0.0889089 -0.0540899 0.0622727 0.049182 0.155725 -0.068979 0.402863 -0.106349 -0.243014 -0.105053 0.00463132 0.0168058 -0.134314 -0.0995388 0.0382103 0.091016 -0.375291 -0.106748 -0.0919885 0.118483 0.188242 0.0427985 0.0321743 0.190902 -0.181647 -0.084382 -0.078348 -0.0314765 0.0146788 0.172756 0.0993322 0.0846255 0.117223 -0.0976907 -0.0615106 0.223446 -0.087562 -0.202796 -0.066783 -0.014145 0.113087 -0.000716256 0.182132 -0.0894578 -0.0237457 0.0488477 -0.135679 0.0650649 -0.00247735 -0.14665 -0.0090461 0.334892 0.250794 -0.0931284 -0.218405 -0.0431077 -0.189144 -0.222891 -0.00661792 -0.0143147 -0.0614302 -0.200221 -0.0891538 -0.0956157 0.30929 0.0590469 0.185509 0.329005 -0.248519 0.378212 0.605769 -0.0404843 -0.0578101 -0.345207 0.00778426 0.095566 -0.277752 9.73919e-05 -0.118299 -0.274714 -0.13239 0.295078 0.15712 0.170871 -0.0271794 0.141667 -0.0210499 0.0839632 -0.183545 0.0879198 0.278169 -0.0686703 0.0310245 0.196152 -0.204991 0.0260377 0.162553 -0.000101647 0.297221 -0.156663 0.0753629 0.238094 0.171591 0.237865 0.100158 0.0999227 0.00591727 0.256244 -0.0287183 -0.328826 0.0124581 0.0880536 0.255737 0.00555039 -0.21065 -0.246368 -0.268946 -0.0401931 -0.0755889 -0.0771732 0.0824834 -0.0807686 -0.0111769 -0.0247508 0.0136717 -0.0165874 -0.017861 -0.0254259 0.0816792 0.00496179 -0.130013 0.311998 0.260716 0.00964984 0.0884304 -0.0359948 -0.069596 0.125482 0.309528 -0.392609 -0.0455974 0.330322 -0.0235792 -0.158745 -0.259245 -0.0612056 -0.0751208 -0.230757 -0.038049 0.189603 -0.0719679 0.132823 -0.0491702 -0.22802 0.047245 0.203015 0.0756934 0.197808 -0.14234 0.127501 0.0150262 0.190274 0.265635 -0.0740609 -0.0179967 0.00913073 -0.0239641 -0.183631 -0.0900327 -0.0793777 0.163764 0.154052 0.116627 -0.0785707 -0.012678 -0.0135157 -0.290901 0.0587396 -0.0790491 0.188802 0.0646328 0.00878229 -0.142439 -0.132827 -0.190182 0.061772 0.146314 -0.0928916 -0.0814986 -0.272867 -0.160514 0.189081 0.113621 -0.144175 0.14211 0.134364 0.0426799 0.128194 0.214549 0.064706 -0.209929 -0.0788435 0.0960483 0.175467 0.229619 0.119216 0.022767 0.0951524 0.0132188 0.235565 0.160945 -0.198877 0.0655982 0.0595845 0.0128051 -0.0240648 0.207477 -0.203273 -0.0694986 0.193626 0.11604 -0.137211 -0.0161481 -0.00631393 -0.0917408 -0.0737744 -0.00583548 0.0983058 0.0336655 0.029192 0.0892105 -0.00621512 0.227134 0.233534 0.050718 -0.214142 -0.0185078 -0.0108559 0.0733895 0.12601 0.169599 -0.0596246 -0.182669 -0.0131101 0.217462 0.0192292 0.244096 0.00924089 -0.0569695 0.137257 0.0172705 -0.199661 0.0651628 -0.24493 -0.252845 -0.0209043 -0.0938087 -0.24787 -0.0954791 -0.163128 0.118441 0.110092 0.00978741 0.245914 -0.0147913 -0.0326027 0.148094 0.0204551 -0.078705 -0.070073 0.078453 0.147776 0.163552 0.023236 0.0244435 0.23303 -0.0271775 0.0173395 0.0273005 0.0827949 -0.0926202 0.0019606 0.00461288 0.0645585 0.00741266 0.16449 -0.0937728 0.0465722 0.00761595 0.144957 0.135594 -0.0925743 -0.109508 0.178368 -0.145839 -0.228944 -0.174263 -0.117127 0.00761406 -0.0874679 0.0307286 -0.0600241 -0.105862 -0.137686 -0.327329 -0.190971 0.0791238 -0.104221 -0.195725 -0.225343 0.0707982 -0.0193389 -0.331515 0.026206 -0.0667484 -0.208427 -0.0919559 -0.0602988 -0.0629147 -0.142797 -0.174487 0.00549933 0.0455463 0.0138566 0.252017 0.095523 -0.0105618 0.0146178 -0.0687095 0.0479343 -0.0686556 -0.0673649 -0.157718 0.194906 0.172305 -0.189043 -0.111806 -0.0542742 -0.0978387 -0.407315 0.153518 0.179701 0.0542411 -0.1098 0.177684 0.049042 -0.114573 -0.0170658 0.0854879 -0.254905 -0.0843447 -0.0540119 -0.106601 -0.001754 -0.121748 0.195169 0.011931 -0.164132 -0.277894 0.0115409 0.0988689 0.0979044 -0.132795 -0.0113036 -0.114012 -0.203028 0.130841 0.0896426 -0.03158 -0.149653 0.073094 -0.0201563 0.187083 -0.210302 -0.197413 0.575893 0.149538 0.159419 0.0383582 -0.300657 0.278885 0.0977281 -0.0120099 0.0432817 0.0364099 0.00798566 0.012678 -0.040168 -0.082932 0.158681 0.218685 0.168242 0.0179187 0.0288337 -0.11757 -0.00677488 -0.163825 -0.231675 0.00164715 0.0744902 -0.134617 0.0261384 0.294103 -0.325095 -0.355306 -0.109728 -0.12122 -0.0989275 0.0383615 -0.11418 0.00318604 0.176981 -0.0624164 -0.0596899 0.136996 -0.0790364 -0.144474 0.279382 -0.0309021 -0.0270641 -0.0515927 -0.0360246 -0.10098 0.129662 0.0224153 -0.15718 -0.0288152 0.00821354 0.0430907 -0.192584 0.0174875 -0.187981 -0.0993336 -0.00778001 0.0650734 -0.0941912 -0.163921 0.0519241 0.193966 0.070142 0.139984 0.0482416 -0.177718 0.0614935 -0.232387 -0.033926 0.0151118 0.0042304 -0.173649 -0.0904241 -0.00781641 -0.443779 0.224058 0.00901773 -0.202857 0.0873435 0.282366 0.174228 7.75353e-05 0.00614042 0.0467562 0.0855886 0.0491995 -0.195268 -0.0522082 -0.0638659 -0.113619 0.0169552 -0.18396 -0.167949 -0.327392 -0.159481 0.0955906 -0.0573345 -0.0898455 -0.0659168 0.267378 -0.114578 0.211609 -0.208788 0.134516 -0.11047 -0.134438 -0.0700768 0.0490855 -0.108858 0.0127333 0.00221448 0.0988882 0.0795077 -0.0553229 0.118114 -0.0807554 -0.0597334 0.0266783 -0.137377 -0.0367546 0.0511988 -0.0177778 -0.0669626 0.0450683 -0.0692835 0.0675049 0.0231835 0.212804 0.0169831 0.0189484 -0.0252325 0.106586 -0.136079 0.0913068 0.0283585 0.027846 0.0792988 -0.0592441 0.127954 0.134679 -0.106169 0.0581061 0.242395 -0.172175 -0.230772 -0.0128165 -0.0163718 -0.0217699 -0.0684821 0.00735924 0.00496037 0.0436278 0.030981 -0.229321 0.0262504 0.00940967 0.211169 0.289846 -0.0277515 -0.293455 0.0442093 -0.0412639 0.0860973 -0.0438609 0.2931 0.107499 -0.0122908 -0.260854 -0.000113466 0.249006 -0.120615 -0.142018 -0.109693 0.0459846 0.0197242 -0.112575 0.0217822 0.0920226 -0.125569 -0.00349051 0.0962308 -0.0160087 -0.125054 0.0258722 0.0460106 -0.239892 0.021213 0.182814 0.0983602 0.0217184 0.196031 0.227557 0.0297939 0.181352 -0.108606 0.125461 -0.0441795 -0.19042 0.152021 0.0624774 0.119314 0.0859777 -0.114654 0.263028 -0.0443899 -0.30229 0.160493 0.16298 -0.0995898 0.0511312 0.152593 0.0159841 0.367411 0.00538209 -0.118327 0.298904 0.00484454 0.0277893 -0.108574 0.261341 0.0531386 -0.250121 -0.120444 -0.0686466 0.0191909 -0.0458229 -0.0114331 0.315456 0.014371 -0.174278 -0.00975999 0.055337 -0.0553947 0.0726076 0.0762366 0.043224 -0.0520111 0.0962591 0.107284 -0.117524 0.0696333 -0.0303872 -0.0764881 0.0837887 0.0270461 0.217556 0.174584 0.145724 0.182737 0.0962123 -0.173569 -0.0134155 0.0322604 0.147068 -0.139762 0.313428 0.0419159 -0.196176 0.0957873 -0.0312396 0.0506126 -0.0705146 0.0434633 -0.0286101 -0.153508 -0.17717 0.202963 0.00990514 -0.0102805 0.00454102 -0.224201 -0.00117438 0.00755875 0.177536 0.0237059 -0.107443 -0.230638 0.157061 0.0798245 0.0264499 -0.0827198 0.0946418 -0.0569 0.0648082 -0.205002 -0.00428619 0.0428269 0.0632929 -0.315282 -0.183065 -0.0926944 0.0328915 -0.0756868 0.161258 0.07932 0.0526616 0.182776 -0.00592909 -0.0580834 -0.192191 0.220649 0.133197 -0.0527297 -0.198805 -0.0281226 0.0269709 0.264117 -0.200648 -0.0684363 0.00947207 0.387805 0.0683516 0.187347 -0.0368515 -0.311338 -0.163247 0.184525 0.0979512 0.0710143 -0.0951727 -0.121443 0.129959 0.0221803 0.186514 -0.127288 0.148907 0.246061 0.0628443 0.0785801 0.0204603 -0.1299 -0.215225 -0.00793744 0.0546761 0.271274 0.0104484 -0.0396981 -0.0311635 0.137312 -0.0740145 -0.059262 0.0183432 0.00520999 0.0250652 -0.0165297 0.152955 -0.319678 -0.0828956 -0.0419504 0.00724624 0.102716 -0.0258665 -0.146263 -0.0482255 -0.015186 0.0157316 -0.0714994 -0.0533121 -0.0281113 0.137016 -0.0708077 -0.102387 -0.141023 -0.0314075 0.102446 -0.0604733 -0.309117 -0.00756915 0.0600984 -0.0929251 -0.159048 0.0831949 -0.0922079 -0.0910264 -0.169594 0.0862349 -0.19412 -0.382152 0.20335 0.209741 0.121913 -0.0510811 -0.20626 0.0791834 -0.169597 -0.19817 -0.0683119 -0.102174 0.120586 -0.0584626 0.1075 0.126734 0.132297 -0.0396536 -0.136459 -0.250857 0.118491 -0.00434529 0.357529 0.051725 -0.139391 -0.118902 -0.0914742 0.0240898 0.0129531 0.0647477 -0.04161 0.0666099 -0.0890332 0.189855 0.0484487 0.097191 -0.00429092 0.056953 0.0867483 0.131632 0.0940021 -0.0158579 -0.0468271 -0.244329 0.27672 0.000296903 0.297686 0.00683634 0.0772729 0.100168 0.10643 0.152713 -0.0866514 -0.1794 0.270983 -0.11106 -0.234603 0.0316514 0.141999 0.104747 0.0140358 0.135401 0.249751 0.0136642 0.182632 -0.210671 0.0920297 0.0903702 0.101136 -0.0751052 -0.120688 -0.0135238 -0.119961 -0.011444 -0.0716412 0.0468413 -0.0846865 -0.137974 0.183928 -0.120347 0.113615 -0.0795493 -0.0445611 0.0884059 0.114497 -0.126659 -0.0867762 0.0870892 -0.0623838 -0.0284791 -0.0876664 0.12429 -0.147206 -0.0676108 -0.101225 -0.263953 -0.145598 0.0720175 -0.167383 0.0562717 0.108606 0.080424 0.291537 0.24475 0.0953008 0.246587 0.127425 0.0254543 0.135679 0.0707354 0.081483 -0.17624 0.111915 -0.23857 0.282769 -0.00155071 -0.111327 0.0184685 -0.0234544 -0.175931 -0.126391 0.0572097 0.0105023 -0.101698 -0.11471 -0.247491 0.180924 0.100151 0.349054 0.0521151 -0.0528521 0.0430236 0.11152 -0.182429 0.0901655 -0.0378992 -0.22902 -0.0270802 0.178589 0.257134 -0.144107 0.18524 -0.0342593 0.0500689 -0.114755 -0.0885378 -0.0529018 0.0299225 0.133179 -0.153447 0.0624831 -0.117249 -0.14933 -0.234556 -0.112219 0.0364704 -0.00953779 0.0208608 -0.00794311 -0.0074032 0.117734 0.195167 0.0366969 0.340485 0.0302586 0.0784071 -0.0866944 0.114577 -0.119879 -0.0699638 0.0877482 0.00911182 0.0523713 0.281942 0.0604392 0.0571222 0.116762 0.067503 -0.0811468 -0.0112639 0.133273 -0.0276527 0.197974 -0.184998 -0.181144 -0.309062 0.149945 -0.128473 -0.145988 0.324801 0.0202958 -0.190962 -0.114194 -0.052307 0.354483 -0.0215704 0.121505 -0.0466233 0.178501 -0.193035 -0.258088 -0.0732761 0.0659788 0.0111665 -0.112158 0.193381 -0.0827392 0.0492288 0.101611 0.221973 -0.0525325 0.0778819 0.0548203 -0.000371129 -0.223354 -0.270742 -0.0485844 -0.0732676 -0.0459709 0.145414 -0.0622367 0.0900445 0.200326 -0.206777 -0.213926 -0.201399 -0.072896 0.114713 0.0597159 -0.212094 -0.061425 0.0111046 -0.168507 0.426451 -0.148359 0.181364 0.0531661 -0.0335463 0.0794264 -0.0647628 -0.0598809 -0.128667 0.0108956 -0.0324046 0.0201743 -0.259982 0.0921332 -0.0118889 0.12085 0.0395099 -0.0247725 -0.104197 -0.317687 -0.214392 -0.228891 -0.174724 -0.15733 -0.0517695 0.0229126 -0.0272957 0.104785 0.0355949 -0.238223 0.00536223 0.051561 0.0267672 0.139095 -0.0440817 -0.124522 -0.079434 0.0300681 0.0838525 0.308232 -0.128619 -0.0579609 0.0468294 0.0560164 0.0414809 0.074858 -0.110207 -0.152411 0.0229268 0.178384 -0.0834318 -0.135326 0.112979 0.123736 0.311405 -0.0520096 0.00478402 0.18203 0.219343 0.0171178 -0.00280687 -0.037867 0.222896 0.0511757 0.185116 -0.109272 0.136552 -0.187396 -0.00116445 -0.0744585 -0.116645 -0.00830904 0.10313 0.189253 0.188204 -0.132797 -0.0236686 -0.044771 0.141275 -0.134205 -0.0406606 -0.124291 -0.0598464 -0.168957 0.0756513 0.266818 -0.0532166 -0.000773935 0.0132789 0.0739862 0.122073 0.0324419 0.13669 0.0179116 0.036582 -0.0181021 0.118312 -0.0257654 -0.0168587 -0.137321 -0.149427 0.00169538 -0.122183 0.165344 -0.154764 0.288375 -0.347732 -0.141255 0.205995 -0.0218456 0.119793 0.0576385 -0.121849 0.0961409 -0.0252746 -0.05124 -0.0125253 0.0378883 0.146658 0.135423 -0.292894 0.145645 0.0151246 0.000271846 0.123506 0.054157 -0.0223637 0.145797 -0.336668 0.10446 0.181868 0.0508821 0.224155 0.0539679 0.00122969 -0.0634333 0.107863 0.305392 0.00884423 0.00236152 -0.383911 0.0153383 -0.168072 0.162567 0.400731 0.161303 0.0463028 -0.278636 -0.0101765 0.0356038 -0.0583344 0.148346 -0.155272 -0.0159614 -0.106792 -0.0392385 -0.0244822 0.152449 -0.263379 -0.0432335 0.0814745 0.27149 -0.106196 -0.00340824 -0.0371167 0.0130628 -0.143385 -0.0139025 0.155959 -0.0951576 0.0742977 0.085129 0.119078 -0.128084 0.0434018 0.0112081 0.042574 -0.0504769 0.0807086 -0.192867 -0.112874 0.0392102 -0.0384949 0.282524 -0.00892838 0.234693 -0.171902 0.144157 0.20584 -0.038701 0.0202552 -0.0276532 0.0923148 0.11833 0.0707325 -0.19192 -0.162288 0.0145057 0.031694 0.0572726 0.184042 -0.068224 -0.00653424 0.0800907 0.076854 0.0727919 0.292155 -0.120627 -0.0784672 -0.197203 -0.0648848 -0.166148 -0.0853962 0.0304624 0.208491 -0.0631913 -0.00077819 0.313446 0.229923 -0.0595481 0.0232691 -0.145789 -0.0936376 0.151729 -0.0415684 -0.0715561 0.095194 0.0041245 0.0938503 -0.0457827 0.218347 0.0897778 -0.0166365 0.148612 -0.0739309 -0.000999449 0.078861 0.0598038 0.047801 -0.0871133 0.00455804 -0.00906785 0.138336 -0.131337 0.20004 -0.2208 -0.148104 0.196563 0.17571 -0.0581567 0.313247 -0.00436514 -0.111223 0.00565582 -0.117713 0.0181905 -0.025207 -0.163117 -0.109258 0.00637775 -0.0897126 0.24022 0.165723 -0.0548189 -0.0461661 0.141974 -0.107526 -0.238611 -0.14858 -0.314181 0.0854756 -0.0244775 0.172524 0.0812712 -0.0476525 0.0174384 0.144166 -0.163098 -0.179945 -0.0772635 0.14852 -0.0118369 -0.00542511 -0.135391 -0.0314141 0.0255725 -0.223228 0.0509345 0.0339302 -0.0633312 -0.331243 0.0161912 -0.0904047 0.217018 -0.036851 0.0819184 0.148266 0.0420601 0.110158 -0.0526181 -0.182903 0.0232842 0.0567795 -0.0904582 0.00762494 0.0705113 -0.00516508 -0.0764555 -0.0939099 -0.0546326 0.00968908 -0.0187413 0.0589751 0.368676 -0.172185 -0.00351556 0.0532275 0.0919729 0.0125149 -0.0950342 -0.000189583 -0.183531 -0.166147 0.177597 0.0342437 0.126692 0.164113 0.0161973 0.163305 -0.0214555 0.0135129 -0.0266339 -0.153397 0.18757 -0.0803592 -0.0502561 -0.0767084 -0.0429697 -0.195628 0.112778 0.0520721 -0.02031 -0.108598 -0.0658038 -0.13026 0.152908 -0.077888 0.0187338 -0.0614481 0.0455586 -0.0583231 0.041983 -0.0496306 -0.276169 0.464102 -0.0180426 -0.0349954 0.0286498 0.237526 -0.0708295 0.0710403 0.00138807 -0.126192 0.0983256 -0.13214 0.0628433 0.150191 0.0294057 0.0293282 0.126175 0.188962 -0.150017 0.00162588 -0.0598341 0.10714 -0.23854 0.106784 0.221584 -0.039221 -0.00822347 0.141973 0.0931015 0.122724 0.00371555 0.0783603 0.124092 0.165794 0.280527 -0.0987341 0.112119 0.00161784 -0.134695 -0.0796368 0.150489 0.175665 0.118371 -0.0543433 -0.00434103 0.122438 -0.0510249 -0.175862 0.214556 -0.101547 0.211601 -0.070186 -0.124732 0.00597211 -0.173112 -0.0621715 -0.08902 0.17462 -0.0702404 0.0570258 0.477247 0.0679313 0.1003 -0.073208 -0.0586153 -0.115103 -0.0513062 0.0614453 -0.0796307 -0.13137 -0.232609 0.060782 -0.307884 -0.0876069 0.179518 0.110372 0.0009673 0.107117 0.152789 -0.0489201 0.129946 0.0371214 0.103689 -0.170478 0.121597 0.16943 0.000572532 -0.0127744 -0.032032 -0.0135682 -0.0324982 -0.119244 0.0665069 0.0244406 -0.143153 0.041505 -0.240343 0.0367721 -0.0373673 -0.227656 -0.125089 0.0204556 -0.137512 -0.331026 0.0954469 0.16588 -0.195748 0.00152518 -0.0913035 0.131987 -0.0140259 0.0180378 -0.0211818 -0.222811 -0.184699 -0.0300478 0.137107 0.351128 -0.137952 -0.0191545 0.149031 -0.0536242 0.115729 0.0357428 -0.271217 -0.0607825 -0.0374113 0.0731933 -0.00239036 -0.0162474 -0.141818 -0.0232057 -0.109983 0.0961069 0.0462413 -0.0372439 0.230522 0.0167358 0.0168587 -0.0307773 0.0392716 0.0642546 0.0260977 0.0503568 0.0945836 0.0216862 0.0150154 0.158467 -0.247897 -0.211761 0.0473831 0.143405 -0.00516319 -0.0358818 -0.276913 -0.153024 0.0730742 -0.0290483 0.154282 -0.0664596 -0.0733125 -0.109547 -0.0853158 -0.1179 -0.0104545 0.0203663 0.107529 -0.0759127 0.0875667 -0.00655362 0.141424 0.022663 -0.00864991 0.00150485 0.0455317 -0.212845 0.0282333 -0.143179 0.304519 -0.225546 0.249077 -0.0732647 0.119013 0.182255 -0.0712866 -0.177361 0.0178875 0.0156669 0.401832 -0.032561 -0.117901 0.00632196 0.151389 -0.0204154 -0.00979356 0.0420208 -0.0160777 -0.0025459 0.0685998 0.100273 0.0655372 0.0757255 0.19467 0.0605381 0.182474 -0.192538 -0.0699709 0.0137171 -0.0115045 0.165194 -0.143934 0.172951 -0.0537447 -0.0495181 0.0498476 -0.00177055 0.0119319 0.0320575 0.0136122 -0.0664265 0.029887 -0.154577 0.0245451 -0.0352308 -0.014892 -0.0411434 0.235579 -0.0420639 0.158675 0.00984982 -0.0354535 0.00848492 0.026561 0.132382 -0.0293466 -0.118017 -0.00884186 -0.248182 -0.252727 -0.15327 -0.0360497 0.00736207 -0.00940494 0.088021 -0.109876 -0.196136 -0.130231 -0.0425503 -0.0663078 0.027612 0.119198 0.075361 0.208399 -0.0133701 0.11079 -0.0661575 -0.240246 0.0159042 0.0347344 -0.105919 -0.042113 -0.0441583 0.0275496 -0.127391 0.0839254 0.170383 0.154706 -0.0620557 -0.171418 0.197747 0.0569327 0.277974 0.167781 0.0313228 -0.181071 -0.107381 0.0200249 -0.0750339 0.0880777 -0.0608614 0.252828 0.194624 -0.0285169 -0.0537395 -0.101375 0.0851735 0.14796 -0.0450527 0.151859 0.0878886 0.0227897 0.122461 -0.164246 0.0884716 -0.0567062 0.154572 -0.112056 -0.0337699 0.171177 0.0464772 0.181789 0.0796411 0.169987 0.129608 0.102548 -0.0297509 0.106659 0.0926277 -0.117855 -0.219314 0.0609342 0.15504 -0.132276 0.0410441 0.0762758 -0.0011966 0.0764512 0.0371082 0.150195 -0.132483 -0.00524309 -0.230913 -0.129359 -0.0737725 -0.0763009 -0.0828039 0.0254831 0.0718317 -0.0823146 0.174532 -0.0190704 0.0918406 0.239717 -0.0518021 -0.070073 0.226905 0.164721 -0.0660067 0.122592 -0.0470346 0.302364 0.00904894 0.277384 -0.222338 0.0285609 0.0600837 0.182668 -0.151336 -0.258938 0.223648 -0.0872745 0.0980425 0.0343122 0.0260509 0.00421906 0.0181026 -0.0272135 -0.125046 -0.0818532 0.0304241 0.0614113 -0.0162654 0.0777036 -0.0612803 -0.076498 0.234724 -0.0224815 -0.00186416 -0.0513955 -0.0166129 -0.0100347 0.0283458 0.0414767 -0.0933015 -0.227306 0.112466 -0.0548468 -0.357308 -0.0699534 0.0454929 -0.0237173 0.218839 0.0953826 0.116695 -0.0210258 -0.136627 -0.0713708 0.10657 0.0383653 0.0858604 -0.0746868 -0.176659 0.0726019 -0.038137 0.103726 -0.0721211 -0.0545187 0.0901948 0.225496 -0.0119324 0.213993 -0.18172 0.201362 0.0290105 0.0385814 0.097676 0.0681067 -0.0956753 0.033873 0.17011 -0.120531 0.164228 -0.0383171 -0.176893 0.00966024 -0.224425 -0.213688 -0.177254 -0.277887 -0.200558 0.00892176 0.0543905 -0.00716398 -0.0353745 0.0173547 -0.0206234 0.134933 0.0443639 -0.0791744 0.0658979 0.0900681 -0.00572012 0.29877 -0.153128 0.15067 -0.130696 -0.0741039 -0.0733933 0.00782303 -0.138988 0.174006 -0.270238 -0.0757804 0.121944 0.218871 0.0787834 -0.208413 0.0725381 0.136188 0.257008 -0.29997 -0.120668 0.13767 -0.0152239 0.0313323 -0.150091 -0.117341 -0.00107131 0.275318 -0.170166 0.136072 -0.0719055 -0.154784 0.121012 -0.0710644 0.293256 0.0729749 -0.0481064 -0.250111 0.0252689 -0.000281302 -0.143979 -0.244823 -0.0151128 0.126406 0.0738954 0.0909031 -0.206269 0.08711 -0.0442183 0.163018 -0.203417 -0.118504 0.130117 -0.170324 0.163633 0.366281 0.000183437 0.0218635 0.0712417 0.159366 0.124111 0.0722539 0.224283 0.0404942 0.0370742 0.248233 -0.0248075 0.256082 0.333356 0.0560254 -0.0831415 -0.187468 -0.114733 -0.0300369 0.0191281 -0.214325 0.10972 0.00564637 0.0760683 -0.24713 0.165274 0.115914 -0.00540998 0.050388 0.0835849 -0.0964227 -0.0207426 -0.104699 -0.0673177 -0.0442741 -0.184412 -0.15078 -0.105896 -0.0221912 0.0853668 -0.149663 0.126107 0.176225 0.0272972 -0.179587 -0.00819227 -0.00507336 -0.00722166 -0.00184241 0.269917 -0.0286545 -0.198937 0.120873 -0.00175542 0.0657372 -0.167234 0.0152957 -0.0163789 0.0396376 0.0547106 -0.102874 0.00035931 0.0280427 -0.152159 0.0496491 -0.0184936 0.263968 0.0615635 -0.0273728 0.129378 0.000986211 0.0450395 0.0417717 0.0785234 -0.0662785 -0.257497 -0.101332 -0.0179442 -0.0940489 0.116615 0.0160536 0.0040082 -0.139477 0.106789 0.324255 0.0567946 0.0308226 0.101511 -0.023801 -0.0887576 -0.0905135 -0.2308 0.0371441 -0.130297 0.155775 -0.179317 0.113645 -0.338683 -0.096643 0.203354 -0.133602 0.141676 -0.172089 0.152622 -0.3021 0.250297 0.00419116 0.0313186 -0.27379 0.0588469 -0.248537 -0.154232 -0.0886541 -0.111211 0.233529 -0.173959 0.0540043 0.044953 -0.098693 0.0599414 0.0439308 -0.122242 -0.32162 -0.0123371 -0.0555044 0.0709037 -0.029731 -0.110024 0.0738547 -0.079121 -0.0218919 0.0913347 0.112818 -0.069543 -0.123031 0.115222 0.0970473 -0.0529959 -0.148644 -0.255794 -0.0147416 0.154759 -0.0447899 -0.197442 0.0865961 -0.328847 -0.128646 0.00897755 0.273821 -0.118538 0.0290909 0.126973 0.0143388 0.097408 0.0575581 -0.0912444 0.189377 0.361083 -0.0823973 0.083254 -0.0369153 0.173192 -0.118225 0.00840974 -0.161055 0.127539 -0.12063 -0.0597636 -0.0714114 -0.0102876 -0.037042 0.235826 0.0154153 -0.0880967 0.0492746 -0.261122 0.0873256 0.0710611 0.121636 -0.0632542 -0.00337468 0.0482856 0.0827841 -0.0122165 0.244217 0.0816092 0.115358 -0.265045 0.210826 0.147391 0.0675928 -0.155648 -0.0171102 -0.0618122 0.334437 -0.0864585 -0.222389 0.345997 0.0405245 0.022386 -0.023392 -0.0578933 -0.0510759 0.0498382 0.00574281 -0.0614737 -0.0657367 -0.00138429 -0.187534 0.0887524 -0.100944 -0.173909 -0.103406 0.0382736 0.0771954 0.0250713 -0.0721405 -0.205697 0.0303759 -0.109864 -0.32325 0.0314051 0.0167301 -0.0337936 -0.232782 0.0855947 -0.166053 -0.0426846 -0.0410034 0.114145 0.1104 -0.0860027 -0.0781476 0.00136018 0.0588228 -0.189434 -0.213257 -0.0523652 -0.236375 0.336129 -0.0580763 -0.0663206 0.233535 -0.246391 0.281349 0.0617271 0.0978184 -0.0976912 0.278359 -0.107516 0.0691695 -0.0218243 0.0987578 0.245187 -0.266123 0.136304 0.135567 0.0784005 -0.108807 -0.112334 0.0133399 -0.175138 0.159346 -0.0949793 -0.191593 0.0325303 -0.139187 -0.0400758 0.0648658 0.0608009 -0.144707 0.26737 -0.016593 -0.228082 0.013363 0.167049 0.081786 0.0118416 0.106869 -0.0739474 0.0063995 0.0843173 0.0101775 0.0668851 -0.13375 -0.0620647 0.0879406 -0.0699534 -0.142954 -0.0815875 0.0161302 0.086155 -0.234634 0.0593145 -0.121143 -0.139179 -0.180027 0.0995468 0.184635 -0.00774171 -0.160211 -0.0622344 -0.144707 0.216834 -0.161744 -0.00964464 0.190341 -0.299056 0.100666 0.0833656 -0.132772 -0.078843 0.183938 0.0394258 -0.10005 -0.0688873 0.0366279 -0.190779 -0.397594 -0.0447643 -0.0200306 -0.134742 -0.0552028 -0.127237 0.117182 0.0605763 0.0373564 -0.13575 -0.00161217 -0.0796864 0.0660558 -0.0933147 -0.116331 -0.0697988 -0.127295 0.00935482 -0.235425 -0.12207 0.0169358 0.193487 -0.174268 0.15121 0.23113 0.0685521 0.0824248 -0.11828 -0.0498259 0.2385 0.0834091 0.0926982 0.0941827 0.00326925 -0.0986131 0.0885136 0.00388244 -0.262911 -0.0859512 0.150373 -0.0292743 -0.194809 -0.196796 -0.144485 0.00733843 -0.055312 -0.0775684 0.0744746 -0.0881959 0.0443705 -0.332462 -0.302245 0.147796 0.0215941 -0.00247073 0.0229646 -0.00723773 0.100142 0.0558089 -0.0191768 -0.150494 0.09673 -0.302694 -0.142581 -0.0512064 -0.0522943 -0.110086 0.149722 0.0826375 -0.236906 0.100782 -0.151017 -0.080484 -0.318861 0.129906 -0.00411174 0.138717 -0.120652 -0.0840261 0.193845 -0.111628 0.106298 -0.119276 0.0350913 -0.0998579 -0.0264443 -0.104147 -0.0698678 0.0738609 0.136239 -0.168495 -0.137465 0.0323497 0.289117 0.0158054 0.119151 -0.107086 0.0710942 -0.249247 -0.168705 -0.106473 0.0582683 -0.196602 -0.395871 0.202865 -0.175702 0.181461 0.0126335 0.0787187 -0.08249 0.160944 -0.0480643 -0.0426548 0.0787168 -0.0263856 -0.01233 0.0817771 -0.368484 -0.0664549 0.0391794 -0.115262 -0.0521108 -0.22393 -0.139757 0.16096 -0.415925 -0.129803 0.037146 0.245517 -0.158878 -0.1058 -0.0637638 0.0713396 -0.161095 0.216846 0.0470682 -0.0254221 -0.011523 0.37591 0.0106233 -0.29549 -0.167034 -0.126094 -0.00841589 -0.103169 0.0380382 -0.0466791 0.145703 -0.092779 0.214222 -0.0176785 0.0669806 0.183171 0.00788638 -0.114609 -0.145483 -0.210843 0.0890734 0.0780355 0.18791 0.083081 -0.324326 0.17204 -0.0159638 -0.0200689 0.210022 -0.171495 -0.103081 -0.103114 -0.142675 -0.102268 0.00977087 0.0315332 0.207997 -0.0584815 -0.179761 -0.239243 0.10398 -0.0605012 0.12161 -0.0858633 -0.116716 0.0577529 0.134625 -0.0223491 -0.102468 0.00350374 0.132906 0.15322 0.035106 0.0603456 0.235935 0.137467 0.13978 -0.0209199 0.0861048 -0.0729432 -0.144628 0.137671 0.106953 -0.0383544 0.16441 0.00475802 -0.0626812 0.0479159 0.213716 0.041784 0.0810896 0.139014 0.102033 0.0771656 -0.0453993 -0.0473367 0.0305395 -0.0594379 0.213565 -0.112277 0.172754 -0.0696125 0.157807 0.0413977 -0.24482 -0.109465 0.102525 -0.114842 0.0383975 -0.17861 0.228807 0.114917 0.0756834 -0.0311082 0.0404824 0.0594157 -0.0094976 0.0844544 0.0453619 -0.00632669 -0.0767983 0.0453161 0.139065 0.162789 0.333772 -0.193778 0.0302657 -0.318356 -0.109681 0.111962 -0.142841 -0.0625266 -0.0111211 -0.164533 -0.291856 -0.0438925 0.0265644 -0.185419 -0.052013 0.110681 -0.188773 0.0715542 0.0857909 -0.118906 -0.0329284 0.0702957 0.0682774 -0.0724076 -0.0429825 -0.173831 -0.122284 -0.070647 -0.0123631 0.146397 0.0126666 0.230982 -0.210992 -0.158279 0.247343 -0.124828 0.128246 -0.0070472 -0.127681 0.105981 -0.281997 0.171355 -0.0644451 0.05334 -0.00634135 -0.000726184 -0.11248 -0.141872 0.277277 0.0902161 -0.0205029 0.015343 0.00397652 0.126156 -0.0383327 -0.0607461 0.0644049 -0.189698 -0.0919162 -0.0567511 0.23473 0.146594 0.0139918 -0.158684 0.0270948 -0.112139 -0.0278347 -0.0880603 0.00616548 0.173108 0.00955623 0.100018 0.00066236 -0.0388613 -0.00613616 0.360973 -0.198688 0.05981 0.0542846 0.178325 0.121919 -0.0487447 -0.241395 -0.104969 -0.181278 -0.133375 -0.0955637 -0.104661 -0.0410776 -0.00774266 -0.00921488 -0.00867355 0.138797 -0.159159 0.0724738 -0.0421078 0.353481 -0.0227396 -0.108623 0.181453 -0.185648 -0.0528805 0.193644 -0.171466 0.00340588 0.0539598 -0.146077 0.325262 -0.164847 -0.111013 0.0678363 0.026405 -0.257009 -0.0655523 -0.238887 -0.0590777 -0.0669517 0.16573 -0.00217997 -0.178363 -0.18544 0.0652285 -0.0614633 0.0849763 0.313665 -0.0784081 -0.0158437 -0.147143 0.105653 0.111102 0.0304633 0.19715 0.14444 0.0228242 -0.0151326 0.111129 0.154149 -0.0566187 -0.146142 0.202445 -0.235379 0.203567 0.234645 0.154563 -0.014892 0.0440107 -0.136431 -0.416091 -0.010064 -0.159501 -0.0300657 0.0585623 0.178066 0.240151 -0.203007 -0.17453 0.0209932 -0.00755402 0.0014188 -0.0535793 -0.140923 0.00603168 0.15145 0.0526058 -0.13885 -0.24368 0.0983124 -0.0955509 -0.151153 0.0772289 0.0911588 0.0802145 -0.128154 -0.0620188 -0.0845598 -0.162013 -0.0514801 -0.273172 0.373373 0.0829959 -0.181711 0.164092 -0.206224 0.155906 -0.180434 0.0546884 0.267784 0.254625 0.0727229 -0.0118771 0.301258 0.0841457 0.0706824 0.0520021 0.0587231 0.0397813 -0.20388 -0.139418 0.191313 0.0152655 -0.225812 -0.121384 0.0607815 -0.0609139 0.0461425 -0.259819 -0.0644985 0.0994092 -0.0619049 -0.0304775 -0.0823874 0.0253035 0.105123 0.0858562 0.0565128 0.167461 -0.099996 0.0951552 0.162915 -0.0649041 -0.202333 -0.0836275 0.116068 -0.0317795 0.0486279 0.238292 -0.164929 -0.00420109 0.0812925 0.0120974 -0.0048904 0.194543 -0.130372 -0.173606 -0.202108 -0.0458437 0.0283614 -0.175322 -0.00798188 -0.013901 0.0324632 -0.121794 0.314969 -0.0743261 0.154351 0.0801786 -0.0103618 -0.105943 -0.171562 -0.022907 0.184054 0.0947174 0.139115 0.185824 0.0289429 0.0817662 -0.010793 -0.210865 0.0895954 0.0652308 0.0528058 -0.0592582 0.328688 -0.190061 -0.248364 -0.00278513 -0.0556571 0.113525 -0.0659395 0.0471325 0.0856486 0.0187167 -0.103521 0.128335 -0.0365248 -0.184142 -0.160604 0.126261 -0.0570499 -0.191018 0.104595 -0.0799739 -0.233312 -0.0256689 0.0415547 0.138202 -0.246997 0.0339978 0.212139 -0.151193 0.205495 0.268082 -0.0828975 0.0678566 0.00231944 0.0569729 0.101936 -0.114414 0.287791 -0.165182 0.0225907 0.067095 0.179194 0.0242879 0.0964672 -0.230825 0.25752 0.0641765 0.052611 0.201041 -0.100192 -0.0710753 -0.063569 -0.096313 0.148774 0.0201119 0.050292 0.35885 0.146826 0.0358762 -0.141449 0.0899514 -0.233748 -0.303938 0.138225 -0.137112 0.104527 0.146348 0.0319488 0.155401 -0.0171462 0.365314 -0.0608449 0.0508097 -0.0939586 -0.0797503 0.0110379 -0.143602 0.348862 0.280307 -0.179881 -0.17804 0.0527737 -0.0245328 -0.0185957 0.239126 -0.0541953 -0.249497 0.109506 -0.113942 -0.192947 -0.197292 0.0702233 0.187597 0.0975163 -0.154383 0.108347 -0.0726104 0.0275907 -0.138948 0.4042 -0.221073 0.0458172 0.0958128 0.455697 0.0737786 -0.102064 -0.108949 -0.0598752 0.408561 -0.100463 0.00680278 -0.00617919 -0.183578 -0.362219 -0.100918 -0.108091 -0.111783 -0.0322656 0.107889 0.00979592 0.0107367 -0.132529 0.136929 -0.153264 -0.228594 0.126977 -0.16138 0.00267024 -0.107384 0.0419655 0.102093 -0.0112691 0.0635643 -0.315582 -0.0135171 0.10885 0.0214035 -0.0411504 -0.0339198 -0.16565 0.145692 0.00241825 -0.0974033 -0.0220739 -0.0159472 -0.0235064 -0.00186699 0.0919403 0.0293273 -0.117556 0.167942 0.0404304 0.20914 -0.172807 0.196739 0.300604 0.154339 -0.094368 0.0866883 -0.267196 0.283122 -0.131835 -0.021395 0.157366 -0.0492425 0.218516 0.119535 0.0643009 0.240406 -0.00296762 -0.0930045 -0.00663211 0.29005 0.0248056 -0.0413826 -0.201194 -0.00141502 0.254688 -0.0121825 0.0841551 0.0264693 -0.0386287 0.110655 -0.147553 0.0637411 -0.0293046 -0.0620599 -0.0811336 0.122932 0.282609 0.0917039 -0.125317 -0.0595476 -0.129666 0.016524 0.202343 0.0636778 0.188282 -0.172566 0.125178 0.235836 -0.141964 -0.142329 -0.033161 -0.200292 -0.0299121 0.0859569 0.018591 0.141926 0.00321393 0.247015 0.000642503 0.0804954 -0.0714157 0.252037 -0.0576905 -0.104433 -0.312311 -0.124551 -0.0894635 0.0967522 0.193386 -0.187016 -0.0586053 0.0934187 0.0266268 -0.000150816 -0.123587 0.0279241 0.0546539 -0.0620977 -0.00596455 0.00519439 0.0547787 -0.141542 -0.0692977 -0.0259739 0.039622 0.200593 0.238975 0.06212 0.150528 -0.0717731 0.148195 0.0898204 -0.139896 0.0266339 0.101525 -0.11968 0.0558235 -0.061155 -0.322745 0.23006 -0.0994972 0.190778 0.203904 -0.155047 -0.352417 0.0074987 0.00329241 -0.234031 -0.0389615 -0.061347 -0.193869 0.0517539 0.117586 0.0871308 0.00659145 0.00280545 0.0991242 -0.126994 0.0834308 -0.0502712 -0.154553 0.205553 0.0386305 -0.403707 -0.0792676 -0.258434 0.312981 0.132459 -0.116394 0.0547153 -0.0593949 0.0409557 0.0988528 -0.0489555 0.0748537 -0.000865181 -0.264534 -0.330327 -0.0259531 -0.188928 0.00678576 -0.0937463 -0.0561805 -0.0937482 -0.0328632 -0.149924 -0.244828 0.0103051 0.0267223 0.024946 0.0160763 -0.113596 0.368965 -0.147936 -0.0460664 0.082343 -0.101239 -0.0311233 0.0950328 -0.0457288 -0.0793947 0.107293 0.00953732 0.0531949 -0.176199 0.00749918 0.147862 -0.0642621 0.0419901 0.0200103 -0.0631057 0.13068 -0.0470937 0.0129266 0.112792 -0.03693 -0.0571459 -0.105461 -0.0451005 -0.169035 -0.314183 -0.0744263 -0.144553 0.101919 -0.0354265 0.0486695 -0.26771 -0.045882 -0.0164862 -0.315516 0.379167 0.106746 -0.0177698 0.0194212 0.163965 0.205971 0.0378401 0.280115 -0.0393274 -0.170597 -0.00623592 -0.150006 -0.0966643 0.0336527 -0.0381696 0.243343 -0.061182 0.362762 -0.148745 -0.0130042 0.0914718 0.105534 -0.092449 -0.146105 0.0047826 0.147923 0.0953935 -0.201689 0.0940848 -0.223239 0.0757789 -0.0479253 0.129675 0.084913 0.056033 0.0335104 0.0107746 -0.041071 -0.00571917 -0.0286994 0.195427 0.0743965 0.0072453 -0.155047 -0.0445549 0.0710691 0.159282 0.122748 0.0964539 0.128826 -0.0354795 0.250178 0.0253077 0.193198 -0.248122 0.0213406 0.0687327 -0.0548269 -0.105921 -0.127653 -0.228066 0.0877397 -0.294817 0.133104 0.10483 -0.0682722 -0.165084 0.0566608 -0.0233017 0.324747 -0.0240638 0.196824 0.0372699 0.0821354 0.00129257 -0.0844492 0.0759005 0.0597287 0.145505 0.0174105 -0.234265 0.304131 -0.193797 0.0806944 -0.0807823 -0.0316197 -0.095115 -0.0984916 -0.0726392 -0.0121787 -0.00283524 0.0716578 0.0629814 0.272024 -0.227429 0.157435 -0.188333 -0.171984 -0.0284886 -0.21589 0.0822106 0.104481 -0.240341 0.146732 -0.0177821 0.000602317 -0.150268 0.00194075 0.249389 0.190389 0.0295419 -0.0368718 0.167117 0.130887 -0.0743984 0.0568755 0.214194 -0.0119121 0.0120005 0.017982 0.120328 -0.138205 0.00233551 0.0967574 0.250237 0.22733 0.174161 0.205851 0.0128969 0.138041 0.163858 0.158606 -0.161287 -0.00525444 -0.0912227 0.0774686 -0.151238 0.106553 0.017236 -0.00831755 -0.00246269 -0.153779 0.24617 -0.00428052 0.0428945 0.00783674 0.176524 0.25703 0.305352 0.103719 0.188507 -0.0699567 -0.206011 -0.0921077 -0.0313403 -0.0742921 -0.123011 -0.192791 0.0984902 0.158173 -0.364394 -0.253377 -0.0427787 0.0987526 -0.0193711 -0.149379 -0.074918 0.0158517 -0.0665816 -0.179985 0.072634 -0.114296 -0.0674779 0.0806041 -0.0228266 -0.327589 -0.000741313 0.157733 0.00456276 0.0147341 0.0481584 -0.148533 -0.0666255 -0.0592332 -0.0579836 0.15419 0.0526734 -0.122374 0.141149 -0.0307035 -0.366145 0.144356 0.165194 -0.0224592 0.0361348 0.279239 -0.0117646 -0.0751029 0.0941808 0.00851328 -0.02453 0.0272087 -0.0970581 -0.186033 0.036965 -0.213192 -0.144808 0.217363 -0.236464 0.0782535 -0.0705486 -0.119379 -0.106787 0.0641576 -0.0582687 0.227291 -0.0561644 -0.091668 0.0485877 0.269109 -0.163404 -0.0937473 0.0666879 0.00661934 -0.0988878 -0.282126 0.00159467 0.113425 0.134551 0.0249404 -0.0606449 -0.0404422 0.0738434 -0.0437517 0.131941 -0.0044493 -0.0805129 0.0822319 -0.353764 -0.155366 0.0657627 -0.0119073 -0.147668 0.0362667 -0.112604 0.223298 0.0600549 0.0544539 -0.0462872 0.117566 -0.311656 0.179698 -0.214465 -0.270507 0.0270036 -0.111854 0.0451922 0.0174757 0.113862 -0.0575974 -0.00398834 0.1194 -0.111173 -0.173447 -0.0541518 0.0340995 0.187273 0.0637454 0.0191243 0.114602 -0.280171 0.099005 -0.189497 -0.144017 -0.0193474 0.186443 0.336502 0.0988452 0.125479 0.0778133 -0.100004 0.257036 -0.157938 0.290361 0.0266797 -0.0728822 0.0353036 0.204178 0.102637 -0.090705 -0.187833 -0.335929 0.222083 0.120924 -0.0549565 -0.162642 0.137533 -0.338369 0.177238 -0.0445525 0.0853517 -0.0365291 0.193566 0.0533419 -0.303443 0.00945789 0.0203303 0.0765387 -0.10472 0.0368874 0.0363357 0.206595 -0.232662 -0.0536261 -0.169238 -0.13821 0.204366 0.238761 0.0674912 0.230602 0.140659 0.0765174 -0.0575397 0.322264 -0.0589609 0.124248 -0.123313 0.0201857 -0.189974 0.0275633 -0.123172 -0.06515 -0.0985904 -0.157367 -0.142898 -0.134584 0.45513 -0.0949822 0.227226 0.0534478 0.111454 0.213562 -0.161104 0.0757695 -0.0531301 -0.12034 0.360839 0.0244832 -0.0105027 -0.110443 0.0760323 -0.0832564 0.164503 -0.195642 0.202148 -0.127416 -0.156353 0.104374 -0.136692 -0.0318689 0.0667834 0.00107793 -0.0132032 -0.0350389 0.014544 -0.0395979 -0.136074 -0.0384183 0.0410743 0.123066 0.174787 -0.169693 0.132014 0.0854586 -0.023991 0.00105571 -0.0520016 0.0385601 0.197499 -0.175813 -0.0345075 -0.221987 -0.0888838 0.0988107 0.0464715 -0.0162318 -0.102526 -0.0838568 0.138319 0.117961 0.0298776 -0.057447 -0.0307494 0.0568187 -0.0712734 -0.0167438 0.0216082 0.024496 0.131721 -0.252603 0.195525 0.13214 0.0357112 0.0181248 -0.0235282 -0.0139866 -0.0384741 -0.00710819 -0.319749 0.0200467 0.202045 0.00381861 0.140786 -0.268864 0.126633 0.0681384 -0.144808 0.0744991 0.102127 0.173055 0.176174 -0.116991 -0.070664 -0.0107098 0.00116965 0.0636437 0.0920112 -0.262745 -0.0553073 -0.266201 -0.117998 -0.0807223 -0.083402 0.200759 0.0418048 -0.130119 -0.159341 -0.173259 0.0773925 -0.119922 0.0246331 -0.0854453 -0.151581 0.175383 0.166904 0.301779 0.00212844 -0.0682831 0.0326584 -0.0933194 -0.00206036 -0.127287 0.265784 -0.0292336 0.190265 -0.0603021 -0.063327 0.0526857 -0.0372344 0.0536242 0.296229 -0.0598398 -0.0701784 0.0384424 0.148147 -0.040029 0.0631341 -0.0283793 -0.0610435 0.107221 0.28148 -0.00043259 -0.069231 -0.0949023 -0.068901 -0.221134 0.0697421 -0.184226 0.0549536 0.0858713 0.233161 0.0611361 0.201096 0.193488 -0.321694 0.154239 -0.0944583 -0.205321 -0.231581 0.000528564 -0.0337222 -0.178532 -0.0202845 0.0415012 -0.11823 0.156783 -0.020883 -0.197289 -0.0758853 0.10141 0.114362 -0.149455 0.0621398 0.0534043 0.150584 0.0654237 0.118452 -0.140152 -0.232306 0.122589 0.0513147 -0.0548127 0.193163 -0.231055 -0.164984 0.129049 -0.0913744 0.0477778 -0.209676 0.00112095 0.32993 -0.0895419 0.000766843 -0.128525 0.0439507 0.0940333 -0.050163 -0.12743 -0.0579813 -0.0232393 0.186049 0.165231 -0.0287741 -0.0437521 -0.0234119 -0.0389388 -0.137812 -0.0566211 -0.216242 0.163817 0.129719 0.0821477 -0.048191 0.0233131 0.190916 0.0572404 0.27343 -0.110994 0.220682 0.279136 -0.118977 -0.0841518 0.109628 -0.0329809 0.0639411 0.0920902 0.463909 0.022351 0.00966827 0.117848 -0.0520815 0.0777126 -0.148829 -0.0335553 -0.0818565 0.0509785 0.0490278 -0.0563847 -0.193889 -0.113539 0.349562 -0.114321 -0.352952 -0.0159151 0.014996 -0.198572 0.0986263 -0.0658833 -0.145946 0.0680911 -0.0374169 -0.0128879 0.199307 -0.0609896 -0.0814154 0.0997525 -0.0804802 -0.0970439 0.204039 -0.161835 0.00721078 -0.00369002 -0.0227453 -0.108027 -0.00531495 -0.122856 0.105667 -0.0878721 -0.0724118 0.159133 0.0791172 0.126627 -0.224835 -0.0544118 0.00771524 0.0663579 -0.0657348 -0.0689766 -0.00412545 0.00552392 -0.101853 -0.167553 -0.135966 0.300916 0.0438803 0.0109556 0.0599296 -0.03548 0.123718 -0.0750192 -0.00230715 0.117125 0.0393629 -0.0555994 -0.159319 -0.0016845 -0.106139 -0.115719 0.00998645 -0.0163467 0.0857006 -0.103754 0.177 0.229588 0.138826 0.0696111 -0.0835159 -0.0177925 -0.239198 0.123505 0.0943009 0.0233414 -0.171865 0.130971 0.0891822 -0.175674 -0.205212 -0.144933 0.112258 0.25368 0.200316 0.138818 0.390167 -0.0868845 -0.136243 0.156586 0.156433 0.0653221 -0.231235 -0.0457766 -0.0480544 0.119932 -0.136691 0.131169 -0.135562 -0.0143908 0.0399416 0.00458924 -0.197246 -0.201423 -0.0776998 0.0129541 -0.124136 -0.0857323 -0.136496 0.167512 0.309349 -0.0480662 -0.0807672 0.112858 0.334596 0.202686 -0.198605 0.0483674 0.0691525 0.04979 0.152279 0.0389024 0.153758 -0.0333955 0.0803573 -0.0268698 0.195285 -0.328454 -0.0524049 -0.0458139 -0.0533982 -0.205035 -0.0231249 0.159327 0.241502 0.174268 -0.0458792 0.162124 -0.168459 0.0657381 0.0618609 -0.231684 0.37728 -0.0226569 -0.203084 -0.137818 0.178792 0.0354942 -0.120828 0.0553337 -0.235187 -0.0894039 -0.124881 -0.0141284 0.126096 -0.292508 -0.0709694 -0.0468398 0.0572329 -0.00745143 0.0742018 0.256183 -0.114476 0.0359891 -0.111129 0.0396385 -0.0603697 0.0940059 0.250196 0.0754523 0.107644 0.012817 -0.115675 0.0347647 -0.00747507 -0.0928575 -0.220315 0.0440585 -0.0969678 -0.103726 0.0726927 0.0922798 0.00229675 -0.228578 -0.0833349 -0.0341666 -0.194598 0.126835 -0.00639572 0.235882 0.181946 -0.0960431 0.0013616 0.245973 0.0638309 0.0912378 -0.0507544 -0.145245 0.0970496 0.00199937 -0.145658 0.0615966 0.056997 0.0647321 -0.267933 0.0650923 -0.103877 -0.0208806 -0.352173 0.07787 -0.0954828 0.0768124 -0.203721 0.13334 0.133104 0.0382712 -0.0208022 0.107339 0.21281 0.0908355 -4.16043e-05 -0.213287 0.268638 -0.0838265 -0.221684 0.134719 -0.0816215 -0.318005 -0.184317 0.0993407 0.081171 0.0582271 0.103725 -0.0411235 0.248494 0.0883453 0.0356492 0.133922 -0.280513 0.258725 0.0581529 -0.14223 -0.170235 -0.208412 -0.0289476 0.0810173 0.197554 -0.0805493 -0.0425286 0.0700342 -0.021891 -0.0533982 0.123918 0.0124983 0.0908 -0.258052 -0.25753 -0.0761269 0.0523458 0.0133668 -0.129608 0.0173012 -0.0128969 -0.236045 0.0373106 0.0763037 0.152438 0.161817 0.0177206 -0.0282559 -0.0333402 -0.0921346 0.267768 -0.0110672 0.0225401 0.0835774 -0.12892 0.0929658 0.0938097 -0.150104 0.0511497 -0.20559 0.165327 -0.0452641 0.0929823 0.150218 -0.12399 0.165889 0.00607328 0.208432 -0.0111632 -0.241133 -0.299183 -0.0498164 0.0774072 -0.0628788 -0.0356965 -0.135547 -0.172417 -0.157373 0.089254 -0.0446362 0.0828729 -0.0328414 0.200449 -0.117334 -0.0221883 -0.253846 0.00439256 -0.0142537 0.217039 -0.08157 -0.157239 -0.191991 0.20046 -0.241933 0.0149667 -0.0982717 0.0581222 -0.141117 -0.0393336 0.0124482 0.00046994 -0.0243385 -0.211869 -0.149218 -0.0261322 0.0111164 -0.106004 0.0887004 -0.0321715 -0.124412 0.120145 -0.103013 0.220904 0.157273 -0.168298 -0.173047 -0.251726 0.0328182 -0.0674311 -0.0284838 0.131449 -0.0467926 -0.123999 -0.0748017 0.211896 0.0681776 -0.0946441 0.142904 -0.129785 0.0657712 -0.166127 -0.192376 0.0746244 0.0516182 0.021569 0.211019 0.174469 0.147989 0.391836 -0.124388 -0.0572083 -0.222855 -0.21212 -0.242677 0.112236 0.24771 0.114827 -0.15251 0.0958814 -0.189148 0.21924 0.0435243 -0.110917 0.259968 -0.00210764 0.0390906 0.128597 0.114485 -0.125862 -0.0807724 0.0628731 -0.125172 0.10003 0.020518 -0.252106 0.222032 0.0294587 0.0135431 0.0381535 -0.262691 -0.179366 0.181173 -0.0206476 0.0332556 0.177919 -0.00167836 -0.0513889 0.192184 -0.0210655 0.143755 0.12184 -0.213634 -0.0207828 0.0769089 0.185158 -0.0777334 0.0808641 0.0283912 0.104208 -0.0987218 0.0677422 -0.0717585 -0.0179026 -0.136216 -0.154956 0.0278427 -0.0371531 0.196017 -0.00981673 0.0881907 -0.0993979 -0.0738127 -0.115 -0.199863 -0.216316 -0.201215 -0.025833 0.0292143 0.177914 0.167123 0.115667 0.140429 0.00451643 0.123338 -0.0778956 -0.0946318 -0.0334087 0.173563 0.207336 -0.0103429 0.0374869 0.0641368 0.0887283 -0.0348531 -0.127586 0.0797134 -0.0353736 -0.18329 -0.26472 0.0966804 0.098068 -0.379471 0.0576418 -0.0200481 -0.0103514 -0.121766 0.0270168 -0.0724142 0.313033 0.0490052 0.289697 -0.135505 0.158698 0.0868769 0.430075 0.21337 -0.152866 0.0837173 -0.115264 -0.140688 -0.187788 0.0953401 -0.0785683 0.0776719 -0.166004 -0.204493 0.388722 0.00462753 -0.215311 0.0987086 0.0146471 0.156793 -0.122076 0.202984 0.183319 -0.0257535 0.00578442 -0.290202 0.0855214 0.199527 0.167976 0.129232 0.0395865 -0.113664 -0.120907 0.0729272 0.101571 0.0897362 0.131618 -0.0161193 -0.0600156 -0.0749563 0.103138 -0.228323 -0.082741 0.129437 -0.0432576 0.117904 0.00885084 -0.0537514 0.082317 0.216289 -0.168195 0.0274801 -0.251811 0.0865899 0.184943 -0.192871 -0.0435318 0.159384 0.0508807 0.00549697 -0.0408115 0.0728671 -0.0273799 0.013806 -0.0505615 -0.192486 0.29448 -0.128383 0.00134599 0.0531155 -0.333142 -0.0503663 -0.00759137 0.393522 0.0767841 0.129503 0.205509 -0.109962 -0.0426146 -0.108974 0.225722 0.255555 -0.31071 -0.20628 -0.148335 0.0523827 -0.122639 -0.0263648 0.0305007 -0.0143308 -0.0276702 -0.0879222 0.192084 0.0082854 -0.0887212 -0.225905 0.00964511 -0.0727744 0.110112 0.188617 0.0167906 -0.0443294 -0.151091 -0.0603939 -0.0989625 0.0580938 0.155593 -0.175634 0.0242539 0.0980264 -0.0396026 -0.337454 0.0286536 -0.0623365 -0.112657 0.144737 0.310191 0.160806 -0.0286299 -0.0298114 0.156232 0.0849981 -0.14063 -0.140149 0.0170181 -0.0151449 0.0602662 -0.103293 -0.117506 0.130337 0.108009 0.283367 0.0463779 -0.061972 0.0794855 -0.237554 0.0482005 0.139915 -0.173448 -0.070177 0.0451109 -0.0959849 0.109836 -0.0545513 -0.286073 -0.0212929 -0.0967522 0.0853196 -0.007155 -0.162567 0.117173 0.0122094 0.0293315 0.0490312 -0.00500434 0.00206414 -0.217295 -0.029185 -0.143097 0.145768 -0.129309 -0.173191 0.149618 -0.0601929 -0.173311 0.0741739 0.187827 0.295268 -0.337491 0.128651 -0.119952 0.0782936 0.241652 -0.246514 -0.0157364 -0.12002 0.0478062 -0.139752 0.166899 -0.257889 -0.020545 -0.167111 0.126993 0.0389393 0.0436396 0.105678 0.0841485 -0.0660388 0.0544808 0.025477 -0.115741 0.177417 -0.0526181 0.0372429 -0.00375904 0.241442 0.125678 0.210813 0.00124151 0.063726 0.153957 -0.0104034 0.0480298 -0.248591 0.00477693 0.00843007 0.370554 -0.133513 -0.141709 -0.105856 0.0428123 0.0159869 -0.107803 -0.101157 -0.111648 0.203776 0.0930939 0.0786766 0.0900686 -0.140833 -0.0243395 -0.0104408 0.0435304 -0.158199 0.15708 -0.170512 0.289197 0.162904 0.148396 -0.0945292 -0.0373673 0.131811 -0.123715 0.0251791 -0.0400011 0.026128 -0.0160914 0.193733 0.154447 0.0281075 -0.115802 -0.108521 0.218779 0.0183253 0.0363031 0.082447 -0.222524 -0.0240686 -0.079268 -0.0854335 0.23332 -0.259028 -0.29852 0.0488732 -0.0836771 -0.0889893 -0.0135677 -0.223882 0.131118 0.211982 -0.0247257 0.10366 -0.0558136 -0.175391 0.099787 -0.0565029 0.0423121 -0.0108171 0.265603 0.0904794 -0.106958 0.152441 0.126835 -0.0536833 -0.0999879 -0.0508263 0.11749 0.123481 0.0307423 0.055554 0.176479 -0.0914548 0.282118 0.0672576 0.0339434 0.138222 -0.132409 0.0854066 0.149205 -0.0511544 0.042982 -0.307066 0.275068 0.142893 -0.152815 -0.158121 0.329765 -0.0223165 0.124714 -0.0290686 0.207968 -0.0753771 -0.0456413 -0.0143284 0.0315049 -0.240384 0.231988 -0.00075266 0.134363 -0.120979 0.00823765 -0.123725 -0.0522389 -0.0848979 0.499951 -0.0774441 0.406156 0.279044 0.106457 -0.0978231 0.0289637 0.315387 -0.191353 0.0854014 0.188174 0.299917 0.0218772 0.00940399 -0.0830219 -0.12555 -0.0638399 -0.0973919 -0.0493351 -0.0880489 -0.156681 0.00670113 0.00897471 0.104852 0.167046 0.104436 0.0305016 0.00744859 -0.101844 -0.0305409 -0.0656242 0.00409472 0.0962341 -0.0915418 0.0863323 0.206393 -0.0521061 -0.0930183 -0.134033 -0.114027 -0.198907 -0.103817 0.0484548 -0.0209785 0.125689 0.0579033 -0.101661 0.137696 -0.097564 -0.219087 0.12269 -0.152266 -0.0685639 0.177011 0.0857668 0.0575435 0.0982027 -0.0881643 0.034489 -0.200036 0.130407 0.267103 0.075831 -0.0320996 0.356732 0.04042 0.0146641 0.00383469 0.237307 -0.200434 -0.194108 -0.256475 -0.0846567 -0.117822 -0.00905367 0.214179 -0.00786983 0.0883425 0.0491399 0.0549555 -0.129824 0.00638768 0.00515042 -0.0722544 0.103276 0.150697 0.0288365 0.066105 -0.19648 -0.0211983 -0.10317 0.0795678 -0.104723 0.0525051 0.0504651 0.0258003 0.103843 0.0236918 -0.15923 -0.0229514 0.115968 0.162741 0.141447 -0.172413 -0.0725229 0.0656119 -0.303879 -0.020493 -0.0845929 0.199982 -0.0145672 0.0682055 -0.00780932 0.109463 -0.276051 -0.0174667 -0.0391558 -0.168424 -0.115247 0.0675541 0.0113972 -0.0845608 0.00261303 -0.18921 0.166279 -0.151684 0.00820598 -0.237308 0.143263 0.0516475 0.37245 -0.125098 -0.127633 -0.083193 -0.00376472 -0.0298218 -0.189545 -0.0782856 0.109094 0.114552 0.110133 -0.0925077 0.1728 0.125321 -0.0291604 -0.0999662 0.310396 -0.0274054 0.15608 0.139343 0.118342 -0.0984202 -0.243061 0.229586 0.0603627 -0.0782842 0.182179 -0.292444 0.128365 0.0761042 0.240157 0.0291996 0.144573 -0.17866 0.317349 0.0194372 0.127008 -0.0622041 0.273101 -0.00405547 -0.114009 -0.120889 -0.126624 0.156457 0.0706219 -0.171528 -0.0581278 -0.298067 0.104523 -0.293518 -0.0165746 0.179936 0.132765 0.0736496 0.154079 -0.075899 0.0978831 -0.172384 0.453886 0.0488264 0.116674 0.0012486 -0.0937454 0.120783 0.0657684 -0.14884 -0.0201407 -0.0851645 0.00345836 0.0841575 0.174521 0.270974 0.147036 0.186722 0.116097 0.037007 0.101327 -0.0999407 -0.115069 0.203163 -0.0652601 -0.10994 -0.113073 0.047463 0.0407533 -0.047809 0.23142 -0.125513 -0.0925497 -0.0158111 0.288858 0.0776091 0.116754 0.15096 -0.0892252 0.193906 0.127539 0.0463108 -0.0103235 -0.139939 0.183503 -0.0749105 0.141626 0.068311 0.0425971 0.116686 -0.150592 -0.157201 0.0673536 -0.0553815 0.0386329 0.136325 -0.161579 -0.00220361 0.00711481 0.0669243 0.263363 -0.099145 -0.0537636 -0.240803 0.118205 0.0337515 -0.156631 0.142161 0.126334 -0.041305 0.146786 -0.0471788 0.0941165 0.150187 -0.0109769 0.0100616 0.00986589 0.00856434 -0.0430047 -0.113253 -0.168831 -0.132789 -0.115964 0.23917 0.151326 -0.0755426 -0.0892167 -0.0568376 0.0851517 0.0378202 0.0694064 0.176659 0.140386 0.0870211 -0.120939 -0.142751 -0.0180908 -0.255438 -0.0989639 -0.115873 -0.000672288 0.0748835 0.121553 0.073155 0.0538544 0.0546302 0.0724085 -0.00468521 0.2697 0.31721 0.0736363 0.088065 0.179591 -0.064524 0.0725352 0.0415504 0.0836374 0.0105926 -0.0836266 -0.0745828 -0.0533599 0.0699473 0.119075 0.0126482 0.0421967 0.157759 -0.0496141 0.0148248 0.125487 0.110469 0.131444 0.0213562 -0.135862 -0.0537102 0.10854 -0.0413849 0.157358 0.18279 -0.0657575 -0.136369 0.0671522 0.165511 -0.0297981 0.00792893 -0.0334953 0.221207 -0.210917 0.0456527 0.334052 0.210262 -0.039074 0.201306 -0.0845343 -0.253276 -0.11691 0.0929757 -0.272426 -0.0428747 -0.0128647 -0.0128694 0.0363026 0.137342 0.0262604 0.096339 0.0401075 0.0321214 -0.106325 -0.225902 0.0504353 0.263286 0.0837069 -0.0394678 0.193371 -0.0498226 -0.0918647 -0.0239707 0.0576522 -0.150926 0.0519359 -0.137679 -0.299398 0.0092962 -0.0999704 0.0932405 0.0992911 0.149275 -0.00690253 -0.00257427 -0.121814 -0.072452 -0.0362548 0.184794 -0.0600511 -0.0790879 0.00421244 0.155663 -0.116899 -0.246764 0.166711 -0.0642442 -0.257887 0.0994419 -0.199095 -0.198552 0.159191 -0.025276 -0.0324017 0.149264 0.198311 -0.211796 -0.0183371 -0.11012 0.137073 -0.223417 -0.0756712 -0.305546 -0.163646 0.228179 0.00249342 0.00853408 0.0566637 0.0819094 -0.0199904 -0.106009 -0.019033 -0.0588852 0.0277141 0.00558491 -0.0990258 -0.0625072 0.0655202 -0.0584143 -0.100739 -0.300996 0.0918448 -0.15927 -0.124682 0.191596 -0.218793 0.258512 0.173704 -0.151865 0.00810339 -0.197639 0.00639855 0.0299948 0.0260741 0.00218564 0.149009 0.403944 -0.0240686 0.0972193 0.126759 0.142907 0.0652374 -0.00807549 0.000935624 0.116756 0.0332943 -0.0689019 -0.00722591 0.0227566 0.159147 -0.0973735 -0.0283855 -0.0444533 -0.128629 -0.0736689 -0.12441 0.168863 0.266781 0.0772318 -0.120571 0.0422695 -0.143646 0.0613796 0.0119442 0.0691993 -0.216507 0.0108895 -0.0743058 0.03561 0.221429 0.0953008 -0.173073 -0.242725 -0.134865 -0.121485 0.176737 -0.310183 -0.135463 0.0778653 -0.0241286 0.0306269 0.0468498 0.0285278 -0.00818281 0.0790402 0.015153 -0.0873681 -0.0747228 0.0709476 -0.131347 0.0434094 0.147314 -0.351925 0.113242 0.0929852 0.354829 0.314908 0.139962 0.0949009 0.114798 -0.136502 0.0892346 -0.343954 0.200876 0.0145691 0.206032 -0.137941 -0.0391634 0.216106 0.116016 -0.052221 0.0171731 0.152444 0.104003 -0.0579118 -0.0645926 -0.206206 0.0976515 -0.0313238 0.141384 0.0917541 -0.0418676 -0.1237 0.0675682 0.106058 0.0761893 -0.219093 0.0188988 -0.131369 -0.00442755 0.0115471 0.0437985 0.284261 -0.0161666 0.203674 -0.103553 0.10427 0.0849522 -0.148006 0.0239159 -0.352754 0.114279 -0.11309 0.257975 -0.0656559 0.0627237 0.0832469 -0.0616529 0.152129 0.229582 -0.0772824 -0.168618 0.0336787 -0.0666331 -0.0108105 -0.0526105 5.20054e-06 0.234409 0.100168 0.287717 -0.0723664 0.383991 -0.0305205 -0.118141 0.0110048 0.125487 -0.104647 0.0772214 0.037529 -0.0165391 0.0254675 -0.175201 0.141492 0.0332116 -0.253751 0.219957 -0.0967716 0.0538445 0.0542066 -0.13715 0.187117 0.129442 0.105486 0.165835 -0.268905 -0.11648 -0.0121442 0.149102 -0.0705349 0.110231 0.0995506 0.0257195 -0.14018 -0.0228427 -0.067077 -0.145136 0.250269 -0.20227 -0.0993379 0.0364945 -0.0198401 0.296995 0.189094 -0.103851 -0.196981 -0.156397 -0.0374013 0.0974477 -0.0389085 -0.0217359 0.134913 -0.0893665 0.226573 0.0948994 0.0374425 -0.233275 0.201446 -0.048461 0.150303 -0.0788572 0.0290677 0.111808 0.0491777 0.0263918 0.165414 0.336634 -0.153184 -0.0146721 -0.0698844 0.0463084 0.038241 0.142578 -0.00284848 0.0421721 -0.361659 -0.181701 0.177895 0.144067 -0.417759 -0.194573 -0.0977848 0.0647254 -0.0512858 0.135306 -0.220385 -0.00243102 0.0424246 0.0556599 -0.0907154 -0.0826021 -0.0203696 -0.280025 0.0806835 -0.00872036 -0.0879818 -0.0299253 0.0203133 -0.120935 -0.253683 0.0673815 -0.043599 0.113531 0.182838 0.197051 -0.0427569 0.160659 -0.00343283 0.0213714 -0.145765 0.0959632 0.101923 0.10134 -0.213301 -0.0832862 0.168251 0.115911 -0.016585 -0.0278754 0.115635 0.155243 0.012799 0.00628745 -0.243244 -0.0584006 -0.145831 -0.0676812 -0.0137885 -0.112168 0.107053 0.0715244 -0.00446821 -0.0310345 0.153949 -0.0468299 -0.0150764 -0.261417 0.0489664 0.000265227 -0.0256987 0.00857474 0.0906 -0.114949 0.115971 -0.0131115 -0.486772 0.31248 0.000260027 -0.129215 0.0577794 -0.0866656 0.041072 -0.227396 -0.10968 0.0211449 0.0163363 -0.260045 0.0550978 0.146392 -0.118561 -0.0732212 0.0709751 0.123585 0.135316 -0.216753 -0.104991 -0.0243532 0.092015 -0.0184317 0.0564079 -0.134833 -0.0394012 0.136548 0.0154442 -0.224072 -0.159068 -0.0426926 -0.0187366 0.143642 0.251145 -0.189185 0.275092 -0.00416847 0.0799597 -0.0552657 -0.223572 -0.0231812 0.00357655 0.167702 0.027413 -0.165846 -0.186795 0.0241891 -0.161854 0.113088 -0.0739105 0.0879629 0.153107 0.0957329 -0.169653 -0.129313 0.0792236 -0.0656299 -0.285083 0.0704583 -0.106681 -0.0234875 -0.109979 -0.0450679 -0.121174 0.130327 -0.0024296 0.071741 0.0971933 -0.0968094 0.0752092 -0.0431701 -0.304816 0.178997 0.0641633 0.0019606 0.18297 0.0904218 0.0931015 -0.0228185 0.0903031 -0.0480393 -0.0661863 0.250203 0.0776232 0.25711 0.11934 -0.0311678 -0.0756111 0.120623 0.0699529 -0.0552132 -0.0505757 0.0448963 -0.184767 -0.115677 -0.0281344 0.173263 -0.0524838 0.0703623 0.0492694 -0.0240695 -0.319931 0.157284 -0.0107207 0.0061286 0.287932 0.197273 0.0295688 0.151452 0.0158338 0.0881699 0.117338 -0.115217 0.0128959 -0.143265 -0.0618675 -0.0929814 0.0886952 -0.0555266 -0.399501 0.279518 0.141915 -0.121263 0.110044 -0.0298747 0.0281912 -0.0308416 0.0944215 -0.229003 0.0298237 0.0532176 0.170379 0.331025 -0.00491167 -0.220655 0.0493125 -0.105813 0.0478237 -0.0912591 0.0418 -0.00065385 0.0640531 0.168248 -0.114625 0.111818 -0.115313 -0.0852382 0.195467 0.0275425 -0.0679805 0.224678 0.0937199 0.0164427 0.141554 -0.195874 0.04088 0.030417 0.0494751 0.110565 -0.0579364 -0.0388948 0.293556 -0.226427 -0.019503 0.235041 0.0555176 -0.150169 -0.00268348 0.133104 -0.20248 -0.0450764 0.00422851 -0.0597296 -0.0152626 -0.00940541 0.0776256 -0.118844 -0.125766 -0.0710309 -0.0908241 -0.0581137 0.0208206 0.223206 0.203385 -0.00305508 -0.14819 -0.0444258 -0.0173509 0.274747 0.236646 -0.0507142 -0.329442 -0.122853 0.0340451 0.0306061 0.0567043 -0.244014 0.216244 0.0822687 -0.0238109 0.144104 0.130262 -0.029549 -0.0587193 0.00984935 -0.077601 -0.169629 -0.0460579 -0.160494 0.038935 -0.0308435 -0.0701118 0.378413 0.137262 -0.0822276 -0.192743 0.216472 -0.0770384 0.19634 0.0894256 0.0926849 0.121009 0.12408 0.175718 0.104147 0.0552028 0.174885 -0.17065 0.0391038 0.0854501 0.213207 0.246064 -0.131648 -0.223298 0.0552193 0.234357 -0.172179 0.227364 -0.026709 -0.0530696 -0.00211 0.236704 0.139709 0.130009 0.0625521 -0.103912 -0.314735 -0.0845972 0.098763 -0.0320443 0.373159 0.000389568 -0.00751005 -0.0115409 0.0696381 0.0832332 -0.00986968 0.166777 -0.0116104 0.0343335 -0.0201748 0.0301716 0.117564 -0.0374146 0.0637052 -0.051465 -0.169655 0.0206286 0.0543953 -0.107602 -0.016316 0.0304373 -0.194616 0.0565143 -0.184943 -0.0341519 -0.0327918 0.135115 0.242862 0.138053 -0.043945 0.0265606 0.264168 0.0981233 -0.136113 0.0848094 -0.0532956 0.000217477 -0.0628045 0.0899088 0.235915 -0.0102181 0.0291249 -0.189557 -0.0874074 0.0180742 0.187606 0.136496 0.0112327 -0.190193 0.245236 -0.255548 0.0422591 -0.303395 -0.19476 -0.00140982 -0.123629 0.144217 0.173648 0.186148 0.257239 0.21773 -0.0602218 0.058281 0.100843 -0.206082 -0.123307 -0.155946 -0.173124 0.0738907 -0.272548 0.25442 -0.073816 0.180523 0.106175 0.0483806 0.267991 0.0186704 -0.113634 0.0745024 -0.167839 0.0200987 -0.148335 -0.0881255 -0.134795 0.247753 -0.0785045 -0.233091 -0.0911692 -0.149441 0.114722 -0.215821 0.107685 -0.0481329 0.00313403 -0.275913 0.0331095 -0.0682873 -0.123035 0.0124378 0.125187 -0.0607952 -0.059913 -0.184153 0.102949 -0.1365 0.243298 0.0302014 0.0277572 -0.166695 0.0279789 -0.284212 -0.245911 -0.0120161 -0.0315271 -0.0565535 0.211509 -0.190186 0.172166 -0.175085 -0.0497753 -0.112572 0.109225 -0.17035 0.320787 0.046819 0.236194 0.132826 -0.0853285 0.0874433 -0.170479 0.0307158 -0.111942 -0.110091 0.0237324 -0.248622 -0.0950815 0.203054 0.0674751 0.17682 0.0990074 0.0840213 0.22765 -0.186863 0.136327 0.0645713 0.00683256 0.0331156 0.00238137 -0.0506589 0.0822877 -0.0693851 -0.15373 -0.084139 -0.163826 -0.0337926 0.0773798 -0.056832 0.026111 -0.198973 -0.203031 0.154094 0.133482 -0.116344 -0.068006 0.0626353 0.0963419 0.130239 -0.139816 -0.225213 -0.121007 0.177527 0.125004 0.0776942 0.10961 0.227447 0.120838 -0.0500429 0.0235518 0.0426818 0.011766 -0.10602 0.0270168 0.0368212 0.0624188 0.0907073 0.0920027 0.119011 -0.0754962 -0.298961 -0.16244 -0.0146173 -0.382746 -0.0161046 0.0594994 0.45646 -0.0916141 -0.00701316 -0.183814 -0.188441 -0.101851 0.203308 -0.117522 -0.0067295 -0.103629 0.000305413 -0.0223661 -0.0936726 -0.146868 0.029541 -0.0527784 0.00822631 -0.153333 -0.13082 -0.0892067 0.116473 0.0579444 0.0546127 -0.128688 0.0878683 0.241012 0.111813 -0.0579572 -0.120077 0.108643 0.147614 0.0555427 0.0870329 0.268242 -0.148644 -0.0290947 0.0261223 0.0829581 -0.332556 0.141602 -0.12308 0.113275 -0.0880191 -0.169435 -0.174296 0.0842894 0.0265497 0.00181499 -0.0676453 0.157179 0.0710498 -0.089828 -0.0538204 -0.143376 -0.000422189 0.177896 -0.22111 -0.024652 0.114025 0.248006 -0.136645 0.309011 0.147504 0.0107727 -0.188777 -0.0438803 0.0810239 -0.00060799 0.0963239 0.406803 0.168476 0.0420364 0.00133748 0.126139 0.171563 0.0838327 0.0814017 -0.0546671 0.111863 -0.0325133 0.00802207 -0.163371 -0.10524 0.188065 0.030894 0.0945822 -0.0351017 -0.276411 -0.233873 0.228941 -0.0289107 0.0890214 -0.192731 0.0920306 -0.143924 -0.108027 -0.0480388 0.0793782 0.147541 -0.0071011 0.0109386 0.178229 -0.0469079 0.0320372 -0.0168034 -0.131205 -0.19505 0.0629062 0.191185 -0.0835008 0.180497 0.0272868 0.0337208 -0.143714 -0.429508 0.148143 0.207418 -0.0470171 0.22983 0.256215 0.0602903 -0.085416 0.171069 -0.171533 0.252348 0.0939057 0.11149 -0.113994 -0.0323894 0.0316968 0.110282 -0.0578489 0.347488 0.00663636 -0.0671985 -0.0390546 0.0991833 -0.160232 -0.119301 -0.0738259 0.143282 0.0492997 -0.147513 -0.014849 0.0988036 -0.309849 0.164805 0.0854718 0.0397506 -0.0785584 0.202086 -0.283372 -0.0976742 -0.142421 0.0141266 0.0745809 0.0351987 0.00979072 -0.014683 -0.0885132 -0.192572 0.216596 0.0491962 -0.0209208 -0.00438264 -0.0211062 -0.0587609 0.0743322 -0.028525 -0.00454433 0.0257521 0.113585 0.142053 0.182439 -0.0396083 0.196339 0.0549891 -0.0106994 0.134438 0.114504 -0.0212981 -0.0223084 -0.0787882 -0.0635823 -0.113875 -0.05625 -0.0755213 -0.145356 0.0344134 0.081614 -0.027127 -0.169817 -0.0606435 0.126837 0.0665215 0.192823 0.0260434 0.0113003 -0.26253 -0.0228578 0.212041 0.053411 0.0891836 0.0769079 0.163017 -0.0207804 0.101142 -0.150349 0.0358303 -0.0128832 -0.110898 0.215781 -0.166138 0.201186 0.0348025 0.00216626 -0.415355 0.038102 0.071055 0.155362 0.207299 0.0908657 0.0474956 -0.242445 0.170071 0.0254637 -0.030616 0.0226876 -0.0970789 -0.0985374 0.210452 -0.126452 -0.0706715 -0.219761 -0.0499999 0.31882 0.126912 -0.208674 0.118134 -0.0598431 0.0541735 -0.232476 -0.0927932 -0.106508 0.00791853 -0.0651854 -0.0969125 -0.182804 0.0394943 -0.0987218 0.21219 -0.207719 0.123868 0.0627124 0.015673 -0.0373829 0.166666 -0.135266 0.0492151 0.0486071 0.131147 -0.102855 0.0108772 -0.112287 0.0893561 0.129305 -0.0630811 -0.0033014 0.128255 0.119636 -0.0316699 0.252102 -0.0254311 0.283496 0.215355 -0.00429328 -0.0309716 -0.165949 0.011652 0.01286 -0.410703 -0.164156 0.132931 -0.256153 0.0995662 0.11536 0.276941 0.025059 -0.0918699 0.246975 0.0738292 0.0108668 -0.0238799 -0.069152 -0.235322 0.0959514 0.027464 -0.0185929 0.0859238 -0.0380419 0.0660733 0.108184 0.0341926 -0.192115 0.124398 -0.211261 -0.0276532 -0.0934069 0.00909101 0.184563 0.237221 -0.0190264 -0.133892 0.268106 0.10922 0.115771 0.0725031 0.172186 -0.164274 0.019824 0.148966 -0.10141 0.226303 -0.0169509 -0.116075 -0.333732 -0.0725489 0.0674321 -0.22033 -0.15073 -0.0337558 0.00994012 0.167759 0.0268546 -0.0275676 -0.12448 -0.00621701 0.0607286 -0.091165 -0.0216669 0.334076 -0.300715 -0.0844232 0.068146 0.177213 0.0782624 0.135922 -0.232084 -0.0240109 0.0925942 0.0466512 -0.134612 -0.070324 -0.10473 -0.335929 0.146521 0.0500188 0.0819165 -0.0647628 0.117114 -0.231968 -0.115064 0.155999 0.0593079 -0.121374 -0.0349377 -0.1751 -0.0182071 0.0262065 0.103312 -0.0325204 -0.00375148 -0.0529074 -0.272248 -0.119913 0.0455558 0.129174 0.152808 0.00325743 0.147065 0.135137 0.123083 -0.0223448 -0.0481116 0.213378 -0.0830748 0.271872 0.0653396 -0.354838 0.0393019 0.105882 -0.0835452 0.276968 0.0952531 -0.12117 -0.174763 0.17358 0.00449327 0.130527 -0.0122454 0.00684911 -0.0582668 0.0994055 0.0438396 0.0305754 -0.0977257 -0.0206348 0.0943709 -0.0306785 0.179204 0.118766 -0.169137 0.0578617 -0.0363584 0.130672 -0.027969 0.139221 0.112113 -0.0639775 0.00894729 0.0359494 -0.162271 0.0460555 0.0743176 0.0406734 -0.315885 0.0500462 -0.207438 -0.146936 0.10868 0.0587231 0.0191025 0.0439866 -0.080658 0.069266 0.116688 -0.174503 0.0577421 -0.0657845 0.0350072 -0.322997 0.0360133 -0.0939964 -0.129249 -0.172883 -0.113962 -0.137797 0.0499181 -0.14811 -0.19775 -0.172776 0.122453 -0.0633052 -0.179461 0.0125688 -0.269281 0.0315134 -0.0349467 0.247881 0.00527098 -0.00429139 0.0786009 0.202826 0.342307 0.127225 -0.0274182 -0.0946404 -0.04095 -0.24786 0.0137914 -0.00404791 0.14754 0.120667 0.0697411 -0.0630944 -0.137791 -0.00765472 0.0481962 0.283604 -0.397261 0.0638952 0.00274588 -0.0444523 0.262305 -0.146472 -0.298577 -0.258706 -0.298706 0.0350743 0.036347 0.042764 0.132848 -0.0327071 0.0608855 -0.0497205 0.12297 0.0635775 0.117416 -0.0341836 0.13816 0.141696 0.124189 0.0198509 0.0635317 -0.126557 -0.071515 0.147254 -0.224355 -0.0473991 0.179738 -0.0506428 0.0081275 0.0729371 0.26833 -0.0952616 -0.0028116 0.114475 0.0311815 -0.152946 0.0619157 0.0775627 -0.0956072 0.2327 0.149334 -0.0604889 0.0578815 -0.118591 0.0148225 0.126737 0.12144 0.00642172 0.00707179 -0.233108 -0.0571487 0.0697548 -0.118637 0.00977843 0.0725844 0.0504292 -0.0479026 0.00118052 0.197882 -0.147195 0.0511208 0.0660591 0.124656 -0.198089 -0.191082 0.031494 -0.0342328 -0.231195 -0.0871572 0.142293 -0.0238738 -0.00314964 -0.0285424 0.16841 0.053324 -0.149533 -0.083211 -0.202219 0.0592535 -0.108321 -0.0959343 -0.0139994 -0.0118719 -0.186116 -0.182403 -0.136977 -0.00156347 -0.18525 -0.0799876 0.118196 -0.0377044 -0.0785702 -0.0523921 0.159935 0.03231 -0.113291 0.139135 -0.0440566 -0.12356 0.0910406 0.132206 0.109206 -0.276368 0.18755 -0.204046 0.00889387 0.104246 0.0184014 0.151388 0.0969948 0.148974 -0.0170535 0.0626339 -0.0217089 -0.170965 -0.0878669 0.202361 0.0108195 -0.0505856 0.0879723 0.0706002 0.0776516 0.0433455 0.0686183 -0.0964137 -0.0444396 -0.222418 0.215349 0.0292649 -0.124656 0.0684268 0.0422142 -0.0566485 0.245507 -0.0518574 0.0217609 -0.0125517 0.12268 -0.00207974 0.0876244 0.0223789 -0.222531 0.276918 0.124989 -0.142883 -0.189972 -0.284649 -0.00489985 -0.30628 -0.0501521 -0.0803592 -0.0958672 0.212167 0.0887264 -0.213129 -0.104141 0.0290932 -0.0990083 0.11296 -0.150495 0.0100129 -0.0218295 -0.107459 -0.0621422 -0.118228 0.0329539 0.0263426 -0.0905447 0.128673 0.243473 0.0460843 -0.0528625 0.0479201 -0.132929 0.142299 -0.0350658 -0.0734486 0.130258 0.207024 -0.40649 -0.150449 0.0388012 0.0903958 -0.126085 0.119056 0.0538175 0.149821 -0.167374 0.200597 -0.0396418 0.0365815 0.190395 0.0317621 -0.182407 0.0692717 -0.128524 -0.223246 0.00990277 -0.322171 -0.0608435 -0.187831 0.166244 -0.105643 -0.0453378 -0.0373819 0.0968548 -0.134252 -0.212288 -0.138657 0.0249815 -0.0290951 0.106705 -0.264286 0.0604652 -0.151255 0.0954644 -0.141661 -0.177478 -0.00741455 0.0948205 -0.182355 -0.0726667 -0.156119 0.13204 -0.077602 0.0830786 -0.037416 -0.0174076 -0.295243 -0.00433299 0.104184 0.114993 -0.043745 -0.0539858 -0.0173712 -0.02202 -0.0215104 -0.00428855 0.0821482 -0.0357688 0.0698858 -0.112735 0.0400683 -0.0956313 0.113948 0.114787 -0.137641 0.0267175 0.24384 -0.0575775 0.196892 -0.175314 0.0904166 0.125275 -0.0354109 -0.00313356 0.0484477 -0.0516782 -0.261434 -0.0209468 0.0786511 0.112496 -0.139777 0.037651 -0.0600553 0.0752551 -0.0329133 0.0062449 -0.0745152 0.100331 -0.0238128 0.0105514 -0.167974 0.0184099 0.15021 0.314974 -0.0057239 -0.0315923 -0.164984 0.0851914 -0.112997 -0.0611702 -0.116179 -0.241836 -0.045195 0.0422879 -0.180855 -0.102633 -0.0425626 0.0311933 0.0139337 0.0441895 -0.134347 0.0433706 -0.0504107 -0.111403 0.00771807 -0.0656762 -0.0457761 0.0964572 0.0314037 0.1876 0.00707652 0.113628 0.162937 0.0312165 -0.0520148 0.103212 -0.182451 -0.14428 -0.0519969 0.0042512 0.0836998 0.0211837 0.0355868 0.0087005 -0.0880324 0.0894975 0.036547 0.00105382 0.44344 -0.0683748 -0.0642267 0.123776 0.000714838 0.0441119 0.15163 0.0245361 -0.226558 0.0325204 -0.0630286 -0.0881846 0.0251484 -0.0749932 0.214857 0.174474 0.115498 0.221445 0.103111 0.131326 -0.116762 0.232017 -0.0940919 -0.0478516 -0.194298 0.0268787 0.236158 -0.0479764 -0.175876 0.164757 0.0890252 0.088785 0.189093 0.0357409 0.0589136 -0.101405 0.0926235 -0.0336238 -0.0484246 -0.208599 -0.0694319 0.0675498 -0.154854 0.121381 -0.135554 0.0455766 -0.0460418 -0.110111 -0.123407 0.0111263 -0.0546392 -0.0279638 -0.0874693 0.0584886 0.11429 -0.221232 0.130386 0.304673 0.120801 0.158487 0.0223968 0.0346332 -0.0505124 -0.181079 0.139148 0.11121 -0.0871223 0.0663901 -0.252674 0.132315 -0.168486 0.0835845 -0.261366 -0.124419 0.114783 0.0752305 0.144427 0.0171547 0.188285 0.108061 -0.0809445 -0.1023 0.0718833 -0.157948 -0.311989 0.0606823 -0.0123002 -0.0121002 0.269212 -0.0309489 -0.0600412 0.14629 0.133206 0.0686986 0.10568 -0.106658 0.12075 -0.0223425 -0.00552959 0.146144 -0.0874107 -0.474522 0.0497772 0.141812 -0.114858 0.139418 -0.0557848 -0.24896 -0.163746 -0.0467788 -0.112618 -0.00780979 -0.109091 0.0032111 0.0750807 -0.0335473 0.0011791 0.0934523 0.171037 -0.245535 0.00852936 0.0137625 0.0285883 0.0338645 0.0189068 0.0396045 0.0813383 -0.0255895 -0.0720757 -0.137553 -0.133797 -0.161394 0.0656634 -0.027039 -0.0298062 -0.0743001 -0.271514 -0.0760962 -0.0998177 -0.0863436 -0.381254 -0.129574 0.126231 -0.159038 0.0100068 -0.00890001 0.0735295 0.112867 0.0122407 0.0250926 0.0498396 -0.0565951 -0.125907 -0.127661 -0.00570168 0.132436 0.0183749 -0.0342385 0.0178095 -0.00995383 -0.0194571 0.320984 0.0525146 -0.023357 -0.23663 -0.0520763 0.0231103 0.291054 0.0544246 -0.0364624 0.147069 -0.133379 0.0920514 -0.194633 0.187581 -0.0395482 -0.120907 -0.0628684 0.0457832 0.167321 -0.244397 0.0759265 -0.0473727 -0.253303 0.132128 0.037763 0.0538431 0.133708 0.0284011 0.141557 -0.0528205 -0.165146 0.142118 -0.020805 -0.122148 0.0333109 0.43556 -0.0855418 0.164329 -0.090305 -0.0967508 0.0974718 0.415906 -0.248824 -0.0191068 -0.108288 -0.061477 0.0744944 0.0180345 0.230581 -0.0646886 -0.21112 -0.120753 -0.105498 -0.1296 1.41833e-06 0.0568523 0.319512 0.250827 -0.113203 0.160987 0.019797 -0.20579 0.0669399 0.0787418 0.300447 -0.0452541 0.00490931 0.215842 0.170121 -0.0657202 0.0603636 -0.109364 0.0223713 -0.0796174 -0.199269 -0.0961755 -0.438926 -0.044874 -0.0755596 -0.0397307 -0.0631123 -0.0960081 0.406887 0.10267 -0.0335326 0.0727636 0.104166 0.155366 -0.064568 0.17196 -0.141523 -0.154783 0.109246 0.0632513 0.166868 0.033856 0.0767354 -0.0930868 0.0133654 -0.0821633 0.0575014 -0.0290521 0.0437044 -0.0499091 0.111009 -0.0236478 0.205689 -0.0748343 0.0864211 0.0217784 -0.0217595 0.110091 0.194065 -0.0336669 -0.230145 -0.322977 0.0762342 0.0220815 0.134931 0.223368 -0.13183 -0.0848898 -0.0539083 -0.143745 -0.0818726 0.134544 0.142039 0.0209397 -0.0758347 0.0664114 0.0617748 -0.10983 0.0443214 -0.134256 0.0297452 -0.164071 -0.127945 0.0487338 -0.13487 0.0377077 0.044093 0.0406611 0.0174719 0.0499725 0.182846 -0.145817 -0.0364756 -0.188481 0.260923 -0.0255252 -0.172556 0.175286 -0.0435867 -0.0236927 0.167493 -0.0415608 -0.33248 -0.2151 0.0235608 -0.158064 0.0130037 0.201246 0.156344 0.308916 0.0237447 -0.00901112 -0.0228389 -0.0119901 -0.175022 0.0334565 -0.121672 -0.150136 -0.0550397 -0.076985 -0.0517974 -0.0719863 0.0193952 0.191223 -0.140588 -0.171584 0.00219321 -0.0719041 -0.111848 -0.157078 0.23357 0.300903 0.0242851 -0.0125513 0.124695 0.169657 0.149123 -0.132932 -0.115012 -0.165578 0.0200041 0.0352355 -0.0973829 -0.123031 -0.0955131 -0.00804571 0.19541 -0.0778866 0.168067 -0.0524564 -0.011714 -0.028811 0.153752 -0.183853 0.227594 -0.15242 -0.0771925 0.100319 -0.0213184 0.035801 0.0659783 -0.205798 -0.155893 0.19828 -0.0115452 -0.00885463 -0.0408587 0.0199814 -0.175041 0.107208 0.0906851 0.0725362 -0.0692546 -0.0906374 -0.0433578 -0.0431408 -0.0664166 -0.0364624 -0.115901 -0.0957968 -0.0653377 -0.162101 -0.177004 0.11446 -0.113279 -0.094456 -0.0716048 0.0554519 0.0447185 -0.0992494 -0.0440845 -0.0283992 -0.0149312 0.169232 -0.0677843 -0.052534 -0.0208631 0.0727905 -0.15628 -0.0240823 0.107181 -0.13221 -0.224683 0.0144036 -0.0195606 0.188788 0.281837 0.199519 -0.0922599 -0.109786 0.1719 0.0121475 -0.0450712 -0.0710621 -0.124022 0.219253 0.150098 -0.102414 -0.0764025 -0.0908014 -0.119048 0.00046663 0.0383795 0.331111 -0.026518 0.143935 -0.0650668 -0.167264 0.0347216 0.14889 0.055181 0.0963225 -0.00199228 0.0504963 0.00648933 -0.0632598 -0.00806604 0.0977432 0.0994844 0.0875208 -0.0474951 -0.107262 -0.075457 -0.149201 0.0462503 -0.0323682 0.348768 0.0368728 0.135206 0.133679 -0.0248208 0.0325015 -0.114451 0.0997511 -0.0817681 -0.266861 0.046428 0.120369 0.127581 0.0913281 0.121913 -0.0114554 0.0952786 -0.00156158 0.0469457 0.0824252 0.335197 0.125411 -0.021846 -0.140953 0.157876 0.263412 0.144035 -0.17165 -0.0270797 0.239002 0.166716 0.0314477 0.061364 0.0189087 0.0963249 0.0479546 -0.0119929 0.0935771 0.00567237 0.0320566 0.0257687 -0.0379928 -0.139744 -0.296473 -0.0691757 0.310303 -0.040081 -0.35742 0.12265 0.143686 0.131036 -0.101572 -0.183185 -0.0501729 -0.0034177 -0.123508 -0.174857 0.303177 -0.19256 0.114688 0.0981214 -0.152794 0.030808 0.141991 0.062858 0.0290166 -0.0158976 0.112221 -0.120782 -0.0875 -0.0741928 0.0153752 0.000540383 -0.0797886 -0.210175 0.212907 0.0781632 -0.0110247 -0.133298 0.0561067 -0.0212069 0.1408 -0.0990083 -0.00751431 -0.0533793 0.051786 -0.00935624 0.175159 0.0636508 0.143546 0.420044 -0.0511014 -0.00732094 0.324867 0.0114412 0.0145918 -0.0591301 -0.041826 -0.0408961 0.0350436 -0.0943212 -0.106798 0.0338465 -0.00468805 -0.367891 0.0226966 -0.120733 0.26519 -0.114716 -0.162619 0.0038536 -0.149443 -0.200592 0.119054 0.0363154 0.007537 -0.0813416 0.111995 -0.105639 0.0842757 0.0495815 -0.10994 0.143569 -0.324037 -0.0497115 -0.0553101 -0.266667 -0.0104729 -0.0342427 -0.111379 -0.0563379 0.0853739 -0.204104 -0.0273194 0.142409 0.176162 0.0642049 0.277159 0.0703382 0.288214 -0.0551361 -0.0221042 0.0526365 0.0707566 -0.256056 -0.079676 0.0776923 0.185828 -0.130966 0.112221 0.41743 -0.060097 -0.0605778 0.0775637 0.259435 0.153867 0.234238 -0.00353258 -0.169329 0.0233244 -0.0736004 0.171245 0.00505303 -0.111573 0.0830332 -0.112495 -0.0745403 -0.264798 0.224016 -0.0284455 0.133872 0.0812438 0.187859 -0.0815251 -0.00885368 0.114294 0.219413 0.156361 -0.186609 0.0242515 -0.0756612 -0.256843 0.0692925 -0.11163 -0.167192 0.160265 -0.112864 -0.16907 -0.0137228 0.0480615 0.27001 -0.184761 0.227707 0.0716838 0.0661901 0.168726 0.0896327 0.026458 -0.196943 -0.299186 0.023062 -0.000526673 0.0117787 -0.0109816 0.0754036 -0.0250411 -0.122409 0.090444 0.284767 -0.032206 0.0205984 0.0658223 0.0761061 -0.0977876 -0.16992 0.108368 0.458026 0.00151714 -0.162428 0.158854 0.026205 0.0200254 0.0810017 0.0964705 -0.126856 -0.222418 -0.314574 -0.123532 -0.210309 -0.0549475 0.0446433 -0.0922439 -0.0885567 -0.0563701 0.0309626 -0.102241 0.0512234 -0.145671 0.171254 0.210226 0.0993213 -0.042852 0.18057 -0.0459822 -0.0710904 0.0378959 -0.205401 -0.341581 0.296314 0.303183 0.0475296 0.0197129 -0.227377 -0.037572 0.0881108 -0.182371 -0.1791 0.117917 0.118273 -0.122662 0.167292 0.0956157 0.0079086 -0.189583 -0.183861 -0.0363376 -0.177779 0.084565 -0.0966114 -0.280571 0.13154 0.182278 -0.112235 0.163902 -0.00189394 -0.0979257 0.0303853 -0.194616 0.275095 0.00552817 -0.0134817 0.0105372 0.114897 -0.0501838 -0.058968 -0.0632168 -0.032137 -0.0825671 -0.0301541 -0.0600232 -0.0842856 -0.0934702 0.0208433 -0.0201753 0.00229533 0.300936 0.139632 0.0643723 -0.0226843 -0.0215903 -0.0470554 -0.114468 0.107063 -0.105418 0.0516432 -0.0712464 -0.0746788 -0.132493 -0.0786804 0.203739 -0.0244113 0.0615143 -0.160278 0.0479097 0.0688679 0.00255772 -0.154223 -0.134411 0.00203908 0.0540771 0.108581 0.0494812 -0.1822 0.054383 -0.11013 -0.341393 -0.211554 -0.12217 0.18915 -0.142611 -0.129534 -0.122317 -0.056085 -0.228539 0.0089298 -0.123746 0.118744 0.0793437 -0.0823349 0.122553 -0.098641 -0.0819657 -0.183206 0.0621724 0.0359698 0.139954 -0.0755478 -0.0606553 0.0174941 -0.0960464 0.0773358 -0.227254 -0.128981 -0.339477 0.067815 0.0461302 0.307206 -0.121641 0.0775864 -0.112191 -0.433092 -0.0519808 -0.0925956 -0.0504485 0.147959 -0.138005 0.00839131 0.0297783 0.0413845 0.401265 -0.134476 -0.0564287 -0.164949 0.065385 0.0471112 0.242602 -0.121417 -0.0372151 -0.000147033 0.0378561 -0.0368 -0.0516768 0.021768 -0.0309659 0.0730893 0.0897013 -0.160413 0.109283 0.223464 -0.125022 -0.0555909 -0.069058 0.0916505 0.148572 -0.00991034 -0.0379776 0.211524 0.29375 0.0347396 -0.267412 -0.0501942 0.020405 0.221263 -0.108742 -0.185818 0.114369 -0.226492 -0.0317257 -0.238008 0.0556458 -0.0819666 -0.00986448 0.0569729 -0.08453 -0.10887 -0.114207 0.171514 -0.131619 0.0674222 -0.109314 -0.0765146 -0.0113575 -0.0262277 0.0505294 -0.0515388 0.04293 0.152428 0.0425106 -0.0614623 0.0532185 0.131959 0.015013 0.110972 -0.162104 0.0256632 -0.156089 0.0671598 -0.0162914 -0.114013 0.133367 0.118619 -0.280254 0.050398 -0.185886 0.0751331 0.122455 -0.134063 -0.0384433 -0.0656833 -0.098876 0.0908501 0.191281 -0.31845 0.0566116 0.15123 0.357304 0.159568 0.165501 -0.168912 0.0366255 0.00221448 -0.175349 -0.135504 0.0762702 -0.0147341 -0.148664 0.0201545 -0.152108 -0.185848 -0.0762498 -0.014848 -0.100061 0.0542875 0.023792 -0.171767 -0.129539 -0.110363 0.116473 -0.230752 -0.0268858 0.122207 -0.146537 0.00896147 -0.134898 -0.0836242 0.18503 0.102943 -0.0403259 0.0586243 0.26848 -0.00475471 -0.167538 -0.0107098 -0.0837627 -0.17315 0.0218333 -0.0727645 -0.0336957 0.062571 0.111798 0.094455 0.0179163 -0.0657027 -0.189256 -0.194205 -0.102045 0.0414166 -0.167676 0.0775802 -0.0784222 0.0574371 -0.0489456 -0.123937 -0.0554756 -0.125527 -0.0356024 0.107281 -0.119504 -0.00838611 0.0270532 0.185479 0.283015 0.143487 0.0109939 -0.0397676 0.0189683 0.0642867 0.031337 -0.181524 -0.069413 0.103682 -0.105033 0.00851423 0.0354667 -0.0770285 -0.166441 0.0522347 0.0497545 0.0594459 -0.0592965 0.124089 0.143102 0.0215491 0.289189 -0.16043 0.069101 0.00161264 -0.000584351 -0.114413 -0.0470847 -0.00965551 0.0287004 -0.0749804 0.141684 -0.0661031 -0.294848 -0.434557 -0.244835 0.0281656 0.0178828 -0.114495 -0.0411093 -0.0791532 0.172544 0.128855 0.00401623 0.0775514 -0.113854 0.13635 0.0461326 -0.0929213 0.13429 0.090513 -0.168488 0.00318982 0.00350374 0.204214 0.0237504 0.201595 0.204289 -0.121887 -0.091677 -0.0815175 -0.105884 -0.0160257 -0.136658 -0.172132 0.198458 0.0169835 -0.129602 -0.0700607 -0.205502 0.0986618 -0.143052 -0.0131626 0.0139814 -0.112927 0.116754 0.0679994 0.178055 -0.147896 0.117395 -0.0628655 0.0579529 -0.000956899 -0.0266802 0.124499 0.111926 0.0730799 -0.057282 0.0215941 0.0124917 0.169557 0.051926 0.023089 0.298491 0.216057 -0.0445587 0.0396092 0.108197 -0.0594767 -0.104966 -0.100494 -0.100355 0.0165458 0.0111641 0.0371257 -0.0863611 0.0802613 0.0387861 -0.274869 -0.0789513 0.0764508 -0.0412842 0.0253436 0.210179 -0.133259 0.183865 0.18216 -0.041237 0.40544 -0.0656483 -0.30401 0.0215449 -0.136858 0.0598123 0.139646 -0.00503743 -0.0243163 -0.33837 0.280591 -0.119322 -0.0595972 0.0380935 0.0212078 0.0225779 0.134059 -0.0533315 -0.0489446 -0.0133985 0.0231079 0.0156319 0.128129 0.0358804 0.148158 0.1543 0.0772167 0.247621 0.0504868 -0.0176388 -0.0353802 0.045699 0.404204 0.0157184 0.0801299 0.2197 0.039508 0.00882768 -0.117545 0.138366 -0.0644952 -0.0237915 -0.123725 0.317184 -0.0544241 0.284299 -0.0463656 -0.110308 -0.174809 0.0109977 -0.0156423 0.181139 0.121701 0.207077 -0.0759454 -0.146676 -0.0815331 0.247393 -0.0688419 -0.0101434 0.033743 0.0712611 -0.137212 0.298163 -0.00559105 0.178164 -0.141927 0.199377 0.127904 -0.0746604 -0.253874 0.053593 0.0311162 -0.0569138 -0.0159491 0.0548217 0.147953 -0.0529462 -0.0572636 -0.124425 0.0204731 -0.139051 -0.036078 0.0826659 0.18415 0.0672761 0.0083237 0.223966 0.0408521 -0.2387 0.0166498 -0.0279165 -0.0988849 0.414416 -0.00658577 -0.13715 -0.152377 0.234867 -0.134365 -0.112521 7.89536e-05 0.136215 0.00342999 -0.203159 0.108035 -0.0382325 0.119062 0.15084 0.154504 -0.0860736 0.026092 -0.187583 0.17612 -0.165785 0.115894 0.0931379 -0.163062 -0.0940465 0.117075 0.0520971 0.00949477 0.0441843 0.206859 -0.230652 0.0672222 -0.21004 -0.228815 0.321338 -0.0378396 0.211385 -0.0693449 -0.115229 0.372707 -0.137364 0.140519 -0.299547 -0.0992447 0.371786 0.150577 0.189074 0.192897 0.225969 0.0548179 -0.0552704 0.19802 