-0.00961816 0.037988 0.0486345 0.0550368 -0.0467193 -0.164016 0.0199441 -0.100232 0.0339482 -0.353614 -0.0807757 -0.0494907 -0.201796 0.116721 -0.0177371 0.0328792 0.0699439 0.142697 -0.123333 -0.0410091 0.130973 0.30383 -0.370282 0.125762 -0.128089 -0.149291 -0.0866282 0.260219 0.0938286 0.0339014 -0.113703 -0.0410304 -0.0416984 -0.00736585 0.16048 -0.0680273 -0.0457714 -0.257376 -0.0663797 -0.158509 0.00225987 -0.0284583 0.200484 0.0709528 -0.0989265 -0.0278304 0.147384 0.0439531 -0.254748 -0.08044 -0.242026 -0.118816 -0.000841069 -0.00454527 0.0320618 0.107074 -0.0565578 0.0676448 0.150939 -0.0728808 0.028706 -0.151259 0.0395288 -0.0638238 -0.0507001 0.0247758 -0.0312538 -0.28508 0.00871279 -0.0706654 -0.276828 -0.118977 0.0619247 0.0140774 0.00400063 -0.0287415 0.183947 0.181304 0.0761312 -0.137514 -0.00128926 0.109754 0.111703 0.122107 -0.154653 0.224936 -0.0529197 -0.00441526 0.218516 -0.0106356 0.0962312 0.0954162 -0.0331482 -0.156636 -0.0387955 0.163501 0.00604823 0.0388461 -0.306967 0.0626698 0.193191 -0.0455638 -0.0709812 0.457337 -0.113492 0.324273 -0.293221 0.0578962 -0.129894 0.00701789 0.0116738 0.172605 -0.039013 -0.343412 -0.0590966 0.0824588 -0.0893349 -0.228901 -0.0287415 -0.0631639 -0.0143781 0.184427 -0.172119 0.150598 0.054964 0.109081 -0.213409 0.102465 0.0940357 0.0473485 -0.0228734 -0.213959 -0.094169 -0.11871 -0.186106 0.0969362 0.0692754 0.18038 0.281552 -0.0564887 0.101471 -0.211283 -0.0527075 -0.156883 0.135978 0.0897996 0.17156 -0.115295 0.142433 0.219366 0.264128 -0.136859 -0.208686 -0.152613 0.0123896 -0.0440311 -0.0150163 -0.196464 0.255293 -0.236227 -0.0625776 0.175383 -0.0382188 -0.0175977 -0.0412913 -0.0721925 -0.0289084 -0.123888 0.0732349 0.0525217 -0.0202968 0.136791 -0.0262121 -0.081596 0.161941 -0.167096 0.0417249 0.0286933 -0.0638655 -0.298445 -0.150942 -0.0487196 0.0525009 0.187641 -0.167555 0.127765 0.126279 -0.285664 -0.128777 -0.317973 0.0187985 -0.0290039 -0.0848175 0.0384556 0.0182827 -0.253473 0.158198 0.0754144 0.250002 0.13957 0.0511695 -0.0518555 -0.0642257 -0.0303409 -0.0467169 0.0146301 0.0277766 0.0256051 -0.0698631 -0.0518976 -0.129903 -0.161086 -0.0866646 0.183204 0.140235 -0.201769 0.125345 0.0154565 0.111534 0.124661 -0.0599783 -0.0454149 0.0621644 -0.0989648 0.0747024 -0.114315 -0.0914274 0.0823439 0.115747 -0.102078 -0.0912661 0.174252 -0.0301688 -0.0443176 0.0994636 -0.235861 -0.011097 0.0622604 0.209964 0.0596856 -0.00342999 0.184556 -0.152997 -0.0173414 -0.0926552 -0.120063 -0.174586 0.0135488 -0.0254926 0.0951566 0.0113381 -0.0305508 0.02624 -0.0397359 0.0485338 -0.122435 0.110447 -0.131113 -0.12667 -0.121543 0.062944 0.251372 0.121682 -0.00898133 0.278941 -0.144127 0.125628 -0.0330064 -0.0578371 0.27108 0.110542 0.263925 -0.136673 -0.0257597 -0.115779 -0.169232 -0.195524 -0.395192 0.110244 0.0325819 0.0431011 0.171228 0.0175698 0.0310415 0.00928343 0.15734 0.344835 -0.0869667 0.008058 0.170106 0.14131 -0.054296 -0.12787 0.245762 0.195801 0.0588517 -0.00415523 0.0220862 0.125858 -0.0542421 0.0547588 0.170035 -0.111197 -0.00115594 -0.0959116 -0.0301532 0.148045 -0.174079 0.0778525 -0.073295 0.055859 0.148895 -0.0325459 -0.128525 -0.215106 0.205482 -0.12858 -0.122431 0.0404399 0.00588039 -0.22963 0.0322779 -0.0908761 -0.0801606 -0.384469 -0.0379866 -0.231601 -0.251189 0.0565204 -0.154111 -0.024087 0.0288951 -0.0946115 -0.197058 0.414375 -0.160899 0.117924 -0.212002 0.101938 -0.124473 -0.14177 0.0703775 0.0208778 -0.0382202 0.110264 -0.234103 -0.0283368 -0.155555 -0.0812376 -0.0306993 -0.0911617 0.10507 0.0739469 -0.0163325 0.129274 0.365004 0.0877685 -0.0980694 0.320872 0.128141 0.00930518 -0.0037581 0.0539669 -0.212603 0.063456 -0.18188 0.110671 0.190033 -0.0561408 0.062988 0.0558557 0.149834 -0.0589074 -0.00383752 0.0377483 0.0987634 -0.109365 0.208971 0.0422118 -0.195669 -0.097478 -0.133293 -0.0484033 -0.110744 -0.284568 -0.13376 -0.0792751 0.114496 0.0891051 0.145127 0.155496 0.0466403 -0.0880815 0.125615 -0.01517 0.112993 0.081717 -0.00626192 -0.0828881 -0.100837 -0.0383601 -0.0851513 -0.110787 -0.222676 0.15685 -0.00976945 0.131089 0.0369229 0.12205 -0.125064 -0.101154 0.115763 -0.0529462 0.145564 -0.178686 0.125248 0.139024 0.0396929 -0.148296 -0.189158 -0.0862576 -0.119253 -0.0675205 -0.38014 -0.118068 0.0723092 0.191028 -0.0307517 0.293535 -0.16496 -0.0756669 -0.0390234 0.130768 -0.0772758 -0.108181 -0.0417291 0.08302 0.206154 -0.0657925 0.0464337 -0.028872 0.0104625 0.0123721 0.0616708 -0.0745913 0.0106138 0.212051 -0.0322244 0.161045 -0.0288852 0.0478459 0.141202 -0.166642 -0.0954256 -0.0560864 0.0799498 0.0471301 -0.124871 0.27883 0.128121 0.0518267 -0.0704673 -0.21785 -0.0580541 0.00939737 -0.151443 -0.172013 0.0298327 0.147846 0.115553 -0.0640631 -0.0525122 0.101388 -0.176067 0.0588119 0.182402 -0.201441 0.135586 0.147157 -0.145305 0.174608 0.0526999 0.0506646 -0.0524195 -0.129287 0.0891004 -0.217221 0.123523 -0.0549092 0.0467585 -0.128291 0.143959 -0.0661906 0.0324736 0.163981 0.0436571 0.0343888 -0.042399 0.083028 -0.00995761 -0.0932712 -0.0550747 -0.117822 -0.301708 -0.0120014 -0.0335213 -0.0159297 -0.169627 -0.267697 0.387262 0.22811 0.279162 0.0812523 0.0566008 -0.175797 -0.0553181 0.0122468 -0.0554803 -0.202756 -0.293085 0.0660922 -0.150243 0.0324547 0.0616496 0.0831845 -0.0626575 -0.138656 -0.0219014 -0.124474 0.152014 -0.292507 -0.0552869 0.0383677 0.0579061 -0.0186737 0.227442 -0.211801 -0.0349315 -0.00363849 -0.0159586 0.169208 0.232571 -0.0462593 0.17487 0.216587 -0.188619 0.214734 0.0200325 -0.326409 -0.0334338 -0.0478 -0.213748 -0.163713 -0.0487361 -0.0931497 -0.07926 -0.170493 -0.122792 0.003508 0.0820697 0.198899 0.173524 0.0721461 0.131352 -0.0386547 0.0670425 -0.151669 0.0495205 0.141918 -0.158252 -0.00158711 -0.164833 0.0264977 0.10507 -0.0328258 0.095853 -0.285659 -0.0247097 0.121745 0.142369 -0.199671 -0.123929 0.221102 -0.138313 -0.0667811 0.0860996 0.205829 -0.0655812 -0.0484719 0.17331 -0.189716 0.0480464 0.131095 0.0528176 -0.0337023 -0.135509 0.0419012 -0.16458 0.187761 -0.0149946 0.105579 -0.129513 -0.245208 -0.0907253 -0.0556666 0.116557 -0.0709647 0.0320741 -0.0154101 -0.00609267 -0.305699 0.0134023 -0.0154759 0.209206 -0.24774 0.112573 -0.121706 0.104658 0.0261738 0.218751 -0.0437313 -0.0158106 0.0612992 0.0735734 -0.0664326 -0.25412 0.0319932 -0.315853 0.132106 -0.0759397 0.111993 -0.107677 -0.106985 -0.183511 0.12614 0.192753 -0.0169528 -0.174297 -0.0714639 -0.0279023 -0.0585647 0.00389237 -0.0935615 -0.131107 0.0705099 0.0589472 0.0813454 -0.0207932 -0.190384 0.0157472 0.135677 -0.00162682 0.0454215 -0.187351 -0.127398 0.25955 0.134815 -0.0406734 -0.16535 -0.177463 0.0838615 0.211822 -0.134794 0.0642011 0.110059 0.00168876 0.0131957 0.0584867 0.199723 -0.181018 -0.0177069 -0.311951 0.0247522 -0.0198401 0.165667 0.0937842 -0.0610643 -0.0958672 -0.0426983 0.00716776 -0.192625 0.181308 -0.0361135 0.229076 0.021587 -0.032389 0.330593 -0.0993724 0.0581226 -0.15013 -0.32956 -0.0977763 0.119229 0.124581 -0.0209676 -0.208839 -0.0163434 -0.117282 -0.0261606 -0.0299735 -0.209826 -0.0602936 -0.18485 0.185594 0.0240898 -0.0896781 0.0105325 -0.0218059 0.117201 0.157596 0.0331898 -0.0020509 0.180163 -0.106838 -0.05552 0.00633567 -0.0513823 0.107679 0.0666648 0.144591 -0.113815 0.113476 0.0872334 -0.111744 0.150434 -0.0308557 -0.143177 -0.00407391 0.151228 0.0453246 0.126953 -0.134664 0.0458172 -0.136572 0.0590006 -0.118391 -0.111054 0.0528351 0.217727 -0.0149917 -0.267334 -0.0931071 -0.139681 -0.101107 0.11619 -0.0274012 -0.0172767 -0.163773 -0.228126 0.133393 -0.136223 0.130135 0.0995506 0.143524 -0.418111 0.0679725 -0.0264859 -0.141407 -0.113715 0.174074 -0.0105084 0.110039 0.114236 -0.10394 -0.142603 0.0343269 0.197331 -0.121069 -0.0988613 -0.0871729 0.0963721 -0.289182 0.113595 0.225747 -0.0615323 -0.0293972 0.0948016 0.0231344 0.012347 0.210551 0.0941142 -0.127268 0.240883 -0.225241 -0.0150437 0.121372 0.0955869 -0.180292 0.384846 0.0653741 -0.218209 -0.157591 0.281947 0.0949079 0.214556 0.153437 0.0294705 0.00839036 -0.275184 -0.171106 0.198331 0.020527 -0.0546841 0.225318 0.0202812 0.149045 -0.0637364 0.0345008 0.0297447 -0.202388 -0.112318 -0.388172 0.11744 0.0296502 -0.000734694 0.279085 -0.0120927 0.107569 -0.0704876 0.138011 0.0337624 -0.0770082 0.0924925 0.183132 0.0785059 0.0720487 -0.078869 0.0175996 -0.0533173 0.123726 -0.0901778 0.214675 -0.248434 -0.314531 0.0608983 0.0854141 0.13772 0.0824314 0.00756962 0.0106025 0.0788752 -0.234567 -0.00085998 -0.0142424 -0.178973 -0.0835178 0.0596989 0.0377564 0.0323975 0.0894904 0.086016 0.0630121 -0.215122 0.0892417 0.0624107 0.193911 0.0474147 0.267881 -0.0700224 -0.0717362 -0.184266 -0.193878 0.113913 0.00470601 -0.0589231 0.00612056 -0.470709 0.0841896 0.0171854 -0.00370467 0.176194 0.0317332 -0.179385 -0.0493697 -0.0841797 0.0728506 0.0298851 0.0647231 -0.153612 -0.0188529 -0.0369234 0.0369512 0.275588 0.0491281 0.0768162 0.0771859 0.218341 -0.000514853 0.131739 0.0230199 -0.0244019 -0.0991596 0.1137 -0.195812 -0.146835 -0.222104 0.0974401 0.0992981 0.0651339 0.0651807 -0.317501 0.225454 0.140289 0.160242 0.034524 -0.0808046 0.193233 -0.285771 0.0043311 0.170511 0.111342 0.00735971 0.0978793 -0.209445 -0.112237 -0.09555 -0.327072 -0.0910246 -0.147427 -0.00641605 -0.0276059 0.128324 0.139125 -0.240894 -0.149684 0.046316 0.011731 -0.0625767 -0.117142 -0.151706 0.0499167 -0.0215959 -0.0846388 -0.0249824 -0.190408 0.128581 -0.0313436 -0.153636 0.167968 0.0288909 0.0333946 -0.126272 -0.0376396 -0.121712 -0.0507393 -0.0700026 -0.148163 -0.0334187 0.181827 -0.0706909 0.122539 -0.304032 -0.00422236 0.0901197 -0.0644314 0.013042 0.122321 -0.0903584 -0.0820045 0.0309144 -0.153841 0.162655 -0.00376377 0.0178487 -0.106451 -0.259502 0.23506 0.0267256 0.076395 -0.0843542 -0.0994272 0.0357859 -0.0530157 0.135252 0.0218508 -0.18968 0.0370803 -0.3761 -0.0214125 0.242356 0.0966208 -0.0586923 0.156422 0.323959 0.260189 -0.115669 -0.051978 0.144859 0.224221 0.0616571 -0.0260363 -0.136058 -0.275326 -0.00388197 0.0696901 0.069839 -0.158923 -0.0982916 0.172083 0.240538 -0.0450277 -0.0397714 -0.0535585 -0.18121 -0.1222 -0.147169 -0.0938537 -0.219597 0.0826933 0.0299097 -0.0961433 -0.148126 0.0126335 -0.107655 0.213763 0.125983 0.121485 0.0711259 -0.161994 -0.0205785 -0.217314 -0.0297688 -0.268388 -0.0493366 -0.0159004 0.0166247 -0.418754 -0.179737 -0.18354 -0.0425404 -0.129017 0.213784 0.0540029 -0.0739224 0.10641 -0.043589 0.451741 -0.129139 0.190189 -0.0539249 0.00502041 0.031398 0.0562112 -0.00214404 -0.128647 -0.0711013 0.0510589 0.239379 -0.0604449 0.0939222 -0.0833807 0.0628064 -0.0714781 -0.249339 -0.0384287 -0.107299 -0.0511776 0.0127451 0.167099 0.00321251 -0.0280408 0.087048 0.16861 0.0877799 -0.0142447 -0.234458 -0.169608 -0.0390735 0.0490208 0.135717 0.0487082 0.297213 0.115043 0.0145128 0.0421031 0.00730959 0.265583 -0.127881 0.0996896 -0.100229 0.0438561 0.0137469 0.106137 0.0265459 -0.0819198 -0.0398295 -0.242381 0.0613654 0.10738 -0.0143606 0.150755 -0.0600142 0.130168 0.225228 0.104147 0.0911867 0.240051 0.0828966 0.0389648 0.00801687 0.233676 0.266949 0.0476142 0.442123 0.00689402 0.200498 0.181006 0.267147 0.0647713 0.0909716 -0.158095 0.116093 0.264414 -0.0380315 -0.0736623 0.0439356 0.0106729 -0.139346 -0.0763557 -0.0335912 -0.199257 0.323943 0.0374968 0.216114 -0.150637 0.106493 -0.0202154 0.0327572 0.012027 0.0819903 0.0604194 -0.252292 -0.120153 -0.0250912 -0.112464 -0.0159477 -0.191319 -0.0818541 -0.119685 -0.00331653 -0.484973 -0.0971631 0.117557 0.0512976 -0.120272 0.0298109 -0.0735219 -0.0213577 -0.096999 -0.0195781 0.29568 0.0734122 -0.0740949 -0.0907239 -0.131364 0.369387 0.0309853 -0.109907 -0.243544 -0.116365 -0.0161236 0.249416 0.227047 0.0132836 -0.196602 0.0538303 -0.0943189 -0.153306 0.0103297 0.213126 0.111337 -0.0529235 -0.0784298 -0.104923 0.122027 -0.198184 0.0214172 -0.0993672 -0.19299 0.0482411 0.212487 0.016195 0.11506 0.0606529 -0.337202 0.236828 0.414269 -0.0550482 0.0989653 0.0742292 0.160325 -0.0124666 -0.289666 0.0684854 -0.0761898 -0.086789 -0.106953 0.00886361 -0.115168 0.0481263 0.217869 -0.300732 0.17925 -0.0259436 -0.202649 0.12422 -0.136022 0.0589287 -0.151413 0.125588 -0.168423 0.000957372 -0.108363 0.107599 -0.176054 0.121839 0.111762 0.00442991 -0.0735129 -0.0735427 -0.0851229 0.0374264 0.122212 0.0025946 -0.0302756 -0.0540681 -0.0420109 0.268956 -0.0932395 0.137796 -0.180822 -0.154893 -0.112689 -0.0619772 -0.0154962 0.168931 0.092259 0.255912 -0.0320278 -0.318797 -0.131025 -0.179602 -0.0422388 0.0921086 -0.0245461 -0.0710829 0.0863427 -0.0622585 0.156458 -0.0283912 -0.186138 -0.0481527 0.0257488 -0.0653608 0.126433 -0.166274 -0.0171854 0.0637487 -0.158173 -0.00114837 0.0495167 0.0359958 0.394052 -0.0688915 0.110848 -0.190786 -0.188214 -0.136446 -0.0256765 0.113157 0.0787986 0.109746 -0.0258169 -0.224458 0.23203 -0.16602 -0.204417 0.0089506 0.0055069 -0.161907 0.117787 0.151739 -0.0491905 -0.133107 0.0837216 0.0369905 0.090747 -0.138858 -0.0369044 -0.122386 0.116158 0.263716 -0.0763973 -0.0826517 0.0469713 0.383488 0.151684 -0.162283 -0.187656 -0.154516 0.0286909 -0.0455071 0.204134 -0.0453704 -0.0683701 0.000348909 -0.114782 0.0775348 0.0231027 -0.037007 -0.0546964 0.189541 0.0128231 -0.00493058 0.12921 -0.061772 -0.0431744 0.107891 -0.21342 -0.177618 -0.0574026 -0.0197739 -0.225105 -0.482361 -0.281043 0.161403 -0.0438509 -0.0409694 -0.115523 -0.132431 0.197058 0.0133512 -0.0186241 0.196268 -0.0681015 -0.130507 -0.0643657 0.0268683 -0.166117 -0.111378 0.00466488 0.0151615 -0.168378 -0.259767 0.0882806 0.126857 -0.165858 0.148982 0.115267 0.168859 0.112931 0.102033 -0.192275 -0.183358 0.00427626 -0.00655221 -0.00150106 0.261436 -0.0510665 -0.062302 -0.0415528 0.106447 -0.133071 0.0437044 -0.182981 -0.167575 0.0723102 0.169996 -0.0543192 0.114703 -0.00165755 -0.278491 0.0963925 -0.173938 -0.0123891 0.0090721 0.206697 0.0992792 -0.147538 0.0615238 0.0672297 0.194361 -0.234495 0.183417 -0.0974633 0.177727 0.128857 0.110454 -0.0224044 0.00116728 -0.148003 0.0978595 0.258068 0.0746755 0.153261 0.158983 -0.0792874 -0.0606392 0.170673 0.12099 -0.0335099 -0.0834871 0.069987 0.223383 -0.0065645 0.0535173 0.0730558 0.172445 -0.150274 0.114423 0.104533 -0.244832 -0.00338697 -0.054991 -0.097165 0.137487 0.203953 -0.0193767 0.139769 -0.157257 0.0451766 0.203658 0.00577733 0.077758 0.219606 0.0879302 -0.190056 -0.00765756 -0.100592 -0.278699 -0.18082 -0.173238 -0.0602388 -0.144003 -0.111954 0.0396588 -0.0860935 0.036956 -0.0775987 0.13847 0.142062 0.191257 0.228022 -0.0629398 -0.210449 0.100837 0.0424827 0.18944 -0.0638168 0.0585094 -0.235493 0.209642 -0.259151 -0.0444367 -0.211032 -0.0400352 -0.11874 -0.0957627 -0.079963 0.0955831 0.0297707 -0.0265554 -0.19385 -0.117817 0.171923 -0.1696 -0.0442821 -0.053697 -0.00408762 -0.463107 -0.0197602 -0.0861847 0.252279 -0.0112478 -0.0786312 -0.0348824 0.0892223 0.223517 -0.0240511 -0.0712133 -0.0443043 -0.0440746 0.255048 -0.0255105 -0.00800883 0.0612912 -0.148976 -0.102038 -0.0152645 -0.0629123 -0.0565625 0.00827358 0.205985 -0.120475 0.0873298 0.313547 -4.68048e-05 -0.113159 0.0333742 -0.164369 -0.0776204 -0.185111 0.168544 -0.279789 -0.110109 -0.0379185 0.048591 0.164242 -0.151277 0.18653 0.165944 0.31959 -0.018799 -0.132669 -0.0462167 -0.0227391 -0.171295 0.0855025 0.227577 0.164273 0.140255 0.0330721 -0.17843 -0.216695 0.191253 0.0441814 0.0380107 -0.116019 -0.186667 0.103043 0.0147761 -0.326903 -0.161884 -0.0452338 0.105923 -0.0768115 0.0432926 -0.00724293 0.132384 0.0545381 0.160733 -0.291381 0.079182 -0.0500353 0.167474 -0.0747346 0.0501337 -0.0225207 0.0589878 -0.174719 0.127879 -0.0142845 0.0914661 0.00655599 0.0946394 0.0586139 -0.0326755 -0.185554 0.254431 -0.103946 -0.21136 -0.0689894 0.0210957 -0.00763439 -0.169396 0.0527604 -0.156697 -0.0949689 0.0877099 -0.261792 -0.103275 0.100533 0.0290686 -6.99709e-05 0.0046559 -0.0455804 -0.0877364 0.108211 0.0652162 -0.0914472 -0.0896171 -0.124121 0.378485 -0.172139 0.133324 0.0118029 -0.0275993 -0.241428 -0.0768058 -0.0653136 -0.0740051 -0.143317 -0.0145913 -0.00933071 0.0518342 0.0658989 0.0363225 -0.0433881 0.234015 -0.162657 -0.223321 0.069543 -0.228887 0.118276 0.106948 -0.153731 0.156193 -0.0903078 0.0652715 0.101773 0.110056 -0.00277189 -0.0783348 -0.0825576 0.0431579 -0.0917205 0.0886247 0.02169 -0.0795115 -0.293852 0.0409722 -0.0465841 0.0941075 -0.0888474 -0.126724 0.0839116 0.0022367 0.10035 0.115399 0.00960492 -0.0848941 -0.150857 -0.0870603 -0.0106048 0.0181229 -0.126577 0.131872 0.0303272 0.271317 -0.222923 0.13122 -0.227647 -0.206627 -0.0682722 -0.206626 -0.0433853 0.0174852 -0.190367 0.201888 0.0990462 0.0492387 -0.0305135 0.0790718 -0.182854 -0.0605418 0.136413 -0.0789451 0.11349 -0.0521259 -0.256952 -0.0817336 0.256527 -0.132577 -0.0342063 -0.0402375 -0.0629667 -0.0293589 0.0830138 0.172437 0.177744 0.048078 -0.266171 -0.085026 -0.0330967 -0.0710096 0.0143894 -0.193709 0.0644082 -0.00680798 -0.0358161 0.0193881 0.0989062 -0.162206 -0.138869 -0.0673522 0.170704 -0.130417 -0.094221 0.00685336 -0.0613597 -0.211215 0.0871932 -0.0695099 -0.0578262 0.0922344 0.132343 -0.0772592 0.0812693 0.0452485 0.00332787 -0.24867 -0.19765 -0.179564 0.205725 -0.0390386 0.288715 0.218915 -0.150741 0.0898242 -0.0804708 0.0833878 0.0460181 0.0855659 -0.0769387 0.104281 0.104982 0.15116 -0.00460957 -0.0997331 0.100049 0.031806 -0.137897 -0.207753 0.027629 0.0884522 -0.303764 0.106701 0.00588937 0.244918 -0.109294 -0.127913 0.314221 -0.0439559 -0.0215581 0.0309848 -0.0418029 -0.129336 0.0716568 -0.224347 0.381407 0.0608416 -0.208925 -0.0240671 0.0531046 0.217477 -0.07313 0.190948 -0.275421 0.0742859 -0.177978 -0.091503 0.185461 -0.193229 0.227191 0.0344678 -0.204076 0.0350871 0.101708 -0.0906827 0.00118383 -0.171165 0.0607938 -0.202837 -0.152773 -0.00510835 0.0673564 -0.0700527 -0.0878574 0.00859271 -0.131718 0.0217236 -0.176663 0.146744 -0.164377 -0.00151667 -0.0629516 0.0382145 -0.00149492 -0.0425461 -0.0102819 0.0825557 -0.0117995 -0.0288091 -0.182443 -0.21482 -0.116546 -0.0334106 0.187519 0.0113287 0.150376 0.0952015 0.219773 -0.128409 -0.249942 -0.0406588 0.197908 -0.057153 -0.223513 -0.146245 0.0754215 0.0753563 -0.290382 0.0936225 -0.164576 0.0887978 0.0198079 -0.339729 -0.00655646 -0.0602303 0.0922954 0.0472384 0.084514 -0.0660265 0.00272603 -0.128798 0.100749 -0.220699 -0.00474336 0.0517955 -0.0581936 0.123382 -0.178451 0.142525 0.157589 0.00914964 -0.186029 -0.148848 -0.0198367 0.160099 0.00799559 0.0432614 -0.0814816 -0.0521501 0.147944 -0.0295381 0.158388 -0.0473646 0.100462 0.0746315 -0.160666 -0.0732628 0.0444627 -0.333125 0.0810178 -0.0754868 0.0583543 0.0914964 -0.0600918 0.0224044 0.0824541 -0.261067 -0.17213 -0.0552113 -0.341945 -0.0635128 0.236917 0.0409221 -0.0496751 -0.0220999 -0.0281065 0.128422 0.0366893 -0.0878716 -0.142192 -0.121739 0.0563237 -0.0550505 0.108646 0.0818759 0.00934442 0.198874 -0.260782 -0.134956 -0.16932 -0.0815076 -0.0421088 -0.0503006 -0.134144 -0.293433 -0.0344592 -0.016515 -0.0134533 -0.0122586 0.286127 -0.105514 -0.20919 -0.0763439 -0.0444424 0.158633 0.109696 0.0501701 0.0710446 -0.15702 0.0198481 0.164865 0.0493597 0.315843 -0.108399 -0.132488 -0.124297 0.137027 0.0209265 -0.0936593 0.0721669 0.163266 -0.175291 -0.00833032 -0.0296469 -0.041263 0.00742353 -0.00819794 0.124385 0.122908 -0.0817203 -0.298705 -0.262172 0.369865 0.113233 0.229711 0.134609 -0.0382415 -0.107688 -0.0276924 -0.25004 0.124994 0.173144 0.284174 0.144984 -0.287135 -0.00972217 -0.0521959 -0.00182681 -0.248604 0.0167282 -0.0569492 0.084426 0.113466 -0.0761326 0.0514924 -0.170423 0.0962473 0.0936532 -0.0607385 0.243694 0.19554 0.0154659 -0.115898 -0.0854397 -0.0394343 0.261292 0.0627639 -0.251181 0.0686939 -0.188396 -0.103854 0.0172237 0.0970402 -0.0949174 -0.030998 -0.0992078 0.0602927 0.1071 0.254843 -0.104789 -0.180493 0.082212 -0.175463 0.0385648 -0.263689 0.286548 0.158391 -0.0979909 -0.0958034 0.0121872 0.027386 -0.125252 -0.0293826 0.0298615 -0.154502 -0.0848827 -0.163377 0.0757808 -0.0803133 0.0541031 0.079938 0.357165 0.229466 -0.0288758 -0.226671 0.110019 -0.116217 -0.255502 -0.0423366 -0.226426 0.0516343 -0.234192 0.0380268 -0.131898 0.109385 -0.00623356 0.13681 -0.047644 0.0812953 -0.116021 -0.0541532 0.0907173 -0.13084 0.0841419 -0.151752 0.0157548 0.0236426 -0.0618926 -0.22014 0.117163 0.0426061 -0.209768 -0.0317096 -0.145229 0.170771 0.212832 0.163163 -0.159675 0.283644 -0.0542076 0.0822872 -0.123277 0.0620996 -0.0517652 0.195135 -0.107423 -0.130322 0.00474526 -0.160843 -0.150591 0.153974 0.133969 -0.0691771 -0.152634 0.177182 -0.184551 0.111518 -0.229399 -0.224899 0.000772044 0.481805 -0.0492141 -0.114823 0.192862 0.168372 -0.0538469 0.0548903 0.0837613 -0.12653 0.0760503 0.0813133 -0.0771599 -0.263464 -0.0762929 0.0706224 -0.105977 0.113931 -0.016124 0.139164 0.129233 -0.278568 -0.0773528 0.0843839 -0.247894 0.0418828 -0.211091 0.0597036 -0.0056719 -0.113341 -0.104784 -0.0941359 -0.0408866 -0.366708 -0.101662 0.0494798 0.163189 -0.186747 -0.0682221 0.140144 0.0305319 0.0984008 -0.0213024 0.135766 0.0755326 0.224535 -0.231311 -0.0916363 -0.238697 -0.298576 0.0532081 0.236399 0.0230601 -0.262023 -0.126261 -0.262327 -0.356759 0.0742741 0.0236 0.0357324 -0.0709576 -0.0357915 0.0181059 -0.17611 0.0787087 0.0288025 0.110377 -0.185142 0.204057 0.230052 -0.0496557 0.115904 0.000910567 -0.0731924 0.165648 -0.132525 -0.000227405 -0.0120175 -0.211723 0.0381658 0.0590715 -0.145693 0.272275 0.0450669 0.134633 0.0136372 -0.0071011 -0.138493 -0.066557 -0.0658332 0.0344668 -0.197106 0.00417745 0.0567303 0.0785844 -0.153347 -0.118922 -0.293879 -0.148842 -0.205659 -0.0540984 0.270958 -0.0321568 -0.0613848 -0.198271 -0.0539381 -0.256646 0.159002 0.0255867 -0.156428 0.386168 -0.00517974 0.120649 0.0820508 0.094013 -0.264766 -0.00311276 -0.107234 0.211745 0.217238 0.0158111 0.231996 -0.0391828 -0.0192704 0.160008 0.0647982 0.24635 0.0793626 0.0398333 0.116559 0.238936 -0.0417963 -0.00458262 0.20747 -0.210152 -0.157734 -0.0471618 0.0828091 -0.00822678 -0.152592 0.0603655 -0.0355381 -0.237082 -0.121528 0.191588 0.152066 -0.00588465 0.0958648 0.0523307 0.127909 0.163491 0.141606 0.0380419 0.00759042 0.075275 -0.0202069 0.0181797 0.087553 -0.102212 0.0885297 -0.124655 0.133363 -0.0160262 0.005948 0.0617616 0.134773 -0.0870324 0.0168233 0.04042 -0.26146 -0.152444 -0.135257 0.109111 -0.061546 -0.0198259 0.195144 -0.111321 0.0722568 -0.270733 0.121495 -0.148438 -0.0114941 -0.092589 -0.0113414 -0.152134 0.0896875 0.0794969 -0.138857 0.0452712 -0.0319223 0.0402824 -0.0443327 -0.0944867 -0.353289 0.13608 -0.030747 -0.185479 0.193944 0.0797413 -0.0452385 0.0154234 -0.252583 0.24195 0.253416 0.0504646 0.0852099 0.195447 0.0132642 -0.0927105 -0.239602 0.0719584 -0.032666 0.033266 -0.0917602 -0.14933 -0.159894 -0.110781 0.200354 -0.148123 -0.00130108 -0.113502 -0.270359 0.342635 0.035497 -0.27721 -0.0234322 0.0460858 0.107543 0.121555 0.0494245 -0.0798169 0.0378405 0.122705 -0.00526342 0.000337562 -0.0811724 -0.166754 0.0089071 0.213557 -0.0627067 -0.0297906 -0.237935 -0.0311687 0.0629393 -0.274643 -0.124369 0.0593845 -0.192525 -0.132658 -0.19822 -0.113279 0.0507587 -0.0361934 -0.188998 0.132719 -0.0946701 -0.236347 0.031233 -0.223463 -0.168015 -0.0223552 -0.192101 0.0116341 -0.011532 0.0624268 0.071201 -0.0669768 0.195199 -0.0726662 -0.240517 -0.106637 0.256628 -0.246401 0.227268 0.0282541 0.178464 -0.249438 0.0548496 0.0827027 -0.160051 -0.0583056 -0.321118 -0.0914832 -0.00602081 0.195706 -0.0727007 -0.132948 -0.00889907 -0.114395 0.161798 -0.0215482 -0.0819808 0.060331 0.20309 -0.279709 0.0172582 0.0654942 -0.011731 -0.0976926 0.051188 0.287196 0.0789929 0.0859663 0.0529079 0.183868 -0.0178085 -0.0144253 -0.0657996 0.184445 0.215707 -0.148524 -0.00782587 0.0860543 0.073911 -0.123677 0.275693 0.0312032 0.0910487 0.201335 0.0283765 0.0465878 -0.0201138 -0.0586474 0.00596124 0.0727338 -0.0269204 -0.0224039 0.141597 -0.0170469 -0.0612496 -0.097459 0.156258 -0.169624 0.0958738 -0.107551 0.0279222 -0.0754239 -0.063596 -0.0450248 0.041019 0.142544 0.0831637 -0.0518584 -0.0536653 0.0596426 0.198663 0.292633 0.00408526 0.265042 0.000939879 0.000921914 0.0640744 0.175853 -0.0197228 -0.231604 -0.0285793 0.212534 0.139152 0.00171381 -0.0439696 -0.0374288 -0.145204 -0.0262708 0.0094924 0.0023393 -0.13189 0.0153099 0.0620968 0.31897 -0.00144339 0.0249602 -0.053411 0.0813166 0.065107 0.13582 -0.28323 0.0704002 0.147245 0.0789787 0.217732 -0.14785 0.0264561 0.134082 0.141656 0.186331 0.0795096 0.0462631 -0.0711547 -0.0280787 0.101283 0.20302 0.128145 -0.0288124 0.123645 0.141733 0.0444637 -0.0139185 -0.0820626 0.386372 -0.0431872 0.196797 0.0522422 0.119444 -0.123721 -0.19456 0.126098 0.0685351 0.0992613 -0.154984 0.0588786 -0.0675375 0.0546023 -0.0882995 -0.192862 -0.0226904 -0.0861157 0.201677 -0.0880385 -0.201632 -0.105583 -0.0699633 0.108218 0.0692353 0.191275 0.128178 -0.137428 0.241051 -0.272241 0.0234294 0.238024 -0.0791494 0.0442069 -0.145917 -0.0546695 -0.103861 0.0759269 -0.0384452 -0.239195 0.125854 -0.105903 0.0124132 0.100922 -0.0446991 0.148847 0.00561658 -0.184609 0.0621564 -0.0658289 0.214248 -0.190804 0.272544 -0.0957968 -0.0720142 -0.124964 -0.149332 -0.0146915 -0.00406871 0.159915 -0.0501568 0.150382 -0.0574168 -0.202021 0.120238 0.10843 -0.0743455 0.00693752 0.00739375 0.238362 0.0925597 0.0571227 -0.0654961 -0.171127 0.184609 -0.115662 -0.0632319 -0.0233301 -0.150009 -0.00656024 0.157136 -0.0325138 -0.0155491 -0.104333 0.0277505 -0.015413 -0.0532436 -0.047392 0.14749 -0.250223 0.182269 -0.019988 -0.0595835 0.1466 0.114402 -0.0891968 -0.0592828 0.0321091 -0.180864 -0.222019 -0.00470507 -0.131079 0.0971432 0.116617 0.269869 0.111914 -0.0466895 0.331781 0.208744 0.0586432 -0.303903 0.0898133 -0.0634324 -0.0161481 -0.173018 -0.00644725 0.0243016 0.00324514 0.0527661 -0.0292696 0.263902 -0.0352526 -0.201717 0.0772635 0.191901 -0.114421 -0.00542464 -0.0772672 0.00491593 0.195151 -0.0477603 -0.117977 0.0903646 -0.191222 -0.0434344 -0.106249 0.0455544 -0.0261923 -0.0568641 -0.321256 -0.401917 0.397549 0.194719 0.121375 -0.00814357 0.0520267 0.229826 0.0909305 -0.0957107 0.210771 0.0740235 -0.180147 -0.110646 -0.177665 0.244491 -0.117924 -0.111301 0.0322433 -0.190423 0.314539 -0.0584389 -0.215651 0.129357 0.00920023 0.210509 0.0104706 0.0277241 0.181035 0.0564708 -0.171984 0.0471088 -0.0956204 -0.0226786 0.0600899 -0.250373 -0.0122733 0.271377 0.201847 -0.0660695 -0.196433 -0.342198 -0.189858 -0.0219822 -0.000879837 0.0929346 0.0526077 -0.0896786 -0.0839844 -0.0316075 0.11078 -0.0804571 0.0363527 0.208487 0.268696 0.0249824 0.0449558 0.0288951 -0.126606 0.0689544 -0.0625488 -0.208066 -0.0816092 0.0112275 0.0401108 0.103659 0.069961 -0.00349949 0.373118 -0.116725 0.0264353 0.129551 -0.253078 -6.66615e-05 -0.0931648 -0.0906151 -0.13501 0.25611 0.172904 -0.0775188 0.114508 0.189983 -0.334694 -0.043902 0.157096 -0.053332 0.00639099 0.0480988 0.0917673 -0.103307 0.232065 -0.0576045 0.118745 -0.0958809 -0.111683 0.0362511 -0.000917659 0.0498533 0.0667688 0.0799503 -0.103837 -0.0398338 0.112862 -0.0968232 -0.231728 -0.0868863 0.0967839 -0.242832 -0.167991 -0.0871885 -0.169269 0.203196 0.361464 -0.101029 -0.104268 0.0515241 -0.143731 -0.0417348 0.167256 0.0537324 -0.123799 -0.0501507 -0.0119007 0.123342 -0.0689979 0.0112478 0.0598067 0.147689 -0.0227703 -0.0391605 0.0422236 0.10034 -0.262241 -0.110486 0.102787 0.183949 -0.183886 0.0612108 0.277517 0.0245607 0.0877128 -0.0629407 -0.0667305 0.15756 -0.0140665 -0.0945619 -0.115665 0.0791106 -0.087865 0.0511511 -0.07867 -0.0697458 -0.0150277 -0.0384107 -0.0844648 -0.285863 0.0102857 0.00947349 -0.220545 0.0589552 0.33707 -0.136234 -0.153856 -0.0503526 0.0188954 -0.238276 0.109439 0.121901 0.0553021 -0.0198202 0.126196 -0.116522 -0.158308 -0.100654 -0.0861899 -0.0129252 0.0998347 0.102471 -0.0294081 -0.0182979 -0.119269 0.101501 -0.00415712 -0.0583179 -0.0846619 -0.0716582 -0.0451421 0.044476 0.181725 0.00508376 -0.144128 0.173735 0.257007 -0.00193035 0.0159075 -0.084791 -0.046117 0.0460456 -0.000229769 -0.228724 -0.0350067 0.0699534 0.0613768 0.0118761 0.0808216 0.0186836 -0.121465 -0.213983 0.0289566 0.0523661 0.226831 -0.0890895 0.222658 0.0301371 0.0677342 0.191866 0.193533 -0.11214 -0.109331 -0.0774984 -0.23206 0.104302 -0.205095 -0.360362 0.0558732 -0.337953 -0.0131101 -0.122293 -0.122242 0.245597 -0.0332608 0.213483 0.224944 -0.00425499 0.000884092 0.311883 0.0530507 0.0545026 -0.0744788 -0.140504 -0.0261511 -0.0866656 0.152602 -0.039421 0.283112 0.125534 0.166288 -0.0275137 -0.131437 -0.139497 -0.225808 -0.0456546 -0.011836 -0.176789 0.0184161 -0.0681635 0.0027057 0.0401373 0.213808 0.279009 -0.125573 0.00021795 0.0549224 -0.0378982 0.133508 0.0453359 0.00695359 0.146068 0.146788 0.0399973 -0.108721 -0.298022 0.0425206 -0.0527235 -0.0581874 0.0221217 0.26353 -0.0313247 0.0513033 -0.143439 0.0809743 0.210797 0.151786 0.00508376 -0.0434321 -0.214007 0.311355 0.0286337 -0.133015 0.0354114 0.161778 0.0891538 0.230545 0.0664983 -0.107623 0.102522 0.0329279 -0.181171 0.00515515 0.0762186 0.116068 0.0430222 0.128353 0.0825004 -0.0518867 -0.127853 -0.140272 0.208724 0.0378925 -0.0105278 -0.0305309 -0.243297 -0.104609 0.0512017 0.106993 -0.0103935 0.138808 -0.0607361 0.29418 -0.120823 0.108992 -0.195069 0.211149 0.0342167 -0.2447 0.129346 0.162445 -0.170618 -0.140419 0.384052 0.0102994 0.0402805 0.0822929 0.0849153 0.143912 -0.0934764 0.14216 -0.0789376 0.128051 0.180872 -0.254664 -0.0529188 0.165202 -0.0793616 0.1444 -0.222557 0.10348 0.00223718 0.0655197 -0.0563025 0.0380169 0.0329043 -0.0443634 -0.0548567 -0.0881643 0.0173112 0.191954 -0.0856458 -0.0534691 -0.338331 -0.138918 -0.0745615 -0.125124 -0.107711 -0.130571 -0.129389 0.0502377 -0.226752 0.168442 -0.112338 0.0870107 -0.0920732 -0.0618614 -0.0365281 -0.0203733 -0.095645 -0.0877525 0.150265 -0.0631501 -0.0527888 -0.248736 -0.117463 -0.0747885 0.00968198 -0.101278 0.217566 -0.0948441 -0.00674037 -0.0623682 -0.153411 0.327382 0.131391 -0.115438 -0.0642229 0.400385 0.109514 -0.0575227 0.00331558 -0.0821557 -0.0759312 -0.189842 -0.0157141 0.0913564 -0.0846501 0.0976831 0.127242 0.180219 -0.0718346 -0.0727782 0.111026 0.0944687 -0.0214952 0.17409 -0.0426364 -0.184378 0.0472308 -0.0818508 0.0186879 -0.0928812 -0.0134987 0.169129 0.0345822 -0.0181712 -0.0821718 0.0185016 -0.0188416 0.294104 -0.0673588 0.120644 0.18897 -0.0596535 -0.0472838 -0.262633 -0.0442036 0.0952805 -0.0384802 0.0055712 0.106435 0.213677 0.194102 0.102176 -0.234384 0.0935293 0.229322 0.0357022 -0.0157874 -0.0924698 -0.10709 0.172516 0.266076 0.0608799 -0.00815728 0.089254 -0.294169 -0.280782 -0.0782052 0.0711126 -0.14243 -0.0272825 -0.128356 -0.00263951 0.0634187 -0.122273 0.129087 -0.0764555 0.08902 -0.0638158 -0.0445436 0.0797337 -0.160783 -0.0646815 -0.0614136 0.238697 -0.0937492 -0.0374434 0.146481 -0.0339103 0.00390891 0.016247 -0.129157 -0.0345633 -0.203353 -0.116635 -0.130511 0.147837 0.132723 -0.0266353 -0.0887576 0.184673 0.28096 0.0268409 -0.0220867 -0.0467278 0.1005 -0.162664 0.142152 0.0602794 0.261226 0.120014 0.0527604 -0.0383247 0.23492 -0.123295 0.0923833 0.0869109 -0.0780459 0.0367763 0.123232 0.152997 0.00530502 0.17701 0.356126 -0.0162834 -0.203643 0.0294894 -0.165889 -0.0713282 0.175294 0.309758 0.0187546 -0.0408247 -0.134603 0.174564 0.0273818 0.128332 -0.217267 -0.0606104 0.12239 -0.26554 0.140263 -0.345138 -0.202725 0.193789 -0.325004 -0.271398 0.11363 0.177998 -0.118662 -0.0719305 0.00352313 -0.15578 -0.315761 -0.108141 -0.183321 -0.173093 0.2523 -0.0402318 0.0308316 -0.108611 0.270835 -0.0369054 -0.0464503 0.0333856 -0.134091 0.0467987 -0.0028811 -0.136775 -0.0496519 0.026657 0.113679 0.261489 0.194375 0.128386 -0.0906336 0.0715826 0.029584 -0.228688 -0.0846435 0.118353 0.0517709 0.119456 -0.0576811 0.123388 0.271526 -0.0892824 -0.149389 -0.116558 0.0524801 0.0576395 0.235818 0.350708 0.194858 0.0855763 -0.0583898 -0.0261573 -0.142284 0.0133285 0.06878 0.119472 -0.269227 -0.101836 0.00798566 -0.0424425 0.174235 -0.256876 -0.0257554 0.108718 0.0933766 0.125093 -0.253793 -0.0383322 -0.092129 -0.0962043 0.046107 -0.0845404 -0.219393 0.0118033 -0.0774252 -0.294802 0.0751062 -0.20311 0.180296 0.0664392 -0.267041 -0.0717457 -0.188757 -0.259633 -0.116919 0.00718667 -0.0329251 -0.00594516 0.169758 0.0442069 -0.15283 0.189527 0.0533963 -0.25158 0.103647 0.0315682 0.0573837 0.0410034 -0.0749038 -0.292531 -0.128 0.133134 -0.158725 -0.111365 0.0517577 -0.13758 -0.200528 0.0510825 0.12724 0.112508 0.143845 0.222174 -0.27823 0.108973 -0.0111622 -0.0422388 -0.249418 -0.169285 0.0734297 -0.268853 0.282902 -0.140646 -0.0397865 0.0491687 0.0279808 0.0714365 0.147615 -0.0873492 -0.0897963 -0.120382 0.0415088 0.104406 -0.121979 -0.0130349 -0.13399 0.01338 0.151084 0.187398 -0.0602388 0.0661215 0.203043 -0.051066 -0.0213709 0.120101 -0.240966 -0.0381923 -0.0362166 0.0715736 0.0479059 0.103485 -0.0532138 0.10147 0.0439157 0.141809 -0.0436945 -0.138755 -0.154803 0.144226 -0.0279293 -0.197363 0.18971 -0.111651 0.111981 0.0402262 -0.0372283 0.0138315 0.0746145 0.0651538 0.189332 0.14928 -0.376208 0.0797952 0.069352 -0.00109495 0.119125 0.342954 -0.00639146 0.150586 0.0714833 0.00281444 -0.15179 -0.0176634 0.0625554 0.0907139 -0.161535 0.41563 -0.113607 -0.329816 -0.238653 0.155468 0.0121683 0.322868 0.126899 0.172102 -0.334162 0.123259 0.0458163 -0.115337 0.150609 0.172047 -0.0971172 0.0158503 0.10501 -0.0121277 0.164017 -0.0175651 0.0980533 0.154738 0.0474686 0.183562 0.0737389 -0.0667456 0.114018 0.0736907 -0.069682 0.117321 0.065861 -0.0978387 -0.0252831 0.0130893 -0.146306 -0.0550345 -0.0514584 0.0106843 -0.0235461 -0.00795872 0.176721 -0.130081 -0.319647 -0.0265298 -0.113513 0.0480979 0.237108 0.0335506 0.138086 -0.0418577 0.0859219 -0.147851 -0.170352 -0.0958403 0.0310255 0.0750012 0.0231235 -0.0595736 0.208245 -0.20885 -0.191262 -0.0565062 -0.119582 0.0976297 0.0692282 0.0757997 0.0176492 0.0116454 -0.0751393 0.00450887 0.0922878 0.0392754 -0.0854373 0.0993582 0.0480284 -0.0953037 0.0324462 -0.0153827 -0.276635 -0.124282 0.0440098 -0.223961 -0.0725357 0.053411 -0.0159217 -0.0118643 -0.0515851 -0.255572 0.214939 -0.384009 -0.142059 -0.0691795 -0.22559 -0.318564 -0.0938324 -0.0425031 0.0546071 -0.0890148 -0.0966033 -0.104974 -0.162481 0.122179 -0.0734581 -0.117467 -0.0773845 -0.077627 0.176295 -0.154812 0.0245617 -0.0981086 0.095281 -0.208196 0.209579 -0.20636 -0.0863663 -0.21414 -0.103481 -0.0239031 0.0152967 -0.0400049 -0.324347 -0.0520267 -0.178257 0.0323786 -0.132396 0.134125 0.124816 0.147454 0.070247 -0.199051 0.0688712 0.0198552 0.0918774 -0.044978 -0.00758002 -0.0144584 -0.11076 -0.156615 0.179828 -0.364658 -0.00856151 0.0767311 0.0538275 0.214349 0.193296 0.0196505 -0.0794973 -0.0568495 0.00949666 -0.103403 0.18799 -0.355744 -0.00907352 -0.0229027 0.10142 0.0247101 -0.173514 0.152451 0.130442 -0.0557871 -0.237169 0.00793555 0.0617242 -0.0286441 0.0442821 0.127359 -0.276099 -0.098675 -0.0149534 -0.122922 0.126366 0.0719958 0.101627 -0.198245 0.0795096 -0.0245243 -0.131799 -0.103157 -0.0603017 -0.0932409 -0.139452 0.0947325 -0.257201 0.325079 -0.403478 -0.170233 -0.0868783 -0.38296 -0.0562547 -0.0880082 -0.0200079 0.00850903 -0.103727 -0.00850004 -0.245473 0.234582 -0.00948342 0.0382107 -0.0706607 -0.150047 0.0780364 0.106277 0.176802 -0.267945 0.220448 0.0273889 0.228133 -0.127266 0.0271941 -0.000768734 -0.354506 0.107517 0.128134 -0.14928 -0.116977 -0.125818 -0.186097 0.141462 0.0787934 -0.0700829 -0.124125 0.250897 -0.169456 0.0232218 -0.0367092 0.172182 -0.250375 -0.0595306 0.14751 -0.208364 0.139927 0.131656 -0.0731234 -0.00708408 0.0894408 -0.0180624 0.0501322 -0.0552638 0.154577 0.228497 -0.0344971 -0.349982 0.0957098 -0.199446 0.0213354 0.0828729 0.0392593 0.10757 -0.132881 -0.180732 0.011566 -0.131856 0.112924 0.0453766 -0.160949 -0.0914189 0.405675 -0.0167651 -0.297466 0.0951089 0.01325 -0.0404072 -0.0993327 -0.111097 -0.0106351 0.205921 0.149127 -0.0672307 0.0112838 0.117763 0.123909 0.0500145 -0.173257 0.00797526 -0.113427 -0.0222819 -0.170148 -0.237089 0.0859191 0.00876338 -0.142707 -0.00259554 -0.0594384 0.0486075 0.180836 -0.078617 0.36401 -0.00649831 0.0531665 0.0788099 -0.138699 0.0381483 0.0578338 0.0416001 0.0892299 0.09179 0.0511175 0.211083 -0.208088 -0.236835 -0.0347183 -0.116303 -0.0118345 -0.0837093 0.136882 -0.237285 0.138245 -0.124909 -0.00366402 0.174191 0.0172261 0.128699 -0.0873293 -0.178624 -0.329673 -0.0923044 0.0359849 0.0854023 -0.244359 -0.211105 0.102103 0.16211 -0.0706342 0.0684977 0.248221 0.109495 0.0496973 -0.056675 0.0205937 0.207432 0.00790813 -0.226869 0.0503006 -0.150748 0.135457 -0.0481915 -0.127505 -0.115687 -0.0475287 0.00428193 0.182926 0.26349 0.0882106 0.0725787 -0.163799 0.0429295 0.0227476 -0.148751 -0.0314912 -0.183166 -0.167239 -0.222237 -0.149355 0.00094508 0.040394 -0.117829 0.1598 0.142885 0.119151 -0.0752201 0.14066 -0.0729952 0.00825184 -0.0405368 0.126969 -0.101658 -0.0909206 0.199078 0.0379611 -0.0247106 -0.018304 0.09911 0.061685 -0.0390324 -0.0494775 0.000383894 -0.135456 -0.15457 0.00496321 0.193165 0.327976 0.367839 -0.179189 0.0806377 0.126381 -0.0871918 -0.00985691 -0.00722166 0.0838237 0.280968 -0.12681 0.377621 0.00503696 0.208809 -0.0811733 0.0835972 0.143262 0.0120199 0.097339 0.171545 -0.04121 0.136282 0.0441048 0.0967286 0.148448 -0.216245 0.0403264 0.100738 -0.0401207 -0.0978812 0.0270934 -0.0749105 0.0154229 0.147789 -0.131725 0.0318628 -0.2314 0.0216049 -0.191269 0.183288 0.0223505 -0.0904733 0.0954852 0.0517099 -0.0154125 0.000704909 0.18683 0.0762531 -0.158945 0.0783617 -0.175506 0.0555725 0.0242719 -0.157504 0.252467 -0.325601 0.125087 -0.338597 0.156929 0.11396 0.180178 0.156264 -0.0410133 -0.346925 -0.0640834 -0.0299055 0.0021899 0.263424 -0.281875 0.0581307 0.245568 0.204452 0.13267 0.294208 -0.010697 0.063309 -0.0675243 0.0498907 -0.123538 0.354986 0.00727981 0.233133 0.0491224 0.22231 -0.0602582 -0.142867 -0.3042 -0.0830082 -0.0964104 -0.148291 -0.00808117 -0.222433 -0.136574 -0.116433 0.0715032 0.0431928 0.0747284 0.242587 0.0529642 -0.177225 -0.0486619 0.0568698 -0.178376 0.00941439 -0.0764129 0.12315 0.0226791 0.182901 0.297849 0.0659523 0.213759 0.027014 -0.206624 0.0126468 -0.0465013 -0.00877804 -0.0556065 0.0181853 0.0404786 0.0414261 0.135291 0.0124047 -0.359728 0.246371 0.0636206 0.142866 0.145267 0.0984689 0.0181976 -0.0493791 -0.370584 -0.089246 -0.0997898 0.00958743 -0.203677 0.114368 0.055876 0.133237 0.182702 -0.0653826 -0.16554 0.0516924 -0.0455785 -0.000139942 -0.00371224 0.141352 -0.108117 -0.163096 0.202904 0.0611262 0.0531736 -0.0120511 -0.0157643 -0.0107197 0.0632636 -0.173735 -0.000721929 -0.0486198 -0.00234402 -0.0350427 0.0046767 -0.047619 0.1326 -0.170453 -0.217062 0.0145681 0.0298927 0.205755 -0.0252467 0.021066 -0.154986 -0.0486846 -0.0163949 0.0534327 -0.0814962 -0.15506 0.359138 -0.0895211 0.0889207 -0.164194 0.228461 -0.119556 0.0135796 0.151678 -0.149453 -0.167138 -0.0220399 0.129285 0.141303 0.0128349 0.00095028 0.00403184 0.12677 0.00025719 0.0323549 0.0594762 0.0633998 0.0774285 0.218672 -0.177909 0.0672817 0.145176 0.0986211 -0.127819 -0.179061 0.080129 -0.20292 0.100013 0.077741 0.144988 -0.149298 -0.0889694 -0.126907 0.0952072 -0.017132 0.156379 0.0361045 -0.0574017 0.229607 -0.0485659 -0.043962 -0.21812 -0.0926353 0.203912 -0.0188137 -0.0220683 -0.129774 -0.065341 0.0504953 0.0363338 -0.141824 -0.109883 -0.101528 -0.0200802 0.111439 0.102213 -0.0725551 0.0697458 -0.164773 0.0125319 0.00827311 -0.0912633 0.0863545 0.181258 0.146451 -0.00491876 -0.00334016 0.109796 -0.116516 -0.268881 0.0599466 -0.155995 -0.16363 -0.386039 -0.0376921 0.0818622 0.0730553 0.280549 -0.058776 0.088855 0.118189 -0.00353778 0.118314 0.0906662 0.0811317 -0.183279 0.0216437 -0.173828 0.20385 0.218594 -0.162866 0.106335 -0.0794359 -0.0486652 0.00361201 -0.218218 -0.0773769 0.150389 0.140426 -0.0441994 0.230047 0.0388915 0.242668 -0.0757506 -0.00850714 0.183494 -0.033361 -0.176277 -0.250246 -0.258068 -0.244561 0.164017 0.200341 0.190789 0.0771746 0.0359802 0.033787 0.0844965 0.0571218 -0.0383076 0.0942962 -0.177837 0.0265658 -0.0222753 -0.106241 -0.0286753 -0.0330003 0.0444887 -0.0771921 0.0527599 0.182029 0.00346403 -0.101348 -0.0302704 -0.0111386 0.162175 -0.0911357 0.0233027 0.155895 0.197348 0.0564377 0.0205492 -0.0133786 -0.0442722 0.000220314 0.0418194 -0.00411268 0.211976 -0.0725513 0.0110474 0.150551 -0.232092 -0.128953 -0.172123 0.133318 0.171999 -0.201113 -0.180831 0.118214 0.191265 0.0323511 -0.115796 0.0421589 0.0620883 0.350918 0.0377871 -0.0247891 -0.118304 0.155631 -0.0754858 0.189748 -0.165665 -0.204567 0.134462 0.0668033 -0.0417225 0.0331478 0.0460843 -0.203635 -0.196811 0.0599868 -0.0474374 -0.0886574 0.108263 0.172927 0.113793 -0.0588838 -0.0361958 0.111603 0.123565 -0.113129 0.0663017 0.160152 0.106455 -0.104398 0.154893 0.184764 -0.0249527 -0.313536 0.0526909 -0.149873 0.168092 -0.123425 0.0401151 0.233859 -0.0701969 -0.129976 -0.168224 0.193886 -0.21366 -0.189525 0.167814 -0.192431 -0.127235 0.0275075 -0.196371 -0.0266632 0.0566698 -0.0873416 -0.0561086 -0.210942 0.0920807 -0.00223245 0.0389379 0.133847 -0.0524583 -0.153497 -0.0320202 -0.0646678 -0.0762304 0.175827 0.113315 -0.189669 -0.0916921 -0.0819387 -0.209225 0.0629568 -0.000433536 -0.115074 0.151767 0.138418 -0.0352606 -0.257559 0.0263081 0.0867076 -0.0901608 -0.113054 0.0348654 -0.0022802 -0.0206622 -0.0230218 -0.188345 -0.14536 0.177706 -0.175659 -0.150935 0.0924878 0.103321 -0.0656786 -0.176637 -0.153121 -0.095019 0.144214 0.00697014 -0.0252576 0.0776232 0.219632 -0.197163 0.033153 0.365475 0.00919739 -0.187618 0.066427 -0.110356 -0.0174251 -0.094447 -0.17065 0.16906 0.0554836 -0.142164 -0.0835608 0.141982 0.112843 0.174228 -0.00204618 -0.0728846 -0.130732 -0.261621 -0.0734245 -0.125522 0.0712393 0.000413679 -0.0231032 -0.0587869 -0.00915815 0.112376 0.155018 0.0423125 0.113074 -0.0834497 -0.240284 -0.20976 -0.139193 -0.0137081 -0.0618112 0.171153 -0.0379932 0.0501994 -0.170243 0.13492 -0.130403 0.183391 0.125641 -0.00517737 -0.179894 -0.00322528 0.105395 -0.0797592 0.192766 0.15615 -0.15757 0.0865757 0.0658847 -0.139797 -0.10692 0.252414 0.105101 -0.335418 0.276861 0.01814 0.0970562 -0.0914969 0.128362 -0.0182005 0.126712 0.138612 0.0969867 0.0617569 0.119868 0.287329 0.0365267 -0.0874546 -0.0864259 0.135825 0.0466763 -0.166175 -0.228979 -0.392785 0.306875 -0.059098 -0.0790085 0.235624 0.0241054 0.193224 0.0169637 -0.10361 -0.0669456 -0.0983323 -0.0659537 0.0303934 -0.197828 -0.126718 0.141938 0.265509 -0.143637 0.229458 -0.030166 -0.0666922 -0.0252983 0.00544071 0.0206745 0.0541244 0.0899178 0.325835 0.00360303 0.052489 -0.147481 -0.169995 0.0340739 0.00648696 -0.145586 0.194976 0.172046 0.170167 -0.135178 -0.00965456 -0.068779 -0.0486865 -0.0688372 -0.236562 0.0871156 0.0652497 -0.195143 0.160699 0.0219879 -0.204218 0.0503559 -0.11289 -0.0447043 -0.0665504 -0.0380835 0.0136476 -0.00482232 -0.0688329 0.147639 -0.0864594 -0.0933648 0.0439119 -0.0848019 0.159877 -0.109884 0.184764 -0.0590195 0.0660152 -0.0311895 0.106003 0.187749 -0.168056 0.0132363 -0.000477504 0.130483 -5.43693e-05 0.138812 0.105202 -0.0143133 -0.169389 0.00869625 -0.298748 -0.174045 -0.00336475 0.0493125 0.202537 0.0299925 -0.0273383 0.142866 0.0723627 -0.0496169 -0.161972 0.0707061 -0.190319 -0.227718 0.0454045 0.148255 0.0924367 0.0963939 -0.20716 -0.0280536 -0.0798155 0.136611 0.128479 -0.134404 0.32443 -0.168838 -0.275291 -0.0135067 0.0277988 -0.204761 0.0922892 0.119724 0.00591301 0.0296856 0.065168 -0.115908 0.0419579 -0.0513771 -0.122553 -0.029366 0.124924 -0.00255252 -0.380829 0.243098 0.0423532 0.160531 -0.0956772 0.0616434 -0.183652 -0.0378268 -0.00118194 0.0223836 0.0988183 -0.11882 -0.134442 -0.231015 -0.120323 0.267976 0.243134 0.143921 -0.00203956 -0.00571256 -0.21416 0.100789 -0.0586167 -0.0326651 -0.10149 0.231679 0.207038 -0.172164 0.096106 0.180571 0.130087 0.0362506 0.100699 -0.048531 0.195822 -0.0438675 -0.0544931 0.0322325 -0.28711 -0.0214012 0.245414 0.0254959 -0.091902 -0.229919 0.179552 0.184083 -0.150375 -0.126575 -0.0748826 0.0231433 0.205646 -0.149944 -0.0865781 -0.0471377 0.0343808 0.414796 -0.0636182 -0.19096 -0.0588153 0.183137 0.13642 0.0884985 -0.0757383 0.145849 0.027639 0.0324395 -0.121148 0.116222 -0.138672 0.0320481 0.112172 -0.00366685 -0.0680443 0.0485782 0.225883 -0.0999969 -0.0484009 -0.0595561 -0.143471 -0.217625 0.0682065 -0.10092 0.157396 -0.0860746 -0.18215 0.180499 -0.00226649 0.153983 0.313558 -0.100586 0.24164 -0.26337 0.0406559 -0.0125097 0.00552817 -0.0466881 -0.111833 -0.0960823 0.0221808 0.126857 -0.0222848 0.221336 0.221076 0.0904142 -0.0321913 -0.0507459 0.0143365 0.0487915 -0.0818905 -0.139639 -0.0863587 -0.0668071 -0.0603863 0.00949949 0.0547456 0.00649358 -0.244306 -0.282169 0.321395 0.0564178 0.211949 -0.0381124 0.104197 -0.00587897 -0.0222314 0.100923 0.123203 -0.172169 0.336785 -0.0228876 -0.0500779 0.134434 0.0156853 0.00568372 0.0310723 -0.0612151 0.0448471 -0.0148362 0.065663 0.00346261 -0.0186373 -0.0111381 0.0156394 0.051491 0.162453 0.0294866 -0.216697 -0.180547 -0.049198 0.0302704 -0.0937761 0.0641335 -0.199942 0.176291 -0.129535 0.102477 0.285778 0.231167 -0.134221 -0.061642 -0.185602 0.156376 0.0861479 -0.0865034 0.0345779 0.0968619 -0.000288866 0.0711977 0.143001 -0.163561 0.0985672 0.079582 -0.0356554 -0.187407 -0.153902 -0.0722208 -0.0357026 0.11215 -0.0947089 -0.0684372 0.121682 -0.117364 0.0354388 -0.036652 -0.0739337 -0.206988 0.186985 0.00493437 0.170419 -0.0670316 0.0554897 0.208935 -0.161273 -0.214598 -0.0758929 -0.0136694 0.12012 -0.0992674 0.11355 0.27933 0.128015 -0.0687715 0.108872 0.0368529 0.128759 0.154868 -0.0257739 -0.207284 0.104226 0.0394551 -0.05776 -0.246163 0.0670803 -0.178197 -0.0653192 0.349918 0.3177 -0.256653 -0.115679 -0.270414 0.104269 -0.117382 0.0793262 0.292645 0.299815 0.0644172 -0.140852 0.0991128 0.174436 -0.0775589 -0.0913328 0.0304596 -0.17959 -0.28852 0.0562547 -0.0702276 0.222619 0.0146343 0.23633 -0.225589 0.190094 -0.081822 -0.0553905 -0.139514 0.00668695 0.223338 0.201743 0.0145138 0.13669 0.157861 0.0901107 0.0782733 0.00538918 0.0271459 -0.101917 0.140193 -0.179915 -0.183036 0.0340413 -0.138394 0.0153151 0.185447 0.115314 -0.151532 -0.011124 -0.130621 -0.0357854 -0.0832578 -0.00779703 0.255762 -0.266071 -0.0394801 0.148581 0.101362 -0.176294 -0.199797 0.228672 -0.0866353 0.237398 0.339826 -0.181107 -0.0937704 -0.0258613 0.124084 0.0207809 0.184291 0.102952 0.469347 -0.176334 -0.153093 -0.0827983 0.0996437 -0.152035 0.118435 0.156011 -0.25586 -0.119491 -0.0723669 -0.0337978 -0.0289235 -0.0885827 -0.105837 -0.000120085 0.202129 0.142943 -0.196419 -0.137425 0.366091 -0.104862 -0.0690679 -0.0887288 -0.0567653 -0.196126 -0.00110488 -0.151165 -0.0941383 0.359369 0.00386778 -0.287585 -0.04181 0.0972723 0.173608 0.226955 -0.160004 0.141334 0.0366066 0.0344205 -0.141773 -0.159381 0.112814 0.0795777 -0.19395 -0.0613753 0.111915 0.00561564 -0.225335 0.125759 -0.238189 0.154266 0.0931138 0.11839 0.130329 -0.108099 -0.093935 -0.0274172 -0.173321 0.201613 -0.00359783 0.135765 0.0670605 0.188809 -0.0172729 -0.229262 -0.0929171 0.00418123 -0.0343614 0.0169887 0.00885557 -0.0672789 0.138111 -0.0068354 0.161056 0.137508 0.170488 0.106172 0.00950375 -0.0945699 0.00323521 0.0801001 -0.074901 -0.0152787 -0.0938423 0.0270395 0.404933 0.0694064 0.0167798 -0.0177305 0.147612 0.153201 -0.0711457 -0.143255 -0.184208 -0.0194864 -0.316328 0.070082 -0.0318282 -0.128349 -0.0288228 -0.08427 0.0172067 -0.0926334 0.0936641 -0.102344 -0.121623 0.0813534 0.129578 -0.187074 -0.134252 -0.209242 -0.178555 -0.158117 -0.00582035 -0.0808206 -0.0112133 -0.244035 0.239496 0.101612 -0.257384 -0.0875903 -0.0242752 -0.0369394 -0.125475 0.0551352 -0.15302 -0.0944697 0.15863 0.0333378 0.202476 0.0967083 -0.0750339 0.211423 -0.036956 0.151866 0.0708536 -0.126813 0.149947 0.0410006 -0.101955 0.24143 -0.24292 -0.155533 0.199239 -0.095506 0.270507 0.1211 0.055955 -0.0728118 -0.0203837 0.10148 0.195654 0.0472436 -0.103562 -0.0465141 -0.109933 -0.0506055 -0.248002 -0.16816 -0.0574915 -0.00923048 -0.144126 0.120143 0.1472 0.0933052 -0.18274 -0.0120567 -0.0678807 -0.105698 0.110172 -0.150395 -0.0195309 0.0439928 0.00639572 -0.125147 0.0527789 -0.0514669 -0.14368 -0.0700494 -0.259696 0.000417934 0.0207695 0.149874 0.132233 0.184566 0.127117 0.0207927 0.0829183 0.103686 -0.0177698 0.1473 -0.0504632 -0.406857 -0.104962 -0.0813785 -0.0421272 -0.11681 -0.161583 -0.0203544 -0.0538052 0.250734 0.00958459 -0.0765127 -0.120196 -0.010133 -0.238036 0.184786 0.103643 0.188694 0.118664 -0.239973 -0.00346734 -0.0127697 0.156416 0.0390277 -0.0460872 -0.00266504 0.0841944 -0.0712034 0.0287112 0.0328736 -0.0960294 0.203455 -0.130759 0.186818 -0.117128 0.035671 -0.159608 0.143116 -0.00926405 -0.128485 -0.0446339 0.0335321 -0.0767084 0.148467 -0.1641 0.000872745 -0.0185811 0.124176 -0.172595 -0.12977 0.0903863 0.0520442 0.27587 0.0377465 -0.180425 -0.267351 -0.16927 -0.172731 -0.0028707 -0.0590672 0.28697 0.121115 -0.0561133 -0.233325 0.0969617 -0.0846128 -0.159836 0.0558751 0.194473 0.114571 -0.0535736 -0.106131 -0.126099 -0.373624 -0.0968038 0.184041 0.0523368 -0.161838 -0.21125 -0.114533 0.17019 -0.0893902 0.161123 0.00611016 0.0131952 0.104506 -0.0667466 0.129605 -0.111312 -0.0988972 0.0377691 0.0586332 0.0286961 0.256996 0.10297 0.180406 -0.0697496 -0.307641 -0.270921 -0.0314146 -0.1264 0.025971 -0.0342044 0.132535 -0.0850231 0.0144017 -0.00474951 -0.196942 0.0158073 0.0417915 0.261762 0.0247248 0.227503 0.0170942 -0.0859682 -0.0140107 -0.0556027 -0.0285869 0.125538 -0.0209482 0.114788 0.150663 -0.0363404 0.0368978 0.00826318 -0.0524129 0.059133 -0.279036 0.0861011 0.216897 -0.0631284 -0.0150225 0.0230701 0.150058 -0.0629383 0.0736094 -0.0208665 0.0195918 -0.0654185 -0.0785036 -0.107225 0.319219 0.0546624 -0.298802 0.0865994 0.0680122 0.252804 0.063257 0.159419 0.0475901 0.24866 -0.0407292 -0.123172 -0.0370354 0.0180095 0.207501 -0.0234015 0.166239 -0.0318703 0.0179338 -0.202881 0.0862628 -0.0349717 -0.0590063 -0.0129129 -0.00959263 -0.0811676 0.0259635 -0.0918202 0.0997496 -0.0499502 -0.140695 -0.0667045 0.158687 -0.257128 -0.120163 0.234229 -0.260777 0.0640716 -0.0312141 0.108199 0.404433 0.238935 -0.0560122 0.265861 0.27935 -0.0278768 0.157181 -0.0607168 -0.0356185 0.0178454 -0.0155004 0.0128066 0.10746 -0.220018 0.11589 -0.16365 -0.132838 0.0566736 0.173086 0.0447473 -0.0827202 0.265431 -0.0481343 0.115929 -0.116507 0.0768474 0.0138202 -0.138152 0.0530479 -0.203925 0.147053 -0.0739602 0.228267 0.167453 -0.0873889 0.164115 0.125364 0.110833 0.0468228 0.101997 0.00547191 0.0435682 0.204999 0.11192 -0.101165 -0.00163817 0.0263544 -0.0476932 0.0288389 0.164558 0.0414057 -0.197875 0.131485 0.0792453 0.0623961 -0.0548146 -0.0420322 0.202846 -0.223546 0.0377649 0.110838 0.0386967 0.12276 0.0162583 -0.052567 0.142546 -0.0247097 -0.297491 0.119153 0.0451062 -0.149474 -0.00203436 -0.22673 0.14984 -0.0251441 -0.0128302 0.255405 0.0665938 -0.0502207 0.203976 0.138948 0.0467037 0.161578 0.0143932 0.205792 -0.116124 -0.0435942 0.0758385 -0.0172355 0.047557 0.165008 -0.141528 0.117936 0.21738 0.129923 0.0299977 -0.0771292 0.17111 -0.0579033 0.0707165 0.170364 0.0266088 -0.25813 -0.297936 -0.12941 -0.331744 -0.204278 0.0410512 -0.143856 0.0177442 -0.211889 -0.0236492 0.217372 -0.0295192 -0.157312 0.0887756 0.0933653 0.190726 0.176824 0.105395 -0.030165 0.101002 -0.0445927 -0.11225 0.137428 -0.0137427 -0.0111764 -0.0925587 0.0641803 -0.168974 -0.0219439 0.0050606 -0.111792 -0.161146 0.0928112 0.130828 0.0735243 0.0666695 0.0233826 -0.151398 0.0659112 -0.0428283 -0.0468209 0.155793 -0.0168497 -0.105264 -0.128891 0.0557701 -0.0761089 -0.0875435 -0.182817 -0.0327445 0.286012 0.0203138 -0.174333 -0.00641605 -0.178153 -0.0332806 -0.047531 0.00136632 -0.268478 -0.122019 -0.0640063 -0.0829916 0.0411698 0.0357561 0.152238 0.0118464 -0.140518 0.0699383 0.144295 -0.0725125 -0.189569 -0.242613 -0.200856 -0.207345 0.0176629 -0.151583 0.114553 0.0418147 0.165718 -0.0214952 0.106045 0.0143379 -0.0243125 0.0572924 0.105715 -0.168513 -0.0307281 0.0404815 -0.177501 0.190259 0.046359 0.102106 -0.0290006 -0.0631246 0.115056 -0.0667139 0.0335581 -0.140632 -0.176228 -0.146254 -0.0326726 -0.143183 0.216479 0.227307 0.183992 -0.000788591 -0.136612 0.0636031 0.103451 -0.0570074 -0.179664 -0.290169 -0.237984 -0.187919 0.0525462 0.0526342 0.107463 -0.202088 0.257606 -0.136196 -0.0591675 -0.121208 0.084418 -0.000533764 0.00375195 0.211726 0.042894 -0.0507445 0.0135271 0.0713859 0.0732033 0.0884371 0.0771524 0.176106 0.270089 -0.0908161 -0.155238 -0.0504613 -0.0622467 0.0441488 -0.0486061 -0.139986 0.268371 0.150684 0.15422 0.145418 -0.131448 -0.212525 0.112152 -0.166523 0.188282 0.194568 0.073364 0.0754442 -0.0544506 0.209856 -0.124861 -0.165383 -0.139339 0.0644668 -0.137402 0.133636 -0.226323 0.197227 0.40885 0.255605 -0.10169 0.040142 -0.0545896 0.0902133 -0.00894256 0.128181 -0.0754679 -0.0758172 0.146164 -0.0388717 0.00801072 0.0145866 -0.0246298 0.0900984 -0.233879 -0.146473 -0.0712587 0.00251612 0.23984 -0.256526 0.160905 0.106539 -0.0264376 0.290678 0.0304104 -0.236268 0.034638 0.247979 -0.183123 0.330511 0.0684703 0.117535 -0.0188756 -0.180277 -0.0885363 0.0837953 -0.0925483 -0.105058 -0.207125 -0.295732 0.178625 0.013164 -0.102112 -0.00672524 -0.0267081 -0.328757 -0.0309323 -0.00654795 0.110691 0.191385 -0.181278 -0.194467 0.0167197 0.0313262 0.394744 0.112407 0.180415 0.0644966 0.016463 -0.0241352 0.136532 0.0655003 -0.0382703 -0.131309 -0.154742 0.0609948 -0.0257758 -0.104768 -0.195353 -0.042495 0.00173745 0.160876 0.306509 -0.138598 0.0341529 0.0715145 0.0607338 -0.111444 0.120359 0.0809549 0.147466 -0.11162 0.123608 -0.00457931 -0.29812 0.214545 0.129559 0.00741408 -0.0783423 -0.0832162 -0.0482676 -0.0101202 0.236458 0.212329 0.0221259 0.158259 0.20332 0.172368 -0.0126373 0.33627 0.148847 0.0219723 -0.0177154 0.217927 -0.0136585 0.0405202 0.0304822 0.190862 0.00192325 0.14249 0.16568 0.0697539 -0.180733 0.00294681 -0.0027577 0.00412876 0.185274 -0.114741 -0.00450414 -0.0904813 -0.0193304 0.044987 0.0481442 -0.0199105 -0.0143242 0.141189 -0.333058 -0.0421508 0.0390045 -0.339832 0.0370439 0.0978278 -0.00487574 0.416077 -0.152205 -0.00620282 0.0724605 -0.261606 -0.124563 0.175611 0.0108403 0.130541 0.302671 0.0500604 0.157481 0.122637 0.202695 -0.138601 0.14887 -0.128548 0.0547555 -0.203715 -0.0910222 0.0035931 -0.0803185 -0.0163595 -0.160288 -0.0948455 0.000622174 -0.185313 0.0776752 0.0552898 0.133493 0.0369404 -0.0994977 0.103154 -0.0778473 -0.237709 0.0209251 -0.126757 -0.0240492 0.0576281 0.0399888 0.262564 -0.0705141 -0.0193933 -0.221815 0.056198 -0.181448 -0.0319526 0.205199 0.0526876 0.136692 -0.0494916 0.253823 -0.0337865 -0.0557994 0.172228 -0.0680684 -0.096948 -0.228727 -0.046395 -0.441019 0.00600426 0.108722 -0.172449 0.346017 0.104589 -0.167282 -0.0209265 -0.0209331 -0.13707 -0.129009 0.162441 -0.004246 -0.145874 0.146804 -0.0534251 0.13703 0.103088 -0.100267 -0.282515 0.134742 -0.270706 -0.081291 0.164393 0.328821 -0.0202131 -0.0405127 0.101007 0.0337387 -0.106954 -0.0750395 0.255966 -0.0415726 -0.211037 -0.040933 0.103696 -0.0874239 0.019833 0.282003 -0.0450773 -0.23069 0.0672179 -0.129795 0.0647316 0.143325 -0.279592 -0.127349 0.142648 -0.0848728 0.100821 0.226469 -0.0881368 -0.148369 -0.0273052 0.0859748 -0.234777 -0.101484 -0.0101685 -0.11878 0.173186 0.267106 -0.0694376 -0.170085 0.135128 0.151478 0.242664 0.136329 0.126146 0.189337 0.0667206 -0.108718 0.0435493 -0.0440098 0.27997 -0.15751 0.353633 0.0461198 0.0993582 0.0593897 0.226457 -0.207208 -0.0104521 -0.103104 -0.0446254 0.185229 0.0696395 -0.355444 -0.000247262 0.0377881 0.0211468 -0.0516763 -0.108766 -0.0231556 0.246176 -0.144177 0.0411958 -0.0486458 -0.171744 -0.0670827 -0.218821 0.35356 -0.0807686 0.121061 0.0538052 0.250785 -0.227556 0.251047 0.158443 -0.0751771 0.00120936 -0.21477 -0.243267 0.295411 0.112539 -0.0938688 0.127992 0.0800339 -0.112137 0.144116 0.00984415 -0.176583 -0.0168299 0.173061 -0.0117972 -0.0167212 0.0491862 0.0863204 -0.260489 0.230103 -0.0352587 -0.122538 0.00161737 0.251581 0.0415868 0.181748 0.00198519 0.150905 0.114304 -0.0892271 0.201892 -0.0361858 -0.0457884 0.352452 -0.126079 0.254002 0.0546246 -0.0137143 -0.0684608 -0.191155 -0.0170776 0.071913 -0.16456 0.109084 -0.057188 0.0988254 -0.0839897 -0.0250354 -0.0282569 -0.298897 0.0632546 -0.127569 -0.172118 0.0593046 0.047654 -0.0142225 0.0166034 -0.10259 -0.19585 -0.192057 0.0147327 0.138635 0.169108 0.0438708 -0.142554 -0.092397 0.137672 -0.0595547 -0.129989 0.0325521 0.0404323 0.0293296 0.163885 -0.0452277 0.258653 0.298827 0.0633047 0.0603177 -0.0181229 0.132924 -0.0217463 0.148514 0.114728 -0.11357 -0.070498 0.0477854 -0.292404 0.124479 0.216882 -0.216558 0.0640617 -0.151766 0.186816 0.0716247 -0.107786 0.196179 0.183178 -0.0111873 -0.00996471 0.0733668 -0.0466852 0.199462 -0.0151331 0.0501114 -0.043632 -0.069699 0.178641 -0.0370293 0.0654195 -0.00983658 -0.130085 0.0406588 -0.0172128 0.135678 -0.102755 0.18068 -0.132655 0.0699142 0.0206769 0.0746027 0.12281 -0.116333 -0.115061 0.00230573 -0.299436 0.193008 0.0104016 -0.0330806 -0.0023166 0.0356658 -0.233888 0.276419 0.0119211 -0.0963873 -0.167328 0.139244 0.0574641 -0.105551 -0.0770512 0.35945 0.094169 -0.272538 0.369028 0.158829 0.190066 -0.306186 -0.194821 0.184054 0.181159 -0.0320226 0.0721282 -0.123736 0.125068 0.0773008 -0.021621 -0.0434519 0.084818 0.0819955 -0.0552548 -0.292065 -0.0319077 -0.183757 -0.0774502 0.0323105 0.189355 0.148453 0.0302808 0.14494 0.189427 -0.128028 -0.0392773 -0.0346654 0.173593 -0.0897528 0.289301 -0.240011 -0.140123 -0.235908 0.289575 -0.0265294 -0.170541 -0.12555 0.0805634 0.124895 -0.130206 -0.213154 0.174286 -0.127303 0.190103 0.176201 0.0264254 0.181514 0.0886971 -0.0899367 -0.0493649 0.244733 -0.0593533 -0.0476667 -0.209282 -0.00173367 -0.0363801 0.213059 0.126029 0.000687889 -0.12991 0.2727 -0.374734 -0.222281 -0.0930603 -0.084105 -0.131742 -0.294316 0.316059 -0.237196 -0.175469 -0.125197 -0.0780369 0.162316 0.0138117 0.0802921 -0.00327634 -0.117135 0.390582 -0.0149411 -0.0560675 -0.0226961 0.140785 0.0482156 -0.201673 0.0790988 -0.0490004 0.117477 0.0554732 -0.00334726 -0.035696 -0.113594 0.424402 0.0433895 -0.07253 0.0790562 0.279897 0.136424 -0.113989 0.302436 -0.2897 0.156679 -0.0644668 0.109858 -0.13567 0.105419 -0.0660927 -0.258688 0.0891037 0.0903622 0.115489 0.11657 -0.078435 0.130751 0.16384 -0.206924 -0.00719329 -0.110149 -0.0351925 -0.190024 0.0868027 -0.0280579 -0.17019 -0.00961769 -0.102262 -0.0231821 0.154266 0.0362965 -0.0678519 -0.191965 -0.0663617 -0.0452939 -0.11292 0.241435 0.170642 -0.137986 -0.196028 -0.184505 0.062458 -0.0544534 -0.012486 0.0390584 -0.0795229 -0.212284 -0.177476 -0.0738453 -0.00751572 -0.194522 0.10831 0.285878 0.101765 0.0904416 -0.0880163 -0.147649 0.0150324 0.00702215 0.0906473 -0.0681691 0.0289377 0.441199 0.311601 -0.091546 0.0569502 0.0372931 0.243517 -0.159895 0.203261 0.197158 0.0320793 -0.343455 0.0237022 -0.245421 0.00342006 -0.128001 -0.0385204 -0.00762824 -0.0830573 0.127692 -0.201978 -0.181777 -0.0843173 0.0805677 0.0434491 -0.0868343 -0.432516 -0.0237045 -0.093882 0.00198992 0.139574 -0.143023 0.0405477 0.330722 -0.0636697 0.0523794 -0.129852 0.183392 0.0375347 -0.0581988 -0.149088 0.230511 -0.16653 -0.171744 0.257758 0.141448 0.121247 0.0522891 -0.179065 -0.110029 -0.0162985 -0.00314822 -0.0953022 -0.0503166 -0.10936 -0.109891 0.0294308 -0.00624868 0.248946 0.254276 -0.0775589 0.222194 -0.0348966 0.017098 -0.163482 0.108617 0.023697 0.0198367 -0.15147 0.184369 -0.367907 0.153857 0.191785 -0.183505 -0.125519 0.0284512 -0.215429 0.124767 0.103824 0.0417443 -0.0822489 0.159671 0.0668822 0.18964 0.134591 -0.0549413 0.0437744 0.181869 0.156932 0.0648744 -0.0556741 0.0263525 0.184254 0.114242 0.140587 -0.0179924 0.0325913 0.104205 0.0533859 0.082585 -0.357098 -0.145117 0.143552 0.0678254 -0.0628041 0.149446 -0.0764527 -0.0159103 -0.00126515 -0.0742259 -0.163179 -0.218253 -0.0432458 -0.190427 -0.102904 0.140401 0.091095 0.0745379 -0.142082 0.231797 -0.0762933 0.183939 0.0507388 -0.0999922 -0.018522 0.00922056 0.19598 -0.187586 -0.0207327 0.0394262 -0.0517572 0.100557 0.209533 -0.0600832 -0.0384117 -0.0335042 -0.174434 0.136846 0.179087 -0.0518428 0.167703 -0.0538625 0.0941643 0.0818919 0.122439 -0.108426 0.04114 0.0165183 0.152714 -0.0124718 0.243811 0.159234 0.064038 -0.0220995 -0.18675 -0.0582962 0.103426 0.318273 0.00747081 -0.26358 0.175111 -0.227987 0.074657 -0.0922561 0.0809365 -0.0379138 -0.176442 0.130034 -0.0517085 0.156882 -0.0164384 -0.148767 0.144633 0.184891 0.0139384 -0.0219652 -0.0154409 0.0329497 -0.00667796 -0.189892 0.126391 0.110819 0.0159415 -0.154651 -0.141436 -0.0872263 0.0253711 0.0352081 0.0285637 0.048382 -0.211765 0.190024 0.00883099 -0.325826 -0.0673162 0.137056 -0.195895 0.102726 -0.104686 -0.0659551 -0.193885 0.115363 -0.173809 0.0241991 -0.0139143 -0.0591552 -0.153398 -0.0973872 -0.126737 0.102226 -0.135334 -0.281311 -0.0776989 0.00465826 -0.259861 1.08739e-05 0.0404233 0.159696 0.0554789 -0.0519884 -0.183096 0.196091 -0.0488127 -0.0833037 0.0303759 0.278529 0.179856 -0.237414 0.278378 0.0306936 -0.0046455 0.326369 0.182139 -0.121719 0.215065 0.103734 0.0110384 0.202694 0.106637 0.0816192 0.206737 -0.00287637 0.12579 -0.0167741 0.0135171 0.197737 0.119986 0.0670595 0.0526999 -0.0630173 0.313008 0.342107 0.271071 0.093352 0.0315692 -0.00828304 0.0360823 -0.0875771 -0.0731314 0.148751 -0.0601858 -0.114283 0.0589859 0.19322 -0.217027 -0.0369867 -0.268121 -0.201551 0.0495488 -0.4064 0.384723 0.0560476 0.126729 0.233736 0.204741 -0.186264 -0.0994726 -0.00522229 -0.218916 0.134362 -0.292958 -0.259386 -0.139026 -0.222526 0.148985 -0.243748 -0.0928197 -0.0466507 0.193116 -0.0749965 -0.138745 -0.125626 -0.356969 -0.0646148 0.107566 -0.0851253 0.176038 0.299282 0.0715675 -0.0363962 -0.188347 -0.130694 -0.102548 -0.090114 0.124553 0.172881 0.357301 0.0278182 -0.122022 -0.00530266 0.056276 0.149872 -0.114307 -0.117822 -0.317768 0.0488818 -0.182388 0.149468 0.0536119 -0.249266 -0.211185 -0.0798453 0.0642257 -0.0358227 0.139623 0.141486 0.0752102 -0.142593 -0.083368 0.138698 0.0354544 0.0383318 0.223929 -0.17946 -0.0516915 -0.260999 0.0337066 -0.0691 0.212221 0.282229 0.0490567 -0.116266 0.0367413 -0.0655693 0.0492099 0.0382982 -0.0513586 0.0497153 0.211525 -0.0359371 -0.0168025 -0.0709562 -0.22679 0.0184113 0.00669498 -0.17311 -0.311276 -0.115688 -0.158331 0.0720071 -0.115401 -0.114809 -0.0603849 0.0991284 0.105884 0.156069 0.178679 -0.014797 -0.00789395 0.00889387 -0.215495 -0.0374765 -0.154083 -0.0493716 0.117416 0.145383 -0.207208 0.0305333 0.174717 0.179769 -0.121252 -0.0419655 0.103854 0.125012 0.139369 -0.0517099 0.153267 -0.0906775 0.0456948 -0.243269 0.12536 -0.150501 0.124506 0.157282 -0.235373 -0.0479168 -0.116935 0.207089 -0.0610165 -0.0358478 -0.0424875 -0.123954 -0.329454 -0.00526247 0.0356861 0.0874877 0.121068 -0.104396 -0.179633 -0.188922 0.134233 -0.0503412 0.064151 -0.170434 -0.19704 0.109471 0.126669 0.0576995 -0.0657986 -0.080875 -0.0448192 -0.431823 0.0191654 0.159331 0.0255186 -0.0547759 -0.0683209 -0.0159217 -0.0887779 -0.321793 -0.0868027 0.0145478 -0.0561639 -0.085408 -0.193995 -0.00227311 0.145634 -0.012364 -0.0644148 -0.0191025 0.0722525 -0.19205 0.0385043 -0.108851 0.041931 0.0240506 -0.0629336 -0.185871 -0.270826 -0.261447 0.222062 -0.0799285 -0.10334 -0.197872 0.0944796 0.0511913 -0.0705562 0.0482435 -0.394118 0.0395071 0.0538989 0.0798727 -0.0554732 -0.310268 0.151263 0.155464 0.163637 0.161524 -0.0766016 -0.172436 -0.117387 0.133258 0.0769935 -0.208648 -0.1038 -0.147874 0.100035 0.111433 -0.0784355 0.084504 -0.0548449 0.199365 -0.12397 0.0617176 -0.176757 0.099613 0.0149137 0.0761326 0.0420525 -0.0895949 -0.0594748 -0.257497 -0.127089 -0.00950611 -0.222563 -0.252806 -0.0286909 0.106535 -0.274555 -0.0977394 0.00138665 0.169425 -0.120624 0.125906 0.0940494 -0.279114 0.0542776 0.0837008 -0.0507246 0.0339624 0.179323 0.122947 -0.111038 0.0452423 -0.131163 -0.0114227 -0.0852728 0.103176 0.11105 0.0128103 -0.129513 0.0507294 -0.0561625 0.106733 0.0373867 0.0240785 0.193825 -0.241028 0.131632 0.118377 0.0877998 0.0439734 0.163946 0.202091 -0.173217 0.0783187 0.0484903 -0.221976 0.0534762 0.469916 0.0839636 0.0181121 0.0198287 0.187949 0.141649 0.000645812 0.156408 0.18565 -0.170945 0.106699 -0.0792614 -0.0729078 0.20697 -0.0335307 0.110416 -0.184905 -0.00100134 0.107868 -0.0585902 -0.0838573 -0.201754 -0.12697 -0.0888356 -0.0427536 -0.0420832 -0.213283 0.0972406 0.148097 0.170121 0.511985 0.131563 -0.164759 -0.272279 0.0120927 0.0830862 0.11111 0.0206343 0.289874 0.323165 0.191924 -0.0113594 0.0383748 -0.2562 -9.55008e-05 0.234539 0.139694 -0.152964 0.122157 -0.0809634 -0.167956 -0.346975 -0.065914 0.363883 0.148478 -0.109967 0.364269 -0.0698163 -0.0661759 -0.182454 -0.0131087 -0.0194079 -0.0447861 -0.0232625 -0.114953 -0.0910487 0.0887912 -0.178985 0.0821808 -0.0418624 0.157095 -0.283644 0.231111 0.0722984 0.0538024 0.0487636 0.144071 0.0194633 0.0219884 -0.0500046 -0.00401293 -0.0821922 -0.244466 0.0549806 -0.11177 0.011991 0.143953 -0.0472852 -0.28758 -0.161778 -0.0205279 0.201865 -0.122247 -0.0513345 0.04411 0.0161548 -0.0971948 -0.16117 -0.0275454 0.0616098 -0.139951 0.0262788 -0.208259 0.153088 0.272417 0.294312 -0.00554519 0.022247 -0.0684632 0.0420818 -0.17894 -0.174012 0.466155 -0.0254637 -0.0528885 -0.269356 0.065602 0.153458 -0.248497 -0.131501 -0.100168 -0.157453 -0.0736496 0.263215 0.213106 -0.124193 0.11677 -0.125083 0.1489 -0.0950942 -0.0571161 -0.0685393 -0.0241433 -0.0904813 0.042773 -0.0406011 -0.251233 -0.148402 -0.155895 -0.0901074 -0.230612 0.0423915 -0.0654946 0.142937 -0.00431125 0.201438 -0.134186 -0.162405 0.120689 -0.198205 0.0896852 -0.0289471 0.272918 0.0361329 -0.014111 -0.179582 0.0567001 -0.157411 -0.0149449 0.00627421 -0.00977749 0.410331 0.20796 0.113965 -0.275328 -0.163395 -0.14874 -0.182402 0.109953 0.0842724 0.0914241 -0.0423002 -0.137437 0.286095 0.0742826 0.208611 0.119566 -0.24139 -0.0199568 -0.10181 0.00193413 -0.222423 -0.00741502 -0.0395591 0.00412545 0.11107 -0.0064047 0.187536 0.0167249 -0.147911 0.0749714 -0.0478974 0.0494567 0.0258646 -0.0836214 0.156032 -0.176485 -0.178745 0.228348 -0.0743951 -0.154922 -0.247226 -0.18549 0.238051 0.0368302 -0.0533249 0.242091 0.110046 -0.0823652 -0.0362251 0.0252869 -0.185915 0.145287 -0.273026 -0.0492434 -0.0504745 0.057838 -0.235153 -0.236271 0.252081 0.0321961 0.0428803 0.0249077 0.053922 -0.0247115 0.302092 0.0474932 0.288587 0.0362775 0.071288 0.0589155 0.125965 -0.0575818 -0.258021 0.121571 -0.180422 -0.366154 -0.136627 -0.106474 0.0503965 0.0545191 0.0996674 0.118576 -0.0329175 0.153396 0.00649926 0.129212 -0.076595 -0.0498216 0.0402205 -0.0244733 -0.0764248 0.138763 -0.0799597 -0.00990608 0.0156782 0.163885 -0.071532 -0.144583 -0.24955 -0.046316 0.21921 -0.10824 0.0622032 0.0941567 0.254825 -0.0747351 -0.0126548 -0.130844 -0.0389724 0.0162224 0.166518 -0.179236 0.133949 0.074848 0.0980443 -0.0911111 -0.105547 0.0700446 -0.0812769 -0.106484 0.30029 0.165687 0.163039 -0.069023 -0.0208282 0.102634 -0.180991 0.0892115 -0.199551 0.0485319 0.0793252 0.253083 0.154086 0.0811454 -0.0385076 0.0215898 -0.14344 0.0488269 -0.0299159 -0.124009 0.283182 -0.128797 -0.154734 -0.0789844 0.0840227 -0.287321 0.136037 -0.217384 0.0418104 0.139942 -0.0418388 -0.0521931 0.106079 -0.101687 -0.0129947 0.169975 0.215534 0.0233759 0.330187 -0.150775 -0.15166 -0.112437 0.0204268 -0.168326 -0.0470304 -0.0975881 -0.00380254 -0.161495 0.261885 -0.225664 0.151953 0.100308 0.0417027 0.233816 -0.236569 -0.142641 -0.123366 0.0406521 -0.225566 0.0979763 0.187289 0.0708621 -0.0735403 0.123602 -0.158571 -0.154945 0.0341231 -0.0714597 0.171706 -0.0627918 -0.250314 0.159354 0.0286668 0.350019 -0.100592 -0.07365 -0.0705812 0.0682079 -0.0892545 -0.0990651 -0.0895547 0.173767 -0.0864041 -0.033169 -0.162131 0.00396801 0.0127626 -0.0651576 0.014909 0.202533 -0.079017 -0.147297 0.125776 0.0691218 0.0537939 0.0873185 -0.0975456 -0.0445081 -0.092727 -0.0273321 -0.101733 0.0208353 -0.0757662 0.236459 0.0146395 -0.164585 -0.0710261 0.0943955 0.057508 -0.0481461 0.110822 0.014544 0.0709637 -0.00505209 -0.122216 0.119667 0.138884 -0.0170327 0.0911087 0.110799 -0.0529864 -0.272875 0.0640919 -0.113559 -0.000654322 0.00836199 -0.187324 0.161208 0.0541017 -0.0838941 0.283701 -0.0428969 0.156213 0.124056 -0.0343184 0.127672 -0.11474 -0.0240066 0.170649 0.196249 -0.0302407 -0.016211 0.271099 -0.0345576 0.0138689 -0.00468616 0.121227 0.139868 -0.105353 -0.204518 0.00899551 0.0065853 0.0518517 -0.0167661 0.132928 0.126783 0.00259176 -0.134573 -0.392533 -0.172528 -0.0791678 0.0839745 -0.0235249 0.00610969 0.177052 -0.119222 -0.277236 0.281969 0.100024 -0.0199478 0.133347 -0.23413 0.224505 0.037962 1.74927e-05 -0.0604047 0.0419055 0.188163 -0.0141649 -0.142216 0.113105 0.182546 -0.0617545 0.219508 -0.0898223 -0.109557 0.167669 -0.00154456 -0.0834885 0.111295 -0.0629866 0.0584886 -0.181385 0.00108549 -0.0351533 0.123312 0.0297802 0.321583 -0.0817057 0.0402815 0.228464 -0.199001 -0.143648 0.0290833 0.0675994 -0.047635 -0.0801431 0.0866991 0.0243858 -0.103386 -0.139758 0.137145 -0.203531 -0.0588625 0.13634 0.0968681 0.0328405 0.31745 -0.137997 -0.254276 0.109448 -0.229275 -0.0700324 -0.260419 0.0194198 -0.183762 0.18169 0.00693232 0.239661 0.0308572 0.199621 0.111343 -0.116858 -0.189229 -0.0464087 -0.0901102 0.165156 0.0608567 0.102796 -0.06502 0.043172 -0.270832 -0.0133852 -0.0474885 -0.158814 0.264254 -0.0680788 -0.0934404 -0.102861 -0.182084 0.276441 0.145167 0.309786 -0.0535878 -0.226504 -0.359746 0.0481594 -0.0283084 0.0633449 0.09423 -0.0492075 0.215851 0.25682 -0.286639 -0.286483 -0.223871 0.0917867 -0.138119 -0.206312 -0.219894 0.158676 -0.0621375 -0.0523912 -0.147507 -0.128511 0.039596 0.185053 -0.00322859 0.0522035 -0.131751 -0.154465 0.14672 -0.0341983 0.351225 0.127803 -0.237816 0.0355263 -0.20884 0.210209 -0.0451185 -0.157375 0.0563181 -6.61887e-05 -0.0524333 -0.12881 -0.155606 -0.180864 0.0845414 0.118 -0.154703 -0.114695 -0.151645 -0.0126075 0.178794 0.0680282 0.148604 0.0220049 -0.146006 0.0352048 -0.0284172 0.0611205 0.176934 0.308918 -0.217137 -0.211548 -0.149063 -0.259288 -0.209729 0.141603 0.127762 -0.134447 0.259665 -0.0893571 0.0307654 -0.218367 0.387028 0.0626807 0.148859 -0.0796879 -0.203012 0.173992 0.119049 -0.0530006 0.0758636 0.38772 -0.037233 0.0505601 -0.0259209 -0.196809 -0.076594 -0.149195 -0.113354 -0.143831 0.0603924 -0.118244 0.108705 -0.0681252 -0.0928745 -0.0788175 -0.0336626 -0.152173 -0.122469 -0.0617233 0.0988031 0.0582881 0.153982 0.201209 -0.0947221 0.0583089 0.000771098 0.0157865 -0.0258992 -0.14757 -0.117769 0.29648 0.0708228 -0.0953713 -0.142384 0.159564 -0.104754 -0.107855 0.150686 0.242374 0.0315838 0.0316599 -0.176099 -0.0396721 0.133728 -0.273578 0.124575 0.0512948 -0.0689147 -0.00307446 0.101292 0.239696 0.181543 0.0751965 -0.0313801 0.0503195 0.124086 0.148185 0.100692 0.236267 0.00206887 0.187016 -0.0914397 -0.152087 0.0499545 -0.152429 -0.131655 -0.148045 0.138554 0.179359 -0.0600936 -0.0564448 0.127602 -0.102503 -0.0442627 -0.0614273 0.0334357 0.163614 0.172117 0.210026 -0.2463 0.296697 0.0726175 -0.148345 0.00341392 0.0305272 -0.110513 0.0384225 -0.198676 -0.180837 0.162132 0.119589 -0.454534 -0.0843111 0.0371058 0.135826 -0.0977096 -0.0358048 -0.12368 -0.157595 0.181664 0.0425295 -0.103376 0.101438 -0.0539164 0.0326301 0.0599523 -0.0908336 -0.166072 -0.0466394 -0.30252 0.0267667 -0.0596294 -0.331951 0.0351982 -0.0627346 -0.0461293 -0.119081 -0.0291159 0.0787144 0.227616 0.0810986 0.0806679 -0.131854 0.108777 0.0627724 -0.154161 -0.247812 -0.197881 -0.182402 -0.407896 -0.299083 -0.116595 -0.0903111 -0.142913 -0.0258235 -0.107309 -0.138606 0.338592 0.151295 -0.0643562 -0.0981209 0.158975 0.00816485 -0.35095 -0.0668302 -0.082811 0.170926 -0.0172847 0.238136 -0.0397974 0.0353793 -0.187578 0.248944 0.11936 0.157354 -0.0206017 -0.175828 0.183134 0.093526 0.132772 0.0110237 0.134559 -0.163458 0.0793413 0.303744 -0.117172 -0.0491328 -0.0491323 0.156199 -0.0172365 -0.151624 -0.114314 0.116834 0.302591 0.0761018 0.0465656 0.274366 0.0124926 -0.0479863 0.258164 0.194451 0.185425 -0.221673 -0.0971456 0.071802 0.316021 0.0772852 0.107626 -0.0141332 0.0916595 -0.26849 0.000154125 0.000976756 -0.0712611 -0.00539438 0.127966 -0.217669 -0.0992854 0.172673 0.13736 0.107523 0.116003 0.0237433 0.0407599 -0.0135535 0.00561895 -0.0796344 0.0443894 0.0709264 0.27415 0.100753 0.134543 -0.0563516 0.180945 0.0717112 -0.0298265 0.162527 0.0790614 -0.358687 0.0369588 0.122646 -0.0414511 0.117512 -0.169735 -0.104537 -0.200583 0.173241 0.0761609 0.06192 -0.00122827 -0.017297 -0.182798 -0.0448107 -0.00525916 -0.261617 0.11958 0.12676 -0.0996849 -0.0873747 -0.0473802 -0.262023 0.0297636 -0.0648658 0.105963 -0.24402 0.0753955 0.0268163 0.0930324 -0.150022 0.0493597 0.18662 0.215461 -0.227645 0.0210825 0.361767 0.0140296 -0.183671 0.0976869 0.0597518 -0.374933 0.0346233 -0.0188444 -0.293725 -0.158057 0.218629 -0.00996045 0.24147 -0.177055 0.00202443 -0.118633 0.135729 0.268715 -0.0754617 0.113419 -0.043216 -0.0542397 0.0186959 0.165034 -0.0295745 0.186022 -0.0150759 0.00451265 0.0830862 -0.21604 -0.199204 -0.0262802 -0.0122856 0.000492633 -0.0717703 -0.143583 -0.0856964 0.274001 0.150429 -0.261001 0.156355 0.327384 -0.00494477 -0.0737753 0.059958 -0.0421972 0.186282 0.0843802 0.121571 0.20515 0.0893008 0.0769141 -0.0771013 -0.0112767 0.317857 -0.0537509 0.0509114 -0.0682486 0.196705 0.242108 0.134204 -0.0602714 0.0180218 0.0676046 -0.227859 0.27118 -0.143931 0.0607603 0.0279075 0.0298733 0.0576357 -0.189682 -0.0357164 -0.166022 -0.0375507 -0.108616 0.224856 -0.0253843 -0.000225041 -0.221863 0.00621795 0.385501 -0.00733276 0.129281 -0.25927 -0.16982 0.12654 0.0761501 -0.202555 0.04569 -0.103205 -0.0485593 0.14769 -0.150017 0.0349405 -0.0287628 0.202604 -0.0830616 0.126306 0.0747563 0.00211709 0.144377 0.0633114 0.0615257 -0.0180766 0.0463269 0.152225 -0.0711963 0.0163032 -0.0264972 0.162716 0.220489 -0.206823 -0.0968354 0.0519524 0.10569 0.106252 -0.0844307 0.180201 -0.0696896 -0.306712 0.197885 0.301982 -0.108931 -0.154456 0.189463 -0.131792 -0.0925294 -0.0346299 -0.0350242 0.194284 0.164744 -0.158085 0.141537 0.185508 0.0255105 -0.220656 0.0467831 0.104493 0.015118 -0.00380349 -0.0416752 -0.158526 0.350965 0.303277 -0.30201 -0.0347618 -0.0833523 -0.094768 -0.0523945 0.0123943 -0.0908468 0.037424 0.00354677 -0.211664 0.00853408 -0.0110062 0.194003 -0.0200816 -0.147031 0.0525302 -0.0373772 0.0989781 0.328609 -0.0454201 0.128884 0.015561 0.0158924 0.0679507 0.0198552 -0.118001 -0.0495091 -0.0166654 0.158504 -0.0569733 -0.0855408 0.0775694 0.136522 0.198551 0.147556 0.248367 0.0499356 -0.165489 0.176556 0.123508 -0.0785489 -0.00977701 -0.276207 0.186677 -0.122515 -0.114538 0.0707973 -0.0677829 0.207732 -0.379283 -0.047871 0.142839 -0.0681162 0.451186 -0.135744 -0.199643 0.0834327 -0.0311734 0.0990561 0.11078 -0.159492 0.0578224 -0.0920533 -0.139513 -0.127278 -0.00212797 -0.133162 -0.00351746 -0.136891 -0.0121806 -0.030322 -0.0428378 0.371089 0.386859 0.114899 -0.235037 -0.191471 -0.00471074 -0.154638 -0.115651 0.0720506 -0.119081 0.0679848 -0.0270726 0.0403401 -0.089228 0.124912 0.152758 -0.288979 0.110528 -0.223312 -0.00148783 -0.285964 0.0451312 0.130035 -0.0289193 -0.0790534 -0.0344484 -0.034195 -0.373354 -0.0253309 0.205725 0.0900771 0.0606832 -0.50621 -0.097443 -0.0898161 0.0311073 0.121761 -0.135388 0.105306 0.0176643 -0.142537 -0.145461 -0.0411651 -0.0286706 0.0329052 0.0339269 -0.041748 0.090235 0.0709131 -0.165884 0.103236 0.211086 -0.030139 0.165741 -0.0736141 0.0904979 -0.0885099 0.0374439 0.273984 0.0585254 -0.0295547 0.120329 -0.00889859 -0.141818 -0.233703 -0.000724766 0.0874939 0.154404 0.0978907 0.104038 -0.0246836 0.0149388 0.131563 0.10916 -0.12979 0.0842137 -0.0829732 0.046499 0.0916099 -0.00344559 -0.220299 -0.0982713 0.182538 0.0250931 0.287315 -0.0364993 -0.140492 -0.0648649 -0.0348762 0.15591 0.0144112 0.115338 -0.104942 -0.259614 0.145406 0.0864802 -0.314061 -0.041601 0.0146584 0.204834 0.196192 0.190129 -0.0235594 -0.134983 0.0117665 -0.211291 0.104764 0.205339 0.287391 -0.030218 0.159268 -0.143561 0.0332083 0.121003 0.0253763 -0.00270901 -0.218862 -0.302023 0.0320443 -0.29259 0.130373 0.0170956 -0.0133342 0.270187 0.0609976 -0.178456 -0.100474 -0.127544 -0.0371285 -0.0236104 -0.110602 0.115524 -0.0294672 0.0672103 0.0285978 -0.0720435 0.104053 0.133842 -0.114204 -0.14055 -0.0473443 -0.00927776 0.284965 -0.0897991 -0.0737351 -0.0228847 -0.00622741 0.286384 -0.0725291 -0.246977 0.228037 -0.0666071 -0.129528 -0.0157255 -0.0280787 -0.0823638 -0.113271 0.166332 -0.170759 -0.349912 0.270079 -0.191322 0.029905 0.022359 0.0937345 -0.031155 0.130173 0.0511326 0.103686 0.0940101 0.0284706 -0.0136018 -0.192605 -0.0996627 0.167992 -0.0946096 -0.0314368 0.0750698 -0.258751 0.0603556 0.0463316 0.310017 -0.123146 -0.0354587 -0.0592351 -0.027821 -0.101812 -0.276678 0.133562 -0.0428992 0.0294625 -0.0186151 0.232109 0.108137 0.104814 0.102805 -0.0664695 0.0447379 0.0517496 -0.0633218 -0.139366 0.0567242 -0.133004 -0.272333 -0.195119 0.0964932 -0.182948 -0.16754 -0.0700134 0.182191 -0.0200485 -0.0783674 0.160561 -0.0806925 -0.232117 -0.115308 0.109983 -0.152183 -0.0570126 0.115838 -0.0395085 0.251219 -0.0243645 -0.128225 0.167863 0.236717 0.152444 -0.0255276 -0.00710772 -0.112324 -0.0711382 0.0106186 -0.139041 0.0669049 0.0504556 0.00324514 -0.23376 -0.255281 0.0873861 0.0772772 -0.0814442 0.00743015 -0.242738 0.0840133 -0.0339416 0.0115239 0.113059 0.268815 0.0402432 -0.0741725 0.0516886 -0.234957 0.0534166 -0.0147884 -0.0885997 0.295504 0.0783721 0.0181924 0.0320457 -0.136659 -0.0436893 0.0374491 -0.247756 -0.0476785 -0.136938 0.178936 0.138701 0.258825 0.345592 -0.0477778 0.157665 0.0463642 0.0514882 -0.0690859 0.0659854 0.0723863 -0.124908 0.0943236 -0.135802 0.266814 0.109964 -0.00519912 -0.265885 -0.0997255 -0.0507875 -0.135816 0.0352753 -0.102924 0.239575 -0.361541 -0.029062 -0.355432 -0.0165859 0.123743 -0.0923185 -0.0790302 -0.119286 0.0738751 0.104192 -0.0229036 0.071046 -0.10477 0.00988244 0.043997 0.263358 -0.207668 -0.150265 0.0188354 0.0456158 -0.0999912 0.125838 0.183302 0.0936527 -0.0497162 0.104936 -0.110493 -0.0700049 -0.00515421 -0.11344 -0.106126 -0.144158 -0.0963319 -0.0869724 -0.0649491 -0.0691029 0.274096 -0.0570802 0.000287448 0.0985067 0.0656998 -0.129649 -0.174213 -0.163595 0.0714327 0.0650649 -0.322975 0.160682 -0.290556 -0.0184387 -0.0107178 0.22905 0.0540799 0.100019 0.0341893 0.0528181 0.262223 -0.0947382 0.0553933 0.186371 0.100007 -0.17376 -0.0923767 0.446528 0.0366553 -0.0628102 0.151021 -0.0418851 0.0131706 0.112556 -0.108323 0.0956573 0.17304 0.0865493 0.0382779 0.00178095 0.00309905 0.162427 -0.204853 -0.0249564 -0.238467 0.0807894 0.107705 0.263706 0.0575922 -0.0589547 0.191047 -0.225221 0.10295 -0.0492647 0.14893 0.0385327 -0.0584356 0.146566 0.301183 -0.107661 0.0527694 0.163162 -0.0597187 -0.152274 0.192195 -0.221887 -0.00276811 0.0269847 -0.0982746 0.0235216 -0.0661173 0.14616 0.160393 -0.00705524 -0.0699893 -0.00858609 0.000117721 -0.116706 0.330246 0.365571 -0.0171906 0.0573946 -0.127828 0.0837514 0.161986 0.155057 -0.0603159 0.0152172 0.0487754 0.0517855 0.129412 -0.036877 0.0755686 -0.36111 -0.0774152 -0.0729967 -0.133866 -0.0659641 -0.161398 0.0828318 -0.102334 0.254387 -0.188351 -0.0441994 0.199813 0.159232 0.00412403 -0.123832 0.049573 -0.0475126 0.105989 0.103649 0.183402 0.0515477 0.143402 -0.2633 -0.0887273 -0.0111429 -0.0177126 -0.0632324 -0.0419485 -0.11109 0.108767 -0.00752471 -0.129563 -0.154456 -0.0528455 0.086528 0.0756541 0.272554 -0.122441 -0.0773471 -0.290762 -0.0736538 0.257813 -0.0473925 0.14933 0.0531297 -0.0431985 0.0288819 0.00950186 -0.0566187 0.347914 0.0595329 0.0143951 -0.141445 -0.343674 0.442072 -0.0329818 -0.235568 -0.0995005 -0.0822843 -0.253887 -0.173554 -0.0758125 -0.093631 0.136062 -0.0642224 -0.357841 -0.147576 0.0443729 -0.114768 -0.157101 -0.240537 -0.121972 0.0356506 0.124066 0.01464 -0.000218423 -0.223367 -0.0633024 -0.140821 0.0767065 -0.140625 -0.130185 0.193251 -0.111007 -0.0776856 -0.0538454 -0.110326 0.248377 0.0172218 -0.0845092 0.143647 0.34363 0.121796 0.122934 -0.226553 -0.164028 -0.22347 0.0830715 0.236284 -0.132639 -0.216518 0.00540478 0.128735 -0.090374 0.167653 -0.287961 -0.230709 0.296108 0.08328 0.0167089 0.112596 0.122121 0.285063 -0.217097 0.449078 -0.0156442 0.0381894 0.0843456 -0.198613 0.109216 -0.0532304 0.0265771 0.123841 0.288135 0.16294 -0.0999903 0.072488 -0.366567 0.2819 0.0173689 0.0346777 -0.105433 -0.089801 0.0536294 0.0544591 -0.0609706 0.00577733 0.245229 0.0876537 -0.129269 0.111678 0.118754 -0.0904151 -0.158307 -0.0194666 0.122053 0.0503748 -0.0281472 0.09218 -0.0694296 -0.0196292 -0.135648 -0.285107 0.0826408 0.0214697 -0.154434 0.0124241 -0.248629 0.111205 -0.00398456 0.0380557 0.031824 0.190676 0.0417476 -0.168205 -0.147547 -0.122295 -0.0408663 0.118533 0.0177059 -0.0648205 -0.192517 0.220465 -0.107422 0.123431 0.0931024 0.218842 -0.0501947 -0.112256 0.0622665 -0.0553158 0.17111 0.0799436 -0.0082854 9.0773e-05 -0.197585 0.0761581 -0.094004 -0.0257904 -0.247678 -0.217483 -0.0304974 -0.241873 0.065489 0.132294 -0.124508 -0.0340068 -0.0476232 -0.0855418 0.0167755 0.358734 0.159534 -0.0867776 0.088003 -0.14092 0.107037 0.0163576 0.0276328 0.0645302 -0.0772332 -0.162788 -0.0404517 0.125922 0.211251 0.0406375 0.0838927 0.0221893 0.0981455 0.208746 0.1647 0.0478142 -0.100394 0.0332608 -0.0215671 -0.125636 -0.188889 0.169044 0.122667 0.278157 -0.163359 -0.0565119 0.234563 0.0888418 0.197638 -0.0509766 0.0119144 -0.167008 0.09119 -0.0622807 -0.199812 -0.0223486 -0.175605 0.173243 0.0367683 -0.129673 -0.0854557 0.0333506 0.0511274 -0.144238 0.471713 0.0378443 -0.0694546 0.18728 0.227709 -0.0482289 -0.0933955 -0.130043 0.0129909 -0.0196911 -0.0948933 -0.0234681 0.0625857 -0.335546 -0.0625417 -0.0388022 -0.00297329 -0.0455544 -0.0996452 -0.139264 0.111154 -0.176719 -0.128038 -0.0214276 -0.435133 -0.153653 -0.0917498 -0.00386967 0.085243 0.179222 0.309577 -0.162789 -0.0575714 0.0693326 0.121254 -0.173493 -0.0673342 0.218798 -0.0728704 -0.0608458 0.10858 -0.0176487 -0.0885902 -0.158285 0.123074 0.0655391 0.273024 0.179869 -0.169733 0.028602 -0.154651 -0.0530573 -0.010098 -0.0864226 -0.133326 0.0861465 0.120956 -0.156618 -0.0443989 -0.101677 0.000557403 -0.12099 -0.164151 0.113449 -0.252392 0.231763 0.0028863 0.0573076 -0.0114081 0.00422047 0.126915 0.175128 0.261455 -0.120668 -0.0940172 0.0561597 0.229654 0.0609825 -0.0187229 -0.112792 -0.0169419 0.0608832 -0.0672926 -0.0851078 0.118969 -0.0957188 -0.163641 -0.0537698 -0.0715935 0.210913 -0.132152 0.213796 0.277665 -0.132864 -0.0168682 0.0545641 0.0706347 0.0242534 0.320217 0.190725 -0.0623091 -0.181377 0.021161 0.0813795 -0.128786 0.0159165 0.0360534 0.147796 -0.148525 0.22318 0.122249 0.107896 0.0939194 0.114199 -0.151952 0.103095 -0.0519742 -0.110327 -0.0650918 -0.115615 0.0259252 0.19576 -0.0900298 -0.0327804 0.0145469 -0.160348 0.222252 0.183211 0.0175495 -0.157759 0.159089 -0.0839764 0.17326 -0.342699 -0.0792354 -0.0813865 -0.0898615 -0.0598298 0.26066 0.200696 0.0799838 -0.149521 0.151165 -0.130014 -0.0851323 -0.225241 0.191566 -0.0651424 0.119832 0.184157 -0.107046 -0.148737 -0.013025 -0.130898 -0.171854 -0.204444 0.054287 0.107186 -0.0135814 -0.0197157 0.119422 0.0552349 0.00208542 0.20406 -0.171006 0.0329861 -0.220652 -0.0427324 0.0520711 0.061208 0.293139 0.189913 -0.209358 0.0126633 -0.0860424 0.0900038 -0.275244 0.0577458 -0.06989 -0.00824475 0.181878 0.0523245 -0.0174313 -0.224056 0.0906478 0.179012 -0.099665 -0.0817279 -0.0538095 -0.0451875 -0.0502041 -0.0304009 -0.0720497 -0.0605849 0.0434571 -0.0492122 -0.256442 0.251858 -0.225479 0.00180459 0.211537 -0.210217 -0.0406455 -0.206743 0.105173 0.233071 0.184438 0.138279 -0.0842832 -0.0773136 -0.141475 0.0181674 -0.0131725 0.161519 0.125595 -0.0813043 -0.0215723 0.1323 0.215113 -0.0628651 0.137299 0.162423 -0.0126822 -0.134625 -0.180427 -0.0953958 0.22095 0.043528 -0.159248 0.184493 0.0684486 0.0376869 0.0288375 0.048165 -0.283128 -0.0168375 -0.222814 0.0687072 -0.211239 0.132537 0.000382949 0.187061 0.0431314 0.189526 0.113928 0.015343 0.0955301 -0.184707 0.00997369 -0.138657 -0.167896 -0.0311035 -0.096531 -0.00885179 0.04405 0.171875 -0.0239206 -0.0125257 0.102093 0.107917 -0.0741294 0.0236199 0.0293514 -0.222524 0.0314037 0.0294989 -0.187981 -0.107481 -0.293775 0.255909 -0.111235 -0.351364 0.0924575 -0.301569 0.00881255 -0.108079 0.0661877 -0.114088 0.00182303 -0.282889 0.011774 -0.179093 -0.000792846 -0.174531 0.0624244 -0.139887 -0.139639 -0.0487182 -0.225625 0.0403902 -0.0755312 -0.0168786 0.0418473 -0.17714 0.0705548 0.171993 0.0337818 -0.034949 -0.136853 0.00417603 0.084209 0.159976 -0.162654 -0.0459104 0.102557 0.156923 0.226286 -0.261572 0.190764 -0.391 -0.147022 0.128583 -0.0835348 0.0188033 0.137066 -0.109901 -0.0236818 -0.0179901 -0.110219 -0.125021 0.13668 0.0252983 -0.0764073 -0.0368004 -0.101184 -0.00622032 -0.118874 0.0241414 -0.214417 -0.0988547 -0.112195 -0.0517473 -0.149256 0.160083 0.0384031 -0.0737734 -0.128166 -0.163826 -0.0885831 0.10402 -0.185905 0.0904251 -0.081404 0.0778941 -0.124446 -0.208997 -0.167681 0.0891755 0.0381809 -0.179503 -0.0880342 -0.00556269 -0.0872967 0.0686878 -0.020778 -0.147285 -0.00638248 0.113855 -0.136259 -0.133607 -0.0140155 0.0743431 -0.152257 0.133776 0.0484667 -0.156967 -0.0865337 -0.00209487 -0.0358842 -0.0504296 -0.303924 0.0716488 -0.0471145 0.133792 0.154105 -0.180336 -0.033787 -0.146104 0.151356 0.042635 0.00422378 0.0247948 -0.16867 -0.0336503 0.234487 0.0271298 0.012322 0.182722 0.158719 -0.199633 -0.116803 -0.0248496 0.0318136 0.00801639 -0.161983 0.178165 0.189728 0.0607054 0.00761643 0.203532 0.0554127 0.144586 -0.247932 0.0712531 -0.0806604 0.175915 -0.147221 -0.148823 -0.0297315 -0.149048 0.21983 0.0988878 -0.07945 0.0535239 -0.166505 -0.00602081 -0.0514385 0.242703 -0.00543835 0.159877 -0.211072 0.131553 0.327136 0.130932 -0.261405 -0.0208537 -0.00110724 -0.0777135 0.00483461 0.151186 0.0825302 0.00448617 0.0353972 -0.0626604 -0.0954776 -0.0911461 0.0275955 -0.0462489 -0.0402186 -0.0223179 -0.0196883 -0.0233826 -0.122054 -0.0557947 0.118947 0.170316 0.0900672 -0.0718748 -0.0309711 -0.177313 -0.108025 0.0366317 0.0324287 -0.111526 0.0401014 -0.212606 -0.0651873 0.0874376 -0.102435 0.0351301 0.0290597 0.0922595 0.175096 0.219276 0.182024 0.205783 0.0514683 0.105598 -0.167599 -0.195718 0.268976 0.0913678 -0.0715344 -0.00702971 0.186219 -0.0452225 -0.0269246 0.308036 0.0518532 -0.127708 -0.0914118 0.189484 -0.2268 0.0996688 0.0779301 -0.0349793 0.113383 -0.122736 -0.0888668 0.108147 0.182515 -0.158491 0.262494 0.0993185 0.0720175 0.100678 0.149595 0.0728057 0.189802 -0.00131715 -0.0343023 -0.121265 -0.0154655 -0.333117 -0.0324329 0.116106 -0.0997894 0.0328717 0.137176 0.239898 0.170695 -0.122207 0.116365 0.11826 -0.0156853 -0.00990797 -0.0486194 -0.126531 -0.0954479 -0.127008 0.00269199 -0.0167145 -0.208318 -0.11506 0.0640555 0.136845 -0.160616 0.0514877 0.0269033 0.0583883 -0.110282 -0.0422336 0.0452428 0.14904 -0.0154248 0.0373526 -0.0430699 0.310253 0.0135531 -0.0280564 -0.0652464 0.141831 0.125933 -0.00827406 -0.340343 0.0946489 0.0399921 0.66131 0.179645 0.0397714 0.282164 -0.171982 0.0365026 -0.087266 -0.0697 -0.0473093 -0.187872 -0.102158 -0.0853749 -0.0333563 0.198246 0.0811464 -0.0880967 -0.0162181 -0.15663 -0.0373645 -0.0420312 -0.026475 -0.216987 -0.0645136 0.144705 0.0963532 0.040516 0.134641 -0.157098 0.212313 -0.085304 -0.0363541 -0.197841 -0.0335624 -0.00335293 0.164483 -0.18794 0.196579 0.182064 -0.0877936 -0.105058 -0.0111916 -0.20503 -0.0367234 -0.206459 0.0659447 0.160549 -0.145573 -0.0523255 -0.106065 -0.0539731 0.156448 -0.149766 -0.181961 0.263495 -0.0863029 -0.00897849 0.206407 0.027794 0.0891268 -0.0956748 0.027899 -0.09654 -0.0218243 -0.0622661 0.00757813 0.0063144 -0.121766 0.00626334 -0.0868783 0.00650162 -0.113895 -0.0399307 -0.420496 0.141591 -0.0052081 -0.0270764 -0.0809927 -0.0107235 -0.031911 0.0269459 0.203937 0.170939 -0.0129801 0.0174596 0.334183 0.151899 -0.0332366 -0.209694 0.00153558 0.0159075 0.157375 -0.11723 0.00892223 -0.072791 -0.0307503 0.0298558 -0.083202 0.0481773 0.156046 0.242159 -0.224191 -0.103356 0.114595 -0.0539821 0.02506 0.0625961 -0.00158285 -0.139011 -0.0924315 -0.183675 -0.00476275 -0.0535689 0.231496 0.163308 0.0547636 0.0391648 -0.0791375 0.0657632 0.0911669 -0.136742 0.158081 -0.0598105 -0.135131 0.285752 -0.0560193 -0.0830361 -0.190954 0.104618 -0.0486766 0.0975281 0.123086 -0.116628 -0.0920788 0.0767675 0.15499 0.124868 0.281611 0.0785683 -0.0873085 -0.114157 -0.0764919 -0.249271 -0.222603 0.24248 -0.107779 -0.123006 0.217345 -0.0236426 -0.124648 0.147925 0.127188 0.017428 -0.00494429 0.0546728 -0.144431 0.231562 0.0996518 -0.336852 0.194406 0.0293277 0.0406214 -0.0600686 -0.0106138 0.0284049 -0.015656 -0.169069 -0.173701 -0.252751 -0.182226 -0.297929 0.320465 -0.00481995 0.0591906 -0.103907 -0.245536 0.170004 -0.00459066 -0.0132812 0.160786 -0.0509757 -0.0238379 -0.197229 -0.036088 -0.0878636 -0.229824 -0.154646 0.0538034 -0.116014 0.218396 -0.0414975 0.0209563 0.134193 -0.220339 0.356686 -0.0406559 -0.18309 0.0273359 -0.0829377 0.307599 0.00253597 -0.0146145 0.0503384 -0.0922859 -0.148563 -0.0304652 -0.117933 0.0061858 -0.10759 -0.126626 0.0293457 -0.241076 0.0525245 -0.17785 -0.0805682 -0.161266 -0.0315592 0.0736221 -0.0889916 -0.0932641 -0.0970392 -0.143615 0.0270348 -0.0848553 -0.236927 0.246048 -0.19527 -0.0505247 0.402408 0.00684344 0.1291 -0.0219245 0.00450603 0.232 0.00920448 0.067842 -0.0352143 -0.0850023 -0.00427768 0.245384 0.105523 -0.160749 -0.118512 0.114747 0.0388849 0.108562 0.0137313 -0.0058369 0.161793 -0.0906714 -0.166259 -0.0660856 0.388952 0.0791952 -0.0461137 0.218764 -0.151885 0.0459685 0.221245 -0.0105462 0.0374434 0.202196 -0.0249999 0.142948 0.0872097 -0.0360553 0.0342285 0.239342 -0.0788425 -0.169656 0.091304 -0.129539 -0.32136 0.230473 -0.0675035 -0.14775 -0.0943416 -0.0909787 0.0799493 0.245928 0.189527 -0.294397 0.359348 -0.161338 0.262187 -0.0763444 0.085225 0.0584054 -0.183787 -0.144783 0.104467 -0.0915044 0.0133805 0.243144 -0.117788 0.286735 0.0199374 0.186805 0.173781 0.150991 0.0298052 0.112199 0.156186 -0.13884 -0.167817 -0.159697 -0.263896 0.128411 0.189857 0.172398 -0.225084 0.100822 0.0614864 -0.124084 0.0506584 -0.123369 0.181504 -0.0684126 -0.0631142 -0.0144655 0.0421962 0.130703 -0.313074 0.104707 -0.00601513 -0.24444 0.216775 -0.284156 0.220184 0.0966468 -0.0782275 0.147666 0.113727 0.282371 0.0339141 0.0480407 0.315217 0.286573 -0.204302 0.0629804 -0.0485253 0.184154 -0.0111136 -0.0682434 -0.0520536 0.180433 0.127635 -0.168234 -0.0256197 0.320759 0.0904984 -0.0572291 0.00101883 -0.0195049 -0.130179 0.104281 -0.0518234 0.125784 -0.147918 0.0791366 -0.0960795 -0.0664591 -0.0517255 0.0552827 -0.0913815 0.117958 -0.0205199 -0.216719 -0.0827817 0.0368827 0.0340271 0.0634357 -0.127672 0.113567 0.0704413 0.116793 -0.043104 0.099179 0.0417854 -0.125874 -0.11388 -0.1772 0.141747 -0.208351 -0.167264 0.0831722 -0.0572003 -0.048321 -0.101069 0.234237 0.00438689 -0.0593538 0.0824706 0.117888 -0.0112057 0.352288 -0.0212934 -0.138452 -0.100547 -0.00458498 0.214726 0.214182 -0.203854 -0.220422 -0.083914 0.165927 0.0936504 -0.305519 -0.0186718 0.0260334 -0.0678845 0.043347 -0.0447648 0.0471419 -0.173186 0.0319242 -0.226071 0.0330631 -0.0267407 0.280681 -0.059228 -0.0174076 -0.012079 -0.0770928 -0.000673706 0.180172 -0.00155165 0.123228 -0.0824848 0.0857465 0.142328 0.154552 0.103766 -0.184665 0.0337463 -0.177323 -0.0809558 0.105159 -0.146242 0.0605158 -0.111647 0.00794311 0.0855101 0.0974 0.108781 0.0911555 -0.174788 -0.248987 -0.293814 -0.16327 -0.372238 -0.194314 -0.0703217 0.110233 0.0262419 -0.0738254 -0.0314713 0.0499838 -0.117439 0.0250661 0.0181683 0.102402 -0.267623 -0.0728922 -0.0111263 -0.129529 -0.452028 0.189745 0.00753794 0.0577752 -0.0433517 0.0113291 -0.262348 -0.00482657 0.169718 0.173429 0.0734222 0.106334 0.00770625 0.0182052 0.12854 -0.0754556 0.0240634 -0.245125 -0.0635246 0.1596 0.0442556 -0.27343 0.148594 0.287707 -0.258446 -0.0984155 -0.0617966 -0.114486 0.0165959 0.0279723 0.0025407 0.00720653 -0.128167 0.0545409 0.0682897 0.0884985 -0.0416601 -0.00925696 -0.154906 -0.181227 -0.0815189 -0.153474 0.0192519 -0.0643217 -0.0371881 -0.0800108 -0.0520966 0.0254987 -0.240606 -0.0667536 0.0878191 0.0478554 0.00117816 -0.111884 0.10115 0.0699435 -0.183927 0.0193384 0.1204 -0.0280371 -0.0440731 -0.146763 0.0362998 -0.00805753 -0.202962 -0.176447 -0.131128 -0.184066 0.223546 -0.22676 -0.0200944 0.177627 0.106536 0.0519969 -0.0563516 -0.21737 0.0471159 -0.0079781 0.0708999 0.0873393 0.136051 0.207295 -0.172612 0.0384164 0.0369839 -0.00193649 0.00991365 0.142742 0.121629 -0.0959963 0.00554519 -0.0769557 -0.0313384 0.213622 -0.0416672 0.0787139 0.130595 0.00677441 0.210871 -0.0776237 0.0937884 0.174686 -0.104614 0.11788 0.0422118 -0.120172 -0.0723144 -0.20474 -0.369678 0.0304076 -0.146144 0.063535 -0.0616306 -0.17362 -0.181112 -0.0726293 0.0776894 -0.122324 -0.104964 -0.0500722 -0.0118033 -0.118342 -0.190749 -0.0464805 0.0624202 0.0798061 -0.127217 -0.255004 -0.311607 -0.0795503 -0.374635 0.237024 -0.0235599 0.270333 0.0294261 -0.0230318 0.0566055 0.0361641 -0.165695 -0.145409 0.0690816 0.16752 0.119965 0.0677545 -0.244917 0.116308 -0.118189 0.209225 0.110664 -0.0738566 0.125481 -0.052846 -0.000992357 0.0405458 0.114904 -0.0204088 0.052125 -0.0586389 -0.0530219 -0.0497441 -0.191839 0.082326 -0.102726 -0.173361 0.195606 -0.0746112 0.00496841 0.333902 -0.114751 0.124153 -0.179032 0.151772 0.142112 -0.045786 -0.0297414 0.0403023 0.0741323 -0.037746 -0.207131 0.063586 -0.216524 0.0642044 -0.0157174 -0.037781 -0.173401 -0.171991 0.197221 -0.0494912 0.12695 -0.0886786 -0.130723 0.249515 -0.105555 -0.0931724 0.114983 0.326426 -0.0514915 0.00387346 0.0619876 0.120524 0.137768 0.0860193 0.129453 0.416204 -0.235069 0.160645 0.138817 0.132813 0.100739 -0.0161354 -0.345859 -0.00624679 -0.0426718 0.147867 0.0325053 -0.187747 -0.0528134 -0.0425489 -0.0810438 -0.0943411 0.129518 -0.0517799 0.0432794 -0.0151043 -0.146142 -0.293397 0.120378 0.163689 -0.0378183 -0.0536696 0.116481 0.0346611 -0.200952 0.12117 -0.11737 -0.043277 0.0146972 -0.161376 0.244403 0.0555224 0.23269 -0.00333685 0.375626 0.237762 0.233487 -0.217703 -0.178799 0.204289 0.140234 0.092692 -0.0491011 0.00463699 -0.0668061 -0.0403675 0.140822 -0.0366118 -0.155851 0.125734 0.210136 0.155587 0.0146915 -0.269078 0.238655 0.0165008 -0.15783 -0.0413953 -0.176693 0.132547 -0.0314557 0.344716 0.135805 0.140668 0.0506528 -0.263184 0.106534 -0.0907187 0.076906 -0.0284706 0.0882541 0.154559 0.0698834 -0.0413443 0.0612888 -0.0767964 0.079928 -0.0282895 0.0198632 -0.167939 0.146828 0.26618 -0.0389974 -0.029914 -0.0719986 0.243122 0.0137914 0.103219 -0.197115 0.0138973 0.151462 0.136338 0.0358714 0.0457425 -0.126873 0.0554174 0.0951599 -0.0456546 -0.0977801 -0.227208 -0.0596095 -0.34261 -0.128713 0.167694 -0.0748826 -0.0403136 0.239835 0.138018 -0.0147553 0.149323 0.0827912 0.26847 -0.118641 -0.0825813 -0.29345 -0.238928 -0.0626216 -0.200765 0.314089 -0.067416 -0.129657 -0.319929 -0.0348568 -0.0535183 -0.114891 0.0497214 -0.0237022 -0.0772554 -0.0275917 0.0340191 0.00655741 0.184451 0.0548208 -0.219833 0.0870201 -0.180467 -0.245375 0.248361 0.0983758 0.0866859 0.121271 -0.067268 0.0705481 0.0995766 0.0695104 -0.0440883 -0.0749989 0.146967 0.170548 -0.350514 0.0364648 -0.200231 -0.125551 -0.147187 -0.179547 -0.0885089 -0.0844095 0.332599 -0.0966671 -0.0316306 -0.0565592 0.185858 0.0309749 0.0255072 -0.0051178 -0.319575 -0.219784 -0.175058 0.12792 0.0790595 -0.0220318 0.114471 -0.12404 0.223939 0.0682731 0.128142 -0.0706304 0.157599 -0.0781405 0.153799 0.00798992 0.262424 -0.0436793 -0.0688003 0.310329 -0.0750721 -0.0373356 -0.16167 -0.0316056 -0.284274 -0.0779547 0.0290587 0.135961 0.0820376 0.133783 0.180438 0.237544 -0.182467 -0.325452 -0.134163 -0.109115 0.256724 0.0478369 -0.0570428 0.0625819 -0.185811 -0.00589788 0.0195446 0.041072 0.0776748 -0.0772989 -0.075639 -0.0728983 -0.0985275 -0.102806 0.0650729 0.022325 0.0692428 0.15975 0.0652233 -0.101413 0.250466 -0.080614 0.126552 -0.0159855 0.180639 0.105887 0.04985 -0.034186 0.0958804 0.0263563 -0.0524588 0.222063 -0.000815539 -0.120212 -0.00390419 0.02882 0.207436 -0.217331 -0.20112 -0.0307844 -0.167742 0.0520153 -0.147953 -0.0624925 -0.184674 0.0809771 -0.00996234 0.28163 -0.197384 0.0554614 0.235881 0.105771 -0.0937477 0.0930239 0.0808282 -0.140338 0.216437 0.127576 -0.00840313 0.153949 0.192561 -0.219951 -0.0719126 -0.146095 -0.0681956 0.145986 -0.104566 -0.0909328 -0.0801843 -0.128709 -0.16463 -0.185937 0.0178133 0.126561 0.0144901 0.0322414 0.116593 0.0475447 -0.396549 0.0791229 0.253495 -0.214935 0.0681909 0.1348 -0.164683 0.0291571 0.101768 -0.219954 -0.225057 0.0105278 -0.116619 0.0981053 0.048036 -0.0621403 0.20858 -0.0898847 0.17986 0.244397 -0.1847 -0.0720653 0.0851215 0.0316632 -0.148437 -0.00930707 0.196759 0.0258051 -0.0372959 0.084704 -0.207592 -0.146323 -0.229408 -0.0293202 0.110623 0.0761553 0.0209289 0.0951023 0.0101883 -0.0223491 -0.194423 -0.197363 -0.123619 0.0804816 0.109655 -0.205365 0.0567823 0.0254221 -0.196223 0.117741 -0.118967 -0.212026 -0.233002 -0.0219723 -0.0371612 -0.0731881 0.195247 0.223927 0.193205 -0.157455 -0.129999 -0.076559 0.0456503 -0.18056 -0.0995081 -0.242466 -0.162831 0.0712403 -0.0116728 0.359839 -0.468554 0.202053 0.0469736 -0.136119 -0.0812811 -0.118831 -0.154899 -0.0368813 0.161674 0.0386272 0.169048 0.179686 -0.293365 0.021691 -0.1069 0.335104 -0.149656 0.336045 -0.302446 -0.134837 0.00576031 -0.10718 0.227364 0.0082022 0.193076 -0.0613087 0.125251 0.0896521 0.0528635 0.0299939 0.178238 -0.033031 0.18912 0.0707448 0.0591651 0.13239 0.00894256 0.0379332 0.0542492 -0.0460607 -0.228924 -0.130721 -0.0197729 0.157441 -0.00454716 -0.0849466 -0.0451709 -0.0264443 0.0797299 0.0658289 -0.1944 -0.0646635 0.0265847 0.0481939 0.0398409 -0.372004 -0.0284706 -0.0221325 -0.0725296 0.024139 -0.135793 -0.00628509 0.127659 -0.0207185 -0.07392 0.2525 0.00808258 0.124123 -0.0518262 0.219811 0.0591453 -0.206279 0.181915 0.305107 -0.00918462 -0.128276 0.0730685 0.0406526 -0.0859394 0.152278 0.0838128 0.282716 -0.014137 0.139185 0.110068 0.117119 0.00459302 -0.104464 0.006278 0.164213 -0.0914936 -0.120324 0.0277312 0.127818 0.0192751 -0.222548 0.284732 -0.162043 -0.192272 0.307173 0.0417717 0.0574622 0.0529684 -0.018825 0.243137 -0.155293 -0.0628925 -0.181153 -0.0662894 0.123627 0.0640054 0.140433 -0.0779953 0.118539 0.239926 0.0961608 0.255892 -0.0577496 0.0756168 0.042036 0.243848 0.121261 0.117851 0.0274834 0.107572 -0.0576688 -0.0465978 0.0878489 0.128111 -0.00656734 0.203069 -0.043955 0.028046 0.109336 0.0042252 0.108854 -0.0795474 -0.221895 -0.104055 -0.0851068 -0.0633615 0.0503355 -0.014136 0.0558798 -0.0101193 -0.112861 0.0163094 -0.22054 0.353115 0.115092 -0.00194075 0.176786 0.0346351 -0.247897 0.0743786 -0.0354034 -0.294221 0.0155605 0.0150731 -0.0483537 -0.132173 0.166435 0.07432 -0.058855 -0.0113684 0.105093 0.157197 -0.018166 -0.111384 -0.34253 -0.184074 0.222307 0.0674704 0.0281808 0.0345524 0.000670397 -0.227159 -0.0166975 0.0209218 -0.205401 -0.0445351 -0.437041 0.116339 -0.0911234 0.0585737 -0.0200098 0.272875 0.074571 -0.286252 -0.00111292 -0.0624088 -0.0697714 0.149275 0.114957 0.00512395 0.0476639 0.250638 -0.142751 0.279832 -0.221103 -0.116212 -0.0176955 0.207567 -0.0186969 -0.101592 -0.0879562 -0.056301 0.0896521 -0.0885723 -0.100389 0.279196 -0.0791399 0.0849546 0.154318 0.242356 -0.164727 -0.123069 0.0386339 0.172345 -0.185655 -0.18926 0.163157 -0.0293065 -0.109928 0.0307063 0.0274343 -0.0110871 0.043798 -0.13118 0.102218 0.0781783 0.0348408 -0.145347 0.0822115 -0.167712 -0.0375488 -0.190977 0.0442878 0.08612 0.146625 -0.0950271 0.194347 0.0864065 -0.00243007 -0.0955159 0.044379 0.0301272 0.0920623 -0.198841 -0.111683 -0.308868 -0.000237334 -0.248049 -0.162938 -0.0505001 -0.0912888 0.240123 0.0542719 0.0544317 0.172738 0.0430141 -0.00814121 0.0478289 -0.215896 -0.190509 0.178028 0.0655741 0.106366 0.0548108 -0.263872 -0.137318 -0.115324 -0.033456 0.248855 0.0271567 0.0388778 0.295646 0.0888531 0.00632527 0.201372 0.137744 0.0983417 -0.0281704 -0.115518 0.236919 -0.130267 0.153976 0.162707 -0.140142 -0.0216636 0.0276706 0.278555 0.153059 -0.125015 0.0414956 -0.107289 0.0869502 -0.0970023 0.088525 0.217028 -0.0927223 0.172306 -0.0935908 -0.209238 -0.0465098 -0.299362 