0.284556 -0.104205 -0.277405 0.112956 0.0400706 -0.165707 -0.112952 -0.0619947 0.0167169 0.187966 -0.0451955 -0.195519 0.249014 -0.0162715 0.311325 0.00362099 -0.23469 -0.0491635 -0.026059 0.0865857 -0.0957419 0.0263549 -0.0277614 0.0833022 0.0543537 -0.0115012 -0.0121451 -0.0415774 -0.0408904 0.133208 -0.0644805 -0.0658993 -0.0693624 -0.0607276 0.0391582 -0.212257 -0.0122875 0.198851 -0.0781499 -0.0806982 -0.0508258 0.0560675 -0.100147 -0.197127 0.194937 0.0265246 -0.0756069 -0.0732728 0.154016 0.138007 -0.0129342 0.151927 0.0512357 -0.173603 0.0405079 -0.237556 -0.145975 -0.114731 0.032787 0.157921 -0.190709 -0.0382892 0.087048 -0.0306912 0.0949803 0.347971 -0.0606269 -0.195289 -0.00574234 -0.0305877 0.0143072 0.0994414 -0.00487385 0.135359 -0.209653 -0.0715788 0.203823 -0.191619 0.0521174 0.16889 -0.066375 0.0489295 0.203772 -0.0872395 -0.21758 0.289059 0.101056 -0.0898138 -0.0400754 0.00548988 0.0871606 -0.0523992 -0.246867 -0.055476 0.112661 0.116559 0.143466 0.210452 0.298615 0.0676817 0.0732628 -0.0521373 0.167898 0.238275 -0.0275548 -0.272568 -0.0464252 0.0592403 0.355954 0.129926 0.260131 0.0162205 0.132324 0.108323 -0.249715 0.0850501 0.213405 0.100411 -0.124814 0.264086 -0.0339151 -0.183929 -0.00433489 -0.242417 0.217561 0.0144443 -0.131952 -0.109562 0.00754031 -0.304937 0.126741 0.0596681 0.0511482 0.0807166 -0.073495 0.0192226 0.218972 0.102216 -0.0731815 0.0431876 0.0174927 -0.150716 0.0157411 0.103171 -0.104 0.0520512 0.0634201 -0.0684306 0.133263 -0.0506849 0.0527472 0.189007 -0.0918566 0.072861 0.0863275 -0.12351 0.178789 0.021266 0.0927842 0.0842988 0.13616 0.195655 -0.0751251 -0.251523 0.0138982 -0.0174544 0.0234577 0.124809 -0.0954682 0.0473344 0.1963 -0.115011 0.0421745 -0.00210244 -0.0730056 -0.0615786 -0.0704493 -0.106353 0.0501389 -0.0396707 0.194461 -0.0395009 0.229183 0.0194911 -0.120102 -0.138409 0.0317899 0.249737 0.0822711 -0.100966 -0.0151113 -0.00297707 0.0632078 -0.114981 0.0463325 -0.206016 0.0325483 0.0478218 0.0278002 -0.0368978 -0.0446272 0.0480738 0.00324845 -0.142392 -0.321675 0.183345 0.00669451 -0.0375857 -0.107447 0.309803 0.115773 -0.023975 0.00784194 -0.0113949 -0.0353788 -0.0444296 -0.159362 0.112582 0.0524734 0.271532 0.184264 0.06455 -0.197503 0.0695421 0.00160838 0.439337 -0.175979 0.0931355 -0.223814 0.185146 -0.284437 0.026354 -0.000253408 -0.110806 0.0441989 0.131732 -0.209986 -0.0987261 -0.282405 0.0606567 -0.198098 0.112792 0.00196249 -0.0686991 -0.0356355 0.0544638 0.0489754 0.0442325 0.213613 0.114637 -0.102974 0.132779 0.232054 0.216181 -0.0140391 0.0325885 0.146261 0.085728 0.0613422 0.0607224 0.156288 0.0541613 -0.186905 0.0501743 0.124074 0.0293315 -0.145656 0.0990603 -0.354661 0.0350445 0.188974 0.0387256 0.17236 -0.0844582 -0.0451185 0.115822 -0.165505 0.0312316 0.251109 -0.103435 0.0054686 -0.0274995 0.10683 -0.260263 0.0657131 -0.396412 0.111906 -0.0404796 0.196722 -0.237818 -0.0517837 0.141262 -0.0175183 0.0663244 0.0198372 -0.0274248 0.00049216 0.0314339 0.181015 0.147367 -0.00547853 0.0398711 0.139512 -0.107784 -0.0408918 -0.0490208 0.115287 0.118386 -0.0835656 -0.0558784 0.0626982 0.0811922 -0.110279 -0.0311952 0.111309 -0.0535315 -0.0390121 -0.0128387 -0.00689639 0.047714 -0.0971073 0.113022 -0.0157614 0.0710356 0.126149 0.11195 0.00408621 -0.157126 -0.101789 -0.112845 -0.220246 0.0451809 -0.197388 0.0645264 0.0607309 -0.0911016 0.11883 -0.0852401 0.0648838 -0.209178 0.27923 0.0228739 0.0370666 -0.106359 0.092806 0.0962993 -0.000126704 -0.0399307 0.127836 -0.0443847 -0.175825 0.0527235 -0.0470975 0.117462 0.0780639 -0.122906 -0.139557 -0.0506098 -0.102494 0.0638707 0.151918 -0.162844 -0.110874 -0.368762 0.0986812 0.0534266 -0.204682 -0.204192 0.261536 0.0914278 0.124221 -0.0338021 -0.0880697 -0.060991 0.0314089 -0.0542478 -0.0942631 -0.054634 -0.127036 0.110419 0.113345 -0.155617 0.122228 -0.105481 -0.10824 -0.134177 0.0114133 0.0973815 -0.174393 0.120531 0.09845 -0.0758872 -0.0476814 0.110535 -0.195807 -0.0767037 0.161848 0.0280555 -0.0313422 -0.0363381 -0.162175 -0.121724 0.0999052 -0.170908 -0.178729 0.0270211 0.0016377 -0.0510636 0.133613 0.00818328 0.109066 -0.101408 0.0588493 -0.0362199 -0.114317 -0.165267 -0.0185603 -0.0860424 -0.15746 -0.13034 -0.0722998 -0.165359 -0.157441 -0.0383582 0.207693 -0.143501 -0.0702545 -0.00717816 0.098537 0.0859091 0.148667 9.9283e-05 0.0174209 0.232476 -0.089601 0.127122 0.163413 0.140472 -0.00565488 0.0104195 -0.148191 -0.052178 0.0206731 0.124163 0.116034 -0.0361286 0.0934976 -0.122378 0.00473438 0.118309 -0.0851418 -0.00575605 0.148058 0.0664861 -0.321304 0.207953 0.241368 -0.183293 -0.153526 -0.0971948 -0.0100999 0.0357471 0.133691 0.0313862 0.0608454 0.0117504 -0.177009 0.000693563 -0.123921 -0.0885477 0.200302 -0.127026 -0.165806 0.136307 0.112001 0.212546 0.123911 -0.0432151 0.255097 -0.00276007 -0.0676373 0.129216 -0.286288 0.0543225 0.238576 0.0615862 0.0104209 0.0257129 0.100693 -0.16352 0.140431 0.0734935 -0.161985 -0.201463 0.258127 -0.149268 -0.108835 0.0823146 -0.0321682 0.290223 0.0391544 -0.02137 0.036669 0.133342 -0.0980325 0.0496122 -0.126788 -0.114237 0.111087 0.215736 0.22564 -0.110188 -0.0376377 -0.123465 0.022655 0.0536081 0.136023 0.205907 -0.0135067 0.0573236 -0.118218 -0.0749289 -0.0767538 0.13905 -0.0649093 0.0564306 -0.156076 0.0588436 -0.04082 0.209064 -0.126129 -0.13139 0.0220158 0.0563327 -0.0668194 0.217724 0.00653093 0.21899 -0.0817506 0.390942 0.126745 0.0936929 -0.0660464 0.183491 0.0612657 0.0995383 0.0137185 0.0245981 0.0424435 0.180671 -0.256935 -0.0376732 -0.103475 0.222515 0.291923 -0.0563129 -0.0367929 0.113213 0.181241 0.0492075 -0.0718284 0.179219 0.0538563 -0.189075 -0.201111 -0.0935515 -0.0209861 0.0826399 0.110928 -0.166977 0.00297424 0.103098 -0.00876574 -0.0358289 -0.134054 0.145226 0.0518423 -0.0564561 0.332153 0.132637 0.0283519 -0.0721362 -0.00866363 0.0746386 -0.0412753 0.28524 -0.0936697 -0.0214111 0.0321998 0.107717 -0.0918179 -0.13615 -0.114913 0.0549711 0.0431569 -0.0355485 -0.0812475 -0.0370855 -0.00151525 0.00846364 0.129935 0.0463396 0.106084 0.076108 -0.111897 0.0228337 0.0863545 -0.108427 -0.216094 -0.112534 0.200515 0.113915 0.0963324 -0.00570877 -0.0547182 0.0423697 -0.0824129 0.00882248 -0.030687 0.0906998 -0.182038 0.00364321 0.177213 -0.0354289 0.00523883 0.266162 -0.0315195 -0.00029454 -0.179752 0.0961693 0.0403188 0.194125 -0.0053419 0.0296128 -0.0470422 0.064742 -0.0867455 -0.0575298 0.0678562 0.0195701 -0.109009 -0.00204381 0.00811426 0.202366 0.147287 0.239481 0.200601 -0.186939 0.104949 -0.314127 0.179272 -0.046611 0.169693 0.34904 0.0616973 0.121389 -0.0393676 0.0543608 -0.0855919 -0.00377512 -0.0200348 -0.186829 -0.0025251 -0.0909584 -0.100351 -0.18407 0.202971 -0.078314 -0.0215529 0.0609787 -0.08302 0.0863138 0.026276 -0.0267714 0.138999 -0.0629582 0.00343425 -0.00841636 -0.00915578 -0.0855456 0.12305 -0.364315 -0.0690996 0.0877279 0.121912 0.149441 0.0977011 0.0515633 0.0682476 0.00309101 -0.108611 -0.00994816 -0.0353826 -0.0633199 -0.0899603 -0.0666482 0.119672 -0.306361 0.00609692 0.0925185 0.0118771 -0.0954947 0.320197 0.238691 -0.0871119 0.241088 -0.101696 -0.0922509 -0.00594894 -0.0246359 0.0930948 -0.0118114 -0.057413 0.284114 0.152129 -0.182344 -0.120243 0.0553853 -0.0422894 0.140692 0.13001 0.337467 0.0294814 -0.148126 0.0164224 0.0686613 -0.0186855 0.296893 -0.144803 -0.152958 -0.00990845 -0.0792685 -0.0695227 -0.00631582 0.148919 -0.248043 -0.143683 0.00680751 -0.104971 -0.00887117 -0.124741 -0.22036 -0.0801242 0.013277 -0.159191 -0.0637118 0.0724827 0.184292 -0.0910227 0.103708 0.247701 -0.121086 0.218159 0.0276626 0.0270584 -0.158562 0.0312089 -0.142903 -0.26551 -0.0870296 -0.0267936 0.0394035 -0.0307839 0.14054 0.0698007 -0.107186 0.316436 0.155251 0.0926003 -0.140424 0.0355542 0.360395 -0.0271714 0.0574546 -0.175631 0.176202 -0.0390513 0.289841 0.101676 0.121506 0.0707358 0.295581 0.0853427 0.21167 -0.0326225 -0.0603177 -0.113587 0.0448357 -0.207858 -0.0566845 -0.165552 0.164013 -0.175463 -0.0452348 -0.257147 0.00208447 0.0726936 0.0680183 -0.00892318 0.0471519 0.0595873 -0.0374491 0.136063 0.23486 -0.159536 -0.0320779 0.00911654 0.150935 -0.18098 0.0694962 -0.0535088 -0.0118076 0.0877756 0.0893074 0.0796363 0.0568362 -0.0400181 -0.0733706 -0.0117485 -0.143735 0.305376 -0.179096 0.0126997 0.028923 0.107925 -0.0432548 -0.15628 0.142894 -0.0462096 -0.0300534 0.143744 0.0990845 -0.0398522 -0.182572 -0.0725333 0.034082 -0.101705 0.126584 -0.0918316 -0.0258297 0.0463481 -0.236052 0.0228228 -0.203482 -0.027891 -0.10586 -0.359092 -0.129293 0.217104 -0.101146 -0.279388 0.0457813 0.132952 -0.12099 -0.119757 0.118705 -0.0966364 0.118645 -0.101401 0.0313356 -0.0354681 0.227557 0.213728 -0.159331 -0.32324 -0.0214967 -0.0346573 0.0175551 0.126961 0.0523207 0.018521 0.101779 0.00256387 0.141722 0.120282 0.0921918 0.0859919 -0.119437 -0.148037 -0.280755 0.17188 -0.100895 -0.192735 0.0147393 -0.0159921 -0.189459 0.353305 0.0690036 0.0877005 -0.235141 -0.263247 0.0312808 -0.0286417 0.0723527 -0.0291088 0.176785 0.202426 -0.107626 0.160552 0.0835136 -0.316567 -0.117087 -0.0542246 0.0907787 -0.111644 0.0813085 -0.00144622 0.051838 -0.034655 0.137363 0.0150863 0.0414819 -0.0755785 0.131817 0.0765472 -0.227555 0.233053 -0.043217 -0.0885066 0.0867426 0.0070056 0.256525 0.0840525 0.354043 -0.0251493 -0.145189 0.0508022 0.0941004 0.0329114 -0.0294861 -0.0789314 -0.237974 -0.0224138 0.101112 0.104355 0.163343 -0.0544903 0.131217 -0.0182284 -0.0210324 0.179724 0.00909811 0.018026 -0.0109906 0.120726 -0.171119 0.121399 0.0423967 -0.144362 -0.0371025 -0.0225911 -0.0138925 -0.126069 0.0740613 -0.138058 -0.164179 0.0741313 -0.0164389 -0.0841367 -0.122404 -0.0623582 -0.0876158 0.020267 -0.188798 -0.254694 0.112079 0.0958426 -0.298666 -0.0263171 0.132798 -0.0990599 -0.0248997 -0.317099 0.0457681 -0.250734 0.368488 -0.154696 -0.0452423 -0.0417556 0.044476 -0.0146977 -0.002796 0.0951226 -0.0169642 -0.0303243 0.0525982 -0.151866 0.0546898 0.154956 0.0553342 0.00192656 0.0323185 -0.206552 -0.0657447 -0.207116 0.288804 -0.0600847 0.0169481 -0.0264703 -0.0218196 0.100541 -0.0331246 -0.259855 0.0503842 0.231764 -0.072522 0.43681 0.0436576 0.083515 0.144454 0.203233 -0.0652058 0.0550302 -0.113057 0.0124964 -0.107405 -0.175849 -0.0473136 -0.0432784 0.0976193 0.0354412 0.294248 -0.196606 -0.0814116 0.279881 0.00260925 -0.182788 0.124396 0.0824858 -0.0793285 -0.13194 -0.229956 -0.338931 -0.0482917 0.0184931 0.167678 -0.114252 -0.0193068 0.0170199 0.13183 0.0678443 -0.00225325 0.0120506 -0.06759 0.0053211 0.0331265 0.263132 -0.060434 0.217904 -0.362029 -0.171177 -0.109939 0.0327407 0.0920666 -0.00392168 0.0840019 -0.145855 -0.0532502 0.00579104 -0.325619 -0.0700465 -0.122171 -0.0727035 -0.0996404 -0.0537646 0.0433096 0.236584 0.0854855 -0.0285538 0.0848591 0.053262 -0.0538648 0.287635 0.138393 0.067417 0.0518432 0.0830526 -0.105387 -0.0427338 0.134548 0.323695 -0.158719 0.147692 0.161631 -0.0997062 0.0117272 -0.0317573 -0.0601707 -0.144756 0.0305882 -0.028723 0.204036 -0.0523269 0.00181452 0.0893018 -0.177863 -0.00362856 -0.178089 0.17306 -0.04082 0.134187 -0.0334064 0.073468 -0.0709921 0.257465 0.00216768 0.0306974 -0.145669 0.0312051 -0.154258 0.0314061 0.0147416 -0.206784 0.210454 0.0339241 0.183405 0.0628466 -0.0355343 -0.0448632 0.0958195 0.173045 -0.0307399 -0.0707013 -0.0435559 -0.0358936 0.258739 -0.265991 0.00894351 -0.0692178 -0.102722 0.199909 -0.162778 0.0347925 0.170655 0.0332002 0.0332244 0.0971933 0.213597 0.0342195 0.113505 0.18785 -0.0559389 0.197285 0.0536894 0.112139 0.0224261 0.236528 -0.112244 -0.166773 0.155866 0.00205752 -0.163097 0.0324022 -0.154838 0.0153775 0.0901064 -0.0043382 0.0358525 -0.0331279 0.138272 0.104574 -0.0113816 -0.179561 -0.0188964 0.119922 -0.0646786 0.0430241 0.00236766 0.152172 0.202839 -0.279544 0.279834 -0.0988641 0.11527 0.0576224 0.122346 0.0252396 -0.195534 0.223228 -0.0634381 0.321407 -0.245441 -0.00391695 -0.120534 -0.139907 -0.065531 -0.144611 0.141011 0.00435096 0.095636 -0.020535 -0.0141894 0.257327 -0.0441701 0.19314 -0.0777845 0.145067 0.142474 0.00717816 0.0180355 0.0735531 -0.131297 0.175934 0.0215203 -0.0972255 -0.0971565 0.188956 0.0892564 0.142107 -0.0963272 -0.0883595 0.069699 -0.147538 -0.152814 -0.0991388 -0.00849863 0.0869592 0.153438 -0.0154489 -0.263496 -0.00117863 0.13038 0.245517 -0.0850487 0.150254 -0.0359613 -0.175464 -0.00938272 -0.162518 0.0981228 0.00486014 -0.227248 -0.0821368 0.156429 -0.0362823 -0.0844619 0.186265 -0.174666 -0.0942054 -0.00471878 0.0329969 -0.00829155 -0.0484236 0.146579 -0.00426633 0.0392518 -0.255076 0.18802 -0.153284 -0.00761406 0.127776 0.0113873 -0.0529439 -0.133556 0.119857 -0.0685147 -0.0923006 -0.157367 -0.179814 -0.0238166 -0.0129063 -0.145329 -0.17849 0.083896 -0.0526153 -0.0619124 -0.0169306 -0.0788359 0.143721 0.291893 0.0167836 -0.0373522 0.00825987 0.111374 -0.212512 0.0554992 -0.100309 0.0708592 0.0394541 -0.0350351 -0.144225 0.0605149 -0.0615247 -0.0991317 -0.101178 -0.0650701 -0.123812 -0.0350247 0.0779225 -0.132767 -0.153791 -0.0261337 0.181663 -0.0215789 -0.0461099 0.234919 -0.0305442 0.229314 -0.106026 -0.0974921 -0.0543021 -0.0941841 -0.283367 0.115576 -0.0682297 0.192056 -0.169582 -0.0878872 0.0999378 -0.0239527 -0.0498429 0.271928 0.274743 0.142118 0.0641638 -0.0318788 -0.013111 0.00362525 0.319353 0.0652828 0.173077 -0.0763761 -0.125124 0.190793 -0.0867346 0.179936 -0.119534 0.126674 0.0941912 -0.379642 -0.171238 -0.145104 0.0373881 0.0796084 -0.119581 -0.160334 -0.0693955 -0.0321772 0.0634513 0.0723802 0.0702323 0.221794 -0.204151 -0.0418478 -0.0339614 -0.00699378 0.247013 -0.172379 0.143236 0.118019 -0.0398886 0.00322197 0.073025 -0.0714171 -0.198174 0.0204173 -0.218618 0.0994253 -0.262123 -0.0117839 0.0948016 -0.0534445 0.0712271 0.0867067 0.0565109 0.211062 0.215671 0.0611163 0.0715901 -0.167976 -0.0801346 0.145748 0.156114 0.129716 0.199151 0.0196684 -0.0528966 -0.237172 0.215806 -0.0351088 0.230851 0.18672 0.0149407 0.00549366 0.0399122 0.336386 0.0213614 0.142396 0.0666425 0.0994787 0.052593 0.112602 0.119723 0.149729 0.0492136 -0.00792184 0.0120355 0.0378122 0.276308 -0.103274 -0.230691 -0.104252 -0.23116 0.359684 -0.104689 -0.124209 -0.0518059 -0.241633 -0.082508 -0.15423 -0.106077 0.0824966 0.106556 -0.256774 0.194105 0.383795 0.150318 0.0623062 0.108777 -0.10403 -0.137192 -0.0753114 -0.0988703 -0.13774 -0.00902861 0.0327251 -0.108358 0.0279141 -0.223765 -0.0850988 0.0411812 -0.246611 -0.158379 0.100573 -0.162601 -0.127789 0.0820773 -0.230176 -0.0684987 -0.111199 0.00523269 0.0795351 0.00667749 0.144565 -0.00572296 0.182787 -0.0236294 0.193659 0.170427 -0.0856179 -0.139851 -0.421028 0.0125125 -0.10102 0.0133342 -0.0834573 0.210977 -0.10497 -0.00596313 -0.0546969 0.0431295 0.128925 0.251724 -0.0624112 0.0308264 0.122532 0.0290455 0.0642957 -0.27214 0.191671 -0.0320202 0.0334087 0.0163699 0.023922 -0.149216 -0.0454357 -0.125494 0.0499535 -0.0976354 -0.120066 -0.283592 -0.11534 -0.0549787 0.0612623 0.224377 -0.0487565 -0.144389 0.0845527 0.0629237 -0.119645 0.1638 -0.077888 -0.193457 0.182365 0.0129318 -0.0331733 0.123055 -0.00762494 0.177316 0.0709439 0.0515643 -0.0257753 0.0950394 0.0629204 0.184052 0.0753255 0.0092858 -0.242376 -0.047454 0.157066 0.0515241 0.0447161 -0.00846931 -0.0347434 0.0415055 0.0570409 -0.0257044 0.0880759 0.0173528 -0.0797578 0.275621 -0.0201039 -0.0942834 0.0160106 0.180157 0.0947084 -0.313193 -0.0989247 -0.20635 0.151197 -0.188755 -0.13781 0.138427 0.187357 -0.065167 -0.0979304 -0.0917214 -0.422359 0.0462555 0.0931658 0.0660005 0.020362 0.0225632 -0.145156 0.11599 0.111414 0.155357 0.184712 0.0305461 0.170097 -0.0669839 -0.064256 -0.156112 0.0531358 -0.0885685 0.0191872 0.0651774 0.088229 0.0631525 0.192496 -0.0562665 -0.00328249 -0.191724 0.0429834 -0.267007 -0.062883 0.187161 0.171094 0.189594 -0.140709 0.155827 0.0820763 -0.0236738 0.215265 0.0403349 0.0968345 -0.0745204 0.183141 0.0559621 0.262088 -0.0767765 0.211803 -0.0595433 0.0119986 -0.132436 -0.12597 -0.00967489 0.0768247 -0.0746471 0.0732917 -0.183921 -0.226017 -0.0107315 0.192278 -0.268634 0.0546709 0.0165108 -0.0968279 0.234475 0.173716 -0.0754135 -0.0215832 -0.0750452 -0.274447 0.00114506 -0.0991757 -0.0477944 0.0206783 -0.0960275 0.164933 -0.0183135 -0.0389 0.0556373 -0.139658 0.0195852 -0.130737 -0.0210031 -0.0676023 -0.207233 -0.174403 0.0862472 0.126173 0.174008 -0.168262 -0.228604 0.103551 -0.0297466 -0.141478 0.0123092 0.0764309 -0.27288 -0.00269152 0.0980311 0.0836596 0.305243 -0.0464058 0.00268206 0.207186 -0.201107 0.173567 0.0254245 -0.0225495 -0.101713 -0.386935 0.00709448 0.0975267 0.0113986 0.0754683 -0.0535608 -0.289675 -0.087908 0.0608733 0.0731309 -0.0531821 0.096991 -0.0869294 0.0941591 0.0524895 -0.195952 -0.125578 -0.0887666 0.0128936 0.00352407 -0.0806419 -0.00781357 0.0541759 -0.0125045 0.0661126 -0.00553337 -0.134613 0.000153652 0.21271 0.0697274 0.266847 -0.097529 0.0818012 0.0181995 0.00125522 0.0507043 -0.215363 0.10944 0.0246907 -0.0419523 0.00183201 0.149691 0.231342 0.0208102 0.113574 0.0529443 -0.099213 -0.146386 -0.0280493 -0.0714715 -0.104755 -0.142244 -0.379214 -0.0363196 -0.17378 0.0597532 0.194397 0.148817 0.127783 -0.296792 0.307095 -0.102666 0.169557 -0.0573837 0.0745209 0.188728 0.121184 -0.250365 0.0163283 0.215473 0.0868509 -0.105489 -0.087491 0.190215 -0.23133 -0.0893731 0.295094 0.324271 -0.0381341 -0.0152314 0.0157014 -0.113291 0.241319 0.109056 -0.047124 0.111015 -0.180118 0.00178899 0.0929625 -0.0475178 0.0388551 0.00693752 0.0194372 -0.0449686 -0.00845277 -0.193885 0.105073 0.152616 0.241279 0.212921 -0.223905 0.107291 0.103145 0.0422775 0.125282 0.0388041 0.0798964 -0.154104 0.0704399 -0.027266 -0.0559015 -0.286924 -0.265822 -0.027655 0.333362 0.0536927 0.154216 -0.0839391 -0.00950375 0.0446679 0.176846 0.0539135 0.0394508 0.361845 -0.0763841 0.0113017 0.251176 -0.119896 -0.0783594 0.0490392 0.216877 0.152579 0.117903 -0.00385313 -0.0576588 0.124345 0.0887169 -0.0230077 -0.198151 0.10603 -0.202778 0.315182 0.0662941 0.0333071 0.0267402 -0.0608468 -0.0254235 0.104829 -0.246879 -0.00326688 -0.0747393 0.186645 -0.00190623 -0.256305 0.0820522 0.103365 0.11185 -0.19054 -0.182868 -0.00550264 0.112841 0.0502164 -0.133661 0.0713939 -0.040803 0.166964 -0.0907976 0.161779 -0.0148149 -0.0217349 -0.231729 0.0963197 -0.0169916 0.214174 -0.0273477 0.115982 0.00639903 0.0932324 0.0159198 -0.209358 -0.0250297 -0.090748 -0.249058 -0.0110436 -0.190669 -0.0191664 0.153295 0.0504878 0.284772 -0.0309697 0.161548 0.0320542 0.100599 -0.265111 -0.0419471 -0.0819127 -0.164591 0.0638347 -0.0797143 0.0553999 0.138907 0.248046 0.0876097 0.183497 0.0654478 -0.112144 0.164112 0.330638 -0.116346 -0.139998 -0.157098 -0.00243291 -0.0974165 0.181259 0.120115 0.202734 0.0487437 -0.155992 -0.0657419 0.116151 0.119616 -0.106415 0.184686 0.133479 -0.0369763 0.0703501 0.0246742 0.227705 -0.0537826 0.0523359 0.0858009 0.144622 0.117698 -0.158327 -0.0303206 -0.301134 -0.0986675 -0.308863 0.0367825 -0.00187409 -0.139478 0.120132 -0.0383644 -0.032536 -0.0772937 -0.219662 -0.287343 -0.300235 -0.0144443 0.0783319 0.0738902 0.193557 0.0521207 0.013276 0.102022 0.186425 -0.0367654 0.00156867 -0.202131 0.256925 -0.109254 -0.134663 0.034646 0.0501899 0.0157789 0.15279 -0.158716 -0.123925 0.377869 -0.178602 -0.124491 0.00713041 0.204079 -0.0810873 -0.104896 0.195866 -0.140083 0.084391 -0.117416 -0.0739914 0.0313673 0.0939 -0.0369508 -0.146397 -0.114044 -0.0299371 0.0235239 0.101298 0.0445341 0.149085 -0.103451 -0.168808 -0.152926 -0.13768 -0.161915 -0.235903 -0.119721 -0.147541 0.0588049 -0.144054 -0.0685095 0.187573 -0.0528086 0.101875 -0.168779 -0.0341581 -0.0699113 0.0671697 -0.0746112 0.0910539 0.0234057 -0.264438 0.0893453 0.034619 0.297685 -0.0953122 -0.0828375 0.218324 0.0315885 0.0579004 -0.0885042 -0.186476 -0.0430784 -0.209708 0.0467363 -0.158727 -0.277177 -0.0760626 -0.0387866 -0.00135025 0.121946 -0.0131682 -0.0318405 -0.151112 -0.0444698 -0.157585 -0.266066 -0.100203 -0.171273 -0.0558216 -0.0249035 -0.045647 -0.0963381 -0.0561256 0.190069 -0.254155 -0.073442 0.124393 -0.00170294 -0.0246364 0.120982 -0.17917 0.155845 0.272906 -0.028133 -0.0151582 0.0840544 -0.131225 0.266411 -0.0858037 -0.10266 0.0889623 0.0843589 -0.100041 -0.184977 0.117752 0.061121 0.217087 -0.0308742 -0.0926641 0.108496 -0.0543825 0.123841 -0.106125 -0.0377313 0.0982306 -0.0942933 -0.058229 0.00399685 0.280425 0.126279 -0.022351 -0.339814 -0.169621 0.14046 -0.00926925 -0.265861 0.0432969 -0.00640565 0.0183726 -0.199359 -0.0723097 0.176569 0.0671049 0.0114814 0.0415561 0.101572 0.128526 0.035679 -0.292376 0.0183158 0.22507 0.0978226 -0.00291372 -0.277041 0.00631345 0.07062 -0.0992934 0.208642 0.102946 0.00647514 -0.0277704 -0.192093 0.177725 -0.0669952 -0.220048 -0.170767 0.0710743 -0.0198883 0.00899551 0.00533386 0.215096 -0.0813539 -0.192746 0.0984878 -0.0388702 0.393916 -0.217374 -0.0811946 0.0870887 -0.0745199 -0.00201497 0.213586 -0.123347 -0.325361 -0.0467278 0.0660232 0.0989828 0.0229982 0.0760045 -0.071541 -0.297255 -0.0963348 0.0214678 -0.133903 0.359013 0.0825732 -0.0343392 -0.0232563 0.0137956 0.0730307 0.00454527 -0.158048 -0.278808 0.102901 0.0397628 -0.0290999 -0.0132278 0.058541 -0.115026 -0.00951179 0.213359 0.0653296 0.135901 0.00738098 0.0920585 -0.119647 -0.159212 0.0593519 -0.161019 0.169975 -0.0364903 0.16158 -0.045596 -0.210476 -0.0521316 -0.0484047 0.199322 0.196479 0.116793 0.0820867 -0.10638 0.0848402 0.080362 0.260575 0.102648 -0.127648 -0.106336 0.0753686 -0.158807 0.0977815 0.0978401 0.0834294 0.208853 -0.00234923 -0.167329 0.128142 0.144393 0.341987 -0.281418 -0.0373172 -0.156773 0.208622 -0.176468 0.144291 -0.0258604 0.175917 -0.177961 -0.0759052 -0.0532148 -0.143054 -0.107533 0.151114 -0.0832488 0.326832 0.210472 0.0377772 0.0939402 -0.123148 -0.0797909 -0.0780426 0.0714507 -0.167702 0.0191881 -0.0712493 0.0498892 0.114487 0.00955103 -0.0305229 -0.0642304 -0.17426 0.174476 -0.0987147 -0.0158399 -0.0524602 -0.125155 0.0211894 0.126115 -0.137482 0.0310817 -0.0838733 -0.212664 0.298952 -0.0472332 -0.26527 0.0473982 0.199079 0.0111329 -0.180326 -0.0174662 0.0357821 0.162767 0.3256 -0.137783 0.110901 0.0487967 0.0380434 -0.0176866 -0.0764248 0.036322 0.0147828 0.0208518 -0.129873 -0.107356 -0.104866 0.169773 -0.0893509 0.0741356 0.214486 -0.00594563 0.18697 -0.084896 -0.0724298 -0.0178326 0.024078 -0.0172767 -0.0934159 0.143171 0.262883 0.0407538 0.238471 -0.135985 -0.138668 -0.017262 0.190254 -0.0132046 0.00899504 0.0656549 0.35978 -0.131842 0.072678 -0.0551025 -0.0235934 0.0606421 0.0455326 0.017227 0.17252 -0.194158 0.224037 -0.0298412 -0.00757719 -0.0384887 -0.112353 -0.11759 0.271759 0.107897 0.142108 0.0196585 0.128653 0.0228431 -0.168837 0.281498 0.112729 0.226268 -0.0406961 -0.161887 -0.0220238 0.0389218 -0.021933 -0.0878201 -0.0617068 -0.0888058 0.0410271 -0.0359017 -0.153531 0.0817534 -0.0426113 -0.0699491 -0.0230162 0.155284 0.0890058 0.0839811 0.0509974 0.0239064 -0.105682 0.0233745 -0.152256 0.0915545 0.0250004 0.100739 -0.0757057 -0.0836596 0.0576031 0.285336 0.17325 0.0798179 -0.295282 0.0541022 -0.146769 -0.0529282 -0.024616 -0.109537 0.0660724 -0.0194495 -0.0458555 0.2069 -0.127801 -0.177683 -0.0260344 -0.0635449 0.0640763 0.0678883 -0.103453 -0.0273227 0.213602 -0.0801635 0.0612401 -0.0655055 0.0868112 -0.160462 0.108131 0.328585 -0.0984802 0.233826 -0.00769963 0.0313143 -0.0962147 0.0295811 0.135253 -0.0518872 -0.112959 -0.0794302 0.0954668 0.0215274 0.108453 -0.0890479 0.266246 -0.117573 0.0240359 -0.144279 0.0433905 0.0242657 -0.0314912 -0.0649027 -0.281597 -0.0719825 -0.130699 0.136292 -0.106825 -0.000379639 -0.0764181 -0.075838 -0.126592 -0.209501 -0.0932854 -0.203153 -0.0673839 -0.0105344 -0.125383 -0.142273 -0.0775939 -0.259038 0.116189 -0.0143001 0.0117003 0.260671 0.0934702 0.0430226 -0.0517444 0.0699203 0.0121962 -0.170727 0.21329 -0.0769292 0.195833 0.0959665 0.112591 -0.129075 -0.0181943 -0.0361518 -0.0866949 -0.000442991 -0.0658956 -0.0973134 0.126988 0.154334 -0.119243 -0.00349003 -0.181205 -0.116014 -0.0749573 0.0457241 0.0996291 -0.091582 0.0690376 0.0190094 -0.14361 0.110953 -0.0158796 0.205756 0.00329714 -0.0764248 -0.00167221 -0.264396 0.0867341 -0.0932211 0.109681 0.144939 -0.0287126 0.00305272 0.00593712 0.11684 -0.0626225 -0.109576 0.111184 -0.159831 0.0415164 0.0262741 0.198771 -0.0416804 -0.158264 -0.0222805 -0.246204 -0.0697274 0.0327591 0.0575922 0.0297154 0.0341727 0.0225552 0.316251 -0.146588 0.0536719 0.0200826 0.126343 0.159959 0.0412337 0.0665565 0.200161 0.171277 -0.0405136 -0.132581 -0.119796 -0.0586172 -0.0763567 -0.230098 0.284929 -0.252772 -0.164351 0.200895 -0.0312888 0.0124104 0.00526342 -0.0222257 -0.021865 -0.181778 0.130005 -0.133601 0.0274352 0.236233 0.00152849 -0.00205563 -0.189904 -0.158191 -0.203793 0.0941425 -0.0122492 -0.275888 0.0178955 0.0450802 -0.311045 -0.174453 -0.173199 -0.192647 -0.155801 -0.109974 0.12605 -0.0447242 0.106114 -0.143051 0.0198448 -0.185181 -0.026917 -0.0350767 0.00717958 -0.0436571 0.00582413 0.018564 0.131071 -0.0774214 -0.114682 -0.172511 0.11257 -0.00302577 -0.101664 -0.0177537 -0.0370775 0.0157378 -0.46447 -0.0647273 -0.0189172 0.00741833 -0.0737243 -0.0035132 -0.0372359 -0.0844563 -0.112308 -0.109469 0.01886 0.0483574 0.174988 -0.0796354 -0.0144977 0.104844 0.0495299 -0.136547 -0.0828299 0.177771 0.195194 0.13011 -0.0222867 -0.0837438 -0.107587 0.107327 0.193082 0.000972501 0.061997 0.165431 0.0433243 -0.190569 -0.0040985 -0.0549995 -0.0220881 0.0799224 0.23011 0.0191257 -0.119033 0.211784 0.11792 0.210428 -0.16981 -0.16464 -0.0641037 -0.0313172 0.0315403 0.118484 -0.102586 0.150115 0.0275198 -0.0197105 0.129996 0.114288 0.0131356 -0.122291 -0.146626 0.183947 -0.259978 -0.0524247 -0.0657239 0.0265804 0.158081 -0.141023 0.185531 -0.00409093 -0.080051 -0.0840506 -0.235055 -0.198314 -0.0263232 -0.112996 0.0426189 -0.0141388 -0.203799 0.11421 -0.212104 0.287304 0.283222 0.0880286 -0.109512 -0.29441 -0.140742 -0.0405462 0.0157018 0.0974671 -0.251168 -0.0213771 -0.0441252 -0.178995 -0.130399 -0.00800647 0.0164956 0.142283 0.112519 -0.0981034 0.0161046 0.0166365 0.145216 -0.020205 -0.153731 0.402437 0.104272 0.202994 0.0867195 0.144105 -0.029801 -0.0763888 -0.100287 0.292079 0.0221997 0.207364 0.0578158 0.118482 -0.0603371 0.115597 0.0227292 0.0490472 -0.0536634 0.238069 0.0154333 -0.169843 -0.00315011 0.177737 0.0656029 -0.141817 0.0606667 -0.0627445 -0.18403 -0.142169 0.207461 -0.107848 0.141504 -0.0352119 0.145379 0.00442282 -0.0163179 0.2696 -0.193357 -0.123693 -0.0688069 0.304119 0.143177 0.0907097 0.111135 0.0580886 0.192122 -0.0706853 -0.251188 -0.0868268 -0.122802 0.0832384 -0.227407 0.00331936 -0.257199 -0.0483551 -0.0716336 0.110689 0.0578782 -0.0833301 -0.115035 -0.173822 0.153357 -0.140085 -0.0138977 -0.0734151 0.147974 -0.152996 -0.209597 -0.153956 0.374704 0.146181 0.272901 0.052733 0.342698 -0.126811 0.0320675 0.0543229 0.234291 -0.380335 -0.0341283 0.0646748 -0.275723 0.14129 0.247244 -0.0634641 0.263425 0.0642735 -0.146324 -0.0870291 0.0480066 -0.00950753 -0.00455615 0.220415 -0.0166209 -0.0775249 0.0863554 0.00768876 -0.102248 -0.14245 0.0369489 -0.121566 0.096061 -0.0483116 0.0490808 -0.17865 -0.0472861 -0.269042 0.135459 -0.209572 0.158786 0.195471 -0.109727 0.166429 0.0452036 0.3202 -0.0545343 -0.173994 -0.206207 -0.248903 0.117402 -0.0250675 -0.115107 -0.108905 -0.0495314 -0.00685431 -0.136727 0.0804632 0.121033 -0.0234871 -0.0718937 -0.176717 -0.145119 0.0228805 -0.146443 -0.143595 -0.0267695 0.118682 -0.16505 0.00780175 -0.0731432 -0.0953079 0.182126 0.122098 -0.0829732 -0.20136 0.156144 -0.0377814 0.100345 0.113419 0.229762 0.103859 0.0388972 0.0432207 0.107541 0.154172 -0.126106 0.171585 0.0150433 0.147477 -0.146036 -0.0591514 -0.0460768 -0.12437 -0.0106682 0.12377 0.0616661 -0.0992598 0.0165197 0.0119305 -0.107326 0.0433862 0.0465675 -0.0311054 0.121688 -0.0568461 -0.00743583 -0.100893 -0.123999 0.0918529 0.00996801 0.0221415 0.176297 -0.145081 -0.0767009 0.0816277 -0.0615663 -0.0478511 -0.170511 0.21212 0.575647 0.0189134 -0.0143672 0.0978009 0.148706 0.226063 -0.01589 -0.0165467 -0.00175305 0.111601 -0.353061 0.0845111 -0.144244 -0.249197 -0.155216 -0.151862 0.251279 -0.0576295 0.0895003 0.169665 0.119185 -0.155608 -0.0720369 -0.227891 0.206198 0.0555545 -0.367228 -0.226172 0.0684126 0.247345 0.0429139 0.0312075 -0.0426411 0.162024 0.116406 -0.0857574 -0.027075 0.234645 0.0233816 0.0524611 0.160378 -0.0670997 -0.103366 0.0444083 -0.0163978 -0.0365385 0.104064 -0.00676354 0.0646252 0.128719 -0.165122 -0.196205 0.278039 0.149247 -0.226871 -0.0786605 0.180109 0.0990745 -0.0917952 -0.333143 -0.0481731 -0.0490009 0.00934064 0.156175 -0.249608 0.00378268 -0.0693147 -0.0390792 0.10391 0.0508892 0.154606 0.397722 -0.250154 0.13705 -0.0939354 0.0552335 0.166153 -0.347573 -0.0584342 -0.0190633 0.0682292 0.00422095 -0.0538568 0.115298 -0.0300251 -0.0906355 -0.0463472 0.0164521 -0.134463 -0.0958005 -0.0315049 0.0418842 0.109703 0.137758 -0.252005 -0.0631946 -0.033179 -0.245334 0.0122525 0.0845764 -0.147011 0.0996551 -0.166391 0.03284 -0.147953 0.0996537 0.0110819 -0.131002 -0.0737772 -0.0014032 0.116178 0.177063 0.191538 -0.0421414 -0.0651888 0.137575 0.172734 -0.0445606 -0.0148334 0.03924 0.148316 -0.0196751 0.0582314 0.111306 -0.00769349 0.172444 -0.087631 0.105077 0.0123593 -0.115584 0.118425 -0.198492 -0.195942 -0.0520976 0.055051 0.211288 0.11275 0.168426 -0.0271492 -0.216557 -0.120158 -0.0880012 0.185242 0.142899 -0.0077871 -0.0160872 0.113797 0.242966 -0.242378 -0.149374 0.0790463 0.00152896 -0.279425 0.129625 0.0445875 -0.0233991 0.253994 0.0480818 0.206045 -0.026726 0.136023 0.196739 0.15923 -0.0656734 0.115272 -0.167958 0.108899 0.0489461 0.132225 -0.158648 -0.1823 0.198196 -0.0520635 0.0244681 0.0200925 -0.0689776 -0.237204 0.190986 0.0363447 0.0742533 0.112205 -0.120495 0.310702 0.208073 -0.00821165 0.107028 0.0213165 0.0806651 -0.128889 0.144355 -0.0113154 -0.10815 0.0281245 -0.146868 -0.00911371 -0.179108 0.10378 -0.0506627 -0.0782033 0.049573 0.0830989 -0.178264 -0.0172682 -0.112885 0.0816872 -0.168082 0.133608 0.221741 -0.0092527 0.117571 -0.299705 0.0111514 0.0736992 0.0371016 0.0754324 0.131394 0.388772 0.0837755 -0.110768 0.335604 -0.0332726 -0.0539433 0.138854 0.159221 0.027838 -0.0276342 0.0130586 -0.217777 -0.0559195 -0.0319375 -0.178542 -0.0448069 0.0237088 0.0884115 0.194576 -0.0097789 -0.0358809 0.0555295 -0.0535986 0.0727168 0.0655684 0.0209624 -0.117867 0.417647 0.0991615 -0.0691733 -0.12099 0.282807 0.187296 0.132254 0.144186 0.195127 -0.182997 -0.150801 0.0501521 0.333445 -0.0675753 0.015464 -0.350751 0.0290507 -0.00473202 -0.0451875 0.0516967 -0.174834 -0.064881 -0.0806708 0.027795 0.0516182 -0.0177811 0.0446017 -0.0503398 0.0552534 -0.116812 -0.178228 0.210793 -0.220468 0.0470942 -0.168567 -0.0231741 0.146536 0.0987918 0.239356 -0.0335912 0.101712 -0.308994 0.00264376 0.0537542 0.168874 -0.0389393 0.172061 0.358864 0.0690447 -0.154867 0.0684268 0.0113594 0.0663608 0.0539603 0.0979105 0.223204 -0.137111 0.111942 -0.125703 0.114788 0.0266911 -0.0922183 -0.0352511 0.0473939 -0.0769647 -0.0169065 0.0687658 -0.227734 0.201239 -0.0182033 0.177596 0.10321 -0.124962 0.0165888 0.128021 -0.0545068 0.0173429 0.118894 -0.27777 0.193019 0.26456 -0.0253124 0.319804 -0.176177 0.240093 -0.0224427 -0.200198 -0.0796056 0.00969711 0.0969721 0.160348 -0.0217487 -0.129101 -0.160259 -0.230144 -0.304268 -0.0679186 -0.110066 0.000172563 -0.0493418 -0.0874565 -0.0975035 -0.176557 0.0574825 -0.0454258 0.0763713 -0.044857 -0.165955 -0.0854619 0.107442 -0.182538 0.0416502 -0.0364194 -0.24508 -0.112038 0.106416 -0.0066756 -0.075135 -0.0680212 -0.11122 0.0401737 -0.163089 0.114433 0.16566 0.112341 0.0124813 -0.0819383 -0.0611782 0.318395 -0.0486283 0.171219 0.190728 0.282247 -0.0187385 -0.0314037 0.0912453 -0.0815757 0.0910756 -0.0575184 0.141273 -0.0919711 0.00619431 0.0978893 0.0547451 0.191785 -0.267756 -0.361667 -0.0488028 0.132735 -0.127571 -0.154705 0.0423348 -0.0807204 -0.0632206 -0.0139096 0.0358416 -0.0690182 -0.0314051 -0.267353 -0.17726 -0.319262 -0.037442 -0.011801 0.0441441 0.0250075 -0.0921526 0.001537 0.238134 0.142315 0.0816366 -0.238424 0.135655 0.224795 -0.149626 0.113285 0.0310917 0.167259 -0.0383228 0.102546 0.0658029 -0.107961 0.0710994 0.094637 -0.322633 0.225279 0.0089142 -0.000719565 -0.264097 -0.14198 -0.169238 -0.170174 0.00587188 0.0241929 0.0649543 0.027977 -0.0219761 -0.0692906 -0.103064 -0.105387 0.00852321 0.065575 -0.0637643 0.154592 0.212642 0.0315398 -0.200015 -0.0619479 0.0134424 0.104183 0.199598 0.0375432 0.047107 0.0849187 -0.168704 -0.0682769 0.165344 -0.172653 0.0628547 0.113833 -0.374761 -0.15611 0.0311002 0.271046 0.0386736 -0.0111939 -0.0505029 0.0981474 0.167442 -0.28815 0.160815 0.259316 -0.241731 0.161296 -0.0479187 -0.00471216 -0.0453175 -0.116036 0.118061 -0.0364657 0.0600322 0.0133446 -0.0915631 0.0609886 -0.189927 -0.0586006 -0.0201691 -0.1146 -0.0750211 -0.259717 -0.148112 0.126068 0.0627332 -0.169122 0.193343 0.0874551 -0.0834502 0.0311328 -0.226257 0.0252217 -0.0150201 -0.00965504 0.0266466 0.058342 -0.0830658 -0.380437 -0.0126572 0.081987 -0.00249011 0.0359598 0.32808 0.0834053 -0.0240667 0.00505256 0.0829689 0.0200939 -0.120371 0.225173 0.124951 -0.158516 -0.384444 0.00478544 -0.0933714 -0.00364132 -0.00690301 0.000714365 0.190617 0.107672 -0.25558 0.0382996 -0.0568466 -0.014422 0.109892 -0.21576 -0.0194164 0.102584 0.110801 0.0462002 0.0573487 -0.144134 0.111242 -0.172152 -0.0307342 0.111421 0.168191 0.292939 -0.161029 -0.194779 -0.0135011 0.000516272 -0.00879364 -0.0454125 -0.0467793 0.323567 0.0752357 -0.301471 -0.13012 0.281272 -0.265349 -0.121539 -0.211437 0.0441828 -0.173604 0.15983 -0.0854718 -0.0973924 -0.0604723 0.0550184 0.00718809 0.227431 -0.0857857 0.127095 -0.100755 -0.0175816 0.232627 0.201366 0.0340484 0.0371815 0.00775589 -0.0583344 -0.0084712 0.0617692 0.168281 -0.0849139 0.07794 -0.189618 -0.0723177 -0.20117 -0.210075 0.0137403 0.0582366 0.199908 -0.180916 0.0206797 -0.145563 -0.060227 0.182555 0.030816 -0.154978 -0.0263388 0.0517165 -0.106574 0.010871 -0.0571719 0.0429177 -0.144466 0.0229509 0.0650871 -0.057291 -0.0324736 -0.115164 -0.174058 0.040594 0.0902435 0.163601 0.129931 0.063543 -0.0772824 0.0655627 -0.0696631 -0.00015318 0.170073 -0.113718 0.112525 -0.108132 -0.0577137 -0.293054 0.267719 0.1395 0.0999151 0.211833 -0.153298 0.000739422 0.166813 0.13417 0.100315 -0.0899608 -0.136521 0.147028 -0.0838365 -0.0292667 0.096036 0.236278 0.158605 0.0276177 0.00962809 0.163809 -0.128462 -0.0465907 0.104596 0.0384102 0.0875312 -0.0968468 0.151194 0.046915 -0.0357438 0.0947822 -0.0193186 0.109004 0.0426194 -0.195228 0.0622817 0.0911692 0.0134056 -0.215618 -0.0996494 0.0405888 0.184648 -0.0668298 -0.0401992 0.0408091 -0.23082 -0.125577 0.0516494 0.177367 0.0517222 0.0668094 -0.138627 0.218017 -0.144606 -0.0363135 0.210712 -0.043616 0.219691 0.0404999 -0.0596819 0.224892 -0.0464952 0.185011 0.119157 -0.0991738 -0.252852 -0.208601 -0.0726014 -0.0761487 -0.336739 -0.218789 -0.209989 0.189051 0.107619 0.245928 0.114101 -0.0306917 -0.136901 0.0471112 0.289981 0.208559 0.03725 -0.136187 0.253454 0.391567 0.171959 -0.258584 0.0743426 0.3238 0.115652 0.299003 -0.0607806 -0.110624 -0.000179182 0.140378 -0.157118 -0.169105 0.181974 0.0706663 0.0624069 0.239135 0.0580914 0.256982 0.214387 -0.0887344 0.00164857 -0.149477 -0.101337 -0.096869 0.197528 0.125705 0.22052 -0.00974345 -0.0601088 -0.24081 0.160006 -0.0461463 0.0658724 -0.0898568 0.0404815 -0.0510759 -0.160688 0.0542615 0.0801767 -0.132713 0.013754 0.248559 -0.178785 0.306943 0.0699383 -0.0316316 -0.0416667 0.0519799 0.0773958 0.126063 0.0256656 0.0430572 -0.083229 -0.235088 0.147799 -0.136538 0.0593103 -0.294622 0.134894 -0.0172648 -0.0443086 -0.199518 -0.266344 -0.138291 -0.147323 0.102071 -0.177759 0.350725 0.0233131 0.0411566 -0.119697 -0.107927 -0.311568 0.111279 0.0833202 -0.186705 -0.19536 -0.238819 -0.141296 0.200534 -0.115814 0.180311 0.00823954 0.0261705 0.22783 -0.0441285 0.10052 0.0810556 0.146118 0.0194226 -0.023036 0.184773 -0.286389 0.0954824 0.239002 -0.0393946 -0.257744 0.207624 0.078644 -0.122994 -0.125038 0.0154636 -0.0413102 0.0495016 0.0531372 -0.0296918 0.204859 0.209298 0.286545 0.0342607 0.0882375 0.0973659 0.0048469 0.0870357 0.0308808 -0.12663 -0.142621 -0.316439 -0.119429 -0.0325686 -0.0417069 0.0470266 -0.0455373 0.141639 -0.179635 -0.276418 -0.0260117 -0.102701 0.0813473 0.247475 -0.0935969 0.124808 0.0818201 -0.152156 -0.139476 -0.0543281 -0.166258 -0.134984 -0.0713244 0.0906969 -0.106009 0.346241 0.0363565 0.0433999 0.0116142 -0.301572 -0.00741171 -0.0718511 0.0151898 -0.00310094 -0.103439 0.0152697 -0.042982 0.201258 -0.226799 0.070907 -0.32779 -0.199009 0.111408 -0.19078 0.0802415 0.285958 0.180817 -0.0599608 0.0833859 0.297824 -0.186981 -0.211617 0.105576 -0.104518 -0.0772119 -0.0445421 -0.1103 -0.02842 0.0384164 -0.146516 0.233251 0.0115712 -0.138469 0.21748 -0.24793 -0.182024 -0.0489716 -0.186574 -0.00401387 0.0841362 0.119668 0.127529 -0.082004 -0.0604709 0.119787 0.038535 -0.0692348 -0.100145 0.09739 -0.119486 -0.0584928 -0.155264 -0.118219 -0.075092 -0.0549948 0.32711 -0.0190207 0.174123 -0.080137 0.0152258 0.110959 -0.130409 0.134661 0.504535 0.13456 -0.0646484 -0.272416 0.0383975 0.206447 0.274125 0.247528 -0.0395213 -0.214455 -0.0312009 0.00265038 0.047531 0.0965343 0.301082 0.128058 0.0231438 -0.0636763 0.0238572 -0.16711 0.0659206 0.015856 -0.0682708 -0.055033 0.0541447 0.0527935 -0.0439805 -0.0188671 -0.0449936 -0.0771216 -0.139785 -0.0427324 -0.115449 0.122276 -0.0379743 -0.13854 0.0689591 -0.0975304 0.0364624 -0.0988282 0.0271076 0.0846818 -0.164816 -0.0621564 -0.262368 0.0269426 -0.0471339 -0.108678 0.142377 -0.0670231 0.125207 0.190287 -0.0391454 0.175357 0.210814 0.179618 0.208901 0.0732912 0.0101921 0.0313384 0.143842 -0.00276669 0.0716147 0.0708214 -0.0643293 -0.0471155 -0.0382471 -0.0547205 -0.101286 -0.0897448 -0.0221775 0.120906 -0.0840119 0.14554 -0.0725437 -0.0023289 -0.0929814 0.025399 -0.14581 0.0554656 0.15278 -0.197941 0.0437687 -0.0687152 0.0464276 0.0497805 0.296088 -0.475556 0.0126936 0.0349334 0.0994693 -0.0969423 -0.200252 -0.0714899 -0.0871946 0.15036 -0.155292 0.0503554 0.0775746 0.0524574 -0.0641775 -0.0334248 0.103568 0.0669985 -0.0196349 -0.160047 0.123793 0.0741682 -0.227763 0.229397 -0.165059 0.0441171 -0.172376 -0.151767 0.178709 -0.161029 0.123806 0.230008 0.122809 0.065028 -0.0323497 0.135676 -0.0877336 0.176278 -0.111505 -0.175627 -0.0901929 -0.138434 0.0879302 -0.0253881 0.151451 -0.0955774 0.105017 0.195548 -0.0720615 -0.0484633 0.283642 -0.0544317 0.0776043 0.136076 -0.133248 -0.236619 0.162249 0.289877 0.0936125 0.0871525 0.0843551 0.440469 -0.122612 -0.154211 -0.0860566 -0.214032 -0.00784525 0.104827 0.363381 0.0903986 0.1763 -0.0420809 0.158817 -0.108399 -0.109227 -0.122476 0.264125 0.275725 0.0773429 0.124684 -0.209207 0.177084 0.1571 -0.219248 0.0506244 -0.093413 0.167483 0.294283 -0.0319167 0.0867459 0.176491 -0.0858869 -0.0755416 -0.249824 -0.0786695 0.00618722 -0.0593235 0.023844 -0.0732775 -0.0987842 -0.164859 -0.0920987 0.0930863 -0.213301 0.0526526 0.0452163 -0.0863512 0.0682202 -0.102617 0.243768 0.249614 -0.182959 0.0259965 -0.316688 -0.00158096 -0.0297476 -0.0667428 0.005592 -0.130646 -0.0710625 0.0511312 -0.114449 -0.177821 0.0490652 -0.0973442 -0.0294256 0.0576532 0.121046 -0.518854 -0.0333605 0.29528 -0.000957845 -0.309344 -0.285881 0.111226 -0.0337378 -0.0725693 -0.014154 0.11203 0.0455435 0.0682178 0.0802944 0.12576 -0.422562 -0.00841873 -0.246944 -0.0136197 0.0744183 -0.0784832 -0.0347316 -0.198926 0.0535287 -0.0303466 -0.148 -0.147811 0.0241196 0.157254 0.410897 0.0762276 0.141286 -0.282938 0.107057 0.275637 -0.0379597 0.0773599 0.221933 0.054816 -0.0289566 0.0717769 -0.00283193 0.0465401 0.0282578 0.199756 -0.0551314 -0.0146424 -0.0757076 0.194303 0.0633776 0.223094 0.0960398 -0.0253531 -0.0786085 -0.0863289 -0.0698262 -0.0999671 -0.0885344 0.230827 -0.0518409 0.159879 -0.264051 -0.207073 -0.0485688 -0.0638385 0.105799 -0.196819 -0.083142 0.0609073 0.072044 0.133412 -0.259589 -0.114164 0.241708 0.0542908 -0.125257 -0.040724 0.118611 0.365446 -0.0795508 -0.0576324 -0.092867 0.075283 -0.0981247 0.00521945 -0.0545659 0.0526219 0.0620571 -0.0355225 -0.0490538 0.140378 0.149139 0.0189796 -0.120521 0.165329 0.085547 -0.0282082 0.0720152 -0.0673408 -0.12624 -0.0413315 0.129131 0.227141 0.181822 -0.0565757 -0.0663764 0.010768 -0.0447667 -0.0551456 0.115784 0.0702858 0.0885784 0.203232 0.106505 -0.183529 0.166821 -0.112968 -0.200648 0.0178648 -0.131206 0.183921 0.0375252 0.0165996 0.0244945 -0.0313919 -0.305613 -0.135254 0.110746 -0.111046 0.00166181 0.0389766 -0.121935 -0.0337141 0.0641113 0.0794836 -0.0393529 -0.0878584 -0.00964274 0.0568892 0.0965915 -0.225046 0.0451246 -0.144389 0.0948692 -0.0799512 -0.204546 -0.13132 -0.129366 -0.0353963 -0.0221425 -0.101078 -0.0184832 -0.203531 0.0158933 -0.27784 -0.05981 0.155068 0.007181 -0.103136 -0.151769 0.144683 -0.0408327 0.00762163 0.34197 -0.226432 0.145417 0.155944 -0.0215496 -0.0121447 0.059271 0.0507213 0.101357 -0.0759009 -0.185462 -0.343689 -0.0861559 -0.139914 -0.113869 -0.0336267 -0.00454858 -0.0354185 0.0685412 0.0869894 -0.0756423 0.117882 0.1767 0.088378 0.232623 -0.0953315 -0.00742211 -0.0647084 0.0771391 0.194621 -0.0747951 0.0704522 -0.0487276 0.018147 0.252851 -0.0454135 -0.0827524 -0.0936579 -0.0685625 -0.0794269 0.254651 -0.0936173 0.0657712 0.00354204 -0.0752523 -0.197442 -0.110777 0.162944 0.0774984 -0.215733 -0.176164 0.00580947 0.136629 0.161667 0.138342 0.0692319 -0.313049 0.0687289 -0.0421688 0.262919 -0.0300634 0.308239 -0.0316883 -0.140961 0.174919 0.018903 -0.140441 0.242229 -0.175115 -0.0320363 0.0619015 -0.0665825 0.0687388 -0.105337 0.203572 0.0502604 0.158271 -0.0932608 0.0200405 -0.103513 0.220362 -0.218816 0.0223425 -0.20595 0.0293901 -0.0155614 -0.138624 -0.0518191 0.132741 0.00274021 0.137799 -0.204757 0.194907 -0.150186 0.118577 -0.00508944 0.0637898 -0.0807771 -0.0361858 -0.292598 0.118299 0.363261 -0.138643 0.0436429 0.152516 -0.147063 0.0357665 0.134657 -0.134411 -0.0187612 0.161647 0.0579335 -0.140013 -0.13802 -0.0077072 0.0169958 -0.0706375 -0.0912822 -0.0515908 0.103709 -0.171267 0.0856997 -0.17163 -0.155483 -0.0167878 0.0247881 -0.0379687 0.109321 0.424902 0.0173116 -0.0504594 0.171489 -0.147016 -0.108349 -0.112064 0.00771949 -0.039951 0.070715 -0.0189616 0.289195 -0.0885188 -0.108887 0.125799 0.103696 -0.0295499 0.281856 0.148549 0.157873 0.135004 0.0471107 0.126707 -0.155311 -0.297824 0.0250671 -0.00671579 0.0785059 0.315591 -0.191344 0.212764 0.062658 -0.161186 -0.224406 -0.163415 0.0283193 0.128708 0.124474 -0.180142 -0.174252 0.106225 0.144323 -0.145933 0.0974808 -0.17565 0.00624112 -0.182528 0.0311148 -0.0971692 -0.0414847 0.216496 -0.0212475 -0.0921715 0.0248397 0.0583789 0.0819898 0.0420293 0.0247749 0.125018 0.0460602 0.0902336 0.197519 -0.137381 0.122598 -0.106907 -0.225924 0.373037 -0.0351977 -0.278719 -0.195759 -0.186416 -0.0985048 -0.0887822 0.176756 -0.0929161 -0.178803 0.17906 -0.347514 -0.177863 -0.291135 0.0755331 0.0116506 0.0965887 0.163909 -0.346262 -0.307011 -0.0599225 0.073034 -0.121134 -0.205154 0.0908359 0.0121106 0.138884 0.0687374 -0.0380845 -0.0607049 0.0448646 -0.196601 0.413142 0.224646 -0.127573 -0.140818 -0.00320921 0.112282 -0.106115 -0.0880711 -0.255307 0.326434 -0.175001 -0.0285935 0.0373659 0.118438 0.131786 0.053896 -0.194985 0.331875 -0.163169 0.178866 -0.215481 -0.0793129 -0.140697 0.0997303 -0.121487 -0.19361 0.0332617 -0.0894649 -0.174706 0.097928 -0.199376 0.244275 -0.0121565 0.0626528 -0.124651 0.0584503 -0.028541 -0.143797 0.000199512 0.0328655 0.0180232 -0.00796723 0.0941312 0.0951869 -0.0585964 -0.031451 0.104071 -0.0618264 0.0725324 0.279455 -0.0431058 -0.0297617 0.0397732 0.0106564 -0.0124439 0.0889382 0.0258949 0.069275 0.172655 0.0596369 0.105813 0.0189163 0.0118421 0.0638896 -0.0661575 0.00329951 -0.036452 0.340678 -0.0970023 0.179501 0.0689818 0.0805634 -0.087578 0.0323757 0.190674 0.112544 -0.0330759 0.151 0.15673 0.157213 -0.0411353 0.0126605 -0.0918959 0.133944 0.16347 0.0775467 -0.293109 -0.0864594 -0.144339 -0.0336886 0.209864 -0.188556 -0.0676595 0.0397118 0.137703 -0.197942 0.0674136 0.0702219 -0.195892 -0.0467198 0.214769 -0.0829122 0.157243 0.119467 0.0618093 0.024903 -0.0245253 -0.2331 -0.0571218 0.379028 0.0948522 -0.117842 0.0262041 -0.0207355 0.191439 0.0290989 0.137307 -0.0836719 0.052229 -0.201605 0.0651533 0.108189 -0.0580895 -0.429916 -0.0863923 -0.21561 -0.168553 -0.161362 -0.214123 -0.079598 -0.242565 -0.133428 0.198582 0.160572 -0.0142703 0.0419981 -0.146511 -0.0882234 0.234823 0.131327 0.0488411 0.169542 -0.0188051 -0.146469 -0.0128746 0.132462 -0.101803 -0.121453 -0.11093 -0.0565814 0.217714 0.178246 0.202239 0.428775 0.150448 -0.141205 -0.0229821 0.0298237 -0.281491 0.0581534 -0.181631 0.139977 -0.287347 -0.165204 -0.0945401 -0.0238795 -0.0532176 0.0394272 0.017488 -0.12313 0.110816 -0.137923 0.194618 -0.00548562 0.0653703 0.126804 0.0101311 0.378332 -0.285606 -0.154456 0.023583 -0.0273752 -0.22143 -0.19715 0.0675082 -0.035922 0.162433 -0.0644035 -0.0763988 -0.185146 -0.0352384 0.0511175 -0.192745 0.186894 -0.0266395 -0.0333515 0.276029 -0.131969 0.0236695 -0.132509 -0.0153685 0.0447015 0.267333 -0.0121191 -0.0211241 -0.136616 0.19223 -0.148315 0.0555805 0.109812 -0.0328282 0.14534 0.252602 0.18651 0.256032 0.0697232 -0.249122 -0.17079 0.180498 0.143518 -0.0368921 0.0621337 -0.0352729 0.0208074 -0.197348 -0.0896961 0.172659 0.0554434 -0.152319 0.0132897 0.144404 -0.168644 0.085902 0.219203 0.0581798 -0.0344451 0.118708 0.0689705 0.0734704 0.00571114 -0.0336924 0.063483 0.0480549 -0.0920557 -0.0396673 0.122559 0.0995832 0.0633482 0.0803119 0.0669045 0.136631 0.0586782 0.154519 0.236561 -0.0191125 -0.0710285 -0.125882 0.02512 0.209006 0.0683932 0.192623 -0.0519406 0.285923 0.248997 0.0407826 -0.00724577 -0.190024 0.0914595 0.139989 0.137285 0.203529 -0.011332 -0.163579 -0.195724 0.161249 0.16618 0.0282304 -0.22324 0.24552 0.212771 -0.0834062 -0.206703 0.0836625 -0.072096 0.183919 0.214922 0.00968198 -0.130021 -0.0693194 0.16763 -0.0329695 -0.0917867 0.048366 -0.218513 0.10992 0.057709 0.0593656 -0.154971 -0.0276962 0.204634 -0.176664 -0.0246756 0.0269289 -0.0227561 -0.00266835 0.0568504 -0.0991743 0.0607811 -0.0108564 0.0433578 0.243993 -0.104334 0.0838913 -0.0649968 0.00859933 0.0452726 0.0171183 0.0355584 -0.167833 -0.133845 0.124057 -0.0114757 0.146991 0.216662 0.0550241 0.0448216 -0.130757 -0.100234 0.318564 0.0771065 -0.185986 0.211672 0.113017 -0.0431621 0.0435271 0.0585051 -0.22105 -0.00887401 -0.0979919 0.077949 0.0834077 -0.332665 -0.0833528 0.0544175 0.0289386 0.13411 0.121734 0.172893 -0.0651415 0.0380022 0.114303 0.0868277 -0.164641 0.206616 -0.14416 0.113752 0.308518 -0.0951462 -0.111906 0.0680136 0.0975446 -0.0835906 -0.0180076 -0.117473 0.176808 0.1706 -0.0292322 -0.150014 0.0608993 0.0914841 -0.131449 0.0114246 0.0939567 0.212341 0.100756 -0.167317 0.105828 0.0932433 0.0935553 -0.118838 0.0629138 0.00563171 0.015899 0.139288 0.121182 0.000803247 0.0827912 0.0875941 0.167007 0.175369 -0.111655 -0.00676779 -0.0651424 -0.0374618 0.154824 -0.130115 0.0244591 -0.0758943 0.0922226 0.293695 0.110692 -0.271613 0.0597599 0.192941 0.228239 0.223758 0.187484 0.210195 -0.067842 0.0509497 -0.000512017 -0.0734472 0.0594937 0.218581 -0.0171864 -0.148239 -0.0485376 -0.097755 0.0676042 0.21566 0.109222 -0.258265 0.107186 0.160562 0.06911 0.156019 -0.341558 -0.00706611 0.173523 -0.124178 -0.274722 -0.438769 -0.0139218 0.152965 0.203108 0.0507743 0.145364 -0.00445497 0.06647 -0.137275 0.0978921 0.121422 0.0607896 0.10283 0.0336366 -0.0955935 0.133978 0.124567 -0.205522 0.316119 -0.117539 -0.104962 0.174062 0.0233187 0.0581732 -0.0317876 0.0362771 0.169334 -0.0528663 0.00622741 0.0788331 0.0696366 0.0296568 -0.1264 0.0150177 -0.22984 0.0899887 0.043833 -0.15407 0.0355826 -0.209436 0.0314264 0.043738 0.26239 -0.245757 -0.121869 -0.167594 -0.0257479 -0.0835027 0.313332 0.0118596 0.339788 0.23849 0.158669 -0.0923304 0.248192 -0.0927138 -0.266428 0.0182615 0.104859 -0.158639 0.139426 0.0415164 -0.0121986 0.0411419 -0.179392 0.0193999 0.147829 -0.141316 -0.231724 0.0398796 -0.0542459 0.169068 -0.141058 0.160835 0.0966085 -0.0142041 0.0342333 0.150872 -0.0205473 -0.146586 -0.12214 0.10345 0.0230762 0.0497871 -0.277962 -0.328895 0.0779826 0.125038 0.13939 -0.0254841 -0.0730089 -0.220734 -0.199426 -0.0961268 0.128379 0.172703 0.120597 -0.10972 0.0363399 0.284919 -0.151759 0.0872111 -0.124431 0.0683762 -0.086763 -0.0225268 -0.0373999 0.0857938 -0.0552666 -0.134441 -0.00484501 0.245893 0.20259 -0.0884054 0.0333964 -0.0663669 0.121505 0.0451955 -0.153878 0.155852 0.216125 0.0694338 -0.0768451 -0.183588 0.0371233 -0.176222 0.185309 0.0710422 -0.281001 0.102664 -0.149528 0.131408 0.122547 0.213813 -0.022228 0.1698 -0.181217 0.116511 0.0273955 0.154602 -0.055 0.0364544 -0.0177953 -0.0848492 -0.184353 -0.067129 -0.122028 -0.117422 0.223132 0.0298156 -0.169079 -0.0973971 0.0909243 -0.0832204 0.218948 0.21809 -0.221273 0.351383 0.19973 -0.112286 -0.0162082 0.0199445 0.166514 0.149754 0.0891249 0.125357 -0.0968094 -0.102664 -0.0127418 0.110808 0.225995 0.308975 -0.0318585 -0.229363 -0.2243 -0.21625 -0.00144906 -0.0343723 0.01563 -0.0648928 0.0594951 -0.00776251 -0.0359575 0.167484 -0.0355362 -0.125902 -0.0625847 -0.169752 0.0678358 -0.195061 0.0652776 -0.0746949 0.0777665 0.160082 0.0654909 -0.0875237 0.0929615 0.0240128 -0.108223 -0.115166 0.128052 0.236602 -0.0471651 0.0442902 -0.0905494 0.11404 0.0812542 -0.0712431 -0.152293 -0.0444414 0.313983 0.00884659 0.0552921 -0.059688 -0.203827 0.116181 -0.00920874 0.13773 -0.197672 -0.0837552 0.212073 -0.257096 0.112594 0.279439 -0.267527 9.31369e-05 0.242093 0.281009 -0.303736 0.0448168 0.0503497 -0.0183347 -0.12146 -0.184057 -0.0763898 -0.0451218 -0.0502831 0.063431 -0.167937 0.178019 -0.0927261 -0.00350705 -0.141196 -0.0955112 -0.0582101 0.31534 0.0556604 0.148984 0.13478 0.0875265 -0.144891 -0.012833 -0.0820886 -0.0262154 -0.0242369 -0.0907348 -0.345512 -0.0310831 -0.0856751 0.124281 0.0258774 -0.168813 -0.072748 -0.13135 -0.0674567 0.141625 -0.133787 -0.0983129 0.047879 0.0468857 0.00825278 -0.0661839 -0.0911659 0.062233 -0.0249068 0.269434 0.0423173 0.04853 -0.00418076 -0.139663 0.10598 0.0501564 0.0913257 -0.0187394 0.047931 -0.141161 0.102982 -0.0755913 0.057301 0.105994 -0.0788652 -0.0234483 -0.0616363 -0.0823496 0.0955268 -0.170505 0.268958 0.27968 0.0304085 -0.252196 -0.189423 -0.170472 -0.0822323 0.101575 0.22423 -0.194871 0.0888938 -0.100324 0.124473 -0.0429796 0.0464044 -0.105026 -0.109173 -0.116804 0.139023 -0.121144 -0.264111 0.143584 -0.0483314 0.0821052 0.200034 0.116393 -0.0461288 0.0902752 -0.161904 0.120153 0.149795 0.245762 -0.204021 0.0977474 0.0240189 0.212298 0.125514 0.141851 0.0455156 -0.0621961 0.175344 -0.197875 0.111662 -0.0464323 -0.210134 -0.0567119 0.21919 0.124087 0.0025199 -0.166141 -0.0463113 0.0665593 -0.270602 -0.145788 0.179369 -0.0448627 0.193128 0.319474 -0.164776 -0.12472 0.136654 0.240352 0.191745 0.0367446 -0.34414 0.187213 -0.0250661 0.0221132 -0.240672 -0.0795834 0.0491465 -0.0091416 -0.0843069 0.164353 -0.0936645 0.0955618 0.130208 0.0705203 0.215005 -0.148108 0.0349098 -0.168314 -0.155414 -0.0962062 0.255512 -0.227255 -0.140469 -0.0616524 -0.0452253 0.118898 0.0020613 0.0565138 0.10063 -0.0442684 -0.0764659 -0.0131214 -0.206989 0.150916 -0.0549617 -0.0844553 0.0755345 0.229071 -0.0984618 0.147127 -0.115138 0.0256103 -0.0919243 -0.246544 0.0437153 0.129353 0.124056 0.143958 -0.0131408 0.0820617 -0.0345264 -0.135982 0.0508537 -0.101182 0.202287 0.0734841 0.0736722 0.228842 -0.0366444 0.0751847 0.173731 -0.219026 0.0644129 0.138916 0.099387 -0.360984 0.13718 0.00366496 0.0889321 0.227954 0.0154413 0.101252 0.166545 -0.0657168 -0.121565 0.0277264 -0.109717 0.309766 -0.0940366 -0.18086 0.105963 0.0984169 -0.19941 -0.0716199 0.249372 0.0884924 0.211324 -0.153982 0.201535 0.0633776 -0.0820971 0.0283817 -0.0779376 -0.131144 -0.0340947 -0.0409921 0.178374 0.0157794 0.0273662 0.115234 -0.250985 0.136171 0.0293712 0.28952 0.185953 0.00303428 0.0919408 0.252988 -0.0900984 0.0152721 0.0900346 0.0943472 0.0256694 -0.185221 0.0453553 0.342941 -0.0808551 0.0372534 -0.152221 -0.192099 -0.313139 0.174244 -0.236491 -0.0139133 -0.0532058 -0.347562 0.140282 -0.174119 -0.201896 0.180032 -0.00447908 0.297574 -0.11805 0.067356 -0.196731 0.235136 0.118654 -0.0769675 -0.0214002 0.210144 -0.258297 -0.0731375 -0.101157 -0.175192 -0.00549792 -0.0546028 -0.18561 0.165909 -0.0214385 -0.210584 0.108356 -0.285157 0.0301896 0.143101 0.0907035 0.0104346 -0.0506235 0.204416 0.0292261 0.0132585 -0.0516007 0.00731007 0.0501124 0.0411514 -0.0605792 0.0900322 0.162499 0.205918 0.071393 0.101039 -0.0418629 0.01286 0.10852 0.195816 0.0291046 0.0311479 0.123865 0.0944853 0.126126 0.169267 0.0433881 -0.0847768 0.0982807 -0.0912217 -0.277155 -0.16618 -0.0943926 -0.251298 0.110254 -0.0539717 -0.11706 0.0108204 0.0821463 -0.0609049 0.0446722 0.0166956 -0.0829935 0.033048 0.016359 -0.0905504 0.0259729 0.241352 0.036965 0.0180567 0.256843 0.252685 -0.0479802 -0.0401827 0.0156995 0.24308 -0.234391 0.20375 0.161334 0.0587713 -0.101024 -0.0718908 -0.117642 0.0772587 -0.012365 0.0338527 0.116319 -0.241848 0.161203 0.193647 -0.318263 -0.0259965 0.0530285 0.0206589 -0.210663 -0.248911 -0.129494 -0.26358 -0.0121589 -0.000397132 0.169303 0.0101543 -0.125339 -0.0291835 -0.264833 -0.0495418 0.170746 0.313149 0.0993714 0.165786 -0.345781 0.115413 0.180932 -0.0948574 -0.228287 0.152567 0.0262471 0.100768 -0.11221 0.122321 0.0750178 0.0200202 -0.0973219 -0.183346 -0.0962071 -0.168806 -0.159945 0.0195465 0.102907 -0.214931 0.160035 0.0446679 -0.027153 -0.0270575 -0.0582096 -0.044736 -0.0466649 0.295334 -0.193919 0.0891836 0.139744 -0.129437 -0.119225 0.0948763 -0.129694 -0.338212 0.267892 0.0420005 0.268543 0.183434 -0.222177 -0.225125 0.233017 -0.244476 0.0114904 0.136724 -0.124052 -0.259378 -0.187194 0.0838265 -0.0343254 -0.18728 0.0574258 0.038988 -0.121511 -0.0554415 -0.198602 0.120861 -0.0481163 -0.0216286 -0.0982193 -0.258227 0.0780998 0.0486988 -0.0252136 -0.108744 0.135289 -0.130202 0.266075 0.301885 -0.0380925 -0.0168677 -0.135094 0.0993038 -0.0117792 0.0572234 -0.0987686 -0.16089 0.198971 -0.172369 0.017305 0.132355 -0.300738 -0.0908227 0.0711197 0.04201 0.00869767 -0.0806708 -0.184788 0.0736609 0.00267875 -0.0100153 -0.0887505 0.0707292 -0.280417 -0.0364823 -0.0993535 -0.160888 0.248475 -0.26558 0.119386 0.00309385 0.0241163 0.116793 0.103462 -0.0139039 0.0282077 0.0678462 0.0491243 0.0934527 -0.088342 0.0792841 0.0717065 0.237858 -0.0844378 -0.290939 -0.31986 0.0365716 -0.204673 -0.0906629 0.0273071 0.14241 0.115988 -0.0720847 -0.163887 -0.20761 0.000371129 0.00215917 0.128019 -0.215725 -0.0218049 -0.111852 0.199225 -0.0223377 -0.17131 -0.155159 -0.272948 -0.219763 -0.0361877 -0.0162862 -0.204582 0.196215 -0.066635 -0.0129092 -0.0621601 -0.000781026 0.113488 -0.144228 0.0878385 0.072566 -0.113534 -0.0262268 -0.0056667 0.139334 0.030808 -0.0109268 0.0450977 0.223089 -0.019642 0.0272943 -0.028611 0.00887637 0.0549323 -0.346223 0.0235102 -0.0168271 0.254399 -0.121565 0.0109779 -0.0878414 -0.218779 0.232177 -0.0400995 -0.154996 -0.0803129 0.0800287 -0.160443 -0.0802708 0.0678377 -0.260721 -0.0926783 0.0839329 -0.228243 -0.171235 -0.0574759 0.0790808 -0.0914732 0.0347845 -0.0334333 -0.0411632 0.13777 -0.346331 -0.0109873 0.117163 -0.0437167 0.0380117 -0.112282 -0.131109 -0.0161893 -0.167109 0.0203421 0.173846 0.188803 0.019068 -0.0799488 0.0805918 -0.0154012 0.0247607 -0.114252 0.116144 0.10427 0.0457463 -0.0281775 -0.142795 -0.0379937 -0.0987237 0.00503412 0.234598 -0.117922 -0.224081 0.278523 -0.0246784 0.07432 0.0115428 -0.136274 -0.0528606 0.155421 0.192539 -0.174642 0.0415982 -0.178491 0.010212 0.162743 -0.104458 -0.256275 0.055615 -0.201044 0.0419163 0.148337 -0.182221 -0.194894 0.106495 0.210981 -0.13426 -0.14689 0.0470635 -0.300118 -0.096297 -0.0547938 0.00750012 -0.00997983 -0.240709 -0.116916 -0.146372 -0.075812 -0.0305116 0.0872603 -0.0142821 0.034047 0.237705 0.226021 -0.155445 0.0108214 -0.238502 0.111373 -0.00778568 0.140184 -0.0236828 -0.2233 -0.0420709 -0.0232856 -0.214606 -0.0774833 0.0574546 -0.379619 0.0279122 0.272738 -0.00468048 0.0363674 -0.10554 -0.0608482 0.0720095 0.193308 0.289233 -0.145278 0.00559436 -0.0695326 0.285697 0.311026 0.0983606 0.11995 -0.0985166 0.139939 -0.221921 0.0918982 0.0239234 -0.0299579 0.0340649 0.187897 -0.0570977 0.0144967 0.346903 0.251008 0.0697974 -0.019953 0.0899088 0.0782303 0.0530795 0.11504 0.120878 0.170659 0.219673 -0.0215269 -0.0151061 0.0902993 -0.0780729 0.00530171 -0.238519 0.14286 -0.0844156 -0.154535 -0.0806627 -0.0357991 -0.0931932 0.283395 0.0929213 -0.088829 -0.0187801 -0.0313933 0.032302 -0.0150759 -0.126121 0.139632 -0.135377 0.309682 0.0107623 0.0721215 0.0813544 -0.0291112 0.14189 0.165387 -0.141687 0.0359617 0.0489721 -0.0471273 0.0492718 -0.215285 -0.0107259 0.191056 0.027308 -0.0359471 0.0379389 -0.106786 -0.0435332 0.0820503 0.00451454 0.0448963 0.00579766 -0.0901291 0.233635 0.0511955 0.18093 -0.0489011 0.100364 0.00411268 0.194958 -0.197841 0.127053 0.0482255 -0.0405429 0.101703 0.147202 -0.190239 -0.0883387 -0.234264 0.122585 -0.209173 0.0653566 0.0157638 -0.0253545 0.143766 -0.134815 0.0914855 -0.0250448 0.0139043 0.200611 -0.155296 -0.10116 -0.172735 -0.0909886 0.000648176 -0.189969 -0.150373 0.3645 0.0527429 0.0422596 0.0705396 0.122334 -0.21023 0.0905229 0.00375006 0.169894 -0.267069 0.0596908 -0.213987 0.172228 0.218486 -0.0429252 0.0896024 -0.15092 0.0871138 -0.087093 -0.019068 0.0480856 -0.0675077 -0.0610969 -0.0794269 -0.0304761 -0.0833921 -0.0357206 -0.0670605 0.0486572 0.267691 -0.122591 0.0493895 0.273491 0.0300686 0.347075 0.13747 -0.0922368 0.0468186 0.20387 -0.123054 0.145535 -0.157535 0.108808 -0.0117419 -0.0101902 -0.0672326 -0.0500873 0.0845612 0.248045 0.0244704 0.112206 -0.255962 -0.0597045 0.0201266 -0.147478 -0.0355873 0.210818 0.027048 -0.134101 0.0238714 -0.130386 0.198249 0.0552449 0.0311328 -0.0463278 0.00346829 0.109248 -0.152017 0.0490761 0.00101694 0.0385076 0.194211 -0.0526214 0.0600913 0.221434 -0.0363915 0.120867 -0.193652 0.0914557 0.0610661 -0.0874064 0.0440817 -0.100158 0.255675 -0.00536128 0.0114861 0.00713561 0.0282314 0.0142566 -0.124421 0.138488 -0.0533259 -0.013571 0.171172 0.0729045 0.311648 -0.126942 0.120508 0.00989993 0.0580087 0.182147 -0.0777079 -0.320438 -0.336635 0.202982 0.0673654 0.0285462 -0.0431928 -0.004932 0.15985 -0.0402857 -0.150352 0.0945524 0.0643449 -0.0176974 -0.190236 -0.00937752 -0.0700451 -0.177059 0.114072 -0.0179428 0.158459 -0.0682107 0.0649514 0.0141639 -0.0406696 -0.142808 -0.0274603 0.116998 0.078661 -0.0556434 -0.469003 -0.190592 0.142704 0.231866 0.0803171 0.0987119 0.00125475 -0.231819 0.0128047 -0.223602 0.146789 0.105891 -0.147959 -0.161577 -0.0792666 0.125716 0.0485196 -0.019373 0.108606 0.167917 -0.32803 -0.102294 0.22817 0.0517203 0.0394882 -0.129573 -0.124783 -0.0451407 -0.20349 -0.052473 0.0330182 -0.168469 0.11095 0.157444 -0.313898 -0.133892 -0.165151 -0.124047 -0.169008 -0.00439729 0.367403 -0.0404158 0.117581 0.0426265 -0.1581 0.0876797 -0.113201 -0.0459557 0.00650162 -0.340319 -0.106445 -0.206709 0.146586 -0.192834 0.103209 0.145101 -0.0622939 0.1106 -0.118652 -0.0629918 0.11163 -0.0932258 0.134719 0.0125607 -0.00430037 -0.172594 -0.180254 -0.295457 -0.126024 0.0961386 0.139958 -0.226896 -0.201109 0.0383767 0.159346 -0.00617446 -0.0632556 -0.0488151 0.0231878 -0.187819 -0.125055 0.0220106 0.277258 0.0356407 0.0557824 0.0286536 -0.0802812 -0.217579 0.132641 -0.0681677 -0.000753133 0.0762735 -0.132732 0 0.18528 -0.0731527 0.0861625 0.0239154 -0.0997582 0.0457969 -0.109814 0.0296667 -0.0465685 0.156199 -0.23086 0.307902 -0.0592285 0.00707415 -0.135761 -0.00819038 -0.0882106 0.144125 0.172098 -0.2697 -0.233496 -0.0818796 -0.065549 0.324082 0.071029 0.22328 -0.142502 0.209484 0.0683129 0.147323 -0.0392064 0.131795 0.0568849 -0.126792 0.0855787 0.0360071 -0.166656 -0.0395841 0.0449426 -0.185876 0.0174644 0.117909 -0.140368 0.112962 -0.152284 -0.0176738 0.071167 -0.0270872 0.0731328 0.0796387 -0.132473 -0.132596 -0.32422 0.0706011 -0.150887 -0.0410081 0.238375 -0.152021 0.0643718 0.203629 0.110246 0.0980013 0.211247 0.0841608 0.0668477 0.00369002 0.000156016 -0.000244425 0.140941 -0.0662572 0.063995 -0.104006 -0.145432 0.181858 -0.0972401 0.0226866 -0.0402541 -0.0359565 0.0538993 0.21247 0.00342432 -0.0289084 -0.0139389 0.0845735 -0.355036 -0.113959 0.0940338 -0.231168 -0.0322708 -0.202011 0.0963797 0.109905 0.134792 -0.00174738 0.19375 0.0231287 -0.438646 -0.0245536 -0.0192354 -0.0290365 -0.142363 0.142769 0.111074 -0.181078 -0.250002 -0.134177 -0.261502 0.00440769 -0.217999 -0.0397264 0.242694 -0.221806 -0.0433262 -0.0456664 -0.0894616 -0.215209 -0.0911985 -0.0281113 -0.00612623 0.0516655 0.0455742 0.218461 -0.320157 -0.173894 -0.244697 0.164139 -0.186201 -0.0812882 -0.0656856 0.018982 -0.173254 0.0753213 0.0420289 0.0793938 -0.0506036 -0.00952455 -0.0140013 0.0413306 0.0906374 0.262306 -0.0485655 -0.0448164 0.272067 -0.0997695 -0.39223 -0.12977 -0.0464569 0.0188245 -0.195359 -0.0443823 -0.0738406 0.0349358 -0.0394664 0.0869544 -0.139617 -0.237375 -0.0120567 -0.153718 -0.0623341 0.164934 -0.150979 0.0677105 -0.00119707 -0.17037 0.0545456 -0.185535 -0.288703 -0.00238421 -0.0289476 -0.0702829 -0.0170303 0.0133139 -0.00888772 -0.055129 -0.309444 0.232844 -0.0460163 0.0111192 -0.0562145 0.115536 0.10666 -0.0320301 -0.0834918 0.150325 0.0539981 -0.115432 -0.0172109 -0.169462 -0.186603 -0.25738 -0.110879 0.117097 -0.103146 -0.00048365 -0.160143 -0.129854 0.230829 -0.0419107 -0.161055 0.194355 0.313023 0.126765 0.0313919 0.143497 -0.428111 -0.0634485 -0.150241 0.0766361 -0.132286 0.10561 0.185565 0.213047 0.0564041 0.0637648 0.117412 0.163092 0.118833 -0.156743 0.0218758 -0.118168 0.0894895 -0.000143724 -0.297181 0.00349665 -0.29526 -0.0480289 -0.117972 -0.112183 0.155737 -0.151308 -0.210332 0.134723 0.0810963 -0.109249 0.232474 -0.0833325 -0.181278 -0.261077 0.128555 0.11459 0.0524044 0.0464843 0.037963 0.171863 -0.125736 -0.191249 0.0106521 0.131769 -0.172307 -0.239282 -0.0370486 -0.180367 -0.130659 -0.188198 0.0269468 0.160804 -0.00391884 -0.0689487 -0.154507 -0.0699019 -0.193695 0.0276177 -0.172877 0.0248945 -0.0264438 0.0535273 0.00120038 0.04681 -0.015396 -0.224263 -0.0805308 0.0203677 -0.0800207 -0.0253767 0.046803 0.0927147 0.0758139 -0.208973 -0.014232 -0.0620268 -0.0645141 0.0256514 -0.267213 0.100886 0.277231 0.280165 -0.0333785 0.139309 0.176066 -0.5014 0.0366785 0.0632608 -0.0985228 0.0835537 -0.0326769 -0.0507355 -0.0433347 0.225319 -0.0865521 0.00597353 -0.0370278 0.0623133 -0.176014 0.0972288 -0.25413 0.128596 -0.249063 -0.0749369 0.0784742 0.201245 -0.283437 0.152732 0.0749823 0.102976 -0.100571 0.139764 0.117826 -0.191242 0.127255 -0.0956053 0.116293 -0.0944602 0.0997586 -0.245962 0.0498973 0.0413514 -0.0718956 0.0140429 -0.138834 -0.141701 0.0708313 -0.233928 0.0923947 0.135023 0.255732 -0.448807 -0.0104105 0.0365541 0.121793 -0.0435417 0.0508074 0.0139493 0.180771 0.294713 -0.26863 -0.0307011 0.11542 -0.0616198 -0.0421518 0.0284938 0.00457837 -0.204915 0.0826597 -0.11497 -0.0409221 -0.026779 0.131309 -0.00925318 -0.221111 -0.0742883 0.0238374 -0.0472124 -0.03053 -0.0264627 0.197915 0.129882 -0.221862 0.126353 -0.255907 0.252975 0.204604 -0.0371456 0.167172 -0.0522928 -0.0568736 -0.0837424 -0.0878007 0.0821023 0.0856614 -0.00301584 -0.0525642 0.0649987 0.0727385 -0.0538714 0.103917 -0.0272957 -0.00606997 0.138007 0.0721286 0.333207 -0.223962 -0.0285448 0.123037 -0.0620415 0.00965835 -0.0435871 0.255108 -0.128516 0.0135261 0.266059 -0.0816565 -0.0894757 0.0720346 0.00360303 -0.0230077 0.0929478 -0.040055 0.22174 0.0722917 -0.107673 -0.0571123 -0.048842 -0.151648 0.174685 0.042061 -0.00673328 -0.0106431 -0.0317942 0.166953 0.188254 0.0161146 0.0311536 -0.0626013 -0.116949 -0.0510608 -0.125242 0.566588 -0.218937 -0.0990722 0.0929866 -0.0775859 -0.300405 0.0581236 -0.181162 -0.190493 0.0978902 0.0512447 0.115028 0.069031 -0.201517 -0.0981398 0.0658147 0.0885217 -0.173256 -0.132417 -0.277006 -0.125337 -0.0704867 0.0340834 0.153617 -0.199939 -0.246749 -0.0597447 -0.266368 -0.13452 -0.0573062 -0.207733 -0.124966 -0.15958 0.0435474 -0.305672 0.115996 -0.0152707 0.0790789 0.135184 0.069578 -0.0316122 -0.0264689 0.0655211 -0.0735191 -0.0329066 0.0553654 -0.066618 -0.0344914 -0.216413 0.0710947 0.063395 0.20074 -0.162306 0.0882394 -0.0401472 0.219649 -0.0465235 0.0662917 0.171315 0.0336938 0.111425 0.105296 -0.251507 -0.170195 -0.0221519 0.024826 -0.112802 0.166852 0.190731 0.212334 -0.092024 -0.247269 0.115956 -0.0533112 0.146052 -0.0332778 -0.0660965 0.097112 0.150667 -0.213109 0.166755 0.0982401 0.0238577 -0.118391 0.193421 -0.282355 0.183346 -0.343446 0.205646 0.002414 0.0770257 0.0358383 -0.0458905 0.044839 -0.0292147 0.0894441 -0.0863365 -0.0246326 0.0733068 -0.341976 -0.0460484 -0.0947245 -0.277719 0.128045 -0.142895 0.207782 0.148785 -0.27062 0.126546 0.112813 -0.161502 0.218875 -0.0170573 -0.0342649 -0.111983 0.0277657 -0.198303 -0.118757 0.0658081 -0.10374 0.220638 -0.0858732 0.083428 -0.107066 -0.0488132 -0.105456 -0.140595 -0.0498188 -0.115027 0.0176695 0.045057 -0.171647 0.0439909 0.115826 -0.190167 0.0295778 -0.180746 -0.23361 0.237563 0.174614 -0.105234 -0.0853801 0.00757766 -0.212251 -0.0833235 0.104816 0.180783 0.156939 -0.120545 -0.0171249 -0.0949491 0.113107 -0.127847 -0.229452 -0.0163538 0.206423 0.0500107 0.0866835 0.069682 -0.0694835 0.0478733 0.276029 0.129148 0.101644 -0.234124 0.00664014 -0.144346 0.0625119 0.0207913 0.151004 0.170279 -0.011383 -0.131263 -0.126098 0.0635676 0.282875 0.0468725 0.0334962 -0.0413013 -0.334131 0.132967 0.0122024 0.321826 0.0855233 -0.337285 0.0294355 0.0564712 0.268516 -0.0781007 -0.116679 0.10046 0.104379 0.0640366 -0.0112752 -0.18864 0.12524 -0.0154291 0.0531741 0.466978 -0.15647 -0.248579 0.151545 -0.0286502 0.254167 -0.143769 0.139652 -0.0486213 -0.143583 -0.200826 0.247167 -0.0643505 -0.0371016 0.118533 0.297602 -0.2503 6.90253e-05 -0.0577397 -0.00151147 0.129692 0.00151478 0.106004 -0.0996319 0.284631 -0.0836719 0.0327809 -0.0228351 -0.0326343 0.0447119 -0.0451137 0.324286 -0.171675 0.139562 -0.050353 0.139731 -0.175845 0.0907688 0.0554619 0.120825 0.206069 0.0267946 -0.0363617 -0.17174 0.00610354 0.0629672 0.220923 -0.086588 -0.179194 -0.154543 -0.0755733 0.0871686 -0.295179 0.205608 0.142855 0.16994 -0.183241 -0.0933085 0.0727787 0.0836686 0.189154 -0.0513478 0.0581449 -0.0551196 0.0250311 -0.0620803 -0.0861739 -0.0605948 -0.0221983 -0.221644 0.0719031 0.295603 0.185238 -0.0686093 -0.0726969 0.0443256 0.219654 0.233286 -0.0561937 0.177639 -0.0643245 -0.215608 -0.0980911 -0.0317209 0.255662 0.151367 -0.0355008 -0.0713835 0.0416209 -0.0628244 -0.029609 -0.280926 0.0351561 -0.176016 -0.308077 0.103618 -0.0108133 -0.0338673 -0.262279 0.0519718 -0.20338 -0.15845 -0.0952937 -0.417176 -0.0454976 -0.11249 -0.0852009 0.0323965 0.0177003 -0.130151 -0.138547 -0.169858 0.01451 -0.0171381 -0.161654 -0.115267 0.147499 -0.018686 -0.1942 0.0852449 -0.100242 0.146077 0.0963234 0.178375 0.0141942 0.166484 -0.0177154 0.237943 0.168838 0.0800131 0.0663854 0.036313 0.179772 0.187826 -0.0934116 0.111622 0.029636 0.140998 0.189653 -0.0728014 -0.371753 -0.101831 0.204299 0.099969 0.180974 -0.131407 -0.0792751 0.0806206 0.116991 0.358362 -0.0370704 -0.0480256 -0.0595859 -0.122779 -0.0449776 -0.154175 -0.0443346 0.268023 -0.295698 -0.26954 -0.0556198 0.0557304 -0.134725 0.144635 0.177168 0.0233008 -0.211947 0.00240218 0.129335 0.0510863 -0.0408772 -0.121333 0.0322727 0.0901892 0.0513903 -0.0104545 0.143363 -0.40671 -0.075171 0.0708885 0.0705637 -0.145663 0.159125 0.256244 -0.10604 -0.246882 -0.0135744 0.0690093 -0.0582579 0.12053 -0.302311 0.00618817 -0.0999241 -0.126018 0.16036 0.179443 0.0971007 0.230817 -0.0572787 0.0490505 0.100367 -0.0253578 0.0757988 0.0979569 0.183012 0.305053 0.0146178 -0.0300657 0.00624632 -0.0546094 -0.114337 0.0909045 -0.0144934 0.0110086 0.128626 0.23439 -0.175061 -0.123639 0.0733522 0.117567 -0.237942 -0.0367664 0.149088 0.148026 -0.0402304 0.00262911 0.109005 -0.0581676 0.0553451 0.161739 0.148698 0.0821624 -0.104978 -0.1858 0.122957 -0.176617 -0.0928934 0.0362435 -0.104952 -0.0117348 0.166631 0.306117 -0.201762 0.148281 0.126932 0.010419 -0.0577884 0.168715 0.111569 -0.134328 -0.0999657 -0.234301 -0.0299797 -0.0112795 0.360937 -0.0781821 -0.162933 0.0166795 0.0943496 0.128526 0.104794 -0.0400446 0.0201195 0.0972 0.0941359 -0.27235 0.15195 -0.0922377 -0.0570239 0.0836984 0.0209123 0.132705 0.0780681 -0.177216 0.0104805 -0.249952 -0.140457 -0.0118974 -0.318269 0.0566963 0.0808377 -0.24302 -0.138516 -0.0848378 0.0915966 0.201301 0.209224 -0.105594 0.134515 -0.0782875 -0.104447 -0.171563 0.0620122 -0.15661 -0.155411 0.0864519 0.304507 -0.164728 -0.0796907 0.252733 0.0907948 -0.164324 0.0168956 0.024105 -0.112751 0.0723428 -0.0327582 0.0222347 0.113116 0.0776469 0.0178062 -0.117787 0.156561 0.00109873 -0.0901911 -0.0401179 -0.243531 -0.226205 0.0687124 -0.111378 0.0386334 0.10023 0.29508 -0.179788 0.248862 -0.174643 -0.0284479 -0.40835 0.0136311 0.212698 -0.0759241 -0.0101623 0.160552 0.101563 0.0842043 0.194014 0.00098763 -0.28809 -0.242668 -0.0465046 0.0199417 -0.138932 0.0482274 0.110831 0.066408 0.137639 -0.0117485 -0.140742 0.1704 0.169723 0.116471 0.0353963 -0.266043 -0.0772786 0.267543 -0.157465 0.133086 -0.201813 0.0995478 -0.222613 0.114706 -0.100204 -0.241516 -0.114502 0.147474 0.181405 0.103625 -0.088038 -0.147155 -0.0480615 -0.104561 -0.209443 0.104112 -0.104684 0.18417 -0.0330934 -0.0423622 0.0614931 0.043528 -0.0460139 0.0067867 0.0298733 0.178991 0.187786 -0.381478 0.0668666 0.103026 0.0353495 -0.129014 0.114952 -0.0427111 -0.00797337 0.141901 0.128109 -0.275666 -0.125941 -0.313575 -0.246707 -0.0805422 0.0973706 0.113173 -0.119662 0.1427 -0.0133791 -0.312298 -0.00715925 0.0691336 0.278158 0.163091 0.0439985 -0.0158843 0.15039 -0.27732 0.0256335 0.104163 -0.006356 -0.032527 0.262322 -0.111449 -0.0468885 -0.184456 -0.040099 0.0933204 -0.101757 0.0338867 -0.108755 -0.107348 0.0126401 0.107115 0.161577 -0.0942702 -0.127903 0.119617 -0.125507 -0.0323143 -0.191912 0.0222385 0.0699676 0.0994244 -0.172723 0.040072 -0.1932 0.17322 0.128645 0.0494987 0.0826077 -0.160499 -0.101701 0.200891 0.0373361 0.0656365 -0.128455 -0.0152149 0.16445 -0.187743 -0.103328 -0.292272 0.20474 0.159598 0.130607 0.220159 0.0873988 0.12656 -0.154604 -0.0589344 -0.0403051 -0.120386 0.0283992 0.216172 0.013433 0.0750646 0.120182 0.160373 -0.218358 -0.139761 0.208782 -0.156594 0.268285 0.142704 0.373592 0.0878002 0.0201559 -0.0522304 0.0392622 0.157356 -0.0310997 0.00502798 -0.409417 0.0829231 -0.15308 0.160561 -0.108743 -0.117396 0.29566 0.0108531 0.0637567 -0.0733527 -0.13709 -0.0820333 -0.208753 0.152185 0.0768157 -0.0465354 0.0859479 -0.0136821 -0.374583 0.245272 0.130533 -0.0367697 0.0612997 0.174286 0.170641 0.068241 0.11216 -0.000787645 0.133385 0.259678 0.135955 -0.0368482 0.054522 -0.0277245 -0.0890049 -0.0929072 -0.10418 -0.124039 0.0934844 -0.00888914 0.157168 -0.069786 0.0870915 -0.0692083 0.0506958 -0.199702 0.0130586 -0.0753274 -0.308867 0.00619337 0.14781 0.184232 -0.297323 -0.0664104 0.0594663 -0.117003 0.212486 -0.208477 0.0124056 0.154688 -0.38175 -0.059011 -0.0152565 -0.0173395 0.156223 0.0634262 0.0698012 0.204179 0.0921238 0.119813 0.123717 -0.273138 0.00472114 0.0207525 0.300711 0.166374 -0.137715 -0.0215959 0.136874 -9.36097e-05 -0.224708 -0.0491465 0.0150031 -0.0309853 -0.00727366 -0.0988797 -0.193305 -0.233995 0.140737 0.0894616 0.038901 -0.0660861 -0.101446 -0.0123872 -0.00901159 0.102772 -0.0644233 0.100005 -0.225791 0.221188 0.0635681 -0.0276172 -0.0641557 0.179131 0.0863928 -0.0535868 -0.0711197 0.121397 0.0190742 0.0226961 0.186067 -0.180814 -0.039057 0.0990083 0.0437063 -0.104893 -0.113475 -0.144591 -0.178903 -0.18312 0.122586 -0.0707552 0.0556968 0.125422 -0.0213714 -0.09884 0.0634731 0.136675 0.12249 0.0820541 -0.253611 -0.306354 0.214249 0.207061 0.146409 0.119783 0.0477329 0.20855 -0.0934499 -0.0763278 0.272408 -0.0629686 -0.197189 -0.103321 -0.0155742 -0.0879241 0.123131 -0.0989284 -0.0853404 -0.170773 0.191631 -0.0888928 0.143264 0.202285 -0.115599 0.17176 0.14438 -0.0684651 0.133927 -0.117035 -0.139061 -0.0367593 0.352059 -0.249263 0.0575364 0.124495 0.00630967 -0.239648 -0.144872 -0.209475 -0.303191 0.022324 0.0595244 0.0681285 -0.25558 -0.0707316 0.145396 -0.181081 0.0245149 -0.054261 -0.0357102 -0.0618183 0.222922 0.0404087 -0.0552373 -0.148369 0.117659 0.0455695 -0.247362 0.106107 -0.194544 -0.175298 -0.0826819 -0.213518 0.104172 -0.0537485 -0.0115575 -0.157573 -0.0334139 0.0744164 0.00349996 -0.0385213 -0.154378 -0.156418 -0.176307 -0.0566915 -0.19819 -0.191082 0.122772 -0.353254 -0.0600615 0.298329 -0.0742869 -0.24441 0.00770153 -0.106822 0.254155 0.0148783 0.0200698 -0.136653 -0.0173315 0.0706886 -0.0836308 0.0755917 -0.00445308 -0.254212 -0.417088 0.140627 0.215276 -0.0868613 0.539494 0.025538 -0.124963 -0.136068 0.100703 0.0387785 -0.143776 0.160973 0.00785612 -0.0697227 -0.2593 0.235218 0.195203 -0.0335137 -0.122564 0.0202244 0.00778426 0.0642782 0.101477 -0.195825 -0.0492349 -0.0730732 0.240704 -0.247241 -0.00724955 0.0542421 -0.0384221 0.00901395 0.215282 -0.0701364 0.0344923 0.0550704 -0.179625 0.0915432 0.0341463 0.160758 -0.0590474 -0.159806 -0.146742 -0.0330206 0.0583571 0.140296 0.11377 0.0126364 0.0894984 0.210143 0.278136 0.0627161 -0.120872 -0.123246 -0.269873 0.0537953 0.0174889 -0.0964828 0.157417 0.0644252 0.126788 0.20403 -0.0475575 -0.13888 -0.109413 -0.25848 0.213147 -0.066026 -0.114566 0.217265 0.00921677 -0.0170493 -0.0216404 0.133344 -0.11326 0.0642744 0.0569549 0.060721 -0.132689 0.124082 -0.00244189 -0.146442 -0.0853616 0.0128363 -0.264927 0.142264 -0.0142258 0.126151 -0.157345 0.271501 -0.0948559 -0.0854794 -0.265605 0.0346611 -0.312123 -0.11294 -0.0670548 -0.0185867 0.0217047 0.163679 -0.17707 -0.286785 0.0907452 -0.0623946 -0.105725 0.110158 -0.0434363 -0.0364354 0.0174511 -0.0312004 -0.104235 -0.102401 0.0699061 -0.169314 0.200128 0.0557441 0.0717249 -0.0977919 0.164853 0.093136 -0.0417707 -0.191854 0.114075 -0.357192 -0.0820815 0.0575279 0.138572 0.123934 0.178903 -0.072756 -0.260097 -0.11881 -0.0491999 -0.00512159 0.408438 0.113591 -0.207727 -0.164842 0.223335 0.0375815 -0.144507 -0.000890711 -0.0135677 -0.092762 -0.100824 0.030782 0.259342 0.0550638 -0.0850236 0.159808 -0.0814234 0.0247664 -0.0359726 -0.210832 0.0125059 0.088689 -0.036261 0.369923 -0.223234 -0.0541721 -0.222179 -0.0958918 0.137086 -0.123837 -0.233107 -0.0719097 -0.114432 -0.0270461 0.116064 0.331583 0.175519 -0.0746585 -0.245921 0.167993 0.101034 0.134535 -0.0727092 -0.00761312 0.123837 -0.102377 -0.120555 -0.111023 -0.0845844 -0.0348706 0.0908567 -0.0882976 -0.0133068 0.0401056 0.0689833 -0.178541 -0.0653377 -0.00818849 0.184576 0.00325932 0.154684 -0.0397378 -0.111078 -0.325057 -0.0966832 -0.0331922 -0.234288 0.0871743 0.0473665 -0.166141 0.251118 0.0355816 0.0503757 -0.11857 -0.0817988 -0.0812891 -0.257255 0.205974 0.0418223 -0.0608198 0.0796155 0.0167594 0.0148674 0.119414 -0.0918817 -0.111178 -0.186488 -0.0127044 0.10313 0.0901575 0.177475 0.0220073 -0.186404 -0.102493 -0.13195 -0.257254 0.00655741 -0.00520054 -0.291708 0.0783012 -0.0955694 -0.278225 -0.111604 0.069839 0.224802 -0.086207 0.0475826 0.149687 -0.0449464 -0.00107651 -0.0768871 0.206416 -0.0706451 -0.00772091 -0.258587 0.280142 -0.0272352 -0.0662615 -0.00341108 0.01503 0.121665 -0.0810017 0.0318732 -0.0665191 -0.0652285 0.0192874 0.0476946 -0.000520999 -0.119053 0.0926169 0.153743 -0.268628 0.0918193 -0.102089 -0.055581 0.0492609 0.270825 -0.0527524 -0.0879676 0.0355807 0.0633293 -0.138597 0.0492132 -0.133586 -0.11978 -0.040681 -0.250233 0.0373796 -0.0703623 0.122591 0.0228053 0.00969002 -0.142344 -0.147329 -0.00857474 -0.033378 -0.123267 0.197776 -0.198337 -0.113889 -0.0337591 -0.181901 -0.259501 0.410385 0.148305 -0.0104342 -0.195272 -0.11774 0.0579316 -0.144234 -0.0155231 0.145898 -0.0614203 -0.0432477 -0.275392 -0.0202679 -0.0339226 -0.0772044 0.0350956 0.0380698 -0.0206561 0.123833 0.0863653 0.0399382 0.0529434 0.210783 -0.0115726 0.0403732 0.072495 0.143319 0.25276 -0.100332 -0.115221 -0.0748991 0.0868613 0.0608619 0.0605069 0.0947822 -0.0117598 -0.0921692 -0.0602624 0.105859 -0.00584635 -0.0551068 0.135679 0.241835 0.122883 -0.082889 0.0415901 0.0490099 0.0635298 -0.107 -0.25705 0.0566897 0.0434812 -0.133199 -0.0272319 0.0203644 0.0324603 0.122427 0.0759283 -0.00482326 0.00702404 -0.0348531 -0.0997728 -0.111264 -0.194982 0.3551 -0.191665 -0.0648053 0.0296237 0.0404332 -0.0637269 0.105627 0.081578 -0.108371 -0.0422539 0.223592 -0.0700059 0.0512092 0.0702172 0.0239263 0.250638 0.0585699 -0.172794 0.05506 -0.261762 -0.133269 -0.178119 0.00568608 0.0321838 0.163202 -0.104638 0.0578532 0.0447549 -0.0623285 -0.192231 0.148559 -0.0215813 0.159556 0.0909711 -0.0493011 0.191051 0.199831 -0.0762049 -0.079677 0.132949 -0.0213492 0.302156 -0.153001 0.0115679 -0.231096 0.107229 -0.239408 0.180853 -0.0305844 -0.189768 -0.124914 0.0852912 -0.0983824 0.0377219 -0.0184071 0.0731177 -0.334981 0.206807 -0.0530048 -0.0545792 0.13315 -0.0879387 -0.128027 0.0133545 -0.197948 -0.354829 0.133449 -0.0935104 0.0501086 -0.226169 0.00974392 0.0640598 -0.042981 -0.182215 -0.334421 0.15881 0.0472355 0.314072 0.0369078 0.0665764 -0.00057726 -0.096357 -0.132198 0.0554259 -0.190051 -0.115122 -0.359356 0.0565838 -0.132642 -0.0301608 -0.116801 0.136013 0.41603 0.101322 -0.0462498 -0.130802 0.143151 -0.084366 0.233049 0.0361924 0.144257 -0.0731167 -0.151356 0.30627 -0.0761732 -0.00735073 0.144665 -0.0115433 -0.220761 -0.249709 0.0982259 -0.0301603 0.046837 -0.263183 0.0770658 0.066644 0.20571 -0.032857 0.0993695 -0.0255531 0.0154659 -0.0360246 -0.0801999 -0.103615 -0.242115 0.0161028 -0.0210551 -0.164975 0.0703761 -0.0586895 0.102338 0.121693 -0.159051 -0.0773245 0.113354 0.1067 0.136876 0.112494 0.406687 0.0826271 -0.177534 0.0331241 0.0998305 -0.0515898 0.0332726 0.0493678 0.0649732 -0.109799 -0.113985 0.151209 -0.0672865 0.236064 0.0501833 0.056884 0.121067 -0.150727 -0.0624334 0.107499 0.316869 -0.131054 0.396239 0.120934 0.236567 0.199648 0.231965 0.0781055 4.96415e-05 -0.303659 0.220609 -0.231559 0.208143 -0.201874 0.258482 0.00153369 -0.0991469 0.0247503 -0.140688 0.00928154 -0.100239 -0.0204684 0.182399 -0.0657925 -0.0702082 0.272307 0.198712 0.00232606 0.0551408 -0.20495 0.0266542 -0.117156 0.192139 0.174805 0.115222 -0.209124 -0.0622765 -0.0476469 0.102721 0.121601 -0.00658814 0.21631 0.0724653 0.102039 -0.0884451 0.346938 0.138459 0.425163 -0.0798477 -0.200815 0.146978 0.0724445 0.11208 -0.0115206 0.247204 -0.391399 0.0744547 0.0440684 0.0666482 -0.180412 -0.0916732 -0.299843 -0.11012 -0.184002 0.0508348 -0.0972179 0.132568 0.140093 -0.0241168 -0.0102507 -0.0915148 -0.1106 -0.114965 -0.189475 0.0959154 -0.0794028 -0.0875903 0.216116 -0.091207 -0.146375 0.0842596 0.0475925 0.00315342 -0.0870249 0.0618793 0.24833 0.0899811 -0.197507 0.0812244 0.018539 0.0517728 -0.18796 0.228717 -0.237785 0.187284 0.00598157 0.0852094 -0.230753 -0.0276097 -0.0388707 -0.10346 0.283343 -0.0410252 0.0555843 -0.161303 0.216011 -0.104818 -0.0526644 0.0525037 -0.0780412 0.128666 0.0128969 -0.0946252 0.168807 0.101953 0.194747 -0.0104654 0.18957 -0.0278971 0.175356 -0.125026 0.147485 0.105436 0.0663225 -0.0241787 -0.0563762 -0.0371801 0.159082 -0.0947874 0.145445 0.151983 0.2084 -0.268846 -0.137495 0.0108308 -0.355554 0.179794 0.109851 -0.018886 0.0238208 -0.0735659 0.0559512 -0.0752726 0.0739569 0.0624249 0.0964861 0.109938 -0.182622 0.0112535 -0.202972 0.243553 0.0857626 0.0947359 0.0178175 -0.207607 0.168366 0.13553 0.0491035 0.160227 0.150586 -0.0817983 0.139617 0.114728 0.311442 0.229244 -0.156911 0.215613 -0.0283836 0.0713854 -0.234536 -0.0242227 -0.109738 0.205584 0.0742944 -0.153806 -0.166885 0.190986 -0.0292218 0.0309059 0.0269724 -0.0146792 0.0731555 -0.192508 -0.0669097 0.110092 -0.136361 0.0650966 0.178902 0.231491 0.0282214 -0.0597901 -0.0795801 0.21341 -0.202651 0.0148655 0.269681 -0.00632858 -0.161796 0.0694437 0.1176 -0.202137 -0.112207 -0.124594 0.238066 0.126562 -0.130521 0.00518636 -0.104274 0.0695908 -0.0783981 0.0555025 -0.088482 -0.270144 0.0270092 -0.195316 -0.00595462 -0.0343656 -0.156269 0.130833 0.030365 0.0667815 0.252851 0.0552141 0.0148244 -0.0694059 -0.164906 -0.0928845 -0.0378401 0.0266159 0.0689487 0.0308066 -0.167802 -0.0103845 0.0549574 -0.0165458 0.100449 0.17631 0.182144 -0.0273681 -0.202963 0.0943926 0.116455 -0.0926779 0.0693095 0.108085 0.0387889 -0.00101883 0.0936839 0.219346 -0.0527599 -0.241476 -0.106842 0.0670094 -0.21904 -0.12513 0.155662 0.180691 -0.0303735 0.12865 -0.0794051 0.11055 -0.00546955 -0.189434 0.103899 -0.283352 0.0799209 -0.0273307 0.0201578 -0.13632 -0.0521661 0.112971 0.0784804 0.0776001 0.145728 -0.142098 -0.0788028 -0.023123 -0.199039 -0.197867 0.316198 0.0154938 0.132348 0.103017 0.156686 0.0598242 0.135157 -0.027578 -0.0691615 0.286592 0.258736 -0.218547 0.129455 0.0184175 0.157354 -0.12434 -0.211229 0.0872613 0.058846 -0.243383 0.106733 0.021351 -0.107055 0.0314841 0.00959499 0.067911 -0.14378 -0.0140883 -0.10394 -0.0467519 0.045526 0.187597 0.11605 0.276891 0.0557138 -0.164615 -0.119186 -0.0221675 0.059844 0.0323908 0.0516527 -0.322341 -0.117189 0.18402 0.0209052 0.300348 -0.206845 -0.0293552 0.0417201 0.102274 -0.0188283 -0.227095 -0.227052 -0.117772 0.122728 -0.073633 -0.144566 -0.13537 -0.196923 0.132268 -0.333835 0.123745 0.425323 -0.0897154 0.134301 -0.175006 0.119882 -0.18147 -0.0481504 0.000999449 -0.0121669 0.328804 -0.171733 -0.020658 0.240593 -0.000776299 -0.14559 0.0797493 -0.0242269 0.0007016 -0.0481636 -0.200469 0.0905995 0.0162777 0.191842 -0.0333747 0.0440107 -0.0932182 -0.0458787 -0.0231968 0.224621 0.0275577 -0.141127 -0.310506 -0.126064 0.0342522 -0.0608175 0.109451 0.220524 0.0248524 -0.22943 0.117518 0.00242723 -0.0847229 -0.0217997 0.0124917 0.0141734 -0.038666 0.222906 0.016038 -0.185901 -0.075717 0.312021 -0.148859 -0.0393548 0.209641 0.103961 0.0703964 -0.0433143 0.0453605 -0.0883652 -0.0425796 0.113328 -0.485084 0.0813549 0.139098 -0.219957 0.223945 -0.100419 -0.0323095 0.0338645 0.459821 0.0702754 0.00954393 -0.122645 0.0620297 0.0144755 -0.0135862 0.211229 -0.259969 0.00601702 0.232329 0.175825 0.058932 -0.0491924 0.213036 0.277462 0.0192382 -0.0700328 0.0877118 -0.0501611 0.00148925 -0.0946517 0.140213 0.0857645 -0.119841 -0.046794 0.194676 -0.351489 0.00398361 -0.267541 -0.194838 -0.0147894 0.00379119 0.0829122 0.123057 0.175603 0.0981417 -0.00793319 0.0354398 -0.141051 0.0573894 0.0393156 0.0293769 0.103988 0.123078 0.263545 -0.0596417 -0.120604 0.112021 -0.223322 0.147396 -0.180851 -0.041792 -0.00488662 0.15314 0.0526181 -0.0443823 -0.134309 0.198219 0.00571445 0.000698763 -0.0789787 -0.317432 -0.259062 -0.154051 -0.198566 0.121075 0.0554732 -0.0163529 -0.159193 0.128008 -0.155149 0.275723 -0.21668 -0.0134349 -0.128469 0.0661712 0.0872381 -0.0793664 0.0808206 -0.00114932 -0.0226663 -0.0236119 0.0831774 -0.175488 -0.204981 -0.151825 -0.12479 -0.0383478 -0.122585 -0.21774 -0.102187 0.0891387 -0.0057882 0.0893055 -0.0582895 0.102142 0.201234 0.239349 -0.275373 -0.153886 0.0953415 0.206649 0.110061 0.0281155 0.0499531 0.0481135 -0.0691175 -0.00979451 0.0959017 0.0216621 -0.00754031 -0.00637444 -0.165235 0.250762 0.167484 -0.0189262 -0.0117579 -0.219842 -0.147244 0.0676165 0.11769 0.0578877 -0.135813 -0.0194694 -0.146497 -0.12861 0.200543 -0.132798 0.00938603 0.136467 -0.0811346 0.0457964 -0.101435 0.0429073 0.104803 -0.237788 -0.108962 -0.047532 0.28322 0.0688589 -0.158353 0.144847 -0.241027 -0.186557 0.150914 -0.134522 0.10807 -0.170633 -0.102077 0.132181 -0.0443942 0.0619233 0.0718729 -0.155875 -0.103971 -0.109307 0.028872 -0.219709 0.070473 0.187409 0.0271411 0.0689038 0.0687852 -0.146285 0.11933 0.230348 -0.0523009 -0.0169372 0.184161 0.190255 0.225301 0.0272173 -0.194168 -0.231106 -0.270676 -0.0285306 -0.0255848 -0.00598062 -0.323163 0.0383909 0.046308 -0.132507 0.123174 0.0126874 -0.349619 0.0124326 0.0550813 -0.0952285 0.000864708 0.0823226 0.10356 -0.0632655 -0.254296 -0.0620344 0.147837 -0.158458 -0.345639 -0.00273927 0.00416847 0.0143483 0.140359 -0.106814 0.0271544 0.202575 -0.0254902 0.185869 -0.237698 -0.0234412 -0.15081 0.0874584 -0.0279614 -0.0620249 0.162078 0.153699 0.188986 -0.0184236 -0.26367 0.0785749 -0.0351282 0.107813 0.0334768 0.0699198 -0.00479537 0.11276 0.038432 -0.0288743 0.181342 0.00119092 -0.0569974 -0.281848 0.11874 0.170113 -0.233968 0.137768 -0.261759 0.416073 0.089558 0.344923 0.0362818 -0.0273912 0.215962 -0.149518 0.141393 0.124491 -0.137242 -0.0928447 0.0688755 -0.153469 0.171856 -0.301778 -0.0336621 -0.0897433 -0.290689 0.111154 -0.0509033 -0.244979 0.0288308 0.0049216 -0.256395 -0.0495796 0.136545 0.0814542 -0.0323171 -0.026613 0.0890744 0.132465 -0.0760735 -0.130417 0.0388334 0.0456073 -0.0384651 0.138219 0.074032 0.0720899 -0.00546671 -0.233369 0.282775 -0.0515142 -0.0202013 0.259886 -0.0558897 0.152057 0.0356998 0.258713 0.0277718 -0.100479 0.16592 -0.111213 0.111444 -0.0683247 -0.0593878 -0.0112663 0.0330494 -0.144412 0.0423442 -0.0981739 -0.0693898 -0.257962 0.129988 -0.0507544 -0.0821094 -0.0481371 -0.133093 0.290507 0.191812 0.0318372 -0.125672 -0.0171277 -0.0457184 0.237663 0.232425 0.00192231 -0.0432515 -0.0324774 0.0997879 0.116465 0.215165 0.00859791 0.124717 0.233858 0.212395 0.0459037 -0.0398815 0.139336 -0.139208 -0.0812745 0.231621 0.0795749 -0.188626 0.118318 0.159456 -0.00286455 0.145095 0.204955 -0.13288 -0.0626788 0.101604 0.0292374 0.0545589 0.0968109 0.142542 -0.229452 0.360384 0.244948 0.20341 0.191988 -0.0362114 -0.200172 -0.100477 -0.0292015 0.368973 0.108659 -0.00924467 -0.128025 0.088741 -0.098389 0.0963854 -0.12543 -0.211768 -0.11989 0.078418 -0.151423 0.000230715 0.127556 -0.118485 0.0463968 -0.06799 0.147623 -0.16367 0.132874 0.0890058 0.216168 -0.0295372 -0.0993123 0.200125 -0.0428884 0.0111821 -0.0225836 0.19162 0.286213 -0.0779357 0.128779 0.0714171 -0.0862481 0.170184 -0.230623 -0.0227505 -0.00775637 -0.110004 -0.188617 -0.0924183 0.0689913 0.188282 0.0283973 -0.0162025 0.0481906 -0.0288266 0.318037 -0.208205 -0.123137 -0.0190623 0.203613 0.050553 -0.109999 0.0370264 0.0127229 0.252793 -0.0460144 -0.209697 0.13147 -0.0257602 -0.0432827 0.153301 -0.00913829 -0.211805 -0.0405798 0.00574612 -0.152222 -0.0625488 -0.013051 0.0650881 0.101084 -0.0974784 0.0475551 -0.0251555 0.031685 -0.196519 -0.0452452 0.167509 -0.0912269 -0.101469 -0.170259 0.27932 -0.0288493 -0.0675002 0.0198727 -0.0270494 0.0204618 -0.0908771 -0.0140788 -0.128821 -0.00949666 -0.104669 -0.168865 0.256488 -0.118186 -0.179135 -0.0998735 -0.0132273 0.0772758 -0.0836133 -0.0898814 -0.143594 -0.23947 -0.26311 0.128765 0.158051 -0.228644 -0.233179 -0.107326 -0.165852 0.214161 -0.296517 0.0995038 0.053437 -0.240914 -0.0961948 0.0342224 0.141364 -0.0493583 -0.00228256 -0.092649 -0.197502 -0.154182 0.00652053 -0.154343 0.253088 0.350799 0.0855092 0.443295 -0.137914 0.229117 -0.0945406 0.0427082 -0.0923417 0.17835 -0.00286219 0.0450367 -0.0985337 -0.233266 -0.0524233 -0.0546354 -0.140244 0.0115707 0.252932 0.0967683 -0.059427 0.0933705 -0.0974969 -0.143455 0.130494 -0.019146 -0.120513 -0.136879 0.0283642 0.124196 0.107145 -0.00612198 -0.00248397 0.0468956 0.0341742 -0.175098 -0.0377767 -0.0752357 0.0756158 -0.248304 -0.103 0.119359 -0.103918 -0.119125 0.11184 0.0124175 -0.235092 -0.0608454 -0.121057 0.0576513 0.200543 0.294321 0.22292 -0.068615 -0.0743218 -0.104181 0.208665 -0.00144291 -0.207956 -0.176669 0.0266376 -0.293231 -0.0311919 0.115667 -0.00256292 0.142696 0.0509658 -0.215477 0.432712 0.109552 0.0141289 -0.193798 0.221101 0.115164 0.00184052 0.0806377 -0.0514158 -0.139781 -0.0273312 -0.156225 0.129448 0.0326617 -0.0936882 0.0214645 -0.0928145 0.0501479 -0.140274 0.180166 -0.181695 0.0663527 0.272686 -0.263613 -0.0522701 -0.0479107 0.197249 0.0477305 0.0339761 -0.0734756 0.148443 0.105067 0.190696 -0.0808783 0.0882687 -0.12141 -0.170425 -0.0931114 -0.120965 0.0827368 -0.0646143 0.0724969 -0.109212 0.0465642 0.0670033 -0.019937 0.13743 0.0187583 0.144433 -0.120223 0.0442348 -0.0800902 -0.0659821 -0.14649 -0.11542 0.0222437 0.0491437 -0.191439 0.109405 -0.035705 0.149096 -0.0871558 -0.255155 0.112547 -0.170917 -0.17203 -0.0343675 0.137349 0.195896 0.322521 -0.00153652 -0.123892 0.134037 0.130984 0.162054 0.105335 0.119377 0.330642 -0.0820508 -0.0384778 0.171486 0.0881023 0.0274645 0.125446 0.0989053 0.0483206 -0.0520338 -0.178258 0.185532 -0.00800363 -0.0992717 0.00515752 -0.18456 -0.0319644 0.0829065 0.0557115 -0.112333 -0.192358 -0.148755 0.390387 0.109165 0.0741734 -0.378074 -0.172359 0.0351599 -0.0414166 -0.0215803 0.20614 0.0585481 -0.11775 -0.44431 0.150105 -0.176416 0.140809 0.148968 0.103148 0.0801895 -0.000286975 0.0171949 -0.190607 0.0392915 -0.201756 -0.284025 -0.0240151 0.110433 0.113229 -0.0732822 0.157719 0.128396 0.0354114 -0.173899 0.115469 -0.0134278 -0.124112 0.181217 -0.160149 0.259126 0.0200802 0.169742 0.171525 -0.125313 0.29031 -0.199451 -0.0223987 0.162831 -0.0756286 -0.0146461 0.0869875 0.0808561 0.0695941 0.0592601 0.135637 0.193922 -0.106045 -0.0804088 0.211635 0.0499564 -0.131941 0.0428647 0.0417844 -0.0757217 -0.152365 0.109438 0.0364354 0.38898 -0.123527 -0.0660974 -0.164655 -0.0710323 0.0363995 0.0333738 -0.000858562 0.0930017 0.02908 0.214387 -0.0344082 0.074414 -0.185067 0.0241957 0.272213 0.0246562 0.0510395 0.246836 0.0921119 0.135182 0.0414568 0.0329199 0.116822 0.00181924 -0.185762 -0.131811 0.0331057 0.0759321 -0.28517 -0.268826 0.106839 -0.124974 -0.165988 0.138759 -0.103704 0.230241 -0.0328022 0.024252 -0.0984864 -0.104444 0.0365092 0.356289 -0.0660993 0.234575 0.0498509 0.0713812 -0.082568 0.392852 0.0678023 0.25646 -0.0713977 -0.168068 -0.0168455 -0.247769 -0.139926 -0.398064 0.0454277 -0.0793304 -0.237232 0.145361 -0.0529741 -0.135903 -0.018738 0.222865 -0.227154 -0.19721 -0.288506 0.204018 -0.104329 -0.172749 -0.050796 0.0245106 -0.432514 0.0908525 0.0147033 0.116421 -0.184537 -0.0495181 -0.260913 -0.0900213 -0.119029 -0.0340735 -0.0245952 0.197047 -0.0483158 -0.0277591 -0.0580257 -0.139372 -0.131214 0.0103188 -0.209071 -0.0490652 -0.141258 0.0239679 0.0912141 0.106864 -0.00265133 -0.00669782 -0.139682 -0.0859049 -0.0341808 0.071506 -0.108312 -0.158237 0.217393 0.145381 -0.0327833 -0.12576 0.118697 -0.0352062 0.0133573 -0.247545 0.228568 -0.140113 0.029263 -0.0962487 -0.0832412 -0.066331 0.0238913 -0.264621 -0.239426 -0.171085 -0.0812097 0.0283879 0.0197871 0.238903 0.116892 0.241366 0.170092 -0.0997804 0.00759515 0.0863904 -0.00341817 0.0662109 -0.155495 0.104992 -0.13005 -0.00766843 0.376858 0.0550458 -0.181611 0.215662 0.316209 -0.0949448 -0.146489 0.0271203 0.152646 -0.0855999 0.00909574 -0.0860197 0.0380202 0.317364 0.107795 -0.0668671 -0.264066 0.137219 -0.008579 0.17002 0.180114 -0.0285628 -0.0604132 0.124502 0.0541849 0.00513671 0.0438046 -0.0803289 0.0555782 -0.109897 -0.101635 -0.0133219 0.0127163 -0.0896786 0.0880234 0.28664 -0.225385 0.0732203 0.148376 0.0478043 0.298809 0.0133082 0.135713 -0.124731 0.00127555 -0.531213 -0.193855 0.123674 0.329985 0.222589 0.094352 0.0424156 0.137075 -0.0166167 -0.285558 -0.0623535 0.0125144 -0.0553701 0.105264 0.0335983 -0.00225656 -0.0116175 0.172371 0.212918 -0.0720152 0.00371366 0.0504457 0.0423801 -0.0939345 0.124545 0.0207927 0.15502 -0.394515 -0.0609167 -0.0202528 0.0417183 0.00316524 -0.0640149 0.0345703 -0.0673943 0.053037 0.0318552 -0.0672931 0.0902918 0.0677682 -0.113027 0.00301395 0.121351 0.177479 0.130567 -0.0447667 0.0760555 0.157325 -0.17594 0.106509 -0.126121 0.22182 0.0952493 -0.0251101 0.093397 -0.0629554 -0.179721 -0.0695047 -0.240678 0.0146353 -0.0105032 -0.232035 -0.0933298 0.119252 0.122477 0.314027 0.0337402 -0.0570939 -0.0231448 0.233953 0.0990102 0.0799493 0.241759 -0.0786667 0.159215 -0.0105216 -0.024686 0.123226 0.229977 -0.0185276 -0.270637 -0.0242747 -0.0569851 -0.111426 -0.148569 -0.241942 0.0357561 0.063769 0.0940168 0.0721461 0.0636456 0.13807 0.352608 -0.0205639 -0.256909 0.153615 -0.0800372 -0.043659 -0.127064 -0.419713 -0.0896814 0.0349174 -0.0866599 -0.0663069 -0.0947193 -0.0115688 0.295313 -0.0104597 -0.0695066 0.285274 0.131714 -0.0611616 0.0268509 -0.0779844 0.202441 0.0591098 -0.0851045 -0.285913 0.118142 -0.170239 0.112856 0.194675 0.049798 -0.112529 -0.0857744 -0.0297788 -0.190948 0.13432 0.00214782 0.111797 -0.138302 -0.17698 -0.230141 0.0565667 -0.0109235 0.246692 0.179318 0.261324 -0.335717 0.0625805 -0.11591 -0.0364728 -0.475317 -0.230606 0.271831 0.00799086 -0.160375 0.12731 0.0544359 0.213836 -0.163095 0.0248491 0.0423002 0.181484 -0.093284 -0.00434907 -0.0387643 -0.0963305 -0.0705661 0.375287 -0.0585477 -0.0776544 0.141754 -0.0388929 0.00230951 0.0382571 -0.0652521 0.056162 0.353189 0.242781 0.128528 -0.254783 -0.0347405 0.088811 -0.0230691 -0.148226 -0.0189862 -0.0609375 0.084305 -0.082134 0.199399 0.38946 0.0285921 -0.0629497 0.193494 -0.268248 0.0593452 0.0129493 -0.237123 -0.136035 0.115778 -0.0811293 0.10266 0.309398 -0.18876 -0.103553 0.0702725 0.130189 0.173209 -0.101939 -0.0546019 -0.121128 -0.127469 0.00129352 -0.191473 0.0688093 -0.193308 0.0592176 -0.15459 -0.0277813 -0.145877 0.0541962 -0.317795 0.0353462 0.0920793 -0.027699 0.201626 0.23786 0.079077 -0.00256812 0.072087 0.128101 0.0598105 -0.0337132 -0.183552 0.171292 -0.30892 0.036582 -0.15125 0.159495 0.0564897 -0.017036 0.0871658 0.15477 -0.201156 -0.134545 0.0602898 -0.0406342 0.0132533 -0.240897 0.104212 -0.0350564 -0.0756163 0.210559 -0.156003 -0.0982831 0.123042 0.437713 -0.226396 -0.108003 -0.111306 -0.112553 -0.262841 -0.0397463 -0.0863531 -0.0234497 0.0741587 -0.0449724 -0.259796 0.00085147 0.13901 0.136645 0.11202 0.126476 0.267357 -0.111321 0.188282 -0.164072 -0.140134 0.136909 -0.215373 0.0981082 -0.104189 -0.0495673 -0.16286 0.243446 0.0454201 0.286419 -0.38025 -0.0244993 -0.0434349 0.00618391 -0.0701671 -0.184224 0.0141937 -0.17095 -0.0114365 0.109744 0.00428241 0.0412176 -0.0277236 -0.0681313 0.0127971 0.0900105 -0.0391099 0.064221 -0.0520886 0.204128 -0.0374084 0.0163864 -0.212929 -0.0564481 -0.124682 0.188119 0.175884 -0.0337992 0.0107821 0.0971428 -0.0559413 -0.078895 -0.0375399 0.158914 -0.253631 0.220195 -0.106174 -0.0044753 0.141681 0.0798571 -0.167444 -0.153391 0.0515255 -0.210422 0.282363 0.114259 -0.126859 0.0760494 -0.00930991 0.0980571 -0.186924 -0.0195985 -0.196958 0.119421 0.0285188 0.066582 -0.116214 0.0242515 0.0752877 -0.0922363 0.0672108 -0.155589 -0.0701865 0.261387 -0.134416 0.0460891 -0.0110171 -0.145343 -0.202051 0.340294 0.132741 -0.0188614 -0.00270144 -0.171129 0.0461931 -0.198647 0.030208 0.177149 -0.0795872 -0.179479 0.273207 0.00292885 0.1668 0.0797777 0.112913 0.0280002 -0.088029 0.174049 -0.14097 0.16201 -0.152077 -0.0139124 -0.00277756 -0.0913829 -0.0917489 -0.0595225 -0.0246099 0.0692802 0.0862202 0.167952 -0.0190382 0.0880432 -0.0677786 -0.0484189 -0.273443 0.142266 -0.146011 0.193933 -0.110679 -0.133296 0.16972 0.262147 -0.308368 0.0415731 0.162254 0.139216 0.0473641 0.11404 0.00840313 -0.0155212 0.214853 0.294018 0.0160687 0.125277 0.0416984 0.127378 -0.111474 -0.0940347 -0.233326 0.0996801 0.161063 -0.169225 0.0524091 0.0789097 0.244732 0.261048 0.205664 0.0460163 -0.0643397 -0.0478317 -0.00535325 -0.126509 -0.18735 0.0163883 0.218845 -0.0396409 -0.187348 0.181111 -0.0649283 0.0686239 0.0505374 0.0734311 -0.187433 0.198594 0.0202968 0.00269482 -0.137938 0.0514338 -0.0967726 0.00021464 0.0526313 0.0176582 0.276995 -0.0847839 0.0547286 -0.0819402 0.299068 -0.0146613 -0.111914 -0.346875 0.169631 -0.144333 -0.00642408 0.175846 0.0188784 0.069405 0.104227 0.116956 0.0546061 0.15209 -0.0714138 0.033951 0.136473 -0.167945 -0.0586904 0.00171712 -0.229006 0.00854449 -0.0128969 -0.14341 0.284359 -0.103323 0.194473 -0.260948 0.167201 -0.211783 0.0788057 0.0346663 0.037946 -0.203308 0.101098 0.159182 0.0403552 -0.242905 -0.116728 -0.270061 0.0360648 0.15183 0.148661 -0.00648224 -0.0512333 0.000713419 -0.0293726 0.0133791 0.028898 0.13781 0.0201734 -0.0595769 -0.0539925 -0.10344 -0.128528 0.0565176 -0.169613 0.0560921 0.147744 0.182451 -0.131144 0.042825 0.0691658 0.0552094 -0.0130912 -0.00280876 0.0824158 0.211551 0.139664 -0.193906 -0.179751 -0.0875672 -0.034308 0.0559507 0.240585 -0.0457808 0.0640101 -0.0550477 0.0118397 -0.131948 -0.0950663 0.043615 -0.00349429 0.11115 -0.145979 -0.000494524 -0.17871 -0.0485759 0.0675692 0.151593 -0.0119324 -0.0420085 0.00705997 0.0713112 -0.0388216 0.0792193 0.0583373 -0.253727 0.130051 0.0395889 -0.000910567 0.0286067 -0.137252 0.0960837 0.206876 -0.0741606 -0.15058 0.0508745 0.355752 0.274078 0.0725835 -0.248475 -0.193758 -0.22909 -0.0756948 -0.0733276 -0.191542 -0.291046 0.0245777 0.144664 -0.0471377 -0.0416648 0.147886 0.0112062 -0.00101458 0.203868 0.0538067 0.25569 -0.17107 -0.185605 0.068745 -0.0623133 -0.0731215 0.106048 -0.0325076 -0.156313 0.0275298 0.0603783 0.213529 0.0951576 -0.00950328 -0.041401 -0.098076 -0.018687 0.0232677 0.0627587 -0.132767 -0.0916727 -0.125641 -0.0303035 0.0623393 -0.0654459 0.0968331 -0.085989 -0.0903362 0.0133819 -0.00744859 -0.240712 0.08276 -0.0933785 -0.0561398 -0.300299 0.265897 0.0552004 -0.00332551 -0.20765 -0.0528167 0.0309598 -0.0144542 -0.0871752 -0.0560987 0.169054 -0.0880872 0.121658 0.224158 0.285738 -0.0694877 -0.0795838 -0.309277 0.010516 -0.0823326 0.0229434 -0.281556 -0.153219 0.053489 -0.000399969 -0.0975087 0.0967943 0.227662 0.126001 -0.0521264 0.0846993 0.166392 0.0481877 -0.168964 0.0765401 0.0174436 0.0240534 -0.113159 0.0878461 -0.144105 0.00400867 0.165893 0.213715 -0.0644597 -0.00295769 -0.0756466 0.0671323 -0.196505 -0.0130117 -0.11677 -0.0342238 0.0582021 -0.0148102 -0.0655131 0.0685596 -0.177622 -0.315001 0.0240341 0.13589 -0.057013 0.0269397 0.24899 0.193302 -0.143638 -0.157574 0.00334158 -0.0348829 0.0505166 0.0328632 0.181159 -0.0343619 0.314936 0.179536 -0.0636461 0.158707 0.135011 0.0302898 -0.0528115 0.179967 0.109943 -0.233451 0.184267 0.0792709 0.217835 -0.313619 0.142054 0.102188 0.10282 0.282398 -0.0602794 -0.10539 0.00906218 0.151699 0.165203 -0.0548104 -0.0671063 -0.118246 -0.11666 -0.260046 0.131527 -0.0498193 -0.0967385 0.230867 -0.215463 -0.133047 0.00460484 -0.162077 -0.227986 -0.129595 0.0143213 -0.201768 -0.126676 0.0437725 0.288301 0.111813 0.0267038 -0.0308605 -0.172411 0.19933 0.155938 -0.0443039 0.199843 -5.43693e-05 -0.00972217 0.0688542 -0.19225 0.0160621 -0.163006 -0.0738524 -0.00480482 0.135303 -0.222457 0.0633875 0.323316 -0.169894 -0.0546676 -0.132801 -0.0531382 0.167088 0.17432 0.044128 0.0361452 0.0246907 0.142161 -0.0279902 0.0766786 -0.142245 -0.323907 -0.133556 0.198729 0.136517 -0.102688 0.147002 0.263714 0.121616 -0.0480686 0.0176544 0.0811695 0.219485 0.179754 0.0473244 -0.0121749 0.0214461 -0.0197881 0.0442873 0.22048 -0.00899788 0.282454 -0.0167793 0.0192174 -0.0880792 -0.0913054 -0.162547 -0.137081 -0.184097 0.016966 -0.0696423 -0.0616557 0.113228 0.184917 0.119446 -0.0464054 0.101384 -0.0708181 -0.137497 -0.0183919 -0.0453955 -0.213752 0.388304 -0.0652705 0.00665669 -0.0802249 0.21527 -0.140355 -0.0413438 -0.199451 0.0100545 -0.26913 -0.095141 -0.0467349 0.18656 -0.0434051 -0.0508433 -0.0636395 -0.153835 0.0930575 -0.0736803 -0.0851224 -0.207662 -0.140883 0.0664619 -0.060408 0.0402474 -0.0793134 0.0838473 -0.133711 -0.0282356 -0.165986 -0.0498661 0.107799 0.109005 0.0763538 -0.120761 -0.0380703 0.103833 0.0876371 0.0407585 -0.269769 0.183944 -0.17123 0.0348989 -0.11198 -0.17532 -0.143628 -0.101337 -0.15483 -0.0664109 -0.161477 -0.0436136 -0.00786227 0.121417 0.00381058 0.0617034 -0.211147 -0.0300175 0.0873549 -0.022646 0.0562746 0.202789 0.0730411 0.0791706 -0.0517288 -0.0788893 -0.199925 -0.175602 0.200314 -0.048339 0.0240378 0.187767 0.0931889 -0.139604 0.0713363 -0.277942 0.0299518 0.0886058 -0.0573766 0.0233991 -0.129208 -0.0844497 -0.0302071 0.103542 -0.126947 -0.108886 -0.0872764 -0.104393 0.145772 -0.194817 0.0724359 -0.0827146 -0.00166559 0.0459217 0.0687114 -0.0352923 -0.00570877 -0.0400527 0.119904 -0.00873501 -0.235909 -0.0969749 0.264212 0.100791 0.0635024 -0.0790075 0.0601381 0.195397 0.0256174 -0.0532185 -0.195821 0.0696291 0.0136897 -0.23053 -0.243424 -0.13356 -0.173924 0.177478 0.00807644 -0.150189 0.0404091 -0.205181 -0.0389251 0.102915 -0.0414431 -0.0856004 -0.258203 -0.00743015 -0.272426 -0.13401 0.0912401 